FANN_FLO_2.1
num_layers=3
learning_rate=0.700000
connection_rate=1.000000
network_type=0
learning_momentum=0.000000
training_algorithm=2
train_error_function=1
train_stop_function=0
cascade_output_change_fraction=0.010000
quickprop_decay=-0.000100
quickprop_mu=1.750000
rprop_increase_factor=1.200000
rprop_decrease_factor=0.500000
rprop_delta_min=0.000000
rprop_delta_max=50.000000
rprop_delta_zero=0.100000
cascade_output_stagnation_epochs=12
cascade_candidate_change_fraction=0.010000
cascade_candidate_stagnation_epochs=12
cascade_max_out_epochs=150
cascade_max_cand_epochs=150
cascade_num_candidate_groups=2
bit_fail_limit=3.49999994039535522461e-01
cascade_candidate_limit=1.00000000000000000000e+03
cascade_weight_multiplier=4.00000005960464477539e-01
cascade_activation_functions_count=10
cascade_activation_functions=3 5 7 8 10 11 14 15 16 17 
cascade_activation_steepnesses_count=4
cascade_activation_steepnesses=2.50000000000000000000e-01 5.00000000000000000000e-01 7.50000000000000000000e-01 1.00000000000000000000e+00 
layer_sizes=81 11 3 
scale_included=0
neurons (num_inputs, activation_function, activation_steepness)=(0, 0, 0.00000000000000000000e+00) (0, 0, 0.00000000000000000000e+00) (0, 0, 0.00000000000000000000e+00) (0, 0, 0.00000000000000000000e+00) (0, 0, 0.00000000000000000000e+00) (0, 0, 0.00000000000000000000e+00) (0, 0, 0.00000000000000000000e+00) (0, 0, 0.00000000000000000000e+00) (0, 0, 0.00000000000000000000e+00) (0, 0, 0.00000000000000000000e+00) (0, 0, 0.00000000000000000000e+00) (0, 0, 0.00000000000000000000e+00) (0, 0, 0.00000000000000000000e+00) (0, 0, 0.00000000000000000000e+00) (0, 0, 0.00000000000000000000e+00) (0, 0, 0.00000000000000000000e+00) (0, 0, 0.00000000000000000000e+00) (0, 0, 0.00000000000000000000e+00) (0, 0, 0.00000000000000000000e+00) (0, 0, 0.00000000000000000000e+00) (0, 0, 0.00000000000000000000e+00) (0, 0, 0.00000000000000000000e+00) (0, 0, 0.00000000000000000000e+00) (0, 0, 0.00000000000000000000e+00) (0, 0, 0.00000000000000000000e+00) (0, 0, 0.00000000000000000000e+00) (0, 0, 0.00000000000000000000e+00) (0, 0, 0.00000000000000000000e+00) (0, 0, 0.00000000000000000000e+00) (0, 0, 0.00000000000000000000e+00) (0, 0, 0.00000000000000000000e+00) (0, 0, 0.00000000000000000000e+00) (0, 0, 0.00000000000000000000e+00) (0, 0, 0.00000000000000000000e+00) (0, 0, 0.00000000000000000000e+00) (0, 0, 0.00000000000000000000e+00) (0, 0, 0.00000000000000000000e+00) (0, 0, 0.00000000000000000000e+00) (0, 0, 0.00000000000000000000e+00) (0, 0, 0.00000000000000000000e+00) (0, 0, 0.00000000000000000000e+00) (0, 0, 0.00000000000000000000e+00) (0, 0, 0.00000000000000000000e+00) (0, 0, 0.00000000000000000000e+00) (0, 0, 0.00000000000000000000e+00) (0, 0, 0.00000000000000000000e+00) (0, 0, 0.00000000000000000000e+00) (0, 0, 0.00000000000000000000e+00) (0, 0, 0.00000000000000000000e+00) (0, 0, 0.00000000000000000000e+00) (0, 0, 0.00000000000000000000e+00) (0, 0, 0.00000000000000000000e+00) (0, 0, 0.00000000000000000000e+00) (0, 0, 0.00000000000000000000e+00) (0, 0, 0.00000000000000000000e+00) (0, 0, 0.00000000000000000000e+00) (0, 0, 0.00000000000000000000e+00) (0, 0, 0.00000000000000000000e+00) (0, 0, 0.00000000000000000000e+00) (0, 0, 0.00000000000000000000e+00) (0, 0, 0.00000000000000000000e+00) (0, 0, 0.00000000000000000000e+00) (0, 0, 0.00000000000000000000e+00) (0, 0, 0.00000000000000000000e+00) (0, 0, 0.00000000000000000000e+00) (0, 0, 0.00000000000000000000e+00) (0, 0, 0.00000000000000000000e+00) (0, 0, 0.00000000000000000000e+00) (0, 0, 0.00000000000000000000e+00) (0, 0, 0.00000000000000000000e+00) (0, 0, 0.00000000000000000000e+00) (0, 0, 0.00000000000000000000e+00) (0, 0, 0.00000000000000000000e+00) (0, 0, 0.00000000000000000000e+00) (0, 0, 0.00000000000000000000e+00) (0, 0, 0.00000000000000000000e+00) (0, 0, 0.00000000000000000000e+00) (0, 0, 0.00000000000000000000e+00) (0, 0, 0.00000000000000000000e+00) (0, 0, 0.00000000000000000000e+00) (0, 0, 0.00000000000000000000e+00) (81, 5, 5.00000000000000000000e-01) (81, 5, 5.00000000000000000000e-01) (81, 5, 5.00000000000000000000e-01) (81, 5, 5.00000000000000000000e-01) (81, 5, 5.00000000000000000000e-01) (81, 5, 5.00000000000000000000e-01) (81, 5, 5.00000000000000000000e-01) (81, 5, 5.00000000000000000000e-01) (81, 5, 5.00000000000000000000e-01) (81, 5, 5.00000000000000000000e-01) (0, 5, 0.00000000000000000000e+00) (11, 11, 5.00000000000000000000e-01) (11, 11, 5.00000000000000000000e-01) (0, 11, 0.00000000000000000000e+00) 
connections (connected_to_neuron, weight)=(0, 3.41736960411071777344e+00) (1, 3.87429779052734375000e+02) (2, 3.41059803962707519531e+00) (3, 1.54182312011718750000e+02) (4, 3.35100221633911132812e+00) (5, 1.30668697357177734375e+01) (6, 3.27837347984313964844e+00) (7, 1.91647930145263671875e+01) (8, 3.31294536590576171875e+00) (9, 6.33428466796875000000e+02) (10, 3.35489010810852050781e+00) (11, 1.37622184753417968750e+01) (12, 3.25811815261840820312e+00) (13, 6.16752958297729492188e+00) (14, 3.28888511657714843750e+00) (15, 1.66126747131347656250e+01) (16, 3.39919328689575195312e+00) (17, 4.72245101928710937500e+01) (18, 3.41593623161315917969e+00) (19, 5.65929183959960937500e+01) (20, 3.40266823768615722656e+00) (21, -5.24848785400390625000e+01) (22, 3.33051395416259765625e+00) (23, 2.20796852111816406250e+01) (24, 3.35534453392028808594e+00) (25, 2.69129924774169921875e+01) (26, 3.41638875007629394531e+00) (27, 1.75262313842773437500e+02) (28, 3.39159727096557617188e+00) (29, 1.67799510955810546875e+01) (30, 3.34949827194213867188e+00) (31, 2.35500736236572265625e+01) (32, 3.23978304862976074219e+00) (33, 1.62943000793457031250e+01) (34, 3.23864364624023437500e+00) (35, 1.42398538589477539062e+01) (36, 3.36884689331054687500e+00) (37, -2.20109191894531250000e+02) (38, 3.29404640197753906250e+00) (39, 8.70819473266601562500e+01) (40, 3.27099943161010742188e+00) (41, 1.79673824310302734375e+01) (42, 3.43480682373046875000e+00) (43, 1.64776134490966796875e+01) (44, 3.25335192680358886719e+00) (45, -1.65163314819335937500e+02) (46, 3.36455559730529785156e+00) (47, 2.02879409790039062500e+01) (48, 3.41813158988952636719e+00) (49, -5.86905860900878906250e+01) (50, 3.32353878021240234375e+00) (51, 1.24349880218505859375e+01) (52, 3.24435234069824218750e+00) (53, -6.88490371704101562500e+01) (54, 3.35827994346618652344e+00) (55, 1.63659172058105468750e+01) (56, 3.25088024139404296875e+00) (57, -1.03186141967773437500e+02) (58, 3.37273311614990234375e+00) (59, -2.35592212677001953125e+01) (60, 3.38186597824096679688e+00) (61, 1.89002029418945312500e+02) (62, 3.37821602821350097656e+00) (63, 1.41084838867187500000e+02) (64, 3.34725713729858398438e+00) (65, 2.15577831268310546875e+01) (66, 3.35615873336791992188e+00) (67, -1.81091251373291015625e+01) (68, 3.42723512649536132812e+00) (69, 5.12382659912109375000e+01) (70, 3.31583976745605468750e+00) (71, -2.25141769409179687500e+02) (72, 3.36785840988159179688e+00) (73, 1.32176971435546875000e+01) (74, 3.33656740188598632812e+00) (75, 6.71835479736328125000e+01) (76, 3.35975193977355957031e+00) (77, 2.62491577148437500000e+02) (78, 3.39063000679016113281e+00) (79, -9.30569030761718750000e+02) (80, 3.36794781684875488281e+00) (0, 5.65637528896331787109e-01) (1, -1.62136032104492187500e+02) (2, 8.15528273582458496094e-01) (3, -8.98358249664306640625e+00) (4, 7.16253936290740966797e-01) (5, -1.20956277847290039062e+01) (6, 5.63579738140106201172e-01) (7, -4.05282135009765625000e+01) (8, 5.51355123519897460938e-01) (9, -1.14301109313964843750e+02) (10, 5.58784425258636474609e-01) (11, -1.95352897644042968750e+01) (12, 6.86189234256744384766e-01) (13, 4.98586425781250000000e+01) (14, 7.13122725486755371094e-01) (15, 7.46555566787719726562e-01) (16, 6.43841445446014404297e-01) (17, -4.94506168365478515625e+00) (18, 6.16304039955139160156e-01) (19, -1.80450534820556640625e+01) (20, 6.41824364662170410156e-01) (21, 4.76640777587890625000e+01) (22, 5.51570355892181396484e-01) (23, -2.00583052635192871094e+00) (24, 5.63994824886322021484e-01) (25, -2.03185939788818359375e+00) (26, 6.59107267856597900391e-01) (27, -9.79032993316650390625e+00) (28, 6.58497214317321777344e-01) (29, 6.70372056961059570312e+00) (30, 5.36662638187408447266e-01) (31, -1.27430289983749389648e-01) (32, 6.15006983280181884766e-01) (33, 1.37432880401611328125e+01) (34, 7.41788327693939208984e-01) (35, -8.24116992950439453125e+00) (36, 5.72558701038360595703e-01) (37, 6.01077690124511718750e+01) (38, 6.87707364559173583984e-01) (39, -3.25555253028869628906e+00) (40, 5.75622200965881347656e-01) (41, -1.39317054748535156250e+01) (42, 6.94266974925994873047e-01) (43, 1.84428721666336059570e-01) (44, 7.21752524375915527344e-01) (45, -2.39195995330810546875e+01) (46, 6.33349537849426269531e-01) (47, 2.76417303085327148438e+00) (48, 6.94639801979064941406e-01) (49, 2.03914260864257812500e+00) (50, 5.52437484264373779297e-01) (51, 1.72863464355468750000e+01) (52, 6.54349207878112792969e-01) (53, -1.27434902191162109375e+01) (54, 5.97271740436553955078e-01) (55, 2.02125406265258789062e+00) (56, 5.36593079566955566406e-01) (57, -7.03922986984252929688e+00) (58, 5.66375732421875000000e-01) (59, -3.20194602012634277344e+00) (60, 5.33382058143615722656e-01) (61, -1.20869340896606445312e+01) (62, 6.38036429882049560547e-01) (63, 1.94999456405639648438e+00) (64, 5.35466969013214111328e-01) (65, 2.96164093017578125000e+01) (66, 6.96328461170196533203e-01) (67, 2.54170227050781250000e+00) (68, 6.63045108318328857422e-01) (69, -2.03641681671142578125e+01) (70, 6.50713503360748291016e-01) (71, 6.13701963424682617188e+00) (72, 6.58709704875946044922e-01) (73, -1.26295542716979980469e+00) (74, 7.19150185585021972656e-01) (75, -1.08243007659912109375e+01) (76, 5.30691385269165039062e-01) (77, -1.02581853866577148438e+01) (78, 5.63504397869110107422e-01) (79, 2.97180747985839843750e+01) (80, 6.31578266620635986328e-01) (0, 2.65870660543441772461e-01) (1, -3.90374717712402343750e+01) (2, 2.34957084059715270996e-01) (3, 4.57572097778320312500e+01) (4, 3.52308124303817749023e-01) (5, 5.56479148864746093750e+01) (6, 3.08143019676208496094e-01) (7, -1.71354961395263671875e+00) (8, 2.61161446571350097656e-01) (9, -2.24417476654052734375e+01) (10, 3.29642206430435180664e-01) (11, -7.98406267166137695312e+00) (12, 3.64126920700073242188e-01) (13, 3.29808235168457031250e+01) (14, 3.25199842453002929688e-01) (15, -5.41088676452636718750e+00) (16, 4.19193863868713378906e-01) (17, -4.91997375488281250000e+01) (18, 3.92604917287826538086e-01) (19, 2.15501441955566406250e+01) (20, 3.08756828308105468750e-01) (21, -1.80539493560791015625e+01) (22, 2.89700329303741455078e-01) (23, -9.07212448120117187500e+01) (24, 3.87842863798141479492e-01) (25, 3.44335670471191406250e+01) (26, 3.75663667917251586914e-01) (27, -2.63059854507446289062e+00) (28, 2.56613135337829589844e-01) (29, 1.93080005645751953125e+01) (30, 3.93764346837997436523e-01) (31, -2.52098655700683593750e+01) (32, 2.21132859587669372559e-01) (33, -7.27019577026367187500e+01) (34, 3.68821352720260620117e-01) (35, -4.07126379013061523438e+00) (36, 2.25131779909133911133e-01) (37, 5.06556282043457031250e+01) (38, 2.70571708679199218750e-01) (39, -4.08031959533691406250e+01) (40, 2.97562092542648315430e-01) (41, -1.89929561614990234375e+01) (42, 3.50941836833953857422e-01) (43, -9.54292201995849609375e+00) (44, 4.20796275138854980469e-01) (45, -3.06558513641357421875e+01) (46, 2.91472196578979492188e-01) (47, -2.18880996704101562500e+01) (48, 2.23571315407752990723e-01) (49, 6.78257064819335937500e+01) (50, 3.51850450038909912109e-01) (51, -2.04508228302001953125e+01) (52, 2.53105849027633666992e-01) (53, 1.45747900009155273438e+01) (54, 2.74365723133087158203e-01) (55, -1.00858345627784729004e-01) (56, 4.19543206691741943359e-01) (57, 4.29940567016601562500e+01) (58, 2.86354452371597290039e-01) (59, -4.93802976608276367188e+00) (60, 3.83605659008026123047e-01) (61, 2.92571048736572265625e+01) (62, 3.40397089719772338867e-01) (63, -4.49279069900512695312e+00) (64, 2.66975224018096923828e-01) (65, 1.42847032546997070312e+01) (66, 3.07637065649032592773e-01) (67, -4.82909965515136718750e+00) (68, 3.47886443138122558594e-01) (69, 6.20503568649291992188e+00) (70, 3.16163390874862670898e-01) (71, 1.44297552108764648438e+00) (72, 3.40375274419784545898e-01) (73, 3.31856307983398437500e+01) (74, 2.41429343819618225098e-01) (75, 1.29257879257202148438e+01) (76, 2.99322992563247680664e-01) (77, -7.41599178314208984375e+00) (78, 3.37882518768310546875e-01) (79, 1.05944702148437500000e+02) (80, 3.73021245002746582031e-01) (0, -5.10616973042488098145e-02) (1, -7.79018259048461914062e+00) (2, 7.95294642448425292969e-02) (3, -7.00566720962524414062e+00) (4, -7.51483365893363952637e-02) (5, 2.99094051122665405273e-01) (6, -4.91212755441665649414e-02) (7, -1.09944450855255126953e+00) (8, -5.13824447989463806152e-02) (9, -6.08481454849243164062e+00) (10, -9.36861038208007812500e-02) (11, -5.32291746139526367188e+00) (12, -9.21220332384109497070e-02) (13, 8.37697565555572509766e-01) (14, 3.48054096102714538574e-02) (15, -4.72263813018798828125e-01) (16, -3.61241698265075683594e-02) (17, -1.66259288787841796875e+00) (18, -8.67899805307388305664e-02) (19, -3.51745128631591796875e+00) (20, -1.98374427855014801025e-02) (21, 5.79365432262420654297e-01) (22, 2.61081121861934661865e-02) (23, -4.17712092399597167969e-01) (24, -5.99501654505729675293e-02) (25, 7.60500609874725341797e-01) (26, 9.22843962907791137695e-02) (27, 3.04748982191085815430e-01) (28, 6.29687979817390441895e-02) (29, -7.45088160037994384766e-01) (30, -1.52024691924452781677e-02) (31, -1.59025108814239501953e+00) (32, -5.03617785871028900146e-02) (33, 1.61605834960937500000e+00) (34, -3.05615402758121490479e-02) (35, 1.66422200202941894531e+00) (36, -4.80958819389343261719e-02) (37, -1.53551363945007324219e+00) (38, 2.41506136953830718994e-02) (39, -1.67503762245178222656e+00) (40, -8.39870646595954895020e-02) (41, 1.21753835678100585938e+00) (42, 9.43868160247802734375e-02) (43, 2.76441431045532226562e+00) (44, 6.71100849285721778870e-03) (45, -8.58957290649414062500e-01) (46, 1.57692022621631622314e-02) (47, 9.90673482418060302734e-01) (48, 2.29161493480205535889e-02) (49, 8.02430927753448486328e-01) (50, 8.40665921568870544434e-02) (51, 2.87397313117980957031e+00) (52, 5.14631420373916625977e-02) (53, -5.78722238540649414062e-01) (54, 2.49467976391315460205e-02) (55, 1.17616200447082519531e+00) (56, 6.25666528940200805664e-02) (57, 7.99719035625457763672e-01) (58, 3.13180387020111083984e-02) (59, 1.39292168617248535156e+00) (60, -1.00959710776805877686e-01) (61, -7.18365848064422607422e-01) (62, 4.76237162947654724121e-02) (63, -2.35902577638626098633e-01) (64, -8.14813841134309768677e-03) (65, 6.79629862308502197266e-01) (66, 3.23813334107398986816e-02) (67, 6.25258311629295349121e-02) (68, 4.85426336526870727539e-02) (69, 5.45349419116973876953e-01) (70, -4.55306023359298706055e-02) (71, 4.88504678010940551758e-01) (72, -1.02812521159648895264e-01) (73, 3.96387189626693725586e-01) (74, -9.89928618073463439941e-02) (75, -1.15736198425292968750e+00) (76, 9.16547924280166625977e-02) (77, 4.97467577457427978516e-01) (78, -1.53271546587347984314e-02) (79, -6.48861110210418701172e-01) (80, -4.68335859477519989014e-02) (0, 3.49270820617675781250e+00) (1, 6.85349121093750000000e+02) (2, 1.10443315505981445312e+01) (3, -5.11776184082031250000e+02) (4, 3.43690657615661621094e+00) (5, -9.43402481079101562500e+01) (6, 3.59572553634643554688e+00) (7, 1.52082122802734375000e+02) (8, 3.37686705589294433594e+00) (9, 1.94395942687988281250e+01) (10, 1.08173389434814453125e+01) (11, 2.57456359863281250000e+02) (12, 3.41909766197204589844e+00) (13, 5.81797302246093750000e+02) (14, 3.62895226478576660156e+00) (15, 2.04423446655273437500e+01) (16, 3.41592669486999511719e+00) (17, -1.72591953277587890625e+01) (18, 4.29965782165527343750e+00) (19, 1.64091400146484375000e+02) (20, 3.51281976699829101562e+00) (21, -5.26281372070312500000e+02) (22, 3.61408090591430664062e+00) (23, 6.02636528015136718750e+01) (24, 3.40483069419860839844e+00) (25, 1.50000000000000000000e+03) (26, 4.16324567794799804688e+00) (27, 3.30452728271484375000e+02) (28, 3.41824674606323242188e+00) (29, -4.85763740539550781250e+01) (30, 3.75904893875122070312e+00) (31, 2.57046871185302734375e+01) (32, 3.41711139678955078125e+00) (33, -1.30041818618774414062e+01) (34, 6.00017356872558593750e+00) (35, 2.68612518310546875000e+02) (36, 3.75907063484191894531e+00) (37, -2.38589248657226562500e+02) (38, 3.61634349822998046875e+00) (39, 1.49983032226562500000e+03) (40, 3.39986634254455566406e+00) (41, 2.09306884765625000000e+02) (42, 1.05321636199951171875e+01) (43, -2.10234191894531250000e+02) (44, 3.62799501419067382812e+00) (45, -5.90409729003906250000e+02) (46, 3.66331672668457031250e+00) (47, 1.37843734741210937500e+02) (48, 3.75050401687622070312e+00) (49, 3.94305999755859375000e+02) (50, 1.38558225631713867188e+01) (51, 6.83572292327880859375e+00) (52, 3.67494106292724609375e+00) (53, -1.50000000000000000000e+03) (54, 3.76834011077880859375e+00) (55, 2.89171142578125000000e+01) (56, 3.64575099945068359375e+00) (57, -2.14923950195312500000e+02) (58, 9.12242126464843750000e+00) (59, 2.85814422607421875000e+02) (60, 3.72271418571472167969e+00) (61, 1.62743011474609375000e+02) (62, 3.62724041938781738281e+00) (63, 1.32208154296875000000e+03) (64, 3.71267008781433105469e+00) (65, 6.58944213867187500000e+02) (66, 1.06034450531005859375e+01) (67, -7.87385864257812500000e+02) (68, 3.60830807685852050781e+00) (69, 4.06933174133300781250e+01) (70, 3.65362262725830078125e+00) (71, -8.86064392089843750000e+02) (72, 3.60135531425476074219e+00) (73, -4.99664733886718750000e+02) (74, 3.75561356544494628906e+00) (75, 6.31313095092773437500e+01) (76, 3.71560025215148925781e+00) (77, 1.14308459472656250000e+03) (78, 3.69788193702697753906e+00) (79, -1.50000000000000000000e+03) (80, 3.74286007881164550781e+00) (0, 2.90933012962341308594e+00) (1, 9.87354675292968750000e+02) (2, 2.87678432464599609375e+00) (3, -2.34311874389648437500e+02) (4, 2.85394358634948730469e+00) (5, 4.71971740722656250000e+01) (6, 2.91934275627136230469e+00) (7, 1.65791656494140625000e+02) (8, 2.82755184173583984375e+00) (9, 2.18278259277343750000e+02) (10, 3.10411000251770019531e+00) (11, -1.58433242797851562500e+02) (12, 2.86474108695983886719e+00) (13, -2.42789947509765625000e+02) (14, 2.73809504508972167969e+00) (15, 4.75527687072753906250e+01) (16, 2.80662178993225097656e+00) (17, -6.46508255004882812500e+01) (18, 2.90982508659362792969e+00) (19, -8.80225944519042968750e+00) (20, 2.92197394371032714844e+00) (21, -2.95252105712890625000e+02) (22, 2.82593488693237304688e+00) (23, 3.23853340148925781250e+01) (24, 2.79792857170104980469e+00) (25, -1.15137100219726562500e+02) (26, 2.88809847831726074219e+00) (27, -6.61162719726562500000e+01) (28, 2.79486012458801269531e+00) (29, -5.88631689548492431641e-01) (30, 2.82174181938171386719e+00) (31, 2.64630661010742187500e+01) (32, 2.87238502502441406250e+00) (33, 5.54847290039062500000e+02) (34, 2.94597625732421875000e+00) (35, -1.25779205322265625000e+02) (36, 2.76726436614990234375e+00) (37, -1.99069824218750000000e+02) (38, 2.85056424140930175781e+00) (39, 6.68226684570312500000e+02) (40, 2.78465533256530761719e+00) (41, 8.47669982910156250000e+01) (42, 2.81167507171630859375e+00) (43, 1.49257110595703125000e+02) (44, 2.74309635162353515625e+00) (45, -9.10736236572265625000e+01) (46, 2.82867693901062011719e+00) (47, 2.43236637115478515625e+01) (48, 2.88721776008605957031e+00) (49, -3.95904464721679687500e+01) (50, 2.88659214973449707031e+00) (51, 5.54834671020507812500e+01) (52, 2.82022452354431152344e+00) (53, 1.15903816223144531250e+02) (54, 2.84947538375854492188e+00) (55, 7.54827194213867187500e+01) (56, 2.77362465858459472656e+00) (57, -2.41496200561523437500e+02) (58, 2.82829475402832031250e+00) (59, 1.52834030151367187500e+02) (60, 2.72774887084960937500e+00) (61, -4.68944778442382812500e+01) (62, 2.90246415138244628906e+00) (63, 2.29230300903320312500e+02) (64, 2.85568284988403320312e+00) (65, 2.68065567016601562500e+01) (66, 2.75619697570800781250e+00) (67, -1.59153167724609375000e+02) (68, 2.81712055206298828125e+00) (69, 6.22192192077636718750e+01) (70, 2.84467959403991699219e+00) (71, 8.38068389892578125000e+01) (72, 2.78826045989990234375e+00) (73, 1.12804351806640625000e+02) (74, 2.84530997276306152344e+00) (75, 4.25140609741210937500e+01) (76, 2.86660027503967285156e+00) (77, -3.60321990966796875000e+02) (78, 2.90848755836486816406e+00) (79, -2.43553985595703125000e+02) (80, 2.77919387817382812500e+00) (0, 6.39873600006103515625e+00) (1, 1.50000000000000000000e+03) (2, 7.14878845214843750000e+01) (3, -1.50000000000000000000e+03) (4, 6.37972927093505859375e+00) (5, 1.50000000000000000000e+03) (6, 6.29271268844604492188e+00) (7, 1.50000000000000000000e+03) (8, 5.55591249465942382812e+00) (9, 1.50000000000000000000e+03) (10, 2.58295631408691406250e+01) (11, 3.19155883789062500000e+02) (12, 6.36885023117065429688e+00) (13, 1.50000000000000000000e+03) (14, 6.36901950836181640625e+00) (15, 1.50000000000000000000e+03) (16, 5.39704608917236328125e+00) (17, 1.50000000000000000000e+03) (18, 9.29833698272705078125e+00) (19, 1.50000000000000000000e+03) (20, 6.23227024078369140625e+00) (21, -5.17166992187500000000e+02) (22, 6.72515344619750976562e+00) (23, 1.50000000000000000000e+03) (24, 6.21273851394653320312e+00) (25, 1.50000000000000000000e+03) (26, 1.04787778854370117188e+01) (27, 1.50000000000000000000e+03) (28, 6.21227788925170898438e+00) (29, 1.50000000000000000000e+03) (30, 6.77162027359008789062e+00) (31, 1.50000000000000000000e+03) (32, 5.55190515518188476562e+00) (33, 1.50000000000000000000e+03) (34, 2.74934024810791015625e+01) (35, 1.50000000000000000000e+03) (36, 6.29714870452880859375e+00) (37, -1.47157324218750000000e+03) (38, 6.73498773574829101562e+00) (39, 1.50000000000000000000e+03) (40, 6.25991487503051757812e+00) (41, 1.50000000000000000000e+03) (42, 5.24473304748535156250e+01) (43, -1.50000000000000000000e+03) (44, 6.29197740554809570312e+00) (45, -1.42006408691406250000e+03) (46, 6.68254566192626953125e+00) (47, 1.50000000000000000000e+03) (48, 6.74350500106811523438e+00) (49, 1.50000000000000000000e+03) (50, 1.10880119323730468750e+02) (51, -1.31508459472656250000e+03) (52, 6.60134267807006835938e+00) (53, -1.48025988769531250000e+03) (54, 6.71260356903076171875e+00) (55, 1.50000000000000000000e+03) (56, 6.36095952987670898438e+00) (57, 1.50000000000000000000e+03) (58, 5.28876380920410156250e+01) (59, -1.19340026855468750000e+03) (60, 6.56908273696899414062e+00) (61, 1.49284204101562500000e+03) (62, 6.69954109191894531250e+00) (63, 1.50000000000000000000e+03) (64, 6.57461404800415039062e+00) (65, 1.50000000000000000000e+03) (66, 9.45060501098632812500e+01) (67, -1.50000000000000000000e+03) (68, 6.57951593399047851562e+00) (69, 1.49977978515625000000e+03) (70, 6.85407114028930664062e+00) (71, 1.50000000000000000000e+03) (72, 6.68584728240966796875e+00) (73, -4.81789215087890625000e+02) (74, 9.26324558258056640625e+00) (75, -9.49327148437500000000e+02) (76, 6.73772716522216796875e+00) (77, 1.50000000000000000000e+03) (78, 6.67926406860351562500e+00) (79, 1.50000000000000000000e+03) (80, 6.77132081985473632812e+00) (0, 3.73930156230926513672e-01) (1, -1.16207427978515625000e+02) (2, 3.37245613336563110352e-01) (3, -2.84880409240722656250e+01) (4, 3.24635505676269531250e-01) (5, -8.85630416870117187500e+00) (6, 4.16479796171188354492e-01) (7, -2.61700105667114257812e+00) (8, 3.47379088401794433594e-01) (9, -9.50674743652343750000e+01) (10, 3.46880048513412475586e-01) (11, -7.83535718917846679688e+00) (12, 2.99445986747741699219e-01) (13, -5.02218103408813476562e+00) (14, 2.28398323059082031250e-01) (15, -3.17490220069885253906e+00) (16, 4.15026187896728515625e-01) (17, -1.55435533523559570312e+01) (18, 2.25927278399467468262e-01) (19, 2.48844432830810546875e+01) (20, 3.08172911405563354492e-01) (21, -5.65516352653503417969e-01) (22, 3.36862415075302124023e-01) (23, -2.20647907257080078125e+00) (24, 2.35635712742805480957e-01) (25, 1.32790632247924804688e+01) (26, 4.09028738737106323242e-01) (27, -2.11266593933105468750e+01) (28, 3.39671045541763305664e-01) (29, 4.25704498291015625000e+01) (30, 3.54441642761230468750e-01) (31, -6.35442695617675781250e+01) (32, 3.29816460609436035156e-01) (33, 3.18005847930908203125e+01) (34, 3.49859893321990966797e-01) (35, -3.55806016921997070312e+00) (36, 3.47769469022750854492e-01) (37, -9.70585250854492187500e+00) (38, 3.53506892919540405273e-01) (39, -3.91759097576141357422e-01) (40, 2.81950742006301879883e-01) (41, 3.18842506408691406250e+01) (42, 2.65011221170425415039e-01) (43, -1.43873202800750732422e+00) (44, 2.53965228796005249023e-01) (45, -3.17349171638488769531e+00) (46, 3.68000328540802001953e-01) (47, 1.31994724273681640625e+01) (48, 3.61942738294601440430e-01) (49, 5.45286512374877929688e+00) (50, 2.46466845273971557617e-01) (51, -3.34294052124023437500e+01) (52, 3.03944408893585205078e-01) (53, -3.22380948066711425781e+00) (54, 2.43134886026382446289e-01) (55, 2.69195723533630371094e+00) (56, 2.54253566265106201172e-01) (57, -2.84333457946777343750e+01) (58, 3.56935322284698486328e-01) (59, -1.70019931793212890625e+01) (60, 3.75426977872848510742e-01) (61, 1.77845764160156250000e+01) (62, 2.40849390625953674316e-01) (63, -1.40346795320510864258e-01) (64, 3.38741004467010498047e-01) (65, -2.73297572135925292969e+00) (66, 2.99202024936676025391e-01) (67, -2.84692335128784179688e+00) (68, 2.76865243911743164062e-01) (69, -4.29201745986938476562e+00) (70, 3.16413491964340209961e-01) (71, -3.61651873588562011719e+00) (72, 2.80586898326873779297e-01) (73, -2.01123886108398437500e+01) (74, 2.85017222166061401367e-01) (75, 4.64304351806640625000e+01) (76, 4.04357552528381347656e-01) (77, -3.90315985679626464844e+00) (78, 3.36438804864883422852e-01) (79, -9.22715759277343750000e+00) (80, 3.99655133485794067383e-01) (0, 6.44175112247467041016e-01) (1, -5.08770294189453125000e+01) (2, 5.61785221099853515625e-01) (3, 2.37280540466308593750e+01) (4, 6.78037881851196289062e-01) (5, -3.12525672912597656250e+01) (6, 6.05281531810760498047e-01) (7, -3.82742834091186523438e+00) (8, 5.78845024108886718750e-01) (9, -3.79694519042968750000e+01) (10, 6.32881820201873779297e-01) (11, 3.50688400268554687500e+01) (12, 5.80729722976684570312e-01) (13, -1.25550012588500976562e+01) (14, 5.49261927604675292969e-01) (15, -7.37314844131469726562e+00) (16, 5.60987472534179687500e-01) (17, -1.94357833862304687500e+01) (18, 5.73588192462921142578e-01) (19, -4.73625831604003906250e+01) (20, 6.93824529647827148438e-01) (21, -8.71173918247222900391e-01) (22, 6.18866741657257080078e-01) (23, -1.36221027374267578125e+00) (24, 5.53295135498046875000e-01) (25, 1.39435243606567382812e+00) (26, 6.12783372402191162109e-01) (27, 5.45565462112426757812e+00) (28, 6.29923582077026367188e-01) (29, -1.01395428180694580078e+00) (30, 5.28621733188629150391e-01) (31, -8.14537346363067626953e-01) (32, 6.76248431205749511719e-01) (33, 8.77649307250976562500e+00) (34, 6.18752419948577880859e-01) (35, -1.11221141815185546875e+01) (36, 5.31698524951934814453e-01) (37, -4.72363433837890625000e+01) (38, 6.12974166870117187500e-01) (39, -1.37762263417243957520e-01) (40, 5.60699701309204101562e-01) (41, 5.60181121826171875000e+01) (42, 5.11627793312072753906e-01) (43, -7.05827569961547851562e+00) (44, 5.17814755439758300781e-01) (45, 3.41626129150390625000e+01) (46, 6.39561712741851806641e-01) (47, 7.97062225341796875000e+01) (48, 6.36436164379119873047e-01) (49, 1.77702922821044921875e+01) (50, 6.14378213882446289062e-01) (51, -2.26499462127685546875e+01) (52, 6.93135380744934082031e-01) (53, -1.37087383270263671875e+01) (54, 5.36705553531646728516e-01) (55, 7.63541698455810546875e+00) (56, 5.19937872886657714844e-01) (57, -2.94186806678771972656e+00) (58, 5.77163696289062500000e-01) (59, 1.97973001003265380859e+00) (60, 6.57884120941162109375e-01) (61, -7.57513275146484375000e+01) (62, 6.84709131717681884766e-01) (63, 3.46586914062500000000e+01) (64, 6.64794445037841796875e-01) (65, 9.34695816040039062500e+00) (66, 5.55289328098297119141e-01) (67, -2.70805110931396484375e+01) (68, 5.99967598915100097656e-01) (69, -6.96276950836181640625e+00) (70, 5.67230939865112304688e-01) (71, 7.34650945663452148438e+00) (72, 6.76364183425903320312e-01) (73, -2.59870338439941406250e+01) (74, 5.68238615989685058594e-01) (75, -1.15098915100097656250e+01) (76, 6.13512337207794189453e-01) (77, -1.92238807678222656250e+01) (78, 5.38226664066314697266e-01) (79, 1.16661233901977539062e+01) (80, 6.88252091407775878906e-01) (0, -1.94702744483947753906e+00) (1, -7.87758117675781250000e+02) (2, -2.48623013496398925781e+00) (3, 5.15951585769653320312e+00) (4, -1.92287850379943847656e+00) (5, 1.54492349624633789062e+01) (6, -1.93088030815124511719e+00) (7, -3.33851165771484375000e+01) (8, -2.03638124465942382812e+00) (9, -3.23706604003906250000e+02) (10, -2.55198168754577636719e+00) (11, 1.09534006118774414062e+01) (12, -2.02859592437744140625e+00) (13, 1.51523712158203125000e+02) (14, -2.00375962257385253906e+00) (15, -4.46762161254882812500e+01) (16, -1.90519022941589355469e+00) (17, -5.51523551940917968750e+01) (18, -2.14166331291198730469e+00) (19, 3.29736595153808593750e+01) (20, -1.97364830970764160156e+00) (21, 1.18130470275878906250e+02) (22, -2.00298070907592773438e+00) (23, -3.78518981933593750000e+01) (24, -2.06768727302551269531e+00) (25, 3.57113304138183593750e+01) (26, -2.04733657836914062500e+00) (27, 2.07266139984130859375e+00) (28, -2.00121545791625976562e+00) (29, -3.37425155639648437500e+01) (30, -1.91413068771362304688e+00) (31, -3.97775688171386718750e+01) (32, -2.05321836471557617188e+00) (33, -1.31905776977539062500e+02) (34, -1.96467196941375732422e+00) (35, 5.47349052429199218750e+01) (36, -1.98066401481628417969e+00) (37, 4.64472618103027343750e+01) (38, -2.01760625839233398438e+00) (39, -2.80555816650390625000e+02) (40, -1.90431797504425048828e+00) (41, 3.81419372558593750000e+01) (42, -2.09919810295104980469e+00) (43, -9.03390655517578125000e+01) (44, -2.05615878105163574219e+00) (45, 1.49638534545898437500e+02) (46, -1.91952419281005859375e+00) (47, -2.43121261596679687500e+01) (48, -1.89049673080444335938e+00) (49, 2.16611042022705078125e+01) (50, -2.00654792785644531250e+00) (51, -3.94352865219116210938e+00) (52, -1.93831968307495117188e+00) (53, 1.08923706054687500000e+02) (54, -2.01698827743530273438e+00) (55, -6.94013824462890625000e+01) (56, -2.04366230964660644531e+00) (57, 2.56962982177734375000e+02) (58, -1.93737375736236572266e+00) (59, 8.65036468505859375000e+01) (60, -2.05418181419372558594e+00) (61, -1.05097564697265625000e+02) (62, -1.95465803146362304688e+00) (63, -7.44402084350585937500e+01) (64, -2.04915237426757812500e+00) (65, -2.82739334106445312500e+01) (66, -2.04715299606323242188e+00) (67, 4.28783721923828125000e+01) (68, -1.90308165550231933594e+00) (69, -1.11123027801513671875e+01) (70, -2.00841474533081054688e+00) (71, 8.31944122314453125000e+01) (72, -1.89657163619995117188e+00) (73, -1.29978942871093750000e+02) (74, -1.90288424491882324219e+00) (75, 4.26537132263183593750e+01) (76, -2.00219225883483886719e+00) (77, -7.84971542358398437500e+01) (78, -2.07561922073364257812e+00) (79, 2.47710311889648437500e+02) (80, -1.95912253856658935547e+00) (81, 3.51340026855468750000e+01) (82, 1.12654705047607421875e+01) (83, -2.77296009063720703125e+01) (84, 2.05935115814208984375e+01) (85, 5.12774734497070312500e+01) (86, -2.56265848875045776367e-02) (87, 4.08817329406738281250e+01) (88, 1.01725051879882812500e+02) (89, 1.31536579132080078125e+00) (90, -7.29932594299316406250e+00) (91, 3.45746498107910156250e+01) (81, -1.97374790906906127930e-01) (82, 4.94372904300689697266e-01) (83, 3.57790559530258178711e-01) (84, 8.56176733970642089844e-01) (85, -1.02966003119945526123e-01) (86, -1.93662807345390319824e-01) (87, -2.31006313115358352661e-02) (88, 1.55527234077453613281e-01) (89, 4.87732827663421630859e-01) (90, 7.94188499450683593750e-01) (91, -4.48997803032398223877e-02) 
