FANN_FLO_2.1
num_layers=3
learning_rate=0.700000
connection_rate=1.000000
network_type=0
learning_momentum=0.000000
training_algorithm=2
train_error_function=1
train_stop_function=0
cascade_output_change_fraction=0.010000
quickprop_decay=-0.000100
quickprop_mu=1.750000
rprop_increase_factor=1.200000
rprop_decrease_factor=0.500000
rprop_delta_min=0.000000
rprop_delta_max=50.000000
rprop_delta_zero=0.100000
cascade_output_stagnation_epochs=12
cascade_candidate_change_fraction=0.010000
cascade_candidate_stagnation_epochs=12
cascade_max_out_epochs=150
cascade_max_cand_epochs=150
cascade_num_candidate_groups=2
bit_fail_limit=3.49999994039535522461e-01
cascade_candidate_limit=1.00000000000000000000e+03
cascade_weight_multiplier=4.00000005960464477539e-01
cascade_activation_functions_count=10
cascade_activation_functions=3 5 7 8 10 11 14 15 16 17 
cascade_activation_steepnesses_count=4
cascade_activation_steepnesses=2.50000000000000000000e-01 5.00000000000000000000e-01 7.50000000000000000000e-01 1.00000000000000000000e+00 
layer_sizes=67 11 3 
scale_included=0
neurons (num_inputs, activation_function, activation_steepness)=(0, 0, 0.00000000000000000000e+00) (0, 0, 0.00000000000000000000e+00) (0, 0, 0.00000000000000000000e+00) (0, 0, 0.00000000000000000000e+00) (0, 0, 0.00000000000000000000e+00) (0, 0, 0.00000000000000000000e+00) (0, 0, 0.00000000000000000000e+00) (0, 0, 0.00000000000000000000e+00) (0, 0, 0.00000000000000000000e+00) (0, 0, 0.00000000000000000000e+00) (0, 0, 0.00000000000000000000e+00) (0, 0, 0.00000000000000000000e+00) (0, 0, 0.00000000000000000000e+00) (0, 0, 0.00000000000000000000e+00) (0, 0, 0.00000000000000000000e+00) (0, 0, 0.00000000000000000000e+00) (0, 0, 0.00000000000000000000e+00) (0, 0, 0.00000000000000000000e+00) (0, 0, 0.00000000000000000000e+00) (0, 0, 0.00000000000000000000e+00) (0, 0, 0.00000000000000000000e+00) (0, 0, 0.00000000000000000000e+00) (0, 0, 0.00000000000000000000e+00) (0, 0, 0.00000000000000000000e+00) (0, 0, 0.00000000000000000000e+00) (0, 0, 0.00000000000000000000e+00) (0, 0, 0.00000000000000000000e+00) (0, 0, 0.00000000000000000000e+00) (0, 0, 0.00000000000000000000e+00) (0, 0, 0.00000000000000000000e+00) (0, 0, 0.00000000000000000000e+00) (0, 0, 0.00000000000000000000e+00) (0, 0, 0.00000000000000000000e+00) (0, 0, 0.00000000000000000000e+00) (0, 0, 0.00000000000000000000e+00) (0, 0, 0.00000000000000000000e+00) (0, 0, 0.00000000000000000000e+00) (0, 0, 0.00000000000000000000e+00) (0, 0, 0.00000000000000000000e+00) (0, 0, 0.00000000000000000000e+00) (0, 0, 0.00000000000000000000e+00) (0, 0, 0.00000000000000000000e+00) (0, 0, 0.00000000000000000000e+00) (0, 0, 0.00000000000000000000e+00) (0, 0, 0.00000000000000000000e+00) (0, 0, 0.00000000000000000000e+00) (0, 0, 0.00000000000000000000e+00) (0, 0, 0.00000000000000000000e+00) (0, 0, 0.00000000000000000000e+00) (0, 0, 0.00000000000000000000e+00) (0, 0, 0.00000000000000000000e+00) (0, 0, 0.00000000000000000000e+00) (0, 0, 0.00000000000000000000e+00) (0, 0, 0.00000000000000000000e+00) (0, 0, 0.00000000000000000000e+00) (0, 0, 0.00000000000000000000e+00) (0, 0, 0.00000000000000000000e+00) (0, 0, 0.00000000000000000000e+00) (0, 0, 0.00000000000000000000e+00) (0, 0, 0.00000000000000000000e+00) (0, 0, 0.00000000000000000000e+00) (0, 0, 0.00000000000000000000e+00) (0, 0, 0.00000000000000000000e+00) (0, 0, 0.00000000000000000000e+00) (0, 0, 0.00000000000000000000e+00) (0, 0, 0.00000000000000000000e+00) (0, 0, 0.00000000000000000000e+00) (67, 5, 5.00000000000000000000e-01) (67, 5, 5.00000000000000000000e-01) (67, 5, 5.00000000000000000000e-01) (67, 5, 5.00000000000000000000e-01) (67, 5, 5.00000000000000000000e-01) (67, 5, 5.00000000000000000000e-01) (67, 5, 5.00000000000000000000e-01) (67, 5, 5.00000000000000000000e-01) (67, 5, 5.00000000000000000000e-01) (67, 5, 5.00000000000000000000e-01) (0, 5, 0.00000000000000000000e+00) (11, 11, 5.00000000000000000000e-01) (11, 11, 5.00000000000000000000e-01) (0, 11, 0.00000000000000000000e+00) 
connections (connected_to_neuron, weight)=(0, 6.12619161605834960938e+00) (1, -9.21051502227783203125e+00) (2, 2.79685091227293014526e-02) (3, 4.75944876670837402344e-01) (4, 1.26018896698951721191e-01) (5, -4.72519487142562866211e-01) (6, -1.16219026967883110046e-02) (7, -3.50823737680912017822e-02) (8, 3.22731025516986846924e-02) (9, -4.99631047248840332031e-01) (10, -1.56141049228608608246e-03) (11, -1.30278503894805908203e+00) (12, 7.11084008216857910156e-01) (13, -6.62642717361450195312e-02) (14, -6.03894963860511779785e-02) (15, 2.79858827590942382812e-01) (16, -2.62268185615539550781e-01) (17, 3.70443053543567657471e-02) (18, 6.84638973325490951538e-03) (19, 1.86121731996536254883e-01) (20, 2.71297246217727661133e-01) (21, 2.25628237240016460419e-03) (22, -9.40863370895385742188e-01) (23, 5.98951093852519989014e-02) (24, 1.25282436609268188477e-01) (25, 1.83382138609886169434e-01) (26, 7.00275003910064697266e-02) (27, -1.19767300784587860107e-01) (28, 4.95991064235568046570e-03) (29, -2.98535153269767761230e-02) (30, 3.36568541824817657471e-02) (31, 1.13237082958221435547e+00) (32, 1.79602745920419692993e-02) (33, -1.62127768993377685547e+00) (34, -3.25237631797790527344e-01) (35, 8.02364014089107513428e-03) (36, -5.55736385285854339600e-02) (37, -8.02137982100248336792e-03) (38, -2.50423938035964965820e-01) (39, 1.74450688064098358154e-02) (40, -1.85367371886968612671e-02) (41, 1.08191475272178649902e-01) (42, -1.50763106346130371094e+00) (43, 2.07338389009237289429e-02) (44, -6.63665711879730224609e-01) (45, 9.25776720046997070312e-01) (46, 1.46222189068794250488e-02) (47, -1.31462052464485168457e-01) (48, -4.24708798527717590332e-02) (49, 3.44667173922061920166e-02) (50, -1.33366137742996215820e-02) (51, 2.06065573729574680328e-03) (52, 1.71609789133071899414e-01) (53, -6.78801894187927246094e-01) (54, -1.32742952555418014526e-02) (55, -1.26271092891693115234e+00) (56, 1.50219631195068359375e+00) (57, -1.44243119284510612488e-02) (58, -8.00235345959663391113e-02) (59, -6.40329793095588684082e-02) (60, -3.01923990249633789062e-01) (61, -1.72500573098659515381e-02) (62, -3.11491917818784713745e-02) (63, 1.63786649703979492188e-01) (64, 7.97330141067504882812e-01) (65, 1.44624728709459304810e-02) (66, 1.21125757694244384766e-01) (0, 1.02876567840576171875e+01) (1, 9.19783115386962890625e+00) (2, 7.82485380768775939941e-02) (3, -2.60410338640213012695e-01) (4, 1.38784438371658325195e-01) (5, 4.47454333305358886719e-01) (6, 2.25891601294279098511e-02) (7, 3.54672968387603759766e-02) (8, 2.10442781448364257812e-01) (9, -3.40057563781738281250e+00) (10, 1.26494029536843299866e-02) (11, 1.43381789326667785645e-01) (12, 1.02600455284118652344e+00) (13, 1.42376899719238281250e-01) (14, -9.18957144021987915039e-02) (15, 1.78302735090255737305e-01) (16, 3.91724646091461181641e-01) (17, -3.86672057211399078369e-02) (18, -9.74369700998067855835e-04) (19, 1.43870413303375244141e-01) (20, -1.11859947443008422852e-01) (21, -6.50226464495062828064e-03) (22, 1.04345001280307769775e-01) (23, 8.63404333591461181641e-01) (24, -3.68402339518070220947e-02) (25, 1.15407101809978485107e-01) (26, 2.00046017765998840332e-01) (27, -4.26966771483421325684e-02) (28, 5.00760190188884735107e-02) (29, 3.36895510554313659668e-02) (30, 3.01865369081497192383e-01) (31, -5.31849205493927001953e-01) (32, 1.01947076618671417236e-02) (33, -3.19979101419448852539e-01) (34, -4.38916385173797607422e-01) (35, -3.91996204853057861328e-02) (36, 2.29621976613998413086e-01) (37, 7.34233185648918151855e-02) (38, 1.95165082812309265137e-01) (39, 6.94912225008010864258e-02) (40, -4.37511391937732696533e-02) (41, 2.68710047006607055664e-01) (42, 1.77033424377441406250e-01) (43, -1.91688500344753265381e-02) (44, -1.25932586193084716797e+00) (45, -2.07017198204994201660e-01) (46, 1.51666952297091484070e-02) (47, -1.27191007137298583984e-01) (48, 5.21707721054553985596e-02) (49, 1.04267679154872894287e-01) (50, -1.59484110772609710693e-02) (51, -7.61581538245081901550e-03) (52, 1.66105926036834716797e-01) (53, 1.71763002872467041016e+00) (54, 1.20296049863100051880e-03) (55, -1.43590897321701049805e-01) (56, -1.50036978721618652344e+00) (57, 1.84908844530582427979e-02) (58, 1.02629102766513824463e-02) (59, 2.26612731814384460449e-01) (60, 2.33844324946403503418e-01) (61, 4.80215474963188171387e-02) (62, 4.94535118341445922852e-02) (63, 3.03871899843215942383e-01) (64, -4.59924161434173583984e-01) (65, -7.64819211326539516449e-04) (66, 1.33682191371917724609e-01) (0, 7.90933728218078613281e-01) (1, 5.46783447265625000000e+00) (2, 5.43436557054519653320e-02) (3, 7.96275679022073745728e-03) (4, 1.86082161962985992432e-03) (5, 1.96992009878158569336e-01) (6, 4.85100708901882171631e-02) (7, -2.19012368470430374146e-02) (8, 6.86924278736114501953e-01) (9, 2.14340120553970336914e-01) (10, 4.17251706123352050781e-01) (11, 5.86475849151611328125e-01) (12, 5.93407154083251953125e+00) (13, 1.18504352867603302002e-01) (14, -2.44526918977499008179e-02) (15, 1.53671085834503173828e-01) (16, 1.93410784006118774414e-01) (17, 1.73326060175895690918e-01) (18, 8.91319438815116882324e-02) (19, 6.74851596355438232422e-01) (20, 6.75191208720207214355e-02) (21, 3.39774876832962036133e-01) (22, -2.06256791949272155762e-01) (23, 1.87098300457000732422e+00) (24, 8.44124183058738708496e-02) (25, 1.70322179794311523438e-01) (26, 6.64882436394691467285e-02) (27, 1.74253150820732116699e-01) (28, 5.46474531292915344238e-02) (29, 9.11289453506469726562e-02) (30, 6.26349091529846191406e-01) (31, 8.14256906509399414062e-01) (32, 3.78725379705429077148e-01) (33, 8.02484273910522460938e-01) (34, 6.04692983627319335938e+00) (35, 1.37272313237190246582e-01) (36, 4.15096133947372436523e-02) (37, 1.00417286157608032227e-01) (38, 6.81239888072013854980e-02) (39, 2.05856308341026306152e-01) (40, 1.34550705552101135254e-01) (41, 6.81229948997497558594e-01) (42, 6.67356073856353759766e-01) (43, 3.56585800647735595703e-01) (44, -2.39191818237304687500e+00) (45, -4.47555065155029296875e+00) (46, 1.67192772030830383301e-01) (47, 9.11241918802261352539e-02) (48, 1.18825942277908325195e-01) (49, 1.61468297243118286133e-01) (50, 6.58370926976203918457e-02) (51, 6.28994405269622802734e-02) (52, 6.91877126693725585938e-01) (53, 5.48503518104553222656e-01) (54, 4.10857260227203369141e-01) (55, 7.45158910751342773438e-01) (56, 2.98454737663269042969e+00) (57, 7.72042572498321533203e-02) (58, 1.93887762725353240967e-02) (59, 2.02412813901901245117e-01) (60, 3.79052430391311645508e-01) (61, 1.65538802742958068848e-01) (62, -1.70446541160345077515e-02) (63, 5.78036427497863769531e-01) (64, 1.07187938690185546875e+00) (65, 5.52366554737091064453e-01) (66, 6.74482047557830810547e-01) (0, 3.27596588134765625000e+01) (1, -2.47754907608032226562e+00) (2, 2.59865939617156982422e-01) (3, 5.04926703870296478271e-02) (4, 5.14454603195190429688e-01) (5, 6.76828920841217041016e-02) (6, 7.65885263681411743164e-02) (7, 3.17933171987533569336e-01) (8, 3.22083503007888793945e-01) (9, 3.41630029678344726562e+00) (10, 4.05943125486373901367e-01) (11, -7.12190747261047363281e-01) (12, 9.27207756042480468750e+00) (13, 3.70156139135360717773e-01) (14, 4.87532377243041992188e-01) (15, 3.14869105815887451172e-01) (16, 1.69825124740600585938e+00) (17, 2.78538055717945098877e-02) (18, -1.13946110010147094727e-01) (19, 3.06842535734176635742e-01) (20, 8.53824996948242187500e+00) (21, 3.70801776647567749023e-01) (22, 6.14255475997924804688e+00) (23, 4.34889888763427734375e+00) (24, 3.39569956064224243164e-01) (25, 1.31667196750640869141e-01) (26, 3.66639822721481323242e-01) (27, -3.96710216999053955078e-01) (28, 3.90457838773727416992e-01) (29, -1.74597948789596557617e-01) (30, 1.22738644480705261230e-01) (31, -7.69487905502319335938e+00) (32, 5.38384735584259033203e-01) (33, -1.90904295444488525391e+00) (34, -7.72038793563842773438e+00) (35, 3.42748641967773437500e-01) (36, 4.63602155447006225586e-01) (37, -3.25924269855022430420e-02) (38, 1.29789039492607116699e-01) (39, -2.29303598403930664062e-01) (40, 3.71271103620529174805e-01) (41, 2.71324783563613891602e-01) (42, -1.03841609954833984375e+01) (43, 5.26236712932586669922e-01) (44, 1.51756539940834045410e-01) (45, 5.71255302429199218750e+00) (46, -6.90230652689933776855e-02) (47, -3.67411434650421142578e-01) (48, 4.13379997014999389648e-01) (49, 7.82561302185058593750e-02) (50, 1.93485081195831298828e-01) (51, 2.16110169887542724609e-01) (52, 2.00790628790855407715e-01) (53, -2.04555559158325195312e+00) (54, 2.14111179113388061523e-01) (55, 6.17762231826782226562e+00) (56, -7.52395689487457275391e-01) (57, 9.89179611206054687500e-02) (58, -7.72195994853973388672e-01) (59, 2.77495265007019042969e-01) (60, 6.77447095513343811035e-02) (61, -1.13169766962528228760e-01) (62, 1.33903294801712036133e-01) (63, 3.07176023721694946289e-01) (64, -5.35133409500122070312e+00) (65, 1.03513324260711669922e+00) (66, 1.36256694793701171875e-01) (0, -9.84432101249694824219e-01) (1, -4.31679677963256835938e+00) (2, 5.85003532469272613525e-02) (3, 1.08666576445102691650e-01) (4, 5.67818917334079742432e-02) (5, -1.26746639609336853027e-01) (6, 2.15448364615440368652e-02) (7, 1.35180791839957237244e-02) (8, 5.95995008945465087891e-01) (9, 4.63802862167358398438e+00) (10, 3.36288750171661376953e-01) (11, 1.83545839786529541016e+00) (12, 4.79070603847503662109e-01) (13, 8.25787782669067382812e-02) (14, 1.14259734749794006348e-01) (15, 4.45340722799301147461e-01) (16, 1.54668539762496948242e-01) (17, 1.74626141786575317383e-01) (18, 3.39526101015508174896e-03) (19, 6.20625019073486328125e-01) (20, 6.57384693622589111328e-01) (21, 3.52057486772537231445e-01) (22, 5.36341488361358642578e-01) (23, 1.86414217948913574219e+00) (24, 5.15888072550296783447e-02) (25, 1.88527435064315795898e-01) (26, 2.34639123082160949707e-01) (27, 1.25222941860556602478e-02) (28, -4.56032380461692810059e-02) (29, 6.53437674045562744141e-02) (30, 5.81787228584289550781e-01) (31, 5.34661650657653808594e-01) (32, 4.26685363054275512695e-01) (33, 4.45766448974609375000e-01) (34, -3.16448760032653808594e+00) (35, 1.31312236189842224121e-01) (36, 2.32591047883033752441e-01) (37, -1.47978048771619796753e-02) (38, -1.28473177552223205566e-01) (39, 1.23640090227127075195e-01) (40, 7.38948583602905273438e-02) (41, 6.10686779022216796875e-01) (42, 3.20295304059982299805e-01) (43, 3.87634426355361938477e-01) (44, 5.50556612014770507812e+00) (45, 3.29285335540771484375e+00) (46, 7.63370022177696228027e-02) (47, 2.46786728501319885254e-01) (48, -1.04167079553008079529e-02) (49, -5.76638877391815185547e-02) (50, 4.11195725202560424805e-01) (51, 1.79397433996200561523e-01) (52, 6.62647962570190429688e-01) (53, -1.27875185012817382812e+00) (54, 3.61514866352081298828e-01) (55, 8.44118058681488037109e-01) (56, 1.30058020353317260742e-01) (57, 1.04335658252239227295e-01) (58, -5.97079237923026084900e-03) (59, 2.15945437550544738770e-01) (60, -6.61560595035552978516e-02) (61, -4.35936339199542999268e-02) (62, 1.33732870221138000488e-01) (63, 6.22088313102722167969e-01) (64, -4.09985810518264770508e-01) (65, 7.39153742790222167969e-01) (66, 6.10519826412200927734e-01) (0, 6.47411942481994628906e-01) (1, -9.73012506961822509766e-01) (2, 1.30193173885345458984e-01) (3, 3.33207696676254272461e-02) (4, 9.61851924657821655273e-02) (5, 2.26173289120197296143e-02) (6, 5.02514354884624481201e-02) (7, -7.75083433836698532104e-04) (8, 6.28912925720214843750e-01) (9, 3.63442838191986083984e-01) (10, 3.63442391157150268555e-01) (11, 4.18671190738677978516e-01) (12, 6.53434932231903076172e-01) (13, 1.58975496888160705566e-01) (14, 1.37987425550818443298e-02) (15, 1.36016100645065307617e-01) (16, 4.22872453927993774414e-02) (17, 1.47853553295135498047e-01) (18, 7.86097347736358642578e-02) (19, 5.83436250686645507812e-01) (20, 8.12139332294464111328e-01) (21, 3.30789923667907714844e-01) (22, 4.49233472347259521484e-01) (23, 6.71424686908721923828e-01) (24, 9.29109081625938415527e-02) (25, 9.07058194279670715332e-02) (26, 1.40391543507575988770e-01) (27, 7.62996599078178405762e-02) (28, 3.81063111126422882080e-02) (29, 4.28846664726734161377e-02) (30, 5.89805781841278076172e-01) (31, 9.94998216629028320312e-01) (32, 4.01471346616744995117e-01) (33, 6.22274696826934814453e-01) (34, 8.16949129104614257812e-01) (35, 1.01854771375656127930e-01) (36, 8.44678953289985656738e-02) (37, 7.47764483094215393066e-02) (38, 4.67402599751949310303e-02) (39, 1.65347471833229064941e-01) (40, 1.20771132409572601318e-01) (41, 7.27771401405334472656e-01) (42, 2.72923469543457031250e-01) (43, 3.67476850748062133789e-01) (44, 3.94980967044830322266e-01) (45, 1.29986417293548583984e+00) (46, 1.04086354374885559082e-01) (47, 1.90646573901176452637e-01) (48, 6.94939643144607543945e-02) (49, 9.27988514304161071777e-02) (50, 1.98358491063117980957e-01) (51, 1.10845506191253662109e-01) (52, 6.45693957805633544922e-01) (53, 1.40518054366111755371e-01) (54, 3.66310656070709228516e-01) (55, 5.58357715606689453125e-01) (56, 1.20635461807250976562e+00) (57, 1.51355236768722534180e-01) (58, 5.02783097326755523682e-02) (59, 1.03892259299755096436e-01) (60, 7.08863958716392517090e-02) (61, 7.13272988796234130859e-02) (62, 1.08138181269168853760e-01) (63, 5.92678964138031005859e-01) (64, 2.95137822628021240234e-01) (65, 6.51657640933990478516e-01) (66, 5.76540589332580566406e-01) (0, 5.23751080036163330078e-01) (1, -5.45816802978515625000e+00) (2, 2.18589320778846740723e-01) (3, -3.30030694603919982910e-02) (4, 1.18122711777687072754e-01) (5, 1.03348881006240844727e-01) (6, 5.59888072311878204346e-02) (7, 6.47747591137886047363e-02) (8, 4.99904125928878784180e-01) (9, -9.80767965316772460938e-01) (10, 3.38942676782608032227e-01) (11, -5.23248434066772460938e-01) (12, -3.37441706657409667969e+00) (13, 2.58319497108459472656e-01) (14, -4.89998050034046173096e-02) (15, 2.03268360346555709839e-02) (16, 7.68154338002204895020e-02) (17, 5.11580109596252441406e-02) (18, 7.95471444725990295410e-02) (19, 5.89236974716186523438e-01) (20, -7.52205848693847656250e-01) (21, 3.04085761308670043945e-01) (22, 9.66826677322387695312e-01) (23, 2.58863836526870727539e-01) (24, 2.62196008116006851196e-02) (25, -3.73761467635631561279e-02) (26, 1.29333645105361938477e-01) (27, 3.25991101562976837158e-02) (28, 7.72915929555892944336e-02) (29, -4.73092496395111083984e-02) (30, 5.06412506103515625000e-01) (31, 4.81163501739501953125e-01) (32, 3.87113243341445922852e-01) (33, 4.91663396358489990234e-01) (34, -1.14354228973388671875e+00) (35, 1.43448505550622940063e-02) (36, 6.13184012472629547119e-02) (37, -1.17542343214154243469e-02) (38, 7.92036131024360656738e-02) (39, 1.10720805823802947998e-01) (40, 1.20779767632484436035e-01) (41, 4.55439329147338867188e-01) (42, -2.57835220545530319214e-02) (43, 3.18616330623626708984e-01) (44, 1.19404125213623046875e+00) (45, 7.91700649261474609375e+00) (46, 7.55714625120162963867e-02) (47, 1.16973388940095901489e-02) (48, 1.18440493941307067871e-01) (49, 9.51162353157997131348e-02) (50, 2.36675366759300231934e-01) (51, 1.10086359083652496338e-01) (52, 5.93704640865325927734e-01) (53, 7.82672345638275146484e-01) (54, 3.26563537120819091797e-01) (55, 5.41993260383605957031e-01) (56, -3.28511372208595275879e-02) (57, 1.75517216324806213379e-01) (58, 2.91666444391012191772e-02) (59, 1.17131084203720092773e-01) (60, 1.53356894850730895996e-01) (61, 7.11643770337104797363e-02) (62, 2.00512960553169250488e-01) (63, 4.79445666074752807617e-01) (64, -6.21292926371097564697e-02) (65, 6.66775584220886230469e-01) (66, 4.90427315235137939453e-01) (0, -1.43460021972656250000e+03) (1, 1.50000000000000000000e+03) (2, 1.50000000000000000000e+03) (3, -1.45331921386718750000e+03) (4, 1.50000000000000000000e+03) (5, -1.49751159667968750000e+03) (6, 1.49999987792968750000e+03) (7, -1.47521435546875000000e+03) (8, -1.46184582519531250000e+03) (9, -1.49998657226562500000e+03) (10, 1.49998107910156250000e+03) (11, -1.50000000000000000000e+03) (12, 1.37180554199218750000e+03) (13, 1.50000000000000000000e+03) (14, -1.38797473144531250000e+03) (15, 1.50000000000000000000e+03) (16, -1.49912475585937500000e+03) (17, 1.49999475097656250000e+03) (18, -1.19331274414062500000e+03) (19, -1.46198767089843750000e+03) (20, -1.49967321777343750000e+03) (21, 1.49901733398437500000e+03) (22, -1.50000000000000000000e+03) (23, 1.50000000000000000000e+03) (24, 1.50000000000000000000e+03) (25, -1.39718566894531250000e+03) (26, 1.50000000000000000000e+03) (27, -1.49656616210937500000e+03) (28, 1.49999975585937500000e+03) (29, -1.33232104492187500000e+03) (30, -1.46193615722656250000e+03) (31, -1.39005273437500000000e+03) (32, 1.49979089355468750000e+03) (33, -1.50000000000000000000e+03) (34, 1.43280126953125000000e+03) (35, 1.50000000000000000000e+03) (36, -1.41930554199218750000e+03) (37, 1.50000000000000000000e+03) (38, -1.49171362304687500000e+03) (39, 1.49999987792968750000e+03) (40, -1.36483715820312500000e+03) (41, -1.46182885742187500000e+03) (42, -1.47481933593750000000e+03) (43, 1.49994592285156250000e+03) (44, -1.50000000000000000000e+03) (45, -1.22480004882812500000e+03) (46, 1.50000000000000000000e+03) (47, -1.49527832031250000000e+03) (48, 1.50000000000000000000e+03) (49, -1.49913818359375000000e+03) (50, 1.49999987792968750000e+03) (51, -1.08779016113281250000e+03) (52, -1.46185168457031250000e+03) (53, -1.49983325195312500000e+03) (54, 1.49999975585937500000e+03) (55, -1.50000000000000000000e+03) (56, 1.49200573730468750000e+03) (57, 1.50000000000000000000e+03) (58, -1.48778356933593750000e+03) (59, 1.50000000000000000000e+03) (60, -1.49797436523437500000e+03) (61, 1.50000000000000000000e+03) (62, -1.48577880859375000000e+03) (63, -1.46198339843750000000e+03) (64, -1.49564843750000000000e+03) (65, 1.49999987792968750000e+03) (66, -1.46184326171875000000e+03) (0, 9.57543194293975830078e-01) (1, -1.87180919647216796875e+01) (2, 2.66399085521697998047e-01) (3, -3.62848132848739624023e-01) (4, 4.03759703040122985840e-02) (5, 1.51218444108963012695e-01) (6, 1.36211022734642028809e-01) (7, -1.27510532736778259277e-01) (8, 5.75292646884918212891e-01) (9, 7.69672274589538574219e-01) (10, 1.54933169484138488770e-01) (11, 2.73661088943481445312e+00) (12, 2.26967506408691406250e+01) (13, 3.69898229837417602539e-01) (14, -5.56444644927978515625e-01) (15, 1.29614189267158508301e-01) (16, -3.73842306435108184814e-02) (17, 1.96514487266540527344e-01) (18, -5.54084897041320800781e-01) (19, 4.23820316791534423828e-01) (20, 3.15837073326110839844e+00) (21, 3.01714688539505004883e-01) (22, 1.15241360664367675781e+00) (23, 2.13853406906127929688e+00) (24, 4.95292365550994873047e-01) (25, -3.11082184314727783203e-01) (26, 3.67191821336746215820e-01) (27, -3.39941471815109252930e-01) (28, 1.24107331037521362305e-01) (29, -8.54848861694335937500e-01) (30, 4.63113009929656982422e-01) (31, -1.28106772899627685547e+00) (32, 4.56055998802185058594e-01) (33, 9.26188647747039794922e-01) (34, 7.56039261817932128906e-01) (35, 5.32438755035400390625e-01) (36, 4.27300184965133666992e-02) (37, 3.37860405445098876953e-01) (38, -2.11099162697792053223e-01) (39, 1.10200159251689910889e-01) (40, -3.00728499889373779297e-01) (41, 5.64544737339019775391e-01) (42, 3.09128850698471069336e-01) (43, 2.58781939744949340820e-01) (44, 5.01434862613677978516e-01) (45, -1.89310121536254882812e+00) (46, 4.22209531068801879883e-01) (47, -5.18186211585998535156e-01) (48, 2.29195937514305114746e-01) (49, -1.30655154585838317871e-01) (50, 1.73143729567527770996e-01) (51, -3.05121392011642456055e-01) (52, 4.20988827943801879883e-01) (53, -8.63068044185638427734e-01) (54, 6.55644237995147705078e-01) (55, 6.96686208248138427734e-01) (56, 3.16759943962097167969e+00) (57, 6.12474501132965087891e-01) (58, -2.91927278041839599609e-01) (59, 2.68395870923995971680e-01) (60, -3.09702575206756591797e-01) (61, 1.69952332973480224609e-01) (62, -1.41630440950393676758e-01) (63, 5.52704691886901855469e-01) (64, -2.49880552291870117188e+00) (65, 7.35066056251525878906e-01) (66, 5.31229257583618164062e-01) (0, -8.74064207077026367188e-01) (1, -1.46767969131469726562e+01) (2, 3.38499993085861206055e-01) (3, -5.91844081878662109375e-01) (4, 3.89935642480850219727e-01) (5, 3.52664023637771606445e-01) (6, 1.33338958024978637695e-01) (7, -2.89215892553329467773e-01) (8, 4.69606041908264160156e-01) (9, 4.94838774204254150391e-01) (10, 1.14745192229747772217e-01) (11, 6.06282241642475128174e-02) (12, 1.93140335083007812500e+01) (13, 4.41699951887130737305e-01) (14, -3.03569048643112182617e-01) (15, 2.83537983894348144531e-01) (16, -5.15509285032749176025e-02) (17, 1.62978678941726684570e-01) (18, -5.63204050064086914062e-01) (19, 5.15325069427490234375e-01) (20, 1.31767117977142333984e+00) (21, 2.98400998115539550781e-01) (22, -2.61858844757080078125e+00) (23, -9.36467468738555908203e-01) (24, 5.43044328689575195312e-01) (25, -3.32222878932952880859e-01) (26, 1.26126796007156372070e-01) (27, -3.30927103757858276367e-01) (28, 1.02876089513301849365e-01) (29, -7.18998372554779052734e-01) (30, 5.44656753540039062500e-01) (31, 1.27635014057159423828e+00) (32, 4.32854324579238891602e-01) (33, -3.49983304738998413086e-01) (34, -7.06309318542480468750e-01) (35, 5.24120151996612548828e-01) (36, -3.97805601358413696289e-01) (37, 9.02510210871696472168e-02) (38, -3.25052291154861450195e-01) (39, 1.74081608653068542480e-01) (40, -3.81311655044555664062e-01) (41, 5.68687021732330322266e-01) (42, 2.05808258056640625000e+00) (43, 2.90764182806015014648e-01) (44, -3.77941057085990905762e-02) (45, -4.02558231353759765625e+00) (46, 5.46321868896484375000e-01) (47, -3.45343261957168579102e-01) (48, 7.33701512217521667480e-02) (49, -2.02416345477104187012e-01) (50, 2.00313732028007507324e-01) (51, -2.54292517900466918945e-01) (52, 4.86867189407348632812e-01) (53, 1.84259310364723205566e-01) (54, 6.85198187828063964844e-01) (55, -1.93095862865447998047e-01) (56, 1.15223205089569091797e+00) (57, 5.33885896205902099609e-01) (58, -3.51171255111694335938e-01) (59, 6.28089606761932373047e-02) (60, -1.08221530914306640625e-01) (61, 1.15867540240287780762e-01) (62, -1.77485704421997070312e-01) (63, 4.64775621891021728516e-01) (64, -3.77551007270812988281e+00) (65, 7.73334980010986328125e-01) (66, 5.87407648563385009766e-01) (67, 9.09759923815727233887e-02) (68, 1.03078238666057586670e-01) (69, -6.21418505907058715820e-02) (70, -1.06907635927200317383e-03) (71, -1.25657349824905395508e-01) (72, 1.95055544376373291016e-01) (73, -1.52457170188426971436e-02) (74, 9.12617892026901245117e-04) (75, -1.45438835024833679199e-01) (76, 1.48717805743217468262e-01) (77, -9.63935926556587219238e-02) (67, -1.04827687144279479980e-01) (68, 4.83030974864959716797e-02) (69, -1.47383749485015869141e-01) (70, 3.28908823430538177490e-02) (71, -4.60921451449394226074e-02) (72, 3.62869262695312500000e-01) (73, -1.86817362904548645020e-01) (74, -3.37511242832988500595e-04) (75, -1.39928475022315979004e-01) (76, 1.33334755897521972656e-01) (77, 5.09650586172938346863e-03) 
