FANN_FLO_2.0
num_layers=3
learning_rate=0.700000
connection_rate=1.000000
shortcut_connections=0
learning_momentum=0.000000
training_algorithm=2
train_error_function=1
train_stop_function=0
cascade_output_change_fraction=0.010000
quickprop_decay=-0.000100
quickprop_mu=1.750000
rprop_increase_factor=1.200000
rprop_decrease_factor=0.500000
rprop_delta_min=0.000000
rprop_delta_max=50.000000
rprop_delta_zero=0.500000
cascade_output_stagnation_epochs=12
cascade_candidate_change_fraction=0.010000
cascade_candidate_stagnation_epochs=12
cascade_max_out_epochs=150
cascade_max_cand_epochs=150
cascade_num_candidate_groups=2
bit_fail_limit=3.49999994039535522461e-01
cascade_candidate_limit=1.00000000000000000000e+03
cascade_weight_multiplier=4.00000005960464477539e-01
cascade_activation_functions_count=6
cascade_activation_functions=3 5 7 8 10 11 
cascade_activation_steepnesses_count=4
cascade_activation_steepnesses=2.50000000000000000000e-01 5.00000000000000000000e-01 7.50000000000000000000e-01 1.00000000000000000000e+00 
layer_sizes=3 16 2 
neurons (num_inputs, activation_function, activation_steepness)=(0, 0, 0.00000000000000000000e+00) (0, 0, 0.00000000000000000000e+00) (0, 0, 0.00000000000000000000e+00) (3, 7, 5.00000000000000000000e-01) (3, 7, 5.00000000000000000000e-01) (3, 7, 5.00000000000000000000e-01) (3, 7, 5.00000000000000000000e-01) (3, 7, 5.00000000000000000000e-01) (3, 7, 5.00000000000000000000e-01) (3, 7, 5.00000000000000000000e-01) (3, 7, 5.00000000000000000000e-01) (3, 7, 5.00000000000000000000e-01) (3, 7, 5.00000000000000000000e-01) (3, 7, 5.00000000000000000000e-01) (3, 7, 5.00000000000000000000e-01) (3, 7, 5.00000000000000000000e-01) (3, 7, 5.00000000000000000000e-01) (3, 7, 5.00000000000000000000e-01) (0, 7, 5.00000000000000000000e-01) (16, 0, 5.00000000000000000000e-01) (0, 0, 0.00000000000000000000e+00) 
connections (connected_to_neuron, weight)=(0, 1.03279547765851020813e-02) (1, 1.69138032943010330200e-02) (2, 3.60676527023315429688e-01) (0, 1.44122829660773277283e-02) (1, -2.58412901312112808228e-02) (2, -7.43045359849929809570e-02) (0, 2.35210824757814407349e-03) (1, 1.29265030845999717712e-02) (2, -5.42335286736488342285e-02) (0, 2.67679572105407714844e+00) (1, 3.59960770606994628906e+00) (2, 4.10762071609497070312e-01) (0, 2.80118846893310546875e+00) (1, 4.06092834472656250000e+00) (2, 4.65689659118652343750e-01) (0, 6.58103674650192260742e-02) (1, -1.61448538303375244141e-01) (2, 3.72168868780136108398e-02) (0, 2.73845124244689941406e+00) (1, 3.73981332778930664062e+00) (2, 4.31862950325012207031e-01) (0, 2.50045359134674072266e-02) (1, -5.00158220529556274414e-02) (2, -4.89931032061576843262e-02) (0, 1.34457396343350410461e-02) (1, 1.37874409556388854980e-02) (2, -1.35234996676445007324e-01) (0, -6.54582902789115905762e-02) (1, 9.61458310484886169434e-02) (2, -1.79339921474456787109e+00) (0, -2.33052298426628112793e-02) (1, 5.06281405687332153320e-02) (2, -9.69212651252746582031e-02) (0, 1.75901746843010187149e-04) (1, 1.74537096172571182251e-02) (2, -3.18302921950817108154e-02) (0, -1.41936177387833595276e-02) (1, -6.40810746699571609497e-03) (2, 9.96457114815711975098e-02) (0, 9.66498069465160369873e-03) (1, 2.04566773027181625366e-02) (2, 8.36043357849121093750e-02) (0, -2.08649667911231517792e-03) (1, 5.23339547216892242432e-02) (2, -1.29482054710388183594e+00) (3, -1.96093618869781494141e-01) (4, 1.71741440892219543457e-01) (5, 2.42837339639663696289e-01) (6, 2.32549771666526794434e-01) (7, 8.66955339908599853516e-01) (8, 5.73493540287017822266e-01) (9, 4.90131467580795288086e-01) (10, 4.05595958232879638672e-01) (11, -2.91490525007247924805e-01) (12, 2.12532952427864074707e-01) (13, 1.10125809907913208008e-01) (14, 4.00824099779129028320e-01) (15, -3.61219018697738647461e-01) (16, -2.88549631834030151367e-01) (17, -7.37819910049438476562e-01) (18, 1.18022151291370391846e-01) 
