FANN_FLO_2.1
num_layers=3
learning_rate=0.700000
connection_rate=1.000000
network_type=0
learning_momentum=0.000000
training_algorithm=2
train_error_function=1
train_stop_function=0
cascade_output_change_fraction=0.010000
quickprop_decay=-0.000100
quickprop_mu=1.750000
rprop_increase_factor=1.200000
rprop_decrease_factor=0.500000
rprop_delta_min=0.000000
rprop_delta_max=50.000000
rprop_delta_zero=0.100000
cascade_output_stagnation_epochs=12
cascade_candidate_change_fraction=0.010000
cascade_candidate_stagnation_epochs=12
cascade_max_out_epochs=150
cascade_max_cand_epochs=150
cascade_num_candidate_groups=2
bit_fail_limit=3.49999994039535522461e-01
cascade_candidate_limit=1.00000000000000000000e+03
cascade_weight_multiplier=4.00000005960464477539e-01
cascade_activation_functions_count=10
cascade_activation_functions=3 5 7 8 10 11 14 15 16 17 
cascade_activation_steepnesses_count=4
cascade_activation_steepnesses=2.50000000000000000000e-01 5.00000000000000000000e-01 7.50000000000000000000e-01 1.00000000000000000000e+00 
layer_sizes=49 11 3 
scale_included=0
neurons (num_inputs, activation_function, activation_steepness)=(0, 0, 0.00000000000000000000e+00) (0, 0, 0.00000000000000000000e+00) (0, 0, 0.00000000000000000000e+00) (0, 0, 0.00000000000000000000e+00) (0, 0, 0.00000000000000000000e+00) (0, 0, 0.00000000000000000000e+00) (0, 0, 0.00000000000000000000e+00) (0, 0, 0.00000000000000000000e+00) (0, 0, 0.00000000000000000000e+00) (0, 0, 0.00000000000000000000e+00) (0, 0, 0.00000000000000000000e+00) (0, 0, 0.00000000000000000000e+00) (0, 0, 0.00000000000000000000e+00) (0, 0, 0.00000000000000000000e+00) (0, 0, 0.00000000000000000000e+00) (0, 0, 0.00000000000000000000e+00) (0, 0, 0.00000000000000000000e+00) (0, 0, 0.00000000000000000000e+00) (0, 0, 0.00000000000000000000e+00) (0, 0, 0.00000000000000000000e+00) (0, 0, 0.00000000000000000000e+00) (0, 0, 0.00000000000000000000e+00) (0, 0, 0.00000000000000000000e+00) (0, 0, 0.00000000000000000000e+00) (0, 0, 0.00000000000000000000e+00) (0, 0, 0.00000000000000000000e+00) (0, 0, 0.00000000000000000000e+00) (0, 0, 0.00000000000000000000e+00) (0, 0, 0.00000000000000000000e+00) (0, 0, 0.00000000000000000000e+00) (0, 0, 0.00000000000000000000e+00) (0, 0, 0.00000000000000000000e+00) (0, 0, 0.00000000000000000000e+00) (0, 0, 0.00000000000000000000e+00) (0, 0, 0.00000000000000000000e+00) (0, 0, 0.00000000000000000000e+00) (0, 0, 0.00000000000000000000e+00) (0, 0, 0.00000000000000000000e+00) (0, 0, 0.00000000000000000000e+00) (0, 0, 0.00000000000000000000e+00) (0, 0, 0.00000000000000000000e+00) (0, 0, 0.00000000000000000000e+00) (0, 0, 0.00000000000000000000e+00) (0, 0, 0.00000000000000000000e+00) (0, 0, 0.00000000000000000000e+00) (0, 0, 0.00000000000000000000e+00) (0, 0, 0.00000000000000000000e+00) (0, 0, 0.00000000000000000000e+00) (0, 0, 0.00000000000000000000e+00) (49, 5, 5.00000000000000000000e-01) (49, 5, 5.00000000000000000000e-01) (49, 5, 5.00000000000000000000e-01) (49, 5, 5.00000000000000000000e-01) (49, 5, 5.00000000000000000000e-01) (49, 5, 5.00000000000000000000e-01) (49, 5, 5.00000000000000000000e-01) (49, 5, 5.00000000000000000000e-01) (49, 5, 5.00000000000000000000e-01) (49, 5, 5.00000000000000000000e-01) (0, 5, 0.00000000000000000000e+00) (11, 11, 5.00000000000000000000e-01) (11, 11, 5.00000000000000000000e-01) (0, 11, 0.00000000000000000000e+00) 
connections (connected_to_neuron, weight)=(0, 1.50000000000000000000e+03) (1, 1.50000000000000000000e+03) (2, 1.50000000000000000000e+03) (3, 1.50000000000000000000e+03) (4, 1.50000000000000000000e+03) (5, 1.50000000000000000000e+03) (6, 1.50000000000000000000e+03) (7, 1.50000000000000000000e+03) (8, 1.50000000000000000000e+03) (9, 1.50000000000000000000e+03) (10, 1.50000000000000000000e+03) (11, 1.50000000000000000000e+03) (12, 1.50000000000000000000e+03) (13, 1.50000000000000000000e+03) (14, 1.50000000000000000000e+03) (15, 1.50000000000000000000e+03) (16, 1.50000000000000000000e+03) (17, 1.50000000000000000000e+03) (18, 1.50000000000000000000e+03) (19, 1.50000000000000000000e+03) (20, 1.50000000000000000000e+03) (21, 1.50000000000000000000e+03) (22, 1.50000000000000000000e+03) (23, 1.50000000000000000000e+03) (24, 1.50000000000000000000e+03) (25, 1.50000000000000000000e+03) (26, 1.50000000000000000000e+03) (27, 1.50000000000000000000e+03) (28, 1.50000000000000000000e+03) (29, 1.50000000000000000000e+03) (30, 1.50000000000000000000e+03) (31, 1.50000000000000000000e+03) (32, 1.50000000000000000000e+03) (33, 1.50000000000000000000e+03) (34, 1.50000000000000000000e+03) (35, 1.50000000000000000000e+03) (36, 1.50000000000000000000e+03) (37, 1.50000000000000000000e+03) (38, 1.50000000000000000000e+03) (39, 1.50000000000000000000e+03) (40, 1.50000000000000000000e+03) (41, 1.50000000000000000000e+03) (42, 1.50000000000000000000e+03) (43, 1.50000000000000000000e+03) (44, 1.50000000000000000000e+03) (45, 1.50000000000000000000e+03) (46, 1.50000000000000000000e+03) (47, 1.50000000000000000000e+03) (48, 1.50000000000000000000e+03) (0, -1.73821594238281250000e+02) (1, -1.50000000000000000000e+03) (2, -1.73901336669921875000e+02) (3, -1.50000000000000000000e+03) (4, -1.73783447265625000000e+02) (5, -1.50000000000000000000e+03) (6, -1.73920059204101562500e+02) (7, -1.50000000000000000000e+03) (8, -1.73889801025390625000e+02) (9, -1.50000000000000000000e+03) (10, -1.73801635742187500000e+02) (11, -1.50000000000000000000e+03) (12, -1.73909133911132812500e+02) (13, -1.50000000000000000000e+03) (14, -1.73897567749023437500e+02) (15, -1.50000000000000000000e+03) (16, -1.73861129760742187500e+02) (17, -1.50000000000000000000e+03) (18, -1.73929565429687500000e+02) (19, -1.50000000000000000000e+03) (20, -1.73747940063476562500e+02) (21, -1.50000000000000000000e+03) (22, -1.73893615722656250000e+02) (23, -1.50000000000000000000e+03) (24, -1.73868865966796875000e+02) (25, -1.50000000000000000000e+03) (26, -1.73896865844726562500e+02) (27, -1.50000000000000000000e+03) (28, -1.73868774414062500000e+02) (29, -1.50000000000000000000e+03) (30, -1.73774551391601562500e+02) (31, -1.50000000000000000000e+03) (32, -1.73837768554687500000e+02) (33, -1.50000000000000000000e+03) (34, -1.73837371826171875000e+02) (35, -1.50000000000000000000e+03) (36, -1.73778213500976562500e+02) (37, -1.50000000000000000000e+03) (38, -1.73753036499023437500e+02) (39, -1.50000000000000000000e+03) (40, -1.73785186767578125000e+02) (41, -1.50000000000000000000e+03) (42, -1.73791610717773437500e+02) (43, -1.50000000000000000000e+03) (44, -1.73905395507812500000e+02) (45, -1.50000000000000000000e+03) (46, -1.73753738403320312500e+02) (47, -1.50000000000000000000e+03) (48, -1.73824081420898437500e+02) (0, -1.49999987792968750000e+03) (1, -1.50000000000000000000e+03) (2, -1.49999987792968750000e+03) (3, -1.50000000000000000000e+03) (4, -1.49999987792968750000e+03) (5, -1.50000000000000000000e+03) (6, -1.49999987792968750000e+03) (7, -1.50000000000000000000e+03) (8, -1.49999987792968750000e+03) (9, -1.50000000000000000000e+03) (10, -1.49999987792968750000e+03) (11, -1.50000000000000000000e+03) (12, -1.49999987792968750000e+03) (13, -1.50000000000000000000e+03) (14, -1.49999987792968750000e+03) (15, -1.50000000000000000000e+03) (16, -1.49999987792968750000e+03) (17, -1.50000000000000000000e+03) (18, -1.49999987792968750000e+03) (19, -1.50000000000000000000e+03) (20, -1.49999987792968750000e+03) (21, -1.50000000000000000000e+03) (22, -1.49999987792968750000e+03) (23, -1.50000000000000000000e+03) (24, -1.49999987792968750000e+03) (25, -1.50000000000000000000e+03) (26, -1.49999987792968750000e+03) (27, -1.50000000000000000000e+03) (28, -1.49999987792968750000e+03) (29, -1.50000000000000000000e+03) (30, -1.49999987792968750000e+03) (31, -1.50000000000000000000e+03) (32, -1.49999987792968750000e+03) (33, -1.50000000000000000000e+03) (34, -1.49999987792968750000e+03) (35, -1.50000000000000000000e+03) (36, -1.49999987792968750000e+03) (37, -1.50000000000000000000e+03) (38, -1.49999987792968750000e+03) (39, -1.50000000000000000000e+03) (40, -1.49999987792968750000e+03) (41, -1.50000000000000000000e+03) (42, -1.49999987792968750000e+03) (43, -1.50000000000000000000e+03) (44, -1.49999987792968750000e+03) (45, -1.50000000000000000000e+03) (46, -1.49999987792968750000e+03) (47, -1.50000000000000000000e+03) (48, -1.49999987792968750000e+03) (0, 1.50000000000000000000e+03) (1, -1.50000000000000000000e+03) (2, 1.50000000000000000000e+03) (3, -1.50000000000000000000e+03) (4, 1.50000000000000000000e+03) (5, -1.50000000000000000000e+03) (6, 1.50000000000000000000e+03) (7, -1.50000000000000000000e+03) (8, 1.50000000000000000000e+03) (9, -1.50000000000000000000e+03) (10, 1.50000000000000000000e+03) (11, -1.50000000000000000000e+03) (12, 1.50000000000000000000e+03) (13, -1.50000000000000000000e+03) (14, 1.50000000000000000000e+03) (15, -1.50000000000000000000e+03) (16, 1.50000000000000000000e+03) (17, -1.50000000000000000000e+03) (18, 1.50000000000000000000e+03) (19, -1.50000000000000000000e+03) (20, 1.50000000000000000000e+03) (21, -1.50000000000000000000e+03) (22, 1.50000000000000000000e+03) (23, -1.50000000000000000000e+03) (24, 1.50000000000000000000e+03) (25, -1.50000000000000000000e+03) (26, 1.50000000000000000000e+03) (27, -1.50000000000000000000e+03) (28, 1.50000000000000000000e+03) (29, -1.50000000000000000000e+03) (30, 1.50000000000000000000e+03) (31, -1.50000000000000000000e+03) (32, 1.50000000000000000000e+03) (33, -1.50000000000000000000e+03) (34, 1.50000000000000000000e+03) (35, -1.50000000000000000000e+03) (36, 1.50000000000000000000e+03) (37, -1.50000000000000000000e+03) (38, 1.50000000000000000000e+03) (39, -1.50000000000000000000e+03) (40, 1.50000000000000000000e+03) (41, -1.50000000000000000000e+03) (42, 1.50000000000000000000e+03) (43, -1.50000000000000000000e+03) (44, 1.50000000000000000000e+03) (45, -1.50000000000000000000e+03) (46, 1.50000000000000000000e+03) (47, -1.50000000000000000000e+03) (48, 1.50000000000000000000e+03) (0, 1.10023950195312500000e+03) (1, -1.50000000000000000000e+03) (2, 5.00614746093750000000e+02) (3, -1.50000000000000000000e+03) (4, 1.10020727539062500000e+03) (5, -1.50000000000000000000e+03) (6, 1.10007348632812500000e+03) (7, -1.50000000000000000000e+03) (8, 1.10022326660156250000e+03) (9, -1.50000000000000000000e+03) (10, 5.00669799804687500000e+02) (11, -1.50000000000000000000e+03) (12, 1.10014807128906250000e+03) (13, -1.50000000000000000000e+03) (14, 1.10017834472656250000e+03) (15, -1.50000000000000000000e+03) (16, 1.10011352539062500000e+03) (17, -1.50000000000000000000e+03) (18, 5.00551544189453125000e+02) (19, -1.50000000000000000000e+03) (20, 1.10026306152343750000e+03) (21, -1.50000000000000000000e+03) (22, 1.10007263183593750000e+03) (23, -1.50000000000000000000e+03) (24, 1.10007775878906250000e+03) (25, -1.50000000000000000000e+03) (26, 5.00530334472656250000e+02) (27, -1.50000000000000000000e+03) (28, 1.10017590332031250000e+03) (29, -1.50000000000000000000e+03) (30, 1.10021813964843750000e+03) (31, -1.50000000000000000000e+03) (32, 1.10011547851562500000e+03) (33, -1.50000000000000000000e+03) (34, 5.00533264160156250000e+02) (35, -1.50000000000000000000e+03) (36, 1.10017944335937500000e+03) (37, -1.50000000000000000000e+03) (38, 1.10017333984375000000e+03) (39, -1.50000000000000000000e+03) (40, 1.10023486328125000000e+03) (41, -1.50000000000000000000e+03) (42, 5.00644653320312500000e+02) (43, -1.50000000000000000000e+03) (44, 1.10026074218750000000e+03) (45, -1.50000000000000000000e+03) (46, 1.10008850097656250000e+03) (47, -1.50000000000000000000e+03) (48, 1.09808056640625000000e+03) (0, 1.58513458251953125000e+02) (1, -1.50000000000000000000e+03) (2, 1.58511581420898437500e+02) (3, -1.50000000000000000000e+03) (4, 1.58598434448242187500e+02) (5, -1.50000000000000000000e+03) (6, 1.55669036865234375000e+02) (7, -1.50000000000000000000e+03) (8, 1.58493209838867187500e+02) (9, -1.50000000000000000000e+03) (10, 1.58550048828125000000e+02) (11, -1.50000000000000000000e+03) (12, 1.58632797241210937500e+02) (13, -1.50000000000000000000e+03) (14, 1.55778610229492187500e+02) (15, -1.50000000000000000000e+03) (16, 1.58350128173828125000e+02) (17, -1.50000000000000000000e+03) (18, 1.58606613159179687500e+02) (19, -1.50000000000000000000e+03) (20, 1.58486465454101562500e+02) (21, -1.50000000000000000000e+03) (22, 1.55655578613281250000e+02) (23, -1.50000000000000000000e+03) (24, 1.55807464599609375000e+02) (25, -1.50000000000000000000e+03) (26, 1.58554077148437500000e+02) (27, -1.50000000000000000000e+03) (28, 1.58433456420898437500e+02) (29, -1.50000000000000000000e+03) (30, 1.55718505859375000000e+02) (31, -1.50000000000000000000e+03) (32, 1.55731216430664062500e+02) (33, -1.50000000000000000000e+03) (34, 1.58621520996093750000e+02) (35, -1.50000000000000000000e+03) (36, 1.58410629272460937500e+02) (37, -1.50000000000000000000e+03) (38, 1.55669021606445312500e+02) (39, -1.50000000000000000000e+03) (40, 1.55667236328125000000e+02) (41, -1.50000000000000000000e+03) (42, 1.58556427001953125000e+02) (43, -1.50000000000000000000e+03) (44, 1.55757888793945312500e+02) (45, -1.50000000000000000000e+03) (46, 1.55693145751953125000e+02) (47, -1.50000000000000000000e+03) (48, 1.55792327880859375000e+02) (0, 1.39344372558593750000e+03) (1, -1.50000000000000000000e+03) (2, 1.41336096191406250000e+03) (3, -1.50000000000000000000e+03) (4, 1.39361108398437500000e+03) (5, -1.50000000000000000000e+03) (6, 1.35725463867187500000e+03) (7, -1.50000000000000000000e+03) (8, 1.39345141601562500000e+03) (9, -1.50000000000000000000e+03) (10, 1.41348767089843750000e+03) (11, -1.50000000000000000000e+03) (12, 1.39352246093750000000e+03) (13, -1.50000000000000000000e+03) (14, 1.35710290527343750000e+03) (15, -1.50000000000000000000e+03) (16, 1.35712963867187500000e+03) (17, -1.50000000000000000000e+03) (18, 1.41344641113281250000e+03) (19, -1.50000000000000000000e+03) (20, 1.39354638671875000000e+03) (21, -1.50000000000000000000e+03) (22, 1.35712951660156250000e+03) (23, -1.50000000000000000000e+03) (24, 1.35708630371093750000e+03) (25, -1.50000000000000000000e+03) (26, 1.50000000000000000000e+03) (27, -1.50000000000000000000e+03) (28, 1.35720361328125000000e+03) (29, -1.50000000000000000000e+03) (30, 1.35707397460937500000e+03) (31, -1.50000000000000000000e+03) (32, 1.35710302734375000000e+03) (33, -1.50000000000000000000e+03) (34, 1.50000000000000000000e+03) (35, -1.50000000000000000000e+03) (36, 1.35720739746093750000e+03) (37, -1.50000000000000000000e+03) (38, 1.35709863281250000000e+03) (39, -1.50000000000000000000e+03) (40, 1.35725488281250000000e+03) (41, -1.50000000000000000000e+03) (42, 1.50000000000000000000e+03) (43, -1.50000000000000000000e+03) (44, 1.35713586425781250000e+03) (45, -1.50000000000000000000e+03) (46, 1.35714367675781250000e+03) (47, -1.50000000000000000000e+03) (48, 1.35701257324218750000e+03) (0, 1.50000000000000000000e+03) (1, 1.50000000000000000000e+03) (2, 1.50000000000000000000e+03) (3, 1.50000000000000000000e+03) (4, 1.50000000000000000000e+03) (5, 1.50000000000000000000e+03) (6, 1.50000000000000000000e+03) (7, 1.50000000000000000000e+03) (8, 1.50000000000000000000e+03) (9, 1.50000000000000000000e+03) (10, 1.50000000000000000000e+03) (11, 1.50000000000000000000e+03) (12, 1.50000000000000000000e+03) (13, 1.50000000000000000000e+03) (14, 1.50000000000000000000e+03) (15, 1.50000000000000000000e+03) (16, 1.50000000000000000000e+03) (17, 1.50000000000000000000e+03) (18, 1.50000000000000000000e+03) (19, 1.50000000000000000000e+03) (20, 1.50000000000000000000e+03) (21, 1.50000000000000000000e+03) (22, 1.50000000000000000000e+03) (23, 1.50000000000000000000e+03) (24, 1.50000000000000000000e+03) (25, 1.50000000000000000000e+03) (26, 1.50000000000000000000e+03) (27, 1.50000000000000000000e+03) (28, 1.50000000000000000000e+03) (29, 1.50000000000000000000e+03) (30, 1.50000000000000000000e+03) (31, 1.50000000000000000000e+03) (32, 1.50000000000000000000e+03) (33, 1.50000000000000000000e+03) (34, 1.50000000000000000000e+03) (35, 1.50000000000000000000e+03) (36, 1.50000000000000000000e+03) (37, 1.50000000000000000000e+03) (38, 1.50000000000000000000e+03) (39, 1.50000000000000000000e+03) (40, 1.50000000000000000000e+03) (41, 1.50000000000000000000e+03) (42, 1.50000000000000000000e+03) (43, 1.50000000000000000000e+03) (44, 1.50000000000000000000e+03) (45, 1.50000000000000000000e+03) (46, 1.50000000000000000000e+03) (47, 1.50000000000000000000e+03) (48, 1.50000000000000000000e+03) (0, 1.50000000000000000000e+03) (1, 1.50000000000000000000e+03) (2, 1.50000000000000000000e+03) (3, 1.50000000000000000000e+03) (4, 1.50000000000000000000e+03) (5, 1.50000000000000000000e+03) (6, 1.50000000000000000000e+03) (7, 1.50000000000000000000e+03) (8, 1.50000000000000000000e+03) (9, 1.50000000000000000000e+03) (10, 1.50000000000000000000e+03) (11, 1.50000000000000000000e+03) (12, 1.50000000000000000000e+03) (13, 1.50000000000000000000e+03) (14, 1.50000000000000000000e+03) (15, 1.50000000000000000000e+03) (16, 1.50000000000000000000e+03) (17, 1.50000000000000000000e+03) (18, 1.50000000000000000000e+03) (19, 1.50000000000000000000e+03) (20, 1.50000000000000000000e+03) (21, 1.50000000000000000000e+03) (22, 1.50000000000000000000e+03) (23, 1.50000000000000000000e+03) (24, 1.50000000000000000000e+03) (25, 1.50000000000000000000e+03) (26, 1.50000000000000000000e+03) (27, 1.50000000000000000000e+03) (28, 1.50000000000000000000e+03) (29, 1.50000000000000000000e+03) (30, 1.50000000000000000000e+03) (31, 1.50000000000000000000e+03) (32, 1.50000000000000000000e+03) (33, 1.50000000000000000000e+03) (34, 1.50000000000000000000e+03) (35, 1.50000000000000000000e+03) (36, 1.50000000000000000000e+03) (37, 1.50000000000000000000e+03) (38, 1.50000000000000000000e+03) (39, 1.50000000000000000000e+03) (40, 1.50000000000000000000e+03) (41, 1.50000000000000000000e+03) (42, 1.50000000000000000000e+03) (43, 1.50000000000000000000e+03) (44, 1.50000000000000000000e+03) (45, 1.50000000000000000000e+03) (46, 1.50000000000000000000e+03) (47, 1.50000000000000000000e+03) (48, 1.50000000000000000000e+03) (0, 1.50000000000000000000e+03) (1, -1.50000000000000000000e+03) (2, 1.50000000000000000000e+03) (3, -1.50000000000000000000e+03) (4, 1.50000000000000000000e+03) (5, -1.50000000000000000000e+03) (6, 1.50000000000000000000e+03) (7, -1.50000000000000000000e+03) (8, 1.50000000000000000000e+03) (9, -1.50000000000000000000e+03) (10, 1.50000000000000000000e+03) (11, -1.50000000000000000000e+03) (12, 1.50000000000000000000e+03) (13, -1.50000000000000000000e+03) (14, 1.50000000000000000000e+03) (15, -1.50000000000000000000e+03) (16, 1.50000000000000000000e+03) (17, -1.50000000000000000000e+03) (18, 1.50000000000000000000e+03) (19, -1.50000000000000000000e+03) (20, 1.50000000000000000000e+03) (21, -1.50000000000000000000e+03) (22, 1.50000000000000000000e+03) (23, -1.50000000000000000000e+03) (24, 1.50000000000000000000e+03) (25, -1.50000000000000000000e+03) (26, 1.50000000000000000000e+03) (27, -1.50000000000000000000e+03) (28, 1.50000000000000000000e+03) (29, -1.50000000000000000000e+03) (30, 1.50000000000000000000e+03) (31, -1.50000000000000000000e+03) (32, 1.50000000000000000000e+03) (33, -1.50000000000000000000e+03) (34, 1.50000000000000000000e+03) (35, -1.50000000000000000000e+03) (36, 1.50000000000000000000e+03) (37, -1.50000000000000000000e+03) (38, 1.50000000000000000000e+03) (39, -1.50000000000000000000e+03) (40, 1.50000000000000000000e+03) (41, -1.50000000000000000000e+03) (42, 1.50000000000000000000e+03) (43, -1.50000000000000000000e+03) (44, 1.50000000000000000000e+03) (45, -1.50000000000000000000e+03) (46, 1.50000000000000000000e+03) (47, -1.50000000000000000000e+03) (48, 1.50000000000000000000e+03) (49, 1.50000000000000000000e+03) (50, -1.50000000000000000000e+03) (51, -1.50000000000000000000e+03) (52, 1.50000000000000000000e+03) (53, 1.50000000000000000000e+03) (54, 1.50000000000000000000e+03) (55, 1.50000000000000000000e+03) (56, 1.50000000000000000000e+03) (57, 1.50000000000000000000e+03) (58, 1.50000000000000000000e+03) (59, 1.50000000000000000000e+03) (49, -1.09547629952430725098e-01) (50, 2.60240644216537475586e-01) (51, 3.29004883766174316406e-01) (52, 7.96528235077857971191e-02) (53, 2.59541153907775878906e-01) (54, 1.57893776893615722656e-01) (55, 2.18833416700363159180e-01) (56, -1.12436674535274505615e-01) (57, -7.66619620844721794128e-03) (58, 9.23700034618377685547e-02) (59, 3.84699786081910133362e-04) 
