FANN_FLO_2.1
num_layers=3
learning_rate=0.700000
connection_rate=1.000000
network_type=0
learning_momentum=0.000000
training_algorithm=2
train_error_function=1
train_stop_function=0
cascade_output_change_fraction=0.010000
quickprop_decay=-0.000100
quickprop_mu=1.750000
rprop_increase_factor=1.200000
rprop_decrease_factor=0.500000
rprop_delta_min=0.000000
rprop_delta_max=50.000000
rprop_delta_zero=0.100000
cascade_output_stagnation_epochs=12
cascade_candidate_change_fraction=0.010000
cascade_candidate_stagnation_epochs=12
cascade_max_out_epochs=150
cascade_max_cand_epochs=150
cascade_num_candidate_groups=2
bit_fail_limit=3.49999994039535522461e-01
cascade_candidate_limit=1.00000000000000000000e+03
cascade_weight_multiplier=4.00000005960464477539e-01
cascade_activation_functions_count=10
cascade_activation_functions=3 5 7 8 10 11 14 15 16 17 
cascade_activation_steepnesses_count=4
cascade_activation_steepnesses=2.50000000000000000000e-01 5.00000000000000000000e-01 7.50000000000000000000e-01 1.00000000000000000000e+00 
layer_sizes=89 11 3 
scale_included=0
neurons (num_inputs, activation_function, activation_steepness)=(0, 0, 0.00000000000000000000e+00) (0, 0, 0.00000000000000000000e+00) (0, 0, 0.00000000000000000000e+00) (0, 0, 0.00000000000000000000e+00) (0, 0, 0.00000000000000000000e+00) (0, 0, 0.00000000000000000000e+00) (0, 0, 0.00000000000000000000e+00) (0, 0, 0.00000000000000000000e+00) (0, 0, 0.00000000000000000000e+00) (0, 0, 0.00000000000000000000e+00) (0, 0, 0.00000000000000000000e+00) (0, 0, 0.00000000000000000000e+00) (0, 0, 0.00000000000000000000e+00) (0, 0, 0.00000000000000000000e+00) (0, 0, 0.00000000000000000000e+00) (0, 0, 0.00000000000000000000e+00) (0, 0, 0.00000000000000000000e+00) (0, 0, 0.00000000000000000000e+00) (0, 0, 0.00000000000000000000e+00) (0, 0, 0.00000000000000000000e+00) (0, 0, 0.00000000000000000000e+00) (0, 0, 0.00000000000000000000e+00) (0, 0, 0.00000000000000000000e+00) (0, 0, 0.00000000000000000000e+00) (0, 0, 0.00000000000000000000e+00) (0, 0, 0.00000000000000000000e+00) (0, 0, 0.00000000000000000000e+00) (0, 0, 0.00000000000000000000e+00) (0, 0, 0.00000000000000000000e+00) (0, 0, 0.00000000000000000000e+00) (0, 0, 0.00000000000000000000e+00) (0, 0, 0.00000000000000000000e+00) (0, 0, 0.00000000000000000000e+00) (0, 0, 0.00000000000000000000e+00) (0, 0, 0.00000000000000000000e+00) (0, 0, 0.00000000000000000000e+00) (0, 0, 0.00000000000000000000e+00) (0, 0, 0.00000000000000000000e+00) (0, 0, 0.00000000000000000000e+00) (0, 0, 0.00000000000000000000e+00) (0, 0, 0.00000000000000000000e+00) (0, 0, 0.00000000000000000000e+00) (0, 0, 0.00000000000000000000e+00) (0, 0, 0.00000000000000000000e+00) (0, 0, 0.00000000000000000000e+00) (0, 0, 0.00000000000000000000e+00) (0, 0, 0.00000000000000000000e+00) (0, 0, 0.00000000000000000000e+00) (0, 0, 0.00000000000000000000e+00) (0, 0, 0.00000000000000000000e+00) (0, 0, 0.00000000000000000000e+00) (0, 0, 0.00000000000000000000e+00) (0, 0, 0.00000000000000000000e+00) (0, 0, 0.00000000000000000000e+00) (0, 0, 0.00000000000000000000e+00) (0, 0, 0.00000000000000000000e+00) (0, 0, 0.00000000000000000000e+00) (0, 0, 0.00000000000000000000e+00) (0, 0, 0.00000000000000000000e+00) (0, 0, 0.00000000000000000000e+00) (0, 0, 0.00000000000000000000e+00) (0, 0, 0.00000000000000000000e+00) (0, 0, 0.00000000000000000000e+00) (0, 0, 0.00000000000000000000e+00) (0, 0, 0.00000000000000000000e+00) (0, 0, 0.00000000000000000000e+00) (0, 0, 0.00000000000000000000e+00) (0, 0, 0.00000000000000000000e+00) (0, 0, 0.00000000000000000000e+00) (0, 0, 0.00000000000000000000e+00) (0, 0, 0.00000000000000000000e+00) (0, 0, 0.00000000000000000000e+00) (0, 0, 0.00000000000000000000e+00) (0, 0, 0.00000000000000000000e+00) (0, 0, 0.00000000000000000000e+00) (0, 0, 0.00000000000000000000e+00) (0, 0, 0.00000000000000000000e+00) (0, 0, 0.00000000000000000000e+00) (0, 0, 0.00000000000000000000e+00) (0, 0, 0.00000000000000000000e+00) (0, 0, 0.00000000000000000000e+00) (0, 0, 0.00000000000000000000e+00) (0, 0, 0.00000000000000000000e+00) (0, 0, 0.00000000000000000000e+00) (0, 0, 0.00000000000000000000e+00) (0, 0, 0.00000000000000000000e+00) (0, 0, 0.00000000000000000000e+00) (0, 0, 0.00000000000000000000e+00) (0, 0, 0.00000000000000000000e+00) (89, 5, 5.00000000000000000000e-01) (89, 5, 5.00000000000000000000e-01) (89, 5, 5.00000000000000000000e-01) (89, 5, 5.00000000000000000000e-01) (89, 5, 5.00000000000000000000e-01) (89, 5, 5.00000000000000000000e-01) (89, 5, 5.00000000000000000000e-01) (89, 5, 5.00000000000000000000e-01) (89, 5, 5.00000000000000000000e-01) (89, 5, 5.00000000000000000000e-01) (0, 5, 0.00000000000000000000e+00) (11, 11, 5.00000000000000000000e-01) (11, 11, 5.00000000000000000000e-01) (0, 11, 0.00000000000000000000e+00) 
connections (connected_to_neuron, weight)=(0, 3.50824654102325439453e-01) (1, -7.85725498199462890625e+00) (2, -6.08756303787231445312e-01) (3, 4.50147956609725952148e-01) (4, 8.98994266986846923828e-01) (5, -4.17214572429656982422e-01) (6, -1.42529770731925964355e-01) (7, 1.19513273239135742188e-01) (8, -2.64265183359384536743e-02) (9, -1.28711628913879394531e+00) (10, 1.09726987779140472412e-01) (11, -2.62644481658935546875e+00) (12, -7.12196540832519531250e+00) (13, -2.63756513595581054688e-01) (14, 1.34492397308349609375e-01) (15, 4.17785286903381347656e-01) (16, -9.82794463634490966797e-01) (17, 1.38715073466300964355e-01) (18, 1.31831333041191101074e-01) (19, 1.06203697621822357178e-01) (20, 1.25226497650146484375e-01) (21, 3.79336401820182800293e-02) (22, -5.99441623687744140625e+00) (23, -1.00245075225830078125e+01) (24, -1.67349442839622497559e-01) (25, -1.27690777182579040527e-01) (26, 2.34084829688072204590e-01) (27, -4.67498779296875000000e-01) (28, -1.87049470841884613037e-02) (29, 8.07731375098228454590e-02) (30, 1.14248879253864288330e-01) (31, 1.57260978221893310547e+00) (32, -4.60079200565814971924e-02) (33, -7.75271177291870117188e+00) (34, -6.18432855606079101562e+00) (35, -1.43038585782051086426e-01) (36, -2.67618089914321899414e-01) (37, 9.82754603028297424316e-02) (38, 4.92438375949859619141e-02) (39, -2.10707504302263259888e-02) (40, -6.18314817547798156738e-02) (41, 1.13407755270600318909e-03) (42, 1.81544768810272216797e+00) (43, -4.44265753030776977539e-02) (44, -8.02583599090576171875e+00) (45, -6.69841432571411132812e+00) (46, -4.75089885294437408447e-02) (47, -2.63263225555419921875e-01) (48, 2.51192748546600341797e-01) (49, 1.05080738663673400879e-01) (50, 1.05100780725479125977e-01) (51, -1.14609330892562866211e-01) (52, 3.81871014833450317383e-02) (53, 8.01869034767150878906e-01) (54, -5.93721047043800354004e-02) (55, -6.19055509567260742188e+00) (56, -4.10722208023071289062e+00) (57, 1.33278518915176391602e-01) (58, -1.04047849774360656738e-01) (59, -2.15890347957611083984e-01) (60, -2.77928560972213745117e-01) (61, 3.95684987306594848633e-02) (62, -1.79205954074859619141e-01) (63, 1.06003411114215850830e-01) (64, -1.99583336710929870605e-01) (65, 3.43154296278953552246e-02) (66, 2.98781943321228027344e+00) (67, -4.19177103042602539062e+00) (68, 1.95983931422233581543e-01) (69, 3.61757785081863403320e-01) (70, -3.30108731985092163086e-01) (71, -5.45275390148162841797e-01) (72, -6.12308122217655181885e-02) (73, -9.77157726883888244629e-02) (74, -6.32207691669464111328e-02) (75, -3.65047478675842285156e+00) (76, -1.72374397516250610352e-01) (77, 3.73887801170349121094e+00) (78, -2.19575929641723632812e+00) (79, 1.52623161673545837402e-01) (80, 4.58639979362487792969e-01) (81, 1.51383373886346817017e-02) (82, -5.83912193775177001953e-01) (83, -8.52979421615600585938e-02) (84, -1.40517756342887878418e-01) (85, 8.99710878729820251465e-02) (86, -2.97131013870239257812e+00) (87, -7.26366490125656127930e-02) (88, 4.93561907205730676651e-04) (0, 2.42000961303710937500e+01) (1, 1.23282222747802734375e+01) (2, 8.20489466190338134766e-01) (3, -3.00079405307769775391e-01) (4, -6.26940056681632995605e-02) (5, 5.03593206405639648438e-01) (6, -6.30698502063751220703e-01) (7, 1.87789082527160644531e-01) (8, 3.07454645633697509766e-01) (9, 1.44334802627563476562e+01) (10, 1.11436150968074798584e-01) (11, 1.59278173446655273438e+01) (12, 2.28862533569335937500e+01) (13, 2.10620760917663574219e-01) (14, 3.65558594465255737305e-01) (15, 9.58767831325531005859e-01) (16, -2.93255113065242767334e-02) (17, 5.18132932484149932861e-02) (18, 4.45086091756820678711e-01) (19, 3.40183228254318237305e-01) (20, 6.49187850952148437500e+00) (21, 1.57897174358367919922e-01) (22, 1.65934581756591796875e+01) (23, 1.83677005767822265625e+01) (24, -1.01323461532592773438e+00) (25, 4.62510585784912109375e-01) (26, 1.87120735645294189453e-01) (27, 2.47885450720787048340e-01) (28, 3.62781323492527008057e-02) (29, 4.95625853538513183594e-01) (30, 3.67109268903732299805e-01) (31, 1.40984821319580078125e+00) (32, 3.47438827157020568848e-02) (33, 2.19800162315368652344e+00) (34, 2.24088306427001953125e+01) (35, -5.44886410236358642578e-01) (36, 7.49242484569549560547e-01) (37, -1.27328231930732727051e-01) (38, 1.21821905486285686493e-03) (39, -1.55726566910743713379e-01) (40, 3.00618827342987060547e-01) (41, 4.78339433670043945312e-01) (42, 1.29386234283447265625e+00) (43, -3.44868972897529602051e-02) (44, -9.75980472564697265625e+00) (45, 8.28639984130859375000e+00) (46, -2.18457520008087158203e-01) (47, 6.50836884975433349609e-01) (48, 7.86572575569152832031e-01) (49, -4.38903182744979858398e-01) (50, -8.97358134388923645020e-02) (51, 1.64031586609780788422e-03) (52, 3.68102401494979858398e-01) (53, -1.92867124080657958984e+00) (54, -1.43502146005630493164e-01) (55, -7.79939949512481689453e-01) (56, 1.31790018081665039062e+01) (57, -1.12697362899780273438e-01) (58, 1.03949761390686035156e+00) (59, 5.29201745986938476562e-01) (60, 3.26534301042556762695e-01) (61, 9.73783731460571289062e-02) (62, -2.59416282176971435547e-01) (63, 3.96333217620849609375e-01) (64, -3.11483097076416015625e+00) (65, 6.24164268374443054199e-02) (66, 1.76194763183593750000e+01) (67, -1.10268344879150390625e+01) (68, 3.71663212776184082031e-01) (69, 2.75573600083589553833e-02) (70, -5.57818770408630371094e-01) (71, -6.64296895265579223633e-02) (72, -2.47412621974945068359e-01) (73, -7.81775414943695068359e-02) (74, 3.05903524160385131836e-01) (75, -3.20691347122192382812e+00) (76, 2.52214297652244567871e-02) (77, 2.39814701080322265625e+01) (78, 1.44107007980346679688e+01) (79, 6.70298457145690917969e-01) (80, -2.11785599589347839355e-01) (81, -5.11554837226867675781e-01) (82, 1.21392548084259033203e+00) (83, -2.59769503027200698853e-02) (84, -3.76645684242248535156e-01) (85, 4.24725472927093505859e-01) (86, -1.28539133071899414062e+01) (87, -1.26058578491210937500e-01) (88, 3.41946095228195190430e-01) (0, 1.50000000000000000000e+03) (1, 1.43584472656250000000e+03) (2, -3.77312530517578125000e+02) (3, 9.25295104980468750000e+02) (4, -2.85128234863281250000e+02) (5, -1.45014880371093750000e+03) (6, -1.45129833984375000000e+03) (7, 1.50000000000000000000e+03) (8, 1.88185071945190429688e+00) (9, 1.50000000000000000000e+03) (10, -1.35985278320312500000e+03) (11, 1.46352941894531250000e+03) (12, -6.78369445800781250000e+02) (13, -3.79395507812500000000e+02) (14, 1.35910668945312500000e+03) (15, -3.57568389892578125000e+02) (16, 2.24887527465820312500e+02) (17, -1.45725366210937500000e+03) (18, 1.50000000000000000000e+03) (19, 1.90551316738128662109e+00) (20, 1.49993847656250000000e+03) (21, 6.95558227539062500000e+02) (22, 1.50000000000000000000e+03) (23, 9.70199508666992187500e+01) (24, -2.54187896728515625000e+02) (25, 1.28106787109375000000e+03) (26, -3.67879150390625000000e+02) (27, 1.44509057617187500000e+03) (28, -1.45129528808593750000e+03) (29, 1.48824035644531250000e+03) (30, 1.90624845027923583984e+00) (31, 1.50000000000000000000e+03) (32, 1.06448559570312500000e+03) (33, 1.37256701660156250000e+03) (34, -1.50000000000000000000e+03) (35, 2.22599685668945312500e+02) (36, 2.67414794921875000000e+02) (37, -3.63838378906250000000e+02) (38, 2.03388626098632812500e+02) (39, -1.42762500000000000000e+03) (40, 1.50000000000000000000e+03) (41, 1.90415561199188232422e+00) (42, 1.49639111328125000000e+03) (43, -9.98671264648437500000e+02) (44, 1.49999670410156250000e+03) (45, -2.56369445800781250000e+02) (46, 4.08929473876953125000e+02) (47, -7.51725402832031250000e+02) (48, -4.61163574218750000000e+02) (49, 3.00405263900756835938e+00) (50, -1.46449414062500000000e+03) (51, 1.50000000000000000000e+03) (52, 1.91392028331756591797e+00) (53, 1.13300390625000000000e+03) (54, -1.30689758300781250000e+03) (55, 1.50000000000000000000e+03) (56, -7.12269042968750000000e+02) (57, 8.43852355957031250000e+02) (58, -1.00980462646484375000e+03) (59, 1.30107406616210937500e+02) (60, -5.75822875976562500000e+02) (61, -1.44002233886718750000e+03) (62, 1.46276086425781250000e+03) (63, 1.91361820697784423828e+00) (64, 1.50000000000000000000e+03) (65, -8.32761718750000000000e+02) (66, 1.49999902343750000000e+03) (67, 1.48999597167968750000e+03) (68, 8.07421020507812500000e+02) (69, 1.23591430664062500000e+03) (70, -9.90361450195312500000e+02) (71, -1.02238372802734375000e+03) (72, -1.91883499145507812500e+02) (73, 1.49657189941406250000e+03) (74, 2.03536272048950195312e+00) (75, 3.01855895996093750000e+02) (76, 1.49194299316406250000e+03) (77, 1.49999902343750000000e+03) (78, -1.13534838867187500000e+03) (79, 8.00123779296875000000e+02) (80, -3.96692291259765625000e+02) (81, -1.08447351074218750000e+03) (82, -1.50000000000000000000e+03) (83, -9.55805236816406250000e+02) (84, 1.42954943847656250000e+03) (85, 1.94809961318969726562e+00) (86, 4.00418823242187500000e+02) (87, -1.27149560546875000000e+03) (88, 1.96743845939636230469e+00) (0, 9.04568481445312500000e+00) (1, 1.67333471775054931641e+00) (2, 7.30700552463531494141e-01) (3, 2.79335588216781616211e-01) (4, 4.17880028486251831055e-01) (5, 2.09458276629447937012e-01) (6, -2.67177131026983261108e-02) (7, 7.26618543267250061035e-02) (8, 4.71956640481948852539e-01) (9, -4.58231973648071289062e+00) (10, -7.36441835761070251465e-02) (11, -1.89563417434692382812e+00) (12, -2.69186425209045410156e+00) (13, 5.32353043556213378906e-01) (14, 1.40685420483350753784e-02) (15, -2.18935057520866394043e-01) (16, 6.26551568508148193359e-01) (17, 2.01274733990430831909e-02) (18, -1.00771903991699218750e-01) (19, 5.16764461994171142578e-01) (20, 2.01286888122558593750e+00) (21, -3.34686189889907836914e-02) (22, 4.81234598159790039062e+00) (23, -1.26624417304992675781e+00) (24, -4.33256849646568298340e-02) (25, 1.68661102652549743652e-01) (26, -2.05011647194623947144e-02) (27, 2.14729055762290954590e-01) (28, -9.44436043500900268555e-02) (29, 6.46852627396583557129e-02) (30, 5.54695427417755126953e-01) (31, -2.04164075851440429688e+00) (32, 3.49891111254692077637e-02) (33, 5.89971765875816345215e-02) (34, -1.57355153560638427734e+00) (35, 1.38848632574081420898e-01) (36, 2.53471136093139648438e-01) (37, 5.19886054098606109619e-02) (38, 9.74156055599451065063e-03) (39, 5.16711827367544174194e-03) (40, -1.06461524963378906250e-01) (41, 5.49843192100524902344e-01) (42, -4.33501625061035156250e+00) (43, 7.63592794537544250488e-02) (44, -4.16644275188446044922e-01) (45, -2.73879051208496093750e+00) (46, 7.64006450772285461426e-02) (47, 1.00013427436351776123e-01) (48, 2.09190443158149719238e-01) (49, 2.99853891134262084961e-01) (50, -7.04672858119010925293e-02) (51, -2.79585598036646842957e-03) (52, 5.21311461925506591797e-01) (53, -2.89258790016174316406e+00) (54, -7.68454298377037048340e-02) (55, 1.32576298713684082031e+00) (56, -5.43750971555709838867e-02) (57, 1.06538653373718261719e-01) (58, 3.78718197345733642578e-01) (59, 2.08145752549171447754e-02) (60, 2.58953988552093505859e-01) (61, -7.72758200764656066895e-02) (62, 2.17031110078096389771e-02) (63, 5.59969425201416015625e-01) (64, 1.81623065471649169922e+00) (65, -2.12804842740297317505e-02) (66, 3.17635369300842285156e+00) (67, -1.24467575550079345703e+00) (68, -1.16296276450157165527e-01) (69, 3.30882072448730468750e-01) (70, 2.77098119258880615234e-01) (71, 2.76165962219238281250e-01) (72, 1.04997985064983367920e-01) (73, 5.72877489030361175537e-02) (74, 4.57693547010421752930e-01) (75, 4.04805898666381835938e+00) (76, 3.83483655750751495361e-02) (77, 7.48609924316406250000e+00) (78, 4.82847499847412109375e+00) (79, -3.29841136932373046875e-01) (80, -9.59135174751281738281e-01) (81, 3.28877151012420654297e-01) (82, 5.86936511099338531494e-02) (83, 1.16279184818267822266e-01) (84, 7.73540139198303222656e-03) (85, 6.43050014972686767578e-01) (86, 1.99521577358245849609e+00) (87, 7.19867125153541564941e-02) (88, 5.64343452453613281250e-01) (0, 1.50000000000000000000e+03) (1, 1.49975012207031250000e+03) (2, -1.07439880371093750000e+03) (3, 6.10374877929687500000e+02) (4, -1.12808911132812500000e+03) (5, -1.49862426757812500000e+03) (6, -1.50000000000000000000e+03) (7, -1.33385913085937500000e+03) (8, -6.37544708251953125000e+01) (9, 1.38370886230468750000e+03) (10, 1.49999157714843750000e+03) (11, 1.50000000000000000000e+03) (12, 7.21094741821289062500e+01) (13, 1.46765441894531250000e+03) (14, 8.36115844726562500000e+02) (15, 6.69765808105468750000e+02) (16, -1.47976513671875000000e+03) (17, -1.50000000000000000000e+03) (18, 1.49999804687500000000e+03) (19, -6.37581214904785156250e+01) (20, 1.32764978027343750000e+03) (21, 1.49999755859375000000e+03) (22, 1.49478417968750000000e+03) (23, 1.49993286132812500000e+03) (24, 1.41602197265625000000e+03) (25, 5.68010070800781250000e+02) (26, 1.28071691894531250000e+03) (27, 1.48156921386718750000e+03) (28, -1.49992504882812500000e+03) (29, 1.49999816894531250000e+03) (30, -6.37018051147460937500e+01) (31, 1.45663012695312500000e+03) (32, 1.49694506835937500000e+03) (33, 1.50000000000000000000e+03) (34, -1.49999304199218750000e+03) (35, 1.48502294921875000000e+03) (36, 8.33101257324218750000e+02) (37, 2.54245300292968750000e+02) (38, 3.26881523132324218750e+01) (39, -1.49990051269531250000e+03) (40, 1.49866210937500000000e+03) (41, -6.36883087158203125000e+01) (42, 1.50000000000000000000e+03) (43, 1.49955004882812500000e+03) (44, 1.49997106933593750000e+03) (45, 1.49745654296875000000e+03) (46, 1.03706884765625000000e+03) (47, -1.28278356933593750000e+03) (48, -1.50000000000000000000e+03) (49, -7.41375183105468750000e+02) (50, -1.50000000000000000000e+03) (51, 1.49999938964843750000e+03) (52, -1.52719558715820312500e+02) (53, 1.49378625488281250000e+03) (54, 1.49275341796875000000e+03) (55, 1.50000000000000000000e+03) (56, -1.20686584472656250000e+03) (57, 1.33897851562500000000e+03) (58, -6.72530944824218750000e+02) (59, -1.50000000000000000000e+03) (60, 1.34834826660156250000e+03) (61, -1.50000000000000000000e+03) (62, 1.49994653320312500000e+03) (63, -6.36800689697265625000e+01) (64, 1.50000000000000000000e+03) (65, 1.50000000000000000000e+03) (66, 1.49999902343750000000e+03) (67, 1.49855822753906250000e+03) (68, 1.49412365722656250000e+03) (69, 2.93289489746093750000e+02) (70, -1.50000000000000000000e+03) (71, 2.71888946533203125000e+02) (72, -1.49997766113281250000e+03) (73, 1.50000000000000000000e+03) (74, -6.38022232055664062500e+01) (75, 1.43251062011718750000e+03) (76, 1.50000000000000000000e+03) (77, 1.49999902343750000000e+03) (78, 1.50000000000000000000e+03) (79, 2.25296859741210937500e+02) (80, 4.81783538818359375000e+02) (81, -1.50000000000000000000e+03) (82, -1.50000000000000000000e+03) (83, -1.49398706054687500000e+03) (84, 1.42537133789062500000e+03) (85, -1.52775939941406250000e+02) (86, -1.44486511230468750000e+03) (87, 1.49983459472656250000e+03) (88, -1.52656860351562500000e+02) (0, 3.29621863365173339844e+00) (1, 2.56745910644531250000e+00) (2, -1.46149292588233947754e-01) (3, -2.10075259208679199219e-01) (4, -1.55507191084325313568e-03) (5, 9.27658081054687500000e-02) (6, 1.42911085858941078186e-02) (7, 3.86665947735309600830e-03) (8, -1.08393289148807525635e-01) (9, -6.23162508010864257812e-01) (10, -2.69922008737921714783e-03) (11, 6.43990039825439453125e-01) (12, 4.27550077438354492188e+00) (13, -1.83881558477878570557e-02) (14, 1.05055011808872222900e-01) (15, 1.01266421377658843994e-01) (16, 1.73827007412910461426e-01) (17, -6.56923558562994003296e-03) (18, -2.38647200167179107666e-02) (19, -1.00218774750828742981e-02) (20, -1.05319762229919433594e+00) (21, 9.94606595486402511597e-03) (22, -1.06500971317291259766e+00) (23, -1.88751101493835449219e+00) (24, 8.24447944760322570801e-02) (25, 2.36634686589241027832e-01) (26, 7.99547359347343444824e-02) (27, 9.76530984044075012207e-02) (28, -3.64563241600990295410e-03) (29, -1.00253913551568984985e-02) (30, -1.20033636689186096191e-01) (31, -4.23909366130828857422e-01) (32, -1.44299194216728210449e-02) (33, -4.92776900529861450195e-01) (34, -1.06709587574005126953e+00) (35, -2.05756854265928268433e-02) (36, 3.42183895409107208252e-02) (37, 2.15518753975629806519e-02) (38, 1.00852519273757934570e-01) (39, -4.33402173221111297607e-02) (40, -9.30075421929359436035e-02) (41, 1.85192860662937164307e-02) (42, -2.23660051822662353516e-01) (43, -2.03834790736436843872e-02) (44, -3.65563201904296875000e+00) (45, -5.52627611160278320312e+00) (46, 6.36172816157341003418e-02) (47, 5.49547933042049407959e-02) (48, 5.87353250011801719666e-03) (49, -3.72758395969867706299e-02) (50, -4.27810847759246826172e-02) (51, 3.60630303621292114258e-02) (52, -1.40494465827941894531e-01) (53, 1.78805243968963623047e+00) (54, -1.06236692517995834351e-02) (55, 2.37782567739486694336e-01) (56, -6.52597069740295410156e-01) (57, -1.48260854184627532959e-02) (58, -2.38053515553474426270e-01) (59, 1.07546173036098480225e-01) (60, 1.02316841483116149902e-01) (61, -3.87737527489662170410e-02) (62, -1.48866446688771247864e-02) (63, -5.26908822357654571533e-02) (64, 5.16027100384235382080e-02) (65, -8.19025281816720962524e-03) (66, -7.79030382633209228516e-01) (67, -1.31850957870483398438e+00) (68, 2.68655121326446533203e-02) (69, 3.26403640210628509521e-02) (70, 6.47194385528564453125e-02) (71, 6.30466416478157043457e-02) (72, 3.40840406715869903564e-03) (73, 2.84917335957288742065e-02) (74, -5.57574480772018432617e-02) (75, 1.01346373558044433594e-01) (76, 2.73052994161844253540e-02) (77, -1.16911578178405761719e+00) (78, 2.37131881713867187500e+00) (79, 7.09659233689308166504e-02) (80, 2.39029049873352050781e-01) (81, 1.21967922896146774292e-02) (82, 1.04158341884613037109e-01) (83, 7.47109414078295230865e-04) (84, 2.69787060096859931946e-03) (85, -1.44125252962112426758e-01) (86, -6.22081756591796875000e-02) (87, 7.13021820411086082458e-03) (88, -1.70810192823410034180e-01) (0, 3.27183222770690917969e+00) (1, -2.52730536460876464844e+00) (2, 2.20107421278953552246e-01) (3, -1.21604412794113159180e-01) (4, 3.59140783548355102539e-01) (5, -1.23703166842460632324e-01) (6, -9.51613951474428176880e-03) (7, 4.53181564807891845703e-03) (8, 5.15310525894165039062e-01) (9, 1.69012832641601562500e+00) (10, -2.12151817977428436279e-02) (11, -6.06866216659545898438e+00) (12, 2.94585275650024414062e+00) (13, 1.30535185337066650391e-01) (14, -4.56891924142837524414e-01) (15, 1.90977647900581359863e-01) (16, -1.17540344595909118652e-01) (17, 1.03101715445518493652e-01) (18, -3.63643467426300048828e-02) (19, 5.96286714076995849609e-01) (20, 1.59817433357238769531e+00) (21, 5.90647086501121520996e-02) (22, -4.45207118988037109375e+00) (23, 2.69245457649230957031e+00) (24, 7.15453773736953735352e-02) (25, -3.98739755153656005859e-01) (26, 1.67043685913085937500e-01) (27, -8.61040428280830383301e-02) (28, 6.80612102150917053223e-02) (29, -3.45054245553910732269e-03) (30, 4.33118432760238647461e-01) (31, 1.58523392677307128906e+00) (32, 4.49798181653022766113e-02) (33, -3.45157933235168457031e+00) (34, 2.27579998970031738281e+00) (35, -7.92035907506942749023e-02) (36, 3.51838052272796630859e-01) (37, 4.16642725467681884766e-02) (38, -6.98519200086593627930e-02) (39, 6.23453147709369659424e-02) (40, -3.16310822963714599609e-02) (41, 5.65834641456604003906e-01) (42, -8.17742943763732910156e-01) (43, 9.47516673477366566658e-05) (44, -3.34234118461608886719e+00) (45, 3.26995879411697387695e-01) (46, 1.27911403775215148926e-01) (47, 2.84552395343780517578e-01) (48, 1.25500991940498352051e-01) (49, -2.39392295479774475098e-01) (50, -2.61805579066276550293e-03) (51, -3.22701334953308105469e-02) (52, 4.78834629058837890625e-01) (53, -1.35323137044906616211e-01) (54, 8.82742628455162048340e-02) (55, -2.06129598617553710938e+00) (56, 3.36506992578506469727e-01) (57, -5.00697754323482513428e-02) (58, 2.41809964179992675781e-01) (59, -4.46778424084186553955e-02) (60, 6.56420513987541198730e-02) (61, 6.64709806442260742188e-02) (62, -6.00013732910156250000e-02) (63, 5.74123919010162353516e-01) (64, -1.92775154113769531250e+00) (65, -7.05456081777811050415e-03) (66, -2.07885217666625976562e+00) (67, -1.16156947612762451172e+00) (68, -7.84726962447166442871e-02) (69, -2.62867659330368041992e-01) (70, 1.41523838043212890625e-01) (71, -1.46453037858009338379e-01) (72, -9.89281311631202697754e-02) (73, 7.29767158627510070801e-02) (74, 5.00624895095825195312e-01) (75, 2.59141206741333007812e+00) (76, 2.25904434919357299805e-02) (77, -1.77494752407073974609e+00) (78, -1.10743805766105651855e-01) (79, -2.72699743509292602539e-01) (80, -1.19116030633449554443e-01) (81, -1.00305497646331787109e-01) (82, 3.00576180219650268555e-01) (83, 2.82974373549222946167e-02) (84, 1.90862081944942474365e-02) (85, 5.37258744239807128906e-01) (86, 3.21424388885498046875e+00) (87, -4.32188734412193298340e-02) (88, 5.02245426177978515625e-01) (0, -5.14578962326049804688e+00) (1, 6.19956684112548828125e+00) (2, -1.00765563547611236572e-02) (3, -7.13939905166625976562e-01) (4, 5.06981760263442993164e-02) (5, 8.01759600639343261719e-01) (6, 4.60879690945148468018e-02) (7, 2.50857099890708923340e-02) (8, -5.27266822755336761475e-02) (9, 8.11298489570617675781e-01) (10, -7.79592152684926986694e-03) (11, -4.46681594848632812500e+00) (12, -1.26679220199584960938e+01) (13, -5.00437766313552856445e-02) (14, -5.07161378860473632812e-01) (15, -2.46798805892467498779e-02) (16, 3.80829036235809326172e-01) (17, 7.28078335523605346680e-02) (18, 2.43252769112586975098e-01) (19, 4.52329888939857482910e-02) (20, 3.02592658996582031250e+00) (21, -1.62580329924821853638e-02) (22, -4.81253719329833984375e+00) (23, 2.36610937118530273438e+00) (24, -4.87754382193088531494e-02) (25, -1.07685342431068420410e-01) (26, -1.96184530854225158691e-01) (27, 1.26400336623191833496e-01) (28, 1.85062944889068603516e-01) (29, 1.33878454566001892090e-01) (30, -7.42951110005378723145e-02) (31, 3.35571455955505371094e+00) (32, 1.24638289213180541992e-01) (33, -5.54026746749877929688e+00) (34, -5.65241909027099609375e+00) (35, -3.80701497197151184082e-02) (36, -1.33295446634292602539e-01) (37, -6.68327137827873229980e-02) (38, -3.94416272640228271484e-01) (39, 2.66570657491683959961e-01) (40, 6.15660130977630615234e-01) (41, 5.80946616828441619873e-02) (42, 1.86951673030853271484e+00) (43, 1.38159438967704772949e-01) (44, 4.79330825805664062500e+00) (45, 1.01391534805297851562e+01) (46, -8.22323933243751525879e-02) (47, 1.70888289809226989746e-01) (48, -1.10068246722221374512e-01) (49, -1.24783858656883239746e-01) (50, 2.48631790280342102051e-01) (51, 1.41429409384727478027e-01) (52, 6.45192191004753112793e-02) (53, -3.39702725410461425781e+00) (54, 1.26272276043891906738e-01) (55, -2.67064499855041503906e+00) (56, -3.19664931297302246094e+00) (57, -1.07384674251079559326e-01) (58, 4.16252911090850830078e-01) (59, -2.04098880290985107422e-01) (60, -1.89061626791954040527e-01) (61, 2.78454124927520751953e-01) (62, 2.40526452660560607910e-01) (63, -1.29424966871738433838e-02) (64, -1.52247011661529541016e+00) (65, 5.48851601779460906982e-02) (66, -7.04454302787780761719e-01) (67, 1.16399002075195312500e+00) (68, -3.86130549013614654541e-02) (69, 1.06590595096349716187e-02) (70, -8.49820077419281005859e-02) (71, -1.06999367475509643555e-01) (72, -4.57272753119468688965e-02) (73, -7.77542144060134887695e-02) (74, 1.87954138964414596558e-02) (75, -1.20785069465637207031e+00) (76, -1.98235437273979187012e-02) (77, 2.64713227748870849609e-01) (78, -9.14885997772216796875e+00) (79, 1.08239008113741874695e-02) (80, -5.61907708644866943359e-01) (81, -2.76875019073486328125e-01) (82, -1.76739037036895751953e-01) (83, -4.37236279249191284180e-02) (84, -9.03346389532089233398e-02) (85, -2.62170610949397087097e-03) (86, -3.95670086145401000977e-01) (87, -4.65115718543529510498e-02) (88, 9.79719460010528564453e-02) (0, 8.29539477825164794922e-01) (1, -1.39909112453460693359e+00) (2, 1.47993654012680053711e-01) (3, 2.06771776080131530762e-01) (4, 2.73069411516189575195e-01) (5, 1.72197103500366210938e-01) (6, -1.65524974465370178223e-01) (7, 1.27082318067550659180e-01) (8, 5.98626807332038879395e-02) (9, 2.78891086578369140625e+00) (10, 6.07577934861183166504e-02) (11, 3.05529999732971191406e+00) (12, -2.29782629013061523438e+00) (13, 2.20565795898437500000e-01) (14, 9.57315042614936828613e-02) (15, 1.04144655168056488037e-01) (16, -2.94580787420272827148e-01) (17, 4.36058156192302703857e-02) (18, 1.18649460375308990479e-01) (19, 1.78560107946395874023e-01) (20, 2.01892113685607910156e+00) (21, 4.00428809225559234619e-02) (22, 4.15516519546508789062e+00) (23, -3.43099355697631835938e+00) (24, -6.96404352784156799316e-02) (25, -2.44607210159301757812e-01) (26, 1.32293879985809326172e-01) (27, -2.65227943658828735352e-01) (28, -7.70417787134647369385e-03) (29, 1.60545364022254943848e-01) (30, 9.66756716370582580566e-02) (31, 5.84656536579132080078e-01) (32, -2.23004855215549468994e-02) (33, 2.21344232559204101562e+00) (34, -1.52187061309814453125e+00) (35, -6.91900700330734252930e-02) (36, -5.56709021329879760742e-02) (37, -4.72991950809955596924e-02) (38, 4.77137453854084014893e-02) (39, -4.55057471990585327148e-02) (40, 4.47046384215354919434e-02) (41, 2.21781641244888305664e-01) (42, 5.80919921398162841797e-01) (43, -2.00442690402269363403e-02) (44, 2.25657820701599121094e+00) (45, -3.52151536941528320312e+00) (46, -4.33515980839729309082e-02) (47, -1.10563687980175018311e-01) (48, 2.65699654817581176758e-01) (49, -1.09035879373550415039e-01) (50, 4.30641807615756988525e-02) (51, -3.11604570597410202026e-02) (52, 1.13074846565723419189e-01) (53, 2.74139016866683959961e-01) (54, -5.12517318129539489746e-02) (55, 3.73940086364746093750e+00) (56, -3.11711573600769042969e+00) (57, 5.21165505051612854004e-02) (58, -7.21674486994743347168e-02) (59, -7.75291696190834045410e-02) (60, -6.82755485177040100098e-02) (61, 1.55925685539841651917e-02) (62, -1.37564435601234436035e-01) (63, 2.05125108361244201660e-01) (64, -8.54547262191772460938e-01) (65, 2.25687958300113677979e-02) (66, 9.29230022430419921875e+00) (67, -4.80297660827636718750e+00) (68, 1.98998190462589263916e-02) (69, 1.23270504176616668701e-01) (70, -1.90137356519699096680e-01) (71, -3.49903434514999389648e-01) (72, -6.92326724529266357422e-02) (73, -4.02698107063770294189e-02) (74, 2.05007523298263549805e-01) (75, -1.66735303401947021484e+00) (76, -8.28369110822677612305e-02) (77, 8.02779769897460937500e+00) (78, -1.16650056838989257812e+00) (79, -6.59438893198966979980e-02) (80, 4.53289002180099487305e-01) (81, -1.34361848235130310059e-01) (82, 3.85598279535770416260e-02) (83, -4.80065755546092987061e-02) (84, -1.18167795240879058838e-01) (85, 2.31440737843513488770e-01) (86, -3.43266677856445312500e+00) (87, -5.09909614920616149902e-02) (88, 8.57589244842529296875e-02) (0, -1.11975341796875000000e+03) (1, 1.49999987792968750000e+03) (2, 1.50000000000000000000e+03) (3, -1.50000000000000000000e+03) (4, 1.49834997558593750000e+03) (5, 1.35328430175781250000e+02) (6, 1.49999914550781250000e+03) (7, 1.49999768066406250000e+03) (8, -1.36574560546875000000e+03) (9, -1.49490332031250000000e+03) (10, -1.17998703002929687500e+02) (11, -1.47049450683593750000e+03) (12, 1.00874438476562500000e+03) (13, 1.50000000000000000000e+03) (14, -1.50000000000000000000e+03) (15, 1.49999731445312500000e+03) (16, 1.67936229705810546875e+01) (17, 1.49998693847656250000e+03) (18, 1.49999914550781250000e+03) (19, -1.36560363769531250000e+03) (20, -1.50000000000000000000e+03) (21, -1.49480444335937500000e+03) (22, -1.50000000000000000000e+03) (23, 1.50000000000000000000e+03) (24, 1.50000000000000000000e+03) (25, -1.50000000000000000000e+03) (26, 1.49999340820312500000e+03) (27, -1.47106311035156250000e+03) (28, 1.49982714843750000000e+03) (29, 2.91358337402343750000e+01) (30, -1.36572778320312500000e+03) (31, -1.50000000000000000000e+03) (32, -1.49531335449218750000e+03) (33, -1.49996533203125000000e+03) (34, 2.26925369262695312500e+02) (35, 1.49999914550781250000e+03) (36, -1.50000000000000000000e+03) (37, 1.49999340820312500000e+03) (38, -1.47185046386718750000e+03) (39, 1.49965649414062500000e+03) (40, 1.05550241470336914062e+01) (41, -1.36570239257812500000e+03) (42, -1.50000000000000000000e+03) (43, -1.49999731445312500000e+03) (44, -1.49588012695312500000e+03) (45, 1.50000000000000000000e+03) (46, 1.50000000000000000000e+03) (47, -1.50000000000000000000e+03) (48, 1.49999340820312500000e+03) (49, -1.50000000000000000000e+03) (50, 1.49979882812500000000e+03) (51, 1.04027128219604492188e+01) (52, -1.36571276855468750000e+03) (53, -1.48866662597656250000e+03) (54, 1.03137109375000000000e+03) (55, -1.31350268554687500000e+03) (56, 1.50000000000000000000e+03) (57, 1.50000000000000000000e+03) (58, -1.50000000000000000000e+03) (59, 1.49999841308593750000e+03) (60, -1.50000000000000000000e+03) (61, 1.49999719238281250000e+03) (62, -2.24071812629699707031e+00) (63, -1.36558764648437500000e+03) (64, -1.48950537109375000000e+03) (65, 1.50000000000000000000e+03) (66, -1.46819982910156250000e+03) (67, 1.49968225097656250000e+03) (68, 1.50000000000000000000e+03) (69, -1.50000000000000000000e+03) (70, 1.49999841308593750000e+03) (71, -1.49991479492187500000e+03) (72, 1.49999414062500000000e+03) (73, 2.57374906539916992188e+00) (74, -1.36563549804687500000e+03) (75, -1.49974755859375000000e+03) (76, -1.01229412841796875000e+03) (77, -1.49999975585937500000e+03) (78, 1.50000000000000000000e+03) (79, 1.50000000000000000000e+03) (80, -1.50000000000000000000e+03) (81, 1.49999743652343750000e+03) (82, -1.49982617187500000000e+03) (83, 1.49999743652343750000e+03) (84, 1.06216897964477539062e+01) (85, -1.36559460449218750000e+03) (86, -1.49521081542968750000e+03) (87, 1.49402062988281250000e+03) (88, -1.36561157226562500000e+03) (89, 1.28976404666900634766e-01) (90, 3.29875200986862182617e-02) (91, -1.36104749981313943863e-03) (92, 1.01338654756546020508e-01) (93, -3.12819582177326083183e-04) (94, 1.64224773645401000977e-01) (95, 2.37395256757736206055e-01) (96, 6.60592988133430480957e-02) (97, -2.36364424228668212891e-01) (98, 3.42617812566459178925e-03) (99, -1.84703975915908813477e-01) (89, -6.47675842046737670898e-02) (90, -8.33046287298202514648e-02) (91, -2.62312637642025947571e-03) (92, 1.14418856799602508545e-01) (93, -1.85718410648405551910e-03) (94, 3.91063064336776733398e-01) (95, -8.42334479093551635742e-02) (96, 9.99119356274604797363e-02) (97, 2.39996790885925292969e-01) (98, 1.36978895170614123344e-04) (99, 5.26630729436874389648e-02) 
