FANN_FLO_2.1
num_layers=3
learning_rate=0.700000
connection_rate=1.000000
network_type=0
learning_momentum=0.000000
training_algorithm=2
train_error_function=1
train_stop_function=0
cascade_output_change_fraction=0.010000
quickprop_decay=-0.000100
quickprop_mu=1.750000
rprop_increase_factor=1.200000
rprop_decrease_factor=0.500000
rprop_delta_min=0.000000
rprop_delta_max=50.000000
rprop_delta_zero=0.100000
cascade_output_stagnation_epochs=12
cascade_candidate_change_fraction=0.010000
cascade_candidate_stagnation_epochs=12
cascade_max_out_epochs=150
cascade_max_cand_epochs=150
cascade_num_candidate_groups=2
bit_fail_limit=3.49999994039535522461e-01
cascade_candidate_limit=1.00000000000000000000e+03
cascade_weight_multiplier=4.00000005960464477539e-01
cascade_activation_functions_count=10
cascade_activation_functions=3 5 7 8 10 11 14 15 16 17 
cascade_activation_steepnesses_count=4
cascade_activation_steepnesses=2.50000000000000000000e-01 5.00000000000000000000e-01 7.50000000000000000000e-01 1.00000000000000000000e+00 
layer_sizes=57 11 3 
scale_included=0
neurons (num_inputs, activation_function, activation_steepness)=(0, 0, 0.00000000000000000000e+00) (0, 0, 0.00000000000000000000e+00) (0, 0, 0.00000000000000000000e+00) (0, 0, 0.00000000000000000000e+00) (0, 0, 0.00000000000000000000e+00) (0, 0, 0.00000000000000000000e+00) (0, 0, 0.00000000000000000000e+00) (0, 0, 0.00000000000000000000e+00) (0, 0, 0.00000000000000000000e+00) (0, 0, 0.00000000000000000000e+00) (0, 0, 0.00000000000000000000e+00) (0, 0, 0.00000000000000000000e+00) (0, 0, 0.00000000000000000000e+00) (0, 0, 0.00000000000000000000e+00) (0, 0, 0.00000000000000000000e+00) (0, 0, 0.00000000000000000000e+00) (0, 0, 0.00000000000000000000e+00) (0, 0, 0.00000000000000000000e+00) (0, 0, 0.00000000000000000000e+00) (0, 0, 0.00000000000000000000e+00) (0, 0, 0.00000000000000000000e+00) (0, 0, 0.00000000000000000000e+00) (0, 0, 0.00000000000000000000e+00) (0, 0, 0.00000000000000000000e+00) (0, 0, 0.00000000000000000000e+00) (0, 0, 0.00000000000000000000e+00) (0, 0, 0.00000000000000000000e+00) (0, 0, 0.00000000000000000000e+00) (0, 0, 0.00000000000000000000e+00) (0, 0, 0.00000000000000000000e+00) (0, 0, 0.00000000000000000000e+00) (0, 0, 0.00000000000000000000e+00) (0, 0, 0.00000000000000000000e+00) (0, 0, 0.00000000000000000000e+00) (0, 0, 0.00000000000000000000e+00) (0, 0, 0.00000000000000000000e+00) (0, 0, 0.00000000000000000000e+00) (0, 0, 0.00000000000000000000e+00) (0, 0, 0.00000000000000000000e+00) (0, 0, 0.00000000000000000000e+00) (0, 0, 0.00000000000000000000e+00) (0, 0, 0.00000000000000000000e+00) (0, 0, 0.00000000000000000000e+00) (0, 0, 0.00000000000000000000e+00) (0, 0, 0.00000000000000000000e+00) (0, 0, 0.00000000000000000000e+00) (0, 0, 0.00000000000000000000e+00) (0, 0, 0.00000000000000000000e+00) (0, 0, 0.00000000000000000000e+00) (0, 0, 0.00000000000000000000e+00) (0, 0, 0.00000000000000000000e+00) (0, 0, 0.00000000000000000000e+00) (0, 0, 0.00000000000000000000e+00) (0, 0, 0.00000000000000000000e+00) (0, 0, 0.00000000000000000000e+00) (0, 0, 0.00000000000000000000e+00) (0, 0, 0.00000000000000000000e+00) (57, 5, 5.00000000000000000000e-01) (57, 5, 5.00000000000000000000e-01) (57, 5, 5.00000000000000000000e-01) (57, 5, 5.00000000000000000000e-01) (57, 5, 5.00000000000000000000e-01) (57, 5, 5.00000000000000000000e-01) (57, 5, 5.00000000000000000000e-01) (57, 5, 5.00000000000000000000e-01) (57, 5, 5.00000000000000000000e-01) (57, 5, 5.00000000000000000000e-01) (0, 5, 0.00000000000000000000e+00) (11, 11, 5.00000000000000000000e-01) (11, 11, 5.00000000000000000000e-01) (0, 11, 0.00000000000000000000e+00) 
connections (connected_to_neuron, weight)=(0, -1.50000000000000000000e+03) (1, 1.50000000000000000000e+03) (2, -1.50000000000000000000e+03) (3, 1.49825122070312500000e+03) (4, -1.50000000000000000000e+03) (5, 1.50000000000000000000e+03) (6, -1.50000000000000000000e+03) (7, 1.50000000000000000000e+03) (8, -1.50000000000000000000e+03) (9, 1.50000000000000000000e+03) (10, -1.50000000000000000000e+03) (11, 1.50000000000000000000e+03) (12, -1.50000000000000000000e+03) (13, 1.50000000000000000000e+03) (14, -1.50000000000000000000e+03) (15, 1.50000000000000000000e+03) (16, -1.50000000000000000000e+03) (17, 1.36351403808593750000e+03) (18, -1.50000000000000000000e+03) (19, 1.50000000000000000000e+03) (20, -1.50000000000000000000e+03) (21, 1.50000000000000000000e+03) (22, -1.50000000000000000000e+03) (23, 1.50000000000000000000e+03) (24, -1.50000000000000000000e+03) (25, 1.36726330566406250000e+03) (26, -1.50000000000000000000e+03) (27, 1.50000000000000000000e+03) (28, -1.50000000000000000000e+03) (29, 1.50000000000000000000e+03) (30, -1.50000000000000000000e+03) (31, 1.50000000000000000000e+03) (32, -1.50000000000000000000e+03) (33, 1.35594226074218750000e+03) (34, -1.50000000000000000000e+03) (35, -8.82812500000000000000e+00) (36, -1.50000000000000000000e+03) (37, 1.50000000000000000000e+03) (38, -1.50000000000000000000e+03) (39, 1.50000000000000000000e+03) (40, -1.50000000000000000000e+03) (41, 4.80745117187500000000e+02) (42, -1.50000000000000000000e+03) (43, 2.49298950195312500000e+02) (44, -1.50000000000000000000e+03) (45, 1.50000000000000000000e+03) (46, -1.50000000000000000000e+03) (47, 1.50000000000000000000e+03) (48, -1.50000000000000000000e+03) (49, 1.04150817871093750000e+03) (50, -1.50000000000000000000e+03) (51, -3.93399963378906250000e+02) (52, -1.50000000000000000000e+03) (53, 1.50000000000000000000e+03) (54, -1.50000000000000000000e+03) (55, 1.50000000000000000000e+03) (56, -1.50000000000000000000e+03) (0, 2.91458392143249511719e+00) (1, 3.96165802001953125000e+02) (2, 1.85579729080200195312e+00) (3, 9.93814086914062500000e+00) (4, 2.97487664222717285156e+00) (5, -9.93223476409912109375e+00) (6, 2.85686182975769042969e+00) (7, -2.31287622451782226562e+00) (8, 3.00499415397644042969e+00) (9, 2.00691413879394531250e+01) (10, 1.79931008815765380859e+00) (11, 5.05369110107421875000e+01) (12, 2.87016606330871582031e+00) (13, -2.54431877136230468750e+01) (14, 2.91146969795227050781e+00) (15, -2.07938814163208007812e+00) (16, 2.89676260948181152344e+00) (17, 7.73934173583984375000e+01) (18, 1.75470221042633056641e+00) (19, 5.67036247253417968750e+01) (20, 3.03175854682922363281e+00) (21, 3.73351898193359375000e+01) (22, 2.90896630287170410156e+00) (23, -6.10099124908447265625e+00) (24, 2.99228167533874511719e+00) (25, -9.13803672790527343750e+00) (26, 1.78300464153289794922e+00) (27, 3.76804122924804687500e+01) (28, 2.94391560554504394531e+00) (29, 1.60253868103027343750e+01) (30, 2.88353610038757324219e+00) (31, 5.97036600112915039062e+00) (32, 2.91739058494567871094e+00) (33, 1.99333238601684570312e+00) (34, 2.53864049911499023438e+00) (35, 4.96426124572753906250e+01) (36, 2.86055874824523925781e+00) (37, -1.05118932723999023438e+01) (38, 3.03403544425964355469e+00) (39, 2.60353679656982421875e+01) (40, 2.88182663917541503906e+00) (41, 2.18242053985595703125e+01) (42, 1.57900869846343994141e+00) (43, 7.13281488418579101562e+00) (44, 2.97884297370910644531e+00) (45, -7.82976074218750000000e+01) (46, 3.00016808509826660156e+00) (47, 9.44306659698486328125e+00) (48, 2.97400403022766113281e+00) (49, -8.37608871459960937500e+01) (50, 1.53766191005706787109e+00) (51, 5.69272422790527343750e+01) (52, 2.85124707221984863281e+00) (53, -1.65120208740234375000e+02) (54, 3.02577328681945800781e+00) (55, 1.63395977020263671875e+01) (56, 3.04140543937683105469e+00) (0, 1.65292829275131225586e-01) (1, 3.75919799804687500000e+01) (2, 1.87290400266647338867e-01) (3, -7.14134883880615234375e+00) (4, 1.31780147552490234375e-01) (5, -7.46025753021240234375e+00) (6, 2.12608098983764648438e-01) (7, -2.54733085632324218750e+00) (8, 2.22378820180892944336e-01) (9, 8.35629463195800781250e+00) (10, 1.34235873818397521973e-01) (11, -4.77386426925659179688e+00) (12, 2.11594626307487487793e-01) (13, 2.67179336547851562500e+01) (14, 1.19071766734123229980e-01) (15, -2.80566787719726562500e+00) (16, 2.26433113217353820801e-01) (17, -1.05330982208251953125e+01) (18, 2.33137622475624084473e-01) (19, -1.64600715637207031250e+01) (20, 1.41958475112915039062e-01) (21, -5.14997863769531250000e+00) (22, 1.19330517947673797607e-01) (23, -1.25250101089477539062e+00) (24, 1.06073416769504547119e-01) (25, -5.28501892089843750000e+00) (26, 1.85109227895736694336e-01) (27, -4.09660959243774414062e+00) (28, 2.21303790807723999023e-01) (29, 1.53783261775970458984e+00) (30, 2.30940744280815124512e-01) (31, 6.93663072586059570312e+00) (32, 1.53401538729667663574e-01) (33, -7.04492568969726562500e+00) (34, 1.30653813481330871582e-01) (35, -1.14522399902343750000e+01) (36, 2.10062101483345031738e-01) (37, -1.28520727157592773438e+01) (38, 2.10721433162689208984e-01) (39, 2.79926800727844238281e+00) (40, 1.61117151379585266113e-01) (41, 1.03561854362487792969e+00) (42, 2.75638580322265625000e-01) (43, 5.65528297424316406250e+00) (44, 2.87338107824325561523e-01) (45, -2.31788349151611328125e+00) (46, 2.82312005758285522461e-01) (47, -7.21878004074096679688e+00) (48, 1.98001295328140258789e-01) (49, 5.05381011962890625000e+00) (50, 2.64972776174545288086e-01) (51, 1.38083803653717041016e+00) (52, 1.73153996467590332031e-01) (53, 5.18198585510253906250e+00) (54, 1.29551663994789123535e-01) (55, -1.00669755935668945312e+01) (56, 2.42616817355155944824e-01) (0, -1.50000000000000000000e+03) (1, 4.79918457031250000000e+02) (2, -1.50000000000000000000e+03) (3, 1.03062915039062500000e+03) (4, -1.50000000000000000000e+03) (5, 9.66508178710937500000e+02) (6, -1.50000000000000000000e+03) (7, 9.66508178710937500000e+02) (8, -1.50000000000000000000e+03) (9, 1.11608520507812500000e+03) (10, -1.50000000000000000000e+03) (11, 1.26019580078125000000e+03) (12, -1.50000000000000000000e+03) (13, 9.66508178710937500000e+02) (14, -1.50000000000000000000e+03) (15, 1.43941455078125000000e+03) (16, -1.50000000000000000000e+03) (17, -4.88912597656250000000e+02) (18, -1.50000000000000000000e+03) (19, 1.50000000000000000000e+03) (20, -1.50000000000000000000e+03) (21, 1.19911560058593750000e+03) (22, -1.50000000000000000000e+03) (23, 1.48756445312500000000e+03) (24, -1.50000000000000000000e+03) (25, -5.09199951171875000000e+02) (26, -1.50000000000000000000e+03) (27, 4.80745117187500000000e+02) (28, -1.50000000000000000000e+03) (29, 9.66508178710937500000e+02) (30, -1.50000000000000000000e+03) (31, 1.45975646972656250000e+03) (32, -1.50000000000000000000e+03) (33, -3.24263427734375000000e+02) (34, -1.50000000000000000000e+03) (35, 1.49794104003906250000e+03) (36, -1.50000000000000000000e+03) (37, 3.28539611816406250000e+02) (38, -1.50000000000000000000e+03) (39, 1.50000000000000000000e+03) (40, -1.50000000000000000000e+03) (41, 1.49872949218750000000e+03) (42, -1.50000000000000000000e+03) (43, 8.70961547851562500000e+02) (44, -1.50000000000000000000e+03) (45, 1.47421618652343750000e+03) (46, -1.50000000000000000000e+03) (47, 1.50000000000000000000e+03) (48, -1.50000000000000000000e+03) (49, 1.49817053222656250000e+03) (50, -1.50000000000000000000e+03) (51, 1.49818090820312500000e+03) (52, -1.50000000000000000000e+03) (53, 1.50000000000000000000e+03) (54, -1.50000000000000000000e+03) (55, 1.50000000000000000000e+03) (56, -1.50000000000000000000e+03) (0, 1.66578903794288635254e-01) (1, 3.95255241394042968750e+01) (2, 1.16424918174743652344e-01) (3, 2.96065902709960937500e+00) (4, 1.50402277708053588867e-01) (5, 1.57616424560546875000e+00) (6, 1.36908590793609619141e-01) (7, 2.18167495727539062500e+00) (8, 5.55656403303146362305e-02) (9, 2.39700260162353515625e+01) (10, 6.69622346758842468262e-02) (11, 7.23465490341186523438e+00) (12, 9.88968461751937866211e-02) (13, -1.39059412479400634766e+00) (14, 1.45716771483421325684e-01) (15, 1.17617344856262207031e+00) (16, 7.28899762034416198730e-02) (17, 9.45604038238525390625e+00) (18, 1.75530210137367248535e-01) (19, 7.07156801223754882812e+00) (20, 1.57962515950202941895e-01) (21, -8.50559043884277343750e+00) (22, 8.37144777178764343262e-02) (23, -3.71402949094772338867e-01) (24, 2.18638017773628234863e-01) (25, 2.78026401996612548828e-01) (26, 8.81440043449401855469e-02) (27, 4.42676019668579101562e+00) (28, 1.26928254961967468262e-01) (29, -2.79754233360290527344e+00) (30, 2.13728368282318115234e-01) (31, 3.77157282829284667969e+00) (32, 7.42735937237739562988e-02) (33, -6.83853769302368164062e+00) (34, 2.28033304214477539062e-01) (35, -5.93008875846862792969e-01) (36, 2.35406130552291870117e-01) (37, 3.05211997032165527344e+00) (38, 1.24117113649845123291e-01) (39, 4.89373683929443359375e+00) (40, 2.07214578986167907715e-01) (41, -5.22048091888427734375e+00) (42, 1.03848733007907867432e-01) (43, -2.14570736885070800781e+00) (44, 1.62078559398651123047e-01) (45, 1.26343953609466552734e+00) (46, 1.21609054505825042725e-01) (47, 2.29612898826599121094e+00) (48, 1.28065496683120727539e-01) (49, 8.47292959690093994141e-01) (50, 6.04032725095748901367e-02) (51, -7.92044544219970703125e+00) (52, 1.63650229573249816895e-01) (53, 4.60844850540161132812e+00) (54, 9.42820534110069274902e-02) (55, -3.99091148376464843750e+00) (56, 8.75327959656715393066e-02) (0, 8.84916992187500000000e+02) (1, -5.33779602050781250000e+01) (2, 1.30652496337890625000e+02) (3, 1.50000000000000000000e+03) (4, 8.83393188476562500000e+02) (5, -3.51961402893066406250e+01) (6, 8.84849243164062500000e+02) (7, 3.14594006538391113281e+00) (8, 8.84019531250000000000e+02) (9, -1.26987419128417968750e+01) (10, 1.30579681396484375000e+02) (11, -1.23414306640625000000e+01) (12, 8.83703247070312500000e+02) (13, -5.69365653991699218750e+01) (14, 8.84923461914062500000e+02) (15, 2.51977372169494628906e+00) (16, 8.83599731445312500000e+02) (17, 7.30080566406250000000e+02) (18, 1.30735183715820312500e+02) (19, -1.42766754150390625000e+02) (20, 8.84086181640625000000e+02) (21, 5.73078613281250000000e+01) (22, 8.84986328125000000000e+02) (23, 3.15204620361328125000e+00) (24, 8.84088684082031250000e+02) (25, 2.75736331939697265625e+00) (26, 4.01703552246093750000e+02) (27, 1.40969657897949218750e+01) (28, 8.84068176269531250000e+02) (29, -1.78933849334716796875e+01) (30, 8.84898071289062500000e+02) (31, 7.30847167968750000000e+01) (32, 8.84138916015625000000e+02) (33, 1.09394995117187500000e+03) (34, 6.42113159179687500000e+02) (35, 1.24716406250000000000e+03) (36, 8.84857543945312500000e+02) (37, 2.69346160888671875000e+01) (38, 8.84923706054687500000e+02) (39, 3.02957515716552734375e+01) (40, 8.84091003417968750000e+02) (41, 1.50000000000000000000e+03) (42, 6.41953430175781250000e+02) (43, 2.78293487548828125000e+02) (44, 8.84931579589843750000e+02) (45, 4.27190828323364257812e+00) (46, 8.84842285156250000000e+02) (47, 1.87412095069885253906e+00) (48, 8.84835815429687500000e+02) (49, 1.10005334472656250000e+03) (50, 1.30031463623046875000e+02) (51, 1.50000000000000000000e+03) (52, 8.84940673828125000000e+02) (53, -3.29762115478515625000e+01) (54, 8.84911376953125000000e+02) (55, -1.09788345336914062500e+02) (56, 8.83921508789062500000e+02) (0, -1.50000000000000000000e+03) (1, 4.79918457031250000000e+02) (2, -1.50000000000000000000e+03) (3, 1.41698046875000000000e+03) (4, -1.50000000000000000000e+03) (5, 9.66508178710937500000e+02) (6, -1.50000000000000000000e+03) (7, 9.66508178710937500000e+02) (8, -1.50000000000000000000e+03) (9, 1.31279687500000000000e+03) (10, -1.50000000000000000000e+03) (11, 1.26019580078125000000e+03) (12, -1.50000000000000000000e+03) (13, 9.66508178710937500000e+02) (14, -1.50000000000000000000e+03) (15, 1.45962304687500000000e+03) (16, -1.50000000000000000000e+03) (17, -5.09199951171875000000e+02) (18, -1.50000000000000000000e+03) (19, 1.50000000000000000000e+03) (20, -1.50000000000000000000e+03) (21, 1.25586340332031250000e+03) (22, -1.50000000000000000000e+03) (23, 1.49680468750000000000e+03) (24, -1.50000000000000000000e+03) (25, -3.93399963378906250000e+02) (26, -1.50000000000000000000e+03) (27, 6.77889648437500000000e+02) (28, -1.50000000000000000000e+03) (29, 9.66508178710937500000e+02) (30, -1.50000000000000000000e+03) (31, 1.48461132812500000000e+03) (32, -1.50000000000000000000e+03) (33, -4.88912597656250000000e+02) (34, -1.50000000000000000000e+03) (35, 1.49837817382812500000e+03) (36, -1.50000000000000000000e+03) (37, 3.28539611816406250000e+02) (38, -1.50000000000000000000e+03) (39, 1.50000000000000000000e+03) (40, -1.50000000000000000000e+03) (41, 1.49873083496093750000e+03) (42, -1.50000000000000000000e+03) (43, 1.07117004394531250000e+03) (44, -1.50000000000000000000e+03) (45, 1.48059558105468750000e+03) (46, -1.50000000000000000000e+03) (47, 1.50000000000000000000e+03) (48, -1.50000000000000000000e+03) (49, 1.49872949218750000000e+03) (50, -1.50000000000000000000e+03) (51, 1.49849011230468750000e+03) (52, -1.50000000000000000000e+03) (53, 1.50000000000000000000e+03) (54, -1.50000000000000000000e+03) (55, 1.50000000000000000000e+03) (56, -1.50000000000000000000e+03) (0, -2.68948268890380859375e+00) (1, 6.27505920410156250000e+02) (2, -9.53516674041748046875e+00) (3, -4.05241737365722656250e+01) (4, -2.70034003257751464844e+00) (5, -6.84876108169555664062e+00) (6, -2.67090821266174316406e+00) (7, -2.22139778137207031250e+01) (8, -2.65115451812744140625e+00) (9, 2.31606216430664062500e+02) (10, -3.88037800788879394531e+00) (11, 3.56019668579101562500e+01) (12, -2.66333818435668945312e+00) (13, -9.66026229858398437500e+01) (14, -2.65558123588562011719e+00) (15, -2.31871914863586425781e+00) (16, -2.70989418029785156250e+00) (17, -1.95261993408203125000e+01) (18, -3.97221875190734863281e+00) (19, -2.39917926788330078125e+01) (20, -2.65678215026855468750e+00) (21, -6.70941877365112304688e+00) (22, -2.65252494812011718750e+00) (23, -4.46713018417358398438e+00) (24, -2.56747198104858398438e+00) (25, -1.30408363342285156250e+01) (26, -3.27466011047363281250e+00) (27, 3.00876007080078125000e+01) (28, -2.66257858276367187500e+00) (29, 5.68037223815917968750e+01) (30, -2.62549638748168945312e+00) (31, -1.49277672171592712402e-01) (32, -2.68116950988769531250e+00) (33, -9.33313465118408203125e+00) (34, -3.90669226646423339844e+00) (35, 2.23423568725585937500e+02) (36, -2.74156951904296875000e+00) (37, -2.70853042602539062500e+00) (38, -2.72873187065124511719e+00) (39, 1.17087526321411132812e+01) (40, -2.68315219879150390625e+00) (41, 1.16918167114257812500e+02) (42, -1.27459974288940429688e+01) (43, 5.85722808837890625000e+01) (44, -2.55755853652954101562e+00) (45, -5.30243110656738281250e+00) (46, -2.54056477546691894531e+00) (47, -1.51764917373657226562e+01) (48, -2.65129208564758300781e+00) (49, -1.35250274658203125000e+02) (50, -3.79242205619812011719e+00) (51, -1.00409049987792968750e+01) (52, -2.55515742301940917969e+00) (53, -4.01084365844726562500e+01) (54, -2.57789015769958496094e+00) (55, -5.96560058593750000000e+01) (56, -2.58996725082397460938e+00) (0, -2.55029294639825820923e-02) (1, -1.11521930694580078125e+01) (2, -1.69563889503479003906e-02) (3, -1.74485468864440917969e+00) (4, -5.48875425010919570923e-03) (5, -7.82740473747253417969e-01) (6, 1.16154462099075317383e-01) (7, -1.19808793067932128906e+00) (8, 1.39284431934356689453e-01) (9, -1.07860069274902343750e+01) (10, -3.16578745841979980469e-02) (11, -2.09901666641235351562e+00) (12, 6.10826760530471801758e-02) (13, 2.03030562400817871094e+00) (14, 9.52755585312843322754e-02) (15, -2.93185561895370483398e-01) (16, -1.36686861515045166016e-02) (17, -3.41616702079772949219e+00) (18, 9.99809876084327697754e-02) (19, -5.45080327987670898438e+00) (20, 5.34347817301750183105e-02) (21, 9.39478337764739990234e-01) (22, 8.06617587804794311523e-02) (23, -1.97628930211067199707e-01) (24, 4.22237962484359741211e-02) (25, 5.03199040889739990234e-01) (26, 1.35096088051795959473e-01) (27, -1.49032461643218994141e+00) (28, 3.61756682395935058594e-02) (29, 1.69852644205093383789e-01) (30, -3.55835855007171630859e-02) (31, -1.02641522884368896484e+00) (32, 6.82086125016212463379e-02) (33, 1.92445969581604003906e+00) (34, -3.89352552592754364014e-02) (35, -7.18640908598899841309e-02) (36, -7.27876089513301849365e-03) (37, -1.18665039539337158203e+00) (38, 1.28449678421020507812e-01) (39, -2.72271752357482910156e+00) (40, 4.69687581062316894531e-02) (41, 2.51931166648864746094e+00) (42, 6.84220939874649047852e-02) (43, 1.87735688686370849609e+00) (44, 1.00138522684574127197e-01) (45, 4.15822379291057586670e-02) (46, 1.21422722935676574707e-01) (47, 4.90065485239028930664e-01) (48, 1.35741934180259704590e-01) (49, 1.20343065261840820312e+00) (50, -7.94326607137918472290e-03) (51, 1.16251242160797119141e+00) (52, 8.58527645468711853027e-02) (53, 2.95125186443328857422e-01) (54, 4.14783358573913574219e-02) (55, -3.54704111814498901367e-02) (56, 5.15549704432487487793e-02) (0, -1.50000000000000000000e+03) (1, 1.50000000000000000000e+03) (2, -1.50000000000000000000e+03) (3, 1.50000000000000000000e+03) (4, -1.50000000000000000000e+03) (5, 1.50000000000000000000e+03) (6, -1.50000000000000000000e+03) (7, 1.50000000000000000000e+03) (8, -1.50000000000000000000e+03) (9, 1.50000000000000000000e+03) (10, -1.50000000000000000000e+03) (11, 1.50000000000000000000e+03) (12, -1.50000000000000000000e+03) (13, 1.50000000000000000000e+03) (14, -1.50000000000000000000e+03) (15, 1.50000000000000000000e+03) (16, -1.50000000000000000000e+03) (17, 1.50000000000000000000e+03) (18, -1.50000000000000000000e+03) (19, 1.50000000000000000000e+03) (20, -1.50000000000000000000e+03) (21, 1.50000000000000000000e+03) (22, -1.50000000000000000000e+03) (23, 1.50000000000000000000e+03) (24, -1.50000000000000000000e+03) (25, 1.50000000000000000000e+03) (26, -1.50000000000000000000e+03) (27, 1.50000000000000000000e+03) (28, -1.50000000000000000000e+03) (29, 1.50000000000000000000e+03) (30, -1.50000000000000000000e+03) (31, 1.50000000000000000000e+03) (32, -1.50000000000000000000e+03) (33, 1.50000000000000000000e+03) (34, -1.50000000000000000000e+03) (35, 1.50000000000000000000e+03) (36, -1.50000000000000000000e+03) (37, 1.50000000000000000000e+03) (38, -1.50000000000000000000e+03) (39, 1.50000000000000000000e+03) (40, -1.50000000000000000000e+03) (41, 1.50000000000000000000e+03) (42, -1.50000000000000000000e+03) (43, 1.50000000000000000000e+03) (44, -1.50000000000000000000e+03) (45, 1.50000000000000000000e+03) (46, -1.50000000000000000000e+03) (47, 1.50000000000000000000e+03) (48, -1.50000000000000000000e+03) (49, 1.50000000000000000000e+03) (50, -1.50000000000000000000e+03) (51, 1.50000000000000000000e+03) (52, -1.50000000000000000000e+03) (53, 1.50000000000000000000e+03) (54, -1.50000000000000000000e+03) (55, 1.50000000000000000000e+03) (56, -1.50000000000000000000e+03) (57, -1.50000000000000000000e+03) (58, 1.50000000000000000000e+03) (59, 1.50000000000000000000e+03) (60, -1.50000000000000000000e+03) (61, 1.50000000000000000000e+03) (62, 1.50000000000000000000e+03) (63, -1.50000000000000000000e+03) (64, -1.50000000000000000000e+03) (65, 1.50000000000000000000e+03) (66, -1.50000000000000000000e+03) (67, 1.50000000000000000000e+03) (57, 4.95996773242950439453e-02) (58, -1.18469029664993286133e-01) (59, -1.41699776053428649902e-01) (60, 8.56693089008331298828e-02) (61, -1.22414954006671905518e-01) (62, -1.41388729214668273926e-01) (63, 8.25721547007560729980e-02) (64, -8.29041153192520141602e-02) (65, 3.23300778865814208984e-01) (66, -1.44458450376987457275e-02) (67, 4.33449000120162963867e-01) 
