FANN_FLO_2.1
num_layers=3
learning_rate=0.700000
connection_rate=1.000000
network_type=0
learning_momentum=0.000000
training_algorithm=2
train_error_function=1
train_stop_function=0
cascade_output_change_fraction=0.010000
quickprop_decay=-0.000100
quickprop_mu=1.750000
rprop_increase_factor=1.200000
rprop_decrease_factor=0.500000
rprop_delta_min=0.000000
rprop_delta_max=50.000000
rprop_delta_zero=0.100000
cascade_output_stagnation_epochs=12
cascade_candidate_change_fraction=0.010000
cascade_candidate_stagnation_epochs=12
cascade_max_out_epochs=150
cascade_max_cand_epochs=150
cascade_num_candidate_groups=2
bit_fail_limit=3.49999994039535522461e-01
cascade_candidate_limit=1.00000000000000000000e+03
cascade_weight_multiplier=4.00000005960464477539e-01
cascade_activation_functions_count=10
cascade_activation_functions=3 5 7 8 10 11 14 15 16 17 
cascade_activation_steepnesses_count=4
cascade_activation_steepnesses=2.50000000000000000000e-01 5.00000000000000000000e-01 7.50000000000000000000e-01 1.00000000000000000000e+00 
layer_sizes=78 11 3 
scale_included=0
neurons (num_inputs, activation_function, activation_steepness)=(0, 0, 0.00000000000000000000e+00) (0, 0, 0.00000000000000000000e+00) (0, 0, 0.00000000000000000000e+00) (0, 0, 0.00000000000000000000e+00) (0, 0, 0.00000000000000000000e+00) (0, 0, 0.00000000000000000000e+00) (0, 0, 0.00000000000000000000e+00) (0, 0, 0.00000000000000000000e+00) (0, 0, 0.00000000000000000000e+00) (0, 0, 0.00000000000000000000e+00) (0, 0, 0.00000000000000000000e+00) (0, 0, 0.00000000000000000000e+00) (0, 0, 0.00000000000000000000e+00) (0, 0, 0.00000000000000000000e+00) (0, 0, 0.00000000000000000000e+00) (0, 0, 0.00000000000000000000e+00) (0, 0, 0.00000000000000000000e+00) (0, 0, 0.00000000000000000000e+00) (0, 0, 0.00000000000000000000e+00) (0, 0, 0.00000000000000000000e+00) (0, 0, 0.00000000000000000000e+00) (0, 0, 0.00000000000000000000e+00) (0, 0, 0.00000000000000000000e+00) (0, 0, 0.00000000000000000000e+00) (0, 0, 0.00000000000000000000e+00) (0, 0, 0.00000000000000000000e+00) (0, 0, 0.00000000000000000000e+00) (0, 0, 0.00000000000000000000e+00) (0, 0, 0.00000000000000000000e+00) (0, 0, 0.00000000000000000000e+00) (0, 0, 0.00000000000000000000e+00) (0, 0, 0.00000000000000000000e+00) (0, 0, 0.00000000000000000000e+00) (0, 0, 0.00000000000000000000e+00) (0, 0, 0.00000000000000000000e+00) (0, 0, 0.00000000000000000000e+00) (0, 0, 0.00000000000000000000e+00) (0, 0, 0.00000000000000000000e+00) (0, 0, 0.00000000000000000000e+00) (0, 0, 0.00000000000000000000e+00) (0, 0, 0.00000000000000000000e+00) (0, 0, 0.00000000000000000000e+00) (0, 0, 0.00000000000000000000e+00) (0, 0, 0.00000000000000000000e+00) (0, 0, 0.00000000000000000000e+00) (0, 0, 0.00000000000000000000e+00) (0, 0, 0.00000000000000000000e+00) (0, 0, 0.00000000000000000000e+00) (0, 0, 0.00000000000000000000e+00) (0, 0, 0.00000000000000000000e+00) (0, 0, 0.00000000000000000000e+00) (0, 0, 0.00000000000000000000e+00) (0, 0, 0.00000000000000000000e+00) (0, 0, 0.00000000000000000000e+00) (0, 0, 0.00000000000000000000e+00) (0, 0, 0.00000000000000000000e+00) (0, 0, 0.00000000000000000000e+00) (0, 0, 0.00000000000000000000e+00) (0, 0, 0.00000000000000000000e+00) (0, 0, 0.00000000000000000000e+00) (0, 0, 0.00000000000000000000e+00) (0, 0, 0.00000000000000000000e+00) (0, 0, 0.00000000000000000000e+00) (0, 0, 0.00000000000000000000e+00) (0, 0, 0.00000000000000000000e+00) (0, 0, 0.00000000000000000000e+00) (0, 0, 0.00000000000000000000e+00) (0, 0, 0.00000000000000000000e+00) (0, 0, 0.00000000000000000000e+00) (0, 0, 0.00000000000000000000e+00) (0, 0, 0.00000000000000000000e+00) (0, 0, 0.00000000000000000000e+00) (0, 0, 0.00000000000000000000e+00) (0, 0, 0.00000000000000000000e+00) (0, 0, 0.00000000000000000000e+00) (0, 0, 0.00000000000000000000e+00) (0, 0, 0.00000000000000000000e+00) (0, 0, 0.00000000000000000000e+00) (78, 5, 5.00000000000000000000e-01) (78, 5, 5.00000000000000000000e-01) (78, 5, 5.00000000000000000000e-01) (78, 5, 5.00000000000000000000e-01) (78, 5, 5.00000000000000000000e-01) (78, 5, 5.00000000000000000000e-01) (78, 5, 5.00000000000000000000e-01) (78, 5, 5.00000000000000000000e-01) (78, 5, 5.00000000000000000000e-01) (78, 5, 5.00000000000000000000e-01) (0, 5, 0.00000000000000000000e+00) (11, 11, 5.00000000000000000000e-01) (11, 11, 5.00000000000000000000e-01) (0, 11, 0.00000000000000000000e+00) 
connections (connected_to_neuron, weight)=(0, 2.93543243408203125000e+00) (1, 2.47874045372009277344e+00) (2, 4.95163835585117340088e-02) (3, 5.41911981999874114990e-02) (4, 2.42854937911033630371e-01) (5, -3.19257192313671112061e-02) (6, 1.32360197603702545166e-02) (7, 5.51156215369701385498e-02) (8, 2.08444505929946899414e-01) (9, 6.83274626731872558594e-01) (10, -3.55871282517910003662e-02) (11, -1.05972038581967353821e-02) (12, 3.21730256080627441406e+00) (13, -9.82152856886386871338e-03) (14, 3.81603613495826721191e-02) (15, 2.28907093405723571777e-01) (16, -4.19002659618854522705e-02) (17, 4.50626667588949203491e-03) (18, 2.59682741016149520874e-02) (19, 8.97904187440872192383e-02) (20, 3.83777648210525512695e-01) (21, 2.52773128449916839600e-02) (22, 6.59359455108642578125e-01) (23, 1.30389773845672607422e+00) (24, -4.72995601594448089600e-02) (25, 1.96800120174884796143e-02) (26, 2.40709289908409118652e-01) (27, 3.83043549954891204834e-02) (28, 2.91169639676809310913e-02) (29, -4.73805936053395271301e-04) (30, 1.12341679632663726807e-01) (31, -8.04111920297145843506e-03) (32, 3.28942611813545227051e-02) (33, -2.70493984222412109375e-01) (34, -1.36676609516143798828e-01) (35, -1.00556008517742156982e-01) (36, 7.21755847334861755371e-02) (37, 6.46087303757667541504e-02) (38, -3.57599630951881408691e-02) (39, 4.23386134207248687744e-02) (40, 1.07163086533546447754e-01) (41, 7.72678852081298828125e-02) (42, 3.61035555601119995117e-01) (43, 1.02788060903549194336e-01) (44, 1.79131817817687988281e+00) (45, -1.70619356632232666016e+00) (46, 1.81664265692234039307e-02) (47, 5.32010234892368316650e-02) (48, 1.08589939773082733154e-02) (49, 8.88179056346416473389e-03) (50, -3.66646051406860351562e-02) (51, 3.19170393049716949463e-02) (52, 1.58869072794914245605e-01) (53, -4.02068525552749633789e-01) (54, 5.72326034307479858398e-02) (55, 5.42769193649291992188e-01) (56, -4.80287361145019531250e+00) (57, 8.03768932819366455078e-02) (58, 1.53468981385231018066e-01) (59, 2.41345241665840148926e-02) (60, 7.77613818645477294922e-02) (61, -2.72422321140766143799e-02) (62, 7.46866315603256225586e-02) (63, 2.27020174264907836914e-01) (64, 1.12132155895233154297e+00) (65, 1.53717268258333206177e-02) (66, 1.18136835098266601562e+00) (67, -1.51572668552398681641e+00) (68, 6.64062649011611938477e-02) (69, 4.39036414027214050293e-02) (70, 1.44770115613937377930e-01) (71, 3.38909961283206939697e-02) (72, 6.98889866471290588379e-02) (73, 2.38164626061916351318e-02) (74, 8.88445600867271423340e-02) (75, -6.33640468120574951172e-01) (76, 3.54292951524257659912e-02) (77, 1.29878893494606018066e-01) (0, 1.54263758659362792969e+00) (1, -1.82491213083267211914e-01) (2, -2.85819351673126220703e-01) (3, 1.27030625939369201660e-01) (4, -4.20388460159301757812e-01) (5, -4.11654561758041381836e-02) (6, -3.25374811887741088867e-01) (7, -9.20195206999778747559e-02) (8, 8.62700492143630981445e-02) (9, 7.98261940479278564453e-01) (10, 2.53525525331497192383e-01) (11, 2.56107282638549804688e+00) (12, 1.80813992023468017578e+00) (13, -3.50883007049560546875e-01) (14, 1.15558333694934844971e-01) (15, -3.86969864368438720703e-01) (16, -2.24467515945434570312e-02) (17, -3.97502064704895019531e-01) (18, -4.60816845297813415527e-02) (19, 1.03042118251323699951e-01) (20, 3.72315011918544769287e-02) (21, 1.03963680565357208252e-01) (22, 1.36970579624176025391e+00) (23, 8.22729468345642089844e-01) (24, -2.84013748168945312500e-01) (25, 1.24598190188407897949e-01) (26, -3.18335920572280883789e-01) (27, 1.27550577744841575623e-02) (28, -3.70605319738388061523e-01) (29, -3.38659398257732391357e-02) (30, 3.86099121533334255219e-03) (31, -1.48766368627548217773e-01) (32, 4.53359559178352355957e-02) (33, -2.19041228294372558594e+00) (34, -3.48507595062255859375e+00) (35, -2.34531283378601074219e-01) (36, 1.22748792171478271484e-01) (37, -3.73081713914871215820e-01) (38, -5.85877075791358947754e-02) (39, -3.13982456922531127930e-01) (40, -3.94232608377933502197e-02) (41, 1.05716414749622344971e-01) (42, -2.71245151758193969727e-01) (43, 6.93031847476959228516e-02) (44, 2.47848272323608398438e+00) (45, 6.02688741683959960938e+00) (46, -3.28635960817337036133e-01) (47, 1.05039037764072418213e-01) (48, -3.84820044040679931641e-01) (49, 1.73597857356071472168e-02) (50, -5.38135945796966552734e-01) (51, -1.86355292797088623047e-01) (52, 1.20684981346130371094e-01) (53, -1.14607475697994232178e-01) (54, -2.48886961489915847778e-02) (55, -3.57841849327087402344e-01) (56, -3.54949951171875000000e-01) (57, -2.91934847831726074219e-01) (58, 4.48864176869392395020e-02) (59, -6.46537840366363525391e-01) (60, -9.05124992132186889648e-02) (61, -4.76451128721237182617e-01) (62, -1.43421903252601623535e-01) (63, 8.11991915106773376465e-02) (64, -1.02066004276275634766e+00) (65, 1.66741043329238891602e-01) (66, 1.59293517470359802246e-01) (67, 1.42491662502288818359e+00) (68, -4.28646475076675415039e-01) (69, 1.18362404406070709229e-01) (70, -4.23214077949523925781e-01) (71, -1.56271532177925109863e-02) (72, -3.32625716924667358398e-01) (73, -1.51658877730369567871e-01) (74, 1.35113552212715148926e-01) (75, -2.47608989477157592773e-01) (76, 3.24965901672840118408e-02) (77, 7.96629413962364196777e-02) (0, 1.42880070209503173828e+00) (1, -3.97074133157730102539e-01) (2, 4.85340595245361328125e-01) (3, -8.87611210346221923828e-02) (4, 4.64197605848312377930e-01) (5, -1.50407820940017700195e-01) (6, 2.35385403037071228027e-01) (7, 6.10386431217193603516e-02) (8, -3.74415069818496704102e-02) (9, 8.03880751132965087891e-01) (10, -1.94599285721778869629e-01) (11, -4.47479248046875000000e+00) (12, -4.06527757644653320312e+00) (13, 2.76813596487045288086e-01) (14, -5.02963997423648834229e-02) (15, 2.43748784065246582031e-01) (16, -1.33366882801055908203e-01) (17, 3.09445858001708984375e-01) (18, 2.34307628124952316284e-02) (19, -4.78441873565316200256e-03) (20, 2.84998923540115356445e-01) (21, -1.06254309415817260742e-01) (22, -3.51413607597351074219e+00) (23, -1.48001015186309814453e+00) (24, 1.71557977795600891113e-01) (25, -5.29557354748249053955e-02) (26, 6.29010200500488281250e-02) (27, -2.00738817453384399414e-01) (28, 3.20809990167617797852e-01) (29, -4.46224445477128028870e-03) (30, -1.70837834477424621582e-01) (31, -2.84680396318435668945e-01) (32, -8.21072086691856384277e-02) (33, 6.79537439346313476562e+00) (34, 1.07315502166748046875e+01) (35, 2.67641425132751464844e-01) (36, -6.86602666974067687988e-02) (37, 2.39198148250579833984e-01) (38, 7.19820857048034667969e-02) (39, 2.34485387802124023438e-01) (40, 1.02141149342060089111e-01) (41, -3.38644683361053466797e-02) (42, -1.65318384766578674316e-01) (43, -5.84695376455783843994e-02) (44, -5.13181543350219726562e+00) (45, -7.33648967742919921875e+00) (46, 8.63736644387245178223e-02) (47, 6.89163152128458023071e-03) (48, 1.07640571892261505127e-01) (49, 5.52809052169322967529e-02) (50, 4.46550190448760986328e-01) (51, 1.41454815864562988281e-01) (52, -6.78598657250404357910e-02) (53, 2.74016886949539184570e-01) (54, 3.24949212372303009033e-02) (55, 2.00689554214477539062e+00) (56, 4.07844543457031250000e+00) (57, 1.16188153624534606934e-01) (58, -1.34749058634042739868e-03) (59, 6.17390513420104980469e-01) (60, 8.50696116685867309570e-02) (61, 3.60358685255050659180e-01) (62, 1.57950252294540405273e-01) (63, -1.78734973073005676270e-01) (64, 2.72541308403015136719e+00) (65, -1.37153029441833496094e-01) (66, 6.70130252838134765625e-01) (67, -2.75061678886413574219e+00) (68, 9.52950641512870788574e-02) (69, 1.09644860029220581055e-01) (70, 5.13029754161834716797e-01) (71, -7.16050416231155395508e-02) (72, 3.10449093580245971680e-01) (73, 6.90389052033424377441e-02) (74, -1.49457871913909912109e-01) (75, 1.12164497375488281250e+00) (76, -5.57715371251106262207e-02) (77, -1.29981666803359985352e-01) (0, 1.15428015136718750000e+03) (1, -1.37145764160156250000e+03) (2, 1.50000000000000000000e+03) (3, 4.02347351074218750000e+02) (4, -7.47483886718750000000e+02) (5, -1.05423925781250000000e+03) (6, -1.49998522949218750000e+03) (7, -2.02308624267578125000e+02) (8, 4.02383618056774139404e-02) (9, 9.57754287719726562500e+01) (10, -7.87197509765625000000e+02) (11, 1.15236975097656250000e+03) (12, -1.50000000000000000000e+03) (13, 6.44368347167968750000e+02) (14, -8.91875244140625000000e+02) (15, -1.47665451049804687500e+02) (16, -1.07601562500000000000e+03) (17, -9.41108886718750000000e+02) (18, -6.34353027343750000000e+02) (19, 1.85507252812385559082e-01) (20, 9.79273742675781250000e+02) (21, -8.36569763183593750000e+02) (22, -3.43002777099609375000e+01) (23, -1.47338439941406250000e+03) (24, 5.41337242126464843750e+01) (25, 1.25104223632812500000e+03) (26, -5.80196105957031250000e+02) (27, -2.67275512695312500000e+02) (28, 1.24207611083984375000e+02) (29, -6.78637817382812500000e+02) (30, 1.16252481937408447266e-01) (31, -1.35240570068359375000e+02) (32, 3.35133483886718750000e+02) (33, 1.09115014648437500000e+03) (34, -2.47555404663085937500e+02) (35, 3.80599334716796875000e+02) (36, 1.49859118652343750000e+03) (37, -8.98751159667968750000e+02) (38, -4.22939514160156250000e+02) (39, -5.80824462890625000000e+02) (40, -1.03982238769531250000e+03) (41, 6.66462108492851257324e-02) (42, 1.08253222656250000000e+03) (43, -7.73854370117187500000e+02) (44, -9.10880310058593750000e+02) (45, 1.39326831054687500000e+03) (46, -1.89301452636718750000e+02) (47, 1.08712084960937500000e+03) (48, -4.95246307373046875000e+02) (49, 3.19484710693359375000e+02) (50, 2.95696289062500000000e+02) (51, 7.72863464355468750000e+02) (52, 2.29218065738677978516e-01) (53, 1.31632043457031250000e+03) (54, 9.98206420898437500000e+02) (55, -2.15581222534179687500e+02) (56, -1.43718225097656250000e+03) (57, -5.39075355529785156250e+01) (58, 1.48676257324218750000e+03) (59, -4.52436889648437500000e+02) (60, 4.77683074951171875000e+02) (61, 1.63061859130859375000e+02) (62, 1.02211242675781250000e+03) (63, 1.63906127214431762695e-01) (64, 1.27608801269531250000e+03) (65, -1.08782446289062500000e+03) (66, 5.50848205566406250000e+02) (67, -1.35242272949218750000e+03) (68, -5.86390625000000000000e+02) (69, 1.48027026367187500000e+03) (70, -9.24280029296875000000e+02) (71, -5.24546813964843750000e+02) (72, -2.14115341186523437500e+02) (73, -9.41467895507812500000e+01) (74, 2.19135284423828125000e-01) (75, 3.53680664062500000000e+02) (76, -1.08418176269531250000e+03) (77, 3.97551208734512329102e-02) (0, 4.38080406188964843750e+00) (1, -5.41595220565795898438e-01) (2, 9.15385484695434570312e-02) (3, 8.02099287509918212891e-01) (4, 2.24577903747558593750e-01) (5, 8.52546468377113342285e-02) (6, 7.38342627882957458496e-02) (7, -8.09739902615547180176e-02) (8, 3.30384224653244018555e-01) (9, 3.14505243301391601562e+00) (10, -1.86679944396018981934e-01) (11, 4.60589981079101562500e+00) (12, -2.73811995983123779297e-01) (13, 2.86513388156890869141e-01) (14, -4.90809306502342224121e-02) (15, 2.72765398025512695312e-01) (16, 4.70571368932723999023e-01) (17, -5.92836327850818634033e-02) (18, 1.02194041013717651367e-01) (19, 1.80452778935432434082e-01) (20, 1.15802943706512451172e+00) (21, -7.83445127308368682861e-03) (22, 1.43939340114593505859e+00) (23, -3.93813610076904296875e+00) (24, 2.94886857271194458008e-01) (25, -1.12158000469207763672e-01) (26, 1.96494638919830322266e-01) (27, 2.55107343196868896484e-01) (28, 3.23711521923542022705e-02) (29, 1.96805760264396667480e-01) (30, 2.27558284997940063477e-01) (31, 6.82767152786254882812e-01) (32, 5.63591271638870239258e-02) (33, 1.62270963191986083984e+00) (34, 5.29677724838256835938e+00) (35, -2.25934758782386779785e-01) (36, -6.81710168719291687012e-02) (37, 3.79537791013717651367e-01) (38, -7.87302479147911071777e-02) (39, 1.62676349282264709473e-01) (40, 8.33456665277481079102e-02) (41, 1.61848396062850952148e-01) (42, -1.50827944278717041016e+00) (43, 2.45653718709945678711e-01) (44, 8.37530255317687988281e-01) (45, -5.37016773223876953125e+00) (46, 1.17283202707767486572e-01) (47, 5.44813498854637145996e-02) (48, 1.52933090925216674805e-01) (49, -1.09777472913265228271e-01) (50, 1.28165066242218017578e-01) (51, -9.23454537987709045410e-02) (52, 3.31049084663391113281e-01) (53, -3.92661809921264648438e+00) (54, 1.55233129858970642090e-01) (55, -2.17697715759277343750e+00) (56, 1.70133483409881591797e+00) (57, 9.35025438666343688965e-02) (58, 1.84827357530593872070e-01) (59, 2.69671171903610229492e-01) (60, 1.00223273038864135742e-01) (61, 5.76039589941501617432e-02) (62, 2.35007107257843017578e-01) (63, 3.39064061641693115234e-01) (64, -1.52719944715499877930e-01) (65, 3.75622208230197429657e-03) (66, 1.11158549785614013672e+00) (67, 1.39633274078369140625e+00) (68, -6.30753114819526672363e-02) (69, 1.53643786907196044922e-01) (70, 5.17099022865295410156e-01) (71, -9.50166583061218261719e-02) (72, -3.95561717450618743896e-02) (73, 3.18113155663013458252e-02) (74, 3.20171415805816650391e-01) (75, 1.01097784936428070068e-01) (76, 1.52136161923408508301e-01) (77, 3.48512470722198486328e-01) (0, 1.49773681640625000000e+03) (1, -1.27162902832031250000e+03) (2, 1.50000000000000000000e+03) (3, 1.49961975097656250000e+03) (4, -1.44959082031250000000e+03) (5, 1.49999902343750000000e+03) (6, -3.23565948486328125000e+02) (7, 1.49999902343750000000e+03) (8, -4.78794649243354797363e-02) (9, -7.78341735839843750000e+02) (10, 2.94954895019531250000e+02) (11, 1.46312768554687500000e+03) (12, -1.48136181640625000000e+03) (13, 4.39446533203125000000e+02) (14, 1.49992236328125000000e+03) (15, -3.14693389892578125000e+02) (16, 1.49999963378906250000e+03) (17, -1.01481439208984375000e+03) (18, 1.14079760742187500000e+03) (19, 8.61344207078218460083e-03) (20, -4.34656921386718750000e+02) (21, 1.21986962890625000000e+03) (22, 6.48815979003906250000e+02) (23, -1.47548095703125000000e+03) (24, 1.60085647583007812500e+02) (25, 3.24586181640625000000e+02) (26, -1.44198461914062500000e+03) (27, 1.49999963378906250000e+03) (28, 7.94737426757812500000e+02) (29, 7.59399795532226562500e+01) (30, 2.13839802891016006470e-02) (31, 2.80934417724609375000e+02) (32, -2.01197418212890625000e+02) (33, -4.95514038085937500000e+02) (34, -1.44074340820312500000e+03) (35, -4.40542053222656250000e+02) (36, -9.15444641113281250000e+02) (37, -9.53459289550781250000e+02) (38, 1.49999963378906250000e+03) (39, -1.38244079589843750000e+02) (40, -1.45504516601562500000e+03) (41, 1.42685458064079284668e-01) (42, -9.25745788574218750000e+02) (43, 1.49999951171875000000e+03) (44, -2.19081649780273437500e+02) (45, 1.50000000000000000000e+03) (46, 5.48988830566406250000e+02) (47, -5.42514587402343750000e+02) (48, -1.38953808593750000000e+03) (49, 6.69116455078125000000e+02) (50, -5.17784484863281250000e+02) (51, -1.78316040039062500000e+02) (52, 1.62187635898590087891e-01) (53, 9.21857971191406250000e+02) (54, 2.59080749511718750000e+02) (55, -1.69026779174804687500e+02) (56, -1.49258642578125000000e+03) (57, -1.33476123046875000000e+03) (58, -5.13262817382812500000e+02) (59, -1.48893090820312500000e+03) (60, 1.02047015380859375000e+03) (61, -1.01246136474609375000e+03) (62, 1.49999902343750000000e+03) (63, 2.15191226452589035034e-02) (64, -1.63797454833984375000e+02) (65, 1.47606262207031250000e+03) (66, 9.60372680664062500000e+02) (67, 5.53370788574218750000e+02) (68, -5.94517333984375000000e+02) (69, -3.79343048095703125000e+02) (70, -1.21843835449218750000e+03) (71, 1.49980041503906250000e+03) (72, 5.98960510253906250000e+02) (73, 1.03434045410156250000e+03) (74, 1.29032820463180541992e-01) (75, 6.68882064819335937500e+01) (76, 1.49999768066406250000e+03) (77, -1.34255569428205490112e-02) (0, -3.39859032630920410156e+00) (1, 4.71582460403442382812e+00) (2, 2.91061282157897949219e-01) (3, -3.19527089595794677734e-01) (4, 1.91483780741691589355e-01) (5, 3.81074339151382446289e-01) (6, 4.67396616935729980469e-01) (7, 1.50918498635292053223e-01) (8, -1.30391791462898254395e-01) (9, -1.07065141201019287109e+00) (10, -3.43482077121734619141e-01) (11, 6.87550902366638183594e-01) (12, 5.33138084411621093750e+00) (13, 4.36942189931869506836e-01) (14, -1.48878991603851318359e-01) (15, 6.11582279205322265625e-01) (16, 4.07712817192077636719e-01) (17, 5.13846099376678466797e-01) (18, 8.13089385628700256348e-02) (19, -6.61955550312995910645e-02) (20, -2.00385585427284240723e-01) (21, -9.43693369626998901367e-02) (22, 1.06206643581390380859e+00) (23, 2.19479751586914062500e+00) (24, 2.93603360652923583984e-01) (25, -1.82789012789726257324e-01) (26, 6.23258769512176513672e-01) (27, 2.90998816490173339844e-01) (28, 4.93404716253280639648e-01) (29, 1.35226771235466003418e-01) (30, -5.60778155922889709473e-02) (31, 5.60828089714050292969e-01) (32, 1.08230048790574073792e-02) (33, -3.14793777465820312500e+00) (34, -2.66565179824829101562e+00) (35, 4.35486584901809692383e-01) (36, -3.41946005821228027344e-01) (37, 6.00693583488464355469e-01) (38, 9.74011570215225219727e-02) (39, 5.20881831645965576172e-01) (40, 4.28746119141578674316e-02) (41, -9.56123545765876770020e-02) (42, 5.91072201728820800781e-01) (43, -6.61570504307746887207e-02) (44, -1.93014428019523620605e-01) (45, -4.79822587966918945312e+00) (46, 4.55462068319320678711e-01) (47, 1.48242011666297912598e-01) (48, 6.71005964279174804688e-01) (49, -5.90053834021091461182e-02) (50, 6.19377613067626953125e-01) (51, 2.49781206250190734863e-01) (52, -1.10811784863471984863e-01) (53, 5.80281615257263183594e-01) (54, 2.21374575048685073853e-02) (55, -1.48228859901428222656e+00) (56, -5.07564306259155273438e+00) (57, 6.45956337451934814453e-01) (58, -1.22124314308166503906e-01) (59, 6.61085963249206542969e-01) (60, 9.00085493922233581543e-02) (61, 6.47251546382904052734e-01) (62, 1.05944402515888214111e-01) (63, -3.81781756877899169922e-02) (64, 2.49553352594375610352e-01) (65, -1.92045122385025024414e-01) (66, -1.21520531177520751953e+00) (67, -5.97145974636077880859e-01) (68, 9.06903266906738281250e-01) (69, -4.03680860996246337891e-01) (70, 5.29374003410339355469e-01) (71, -3.52534055709838867188e-02) (72, 4.75422054529190063477e-01) (73, 2.37917914986610412598e-01) (74, -9.22253653407096862793e-02) (75, -1.70983815193176269531e+00) (76, -9.58707183599472045898e-03) (77, -8.69269371032714843750e-02) (0, -1.00872647762298583984e+00) (1, -1.75938904285430908203e+00) (2, -2.10706159472465515137e-01) (3, -2.04812102019786834717e-02) (4, 1.97007767856121063232e-02) (5, 5.14830708503723144531e-01) (6, -1.13144367933273315430e-02) (7, -1.26062393188476562500e-01) (8, -1.37025311589241027832e-01) (9, -4.50709342956542968750e+00) (10, 9.03893541544675827026e-03) (11, -2.81373143196105957031e+00) (12, -7.26729726791381835938e+00) (13, 1.97171553969383239746e-01) (14, -1.71976506710052490234e-01) (15, -1.98364704847335815430e-01) (16, 3.66230577230453491211e-01) (17, 2.75883879512548446655e-02) (18, 7.47286714613437652588e-03) (19, -1.83503143489360809326e-02) (20, -1.08855438232421875000e+00) (21, -5.72777464985847473145e-02) (22, -5.20727872848510742188e+00) (23, -5.16119194030761718750e+00) (24, 1.84722289443016052246e-01) (25, -6.05292432010173797607e-02) (26, -3.74220162630081176758e-01) (27, 8.98588299751281738281e-02) (28, 3.20918448269367218018e-02) (29, 7.53898173570632934570e-02) (30, -1.03915862739086151123e-01) (31, 3.19609999656677246094e-01) (32, -3.17273996770381927490e-02) (33, -6.77196931838989257812e+00) (34, -2.52408003807067871094e+00) (35, 8.06588307023048400879e-02) (36, -1.37118473649024963379e-01) (37, 6.29857974126935005188e-03) (38, 1.38531371951103210449e-01) (39, -4.88727502524852752686e-02) (40, -2.41312906146049499512e-01) (41, 1.15160923451185226440e-02) (42, 9.69752311706542968750e-01) (43, -1.15503206849098205566e-01) (44, -9.35997581481933593750e+00) (45, 1.35268077254295349121e-01) (46, -5.80354370176792144775e-02) (47, -2.96778053045272827148e-01) (48, 9.05155315995216369629e-02) (49, 7.24055543541908264160e-02) (50, 1.31443843245506286621e-01) (51, -6.11264780163764953613e-02) (52, 4.15576659142971038818e-02) (53, 1.05239301919937133789e-01) (54, -5.46782575547695159912e-02) (55, -6.99815940856933593750e+00) (56, 8.73999118804931640625e+00) (57, 1.00418254733085632324e-02) (58, -1.51200130581855773926e-01) (59, 9.82975512742996215820e-02) (60, -2.09736377000808715820e-01) (61, 9.43038165569305419922e-02) (62, -4.30221073329448699951e-02) (63, -1.70906446874141693115e-02) (64, -3.01524186134338378906e+00) (65, -2.39694956690073013306e-02) (66, -4.36015033721923828125e+00) (67, 3.64678072929382324219e+00) (68, -1.11115559935569763184e-01) (69, -3.67082357406616210938e-02) (70, -2.64368355274200439453e-01) (71, 5.54756820201873779297e-02) (72, -1.56928882002830505371e-01) (73, -2.92237661778926849365e-02) (74, -4.62559945881366729736e-02) (75, 1.28907442092895507812e+00) (76, -2.02250201255083084106e-02) (77, -1.16542749106884002686e-01) (0, 1.73064363002777099609e+00) (1, -1.89704850316047668457e-01) (2, -6.51389360427856445312e-02) (3, 1.10120683908462524414e-01) (4, 1.99519231915473937988e-01) (5, -8.92970740795135498047e-01) (6, 3.98906767368316650391e-02) (7, 1.09177745878696441650e-01) (8, -7.34478533267974853516e-02) (9, 2.77709674835205078125e+00) (10, -1.53977116569876670837e-02) (11, 1.10010492801666259766e+00) (12, 9.15598011016845703125e+00) (13, -1.58369407057762145996e-01) (14, 1.31088897585868835449e-01) (15, 2.97452211380004882812e-01) (16, -5.24853765964508056641e-01) (17, -2.91477162390947341919e-02) (18, 8.05125664919614791870e-03) (19, -4.98322434723377227783e-02) (20, 1.04305958747863769531e+00) (21, 5.72602227330207824707e-02) (22, 2.91026902198791503906e+00) (23, 6.45250844955444335938e+00) (24, -1.90494626760482788086e-01) (25, 1.75299808382987976074e-01) (26, 3.59567910432815551758e-01) (27, -1.34474620223045349121e-01) (28, 5.74150495231151580811e-03) (29, -1.06441661715507507324e-01) (30, 1.18128778412938117981e-02) (31, 6.19863569736480712891e-01) (32, 3.88313755393028259277e-02) (33, 3.57547426223754882812e+00) (34, 3.86086940765380859375e+00) (35, -2.03618675470352172852e-01) (36, 1.91333308815956115723e-01) (37, 5.59422709047794342041e-02) (38, -2.18257717788219451904e-02) (39, 3.87902222573757171631e-02) (40, 1.96224048733711242676e-01) (41, 2.01711412519216537476e-02) (42, -1.01480317115783691406e+00) (43, 1.05431549251079559326e-01) (44, 5.97296237945556640625e+00) (45, 2.15073728561401367188e+00) (46, 1.29202544689178466797e-01) (47, 1.67137742042541503906e-01) (48, 4.31595399277284741402e-04) (49, 4.39139045774936676025e-02) (50, -1.27033308148384094238e-01) (51, 5.58572113513946533203e-02) (52, 6.44489973783493041992e-02) (53, 9.02966111898422241211e-02) (54, 5.89264556765556335449e-02) (55, 4.84632444381713867188e+00) (56, -7.25564956665039062500e+00) (57, 1.30942225456237792969e-01) (58, 1.17299072444438934326e-01) (59, -6.86718225479125976562e-02) (60, 1.84815183281898498535e-01) (61, -6.35241046547889709473e-02) (62, 4.08309139311313629150e-02) (63, 9.34813767671585083008e-02) (64, 3.06149506568908691406e+00) (65, 2.62885279953479766846e-02) (66, 2.26303195953369140625e+00) (67, -1.64588832855224609375e+00) (68, 1.78380742669105529785e-01) (69, 1.11304908990859985352e-01) (70, 2.02670648694038391113e-01) (71, -2.13243961334228515625e-01) (72, 1.64012029767036437988e-01) (73, 4.13935817778110504150e-02) (74, 7.40305185317993164062e-02) (75, -1.53297352790832519531e+00) (76, 2.08890698850154876709e-02) (77, 6.01830333471298217773e-02) (0, 3.36447328329086303711e-01) (1, 4.96413135528564453125e+00) (2, -4.55350369215011596680e-01) (3, -8.50266635417938232422e-01) (4, -6.13633692264556884766e-02) (5, -1.50276219844818115234e+00) (6, 1.61212801933288574219e-01) (7, 9.01429653167724609375e-02) (8, -4.57297086715698242188e-01) (9, 2.07243487238883972168e-01) (10, 2.35774423927068710327e-02) (11, 1.05448713302612304688e+01) (12, 1.73594417572021484375e+01) (13, -2.31108054518699645996e-01) (14, 3.23511809110641479492e-01) (15, 2.42486655712127685547e-01) (16, -3.46301466226577758789e-01) (17, -1.90602019429206848145e-01) (18, 2.33453840017318725586e-01) (19, -6.13214075565338134766e-01) (20, -6.33014631271362304688e+00) (21, 3.65832261741161346436e-02) (22, 1.01572904586791992188e+01) (23, 9.71424484252929687500e+00) (24, -9.57639813423156738281e-02) (25, 9.33862268924713134766e-01) (26, 2.91566133499145507812e-01) (27, 3.65966975688934326172e-01) (28, -4.40765619277954101562e-02) (29, -9.05058532953262329102e-02) (30, -5.00303804874420166016e-01) (31, 7.24183368682861328125e+00) (32, 9.69909429550170898438e-02) (33, 8.31640434265136718750e+00) (34, -2.02719998359680175781e+00) (35, -2.62715339660644531250e-01) (36, 5.79264700412750244141e-01) (37, 1.92214071750640869141e-01) (38, 4.92625415325164794922e-01) (39, -9.71728190779685974121e-02) (40, 8.09957459568977355957e-02) (41, -4.52195554971694946289e-01) (42, -2.09285274147987365723e-01) (43, 6.70262053608894348145e-02) (44, 1.39787817001342773438e+01) (45, 6.97983598709106445312e+00) (46, 4.65970516204833984375e-01) (47, 1.62245035171508789062e-02) (48, 4.53598573803901672363e-02) (49, 4.83974009752273559570e-01) (50, -2.53128349781036376953e-01) (51, 1.48647740483283996582e-01) (52, -5.27651488780975341797e-01) (53, -2.53480482101440429688e+00) (54, 7.83706828951835632324e-02) (55, 1.88156814575195312500e+01) (56, -1.08184328079223632812e+01) (57, 3.77647757530212402344e-01) (58, 1.90932065248489379883e-01) (59, -9.86831411719322204590e-02) (60, 3.08912664651870727539e-01) (61, -2.11425609886646270752e-02) (62, 1.93631291389465332031e-01) (63, -4.65574413537979125977e-01) (64, 3.47379326820373535156e+00) (65, 1.93962473422288894653e-02) (66, 1.16255559921264648438e+01) (67, 1.29350233078002929688e+00) (68, 4.00439202785491943359e-01) (69, 7.44710505008697509766e-01) (70, 3.41441959142684936523e-01) (71, -4.48641955852508544922e-01) (72, 3.06739866733551025391e-01) (73, 8.43573957681655883789e-02) (74, -4.91715818643569946289e-01) (75, -4.68958139419555664062e+00) (76, -4.38747145235538482666e-02) (77, -4.91690933704376220703e-01) (78, 2.31185346841812133789e-01) (79, 3.44198763370513916016e-01) (80, 1.89388975501060485840e-01) (81, 1.40003592241555452347e-03) (82, -5.55523112416267395020e-02) (83, 1.56124006025493144989e-03) (84, 1.57785892486572265625e-01) (85, 2.35041320323944091797e-01) (86, 1.22817657887935638428e-01) (87, -5.30787222087383270264e-02) (88, -8.74530971050262451172e-02) (78, 2.46069207787513732910e-01) (79, 6.40843272209167480469e-01) (80, 3.30390602350234985352e-01) (81, -2.93694494757801294327e-04) (82, -4.67454679310321807861e-02) (83, -1.09045789577066898346e-03) (84, 3.24391037225723266602e-01) (85, -9.27989259362220764160e-02) (86, -2.27721974253654479980e-01) (87, 8.38655531406402587891e-02) (88, 7.49847432598471641541e-03) 
