FANN_FLO_2.1
num_layers=3
learning_rate=0.700000
connection_rate=1.000000
network_type=0
learning_momentum=0.000000
training_algorithm=2
train_error_function=1
train_stop_function=0
cascade_output_change_fraction=0.010000
quickprop_decay=-0.000100
quickprop_mu=1.750000
rprop_increase_factor=1.200000
rprop_decrease_factor=0.500000
rprop_delta_min=0.000000
rprop_delta_max=50.000000
rprop_delta_zero=0.100000
cascade_output_stagnation_epochs=12
cascade_candidate_change_fraction=0.010000
cascade_candidate_stagnation_epochs=12
cascade_max_out_epochs=150
cascade_max_cand_epochs=150
cascade_num_candidate_groups=2
bit_fail_limit=3.49999994039535522461e-01
cascade_candidate_limit=1.00000000000000000000e+03
cascade_weight_multiplier=4.00000005960464477539e-01
cascade_activation_functions_count=10
cascade_activation_functions=3 5 7 8 10 11 14 15 16 17 
cascade_activation_steepnesses_count=4
cascade_activation_steepnesses=2.50000000000000000000e-01 5.00000000000000000000e-01 7.50000000000000000000e-01 1.00000000000000000000e+00 
layer_sizes=65 11 3 
scale_included=0
neurons (num_inputs, activation_function, activation_steepness)=(0, 0, 0.00000000000000000000e+00) (0, 0, 0.00000000000000000000e+00) (0, 0, 0.00000000000000000000e+00) (0, 0, 0.00000000000000000000e+00) (0, 0, 0.00000000000000000000e+00) (0, 0, 0.00000000000000000000e+00) (0, 0, 0.00000000000000000000e+00) (0, 0, 0.00000000000000000000e+00) (0, 0, 0.00000000000000000000e+00) (0, 0, 0.00000000000000000000e+00) (0, 0, 0.00000000000000000000e+00) (0, 0, 0.00000000000000000000e+00) (0, 0, 0.00000000000000000000e+00) (0, 0, 0.00000000000000000000e+00) (0, 0, 0.00000000000000000000e+00) (0, 0, 0.00000000000000000000e+00) (0, 0, 0.00000000000000000000e+00) (0, 0, 0.00000000000000000000e+00) (0, 0, 0.00000000000000000000e+00) (0, 0, 0.00000000000000000000e+00) (0, 0, 0.00000000000000000000e+00) (0, 0, 0.00000000000000000000e+00) (0, 0, 0.00000000000000000000e+00) (0, 0, 0.00000000000000000000e+00) (0, 0, 0.00000000000000000000e+00) (0, 0, 0.00000000000000000000e+00) (0, 0, 0.00000000000000000000e+00) (0, 0, 0.00000000000000000000e+00) (0, 0, 0.00000000000000000000e+00) (0, 0, 0.00000000000000000000e+00) (0, 0, 0.00000000000000000000e+00) (0, 0, 0.00000000000000000000e+00) (0, 0, 0.00000000000000000000e+00) (0, 0, 0.00000000000000000000e+00) (0, 0, 0.00000000000000000000e+00) (0, 0, 0.00000000000000000000e+00) (0, 0, 0.00000000000000000000e+00) (0, 0, 0.00000000000000000000e+00) (0, 0, 0.00000000000000000000e+00) (0, 0, 0.00000000000000000000e+00) (0, 0, 0.00000000000000000000e+00) (0, 0, 0.00000000000000000000e+00) (0, 0, 0.00000000000000000000e+00) (0, 0, 0.00000000000000000000e+00) (0, 0, 0.00000000000000000000e+00) (0, 0, 0.00000000000000000000e+00) (0, 0, 0.00000000000000000000e+00) (0, 0, 0.00000000000000000000e+00) (0, 0, 0.00000000000000000000e+00) (0, 0, 0.00000000000000000000e+00) (0, 0, 0.00000000000000000000e+00) (0, 0, 0.00000000000000000000e+00) (0, 0, 0.00000000000000000000e+00) (0, 0, 0.00000000000000000000e+00) (0, 0, 0.00000000000000000000e+00) (0, 0, 0.00000000000000000000e+00) (0, 0, 0.00000000000000000000e+00) (0, 0, 0.00000000000000000000e+00) (0, 0, 0.00000000000000000000e+00) (0, 0, 0.00000000000000000000e+00) (0, 0, 0.00000000000000000000e+00) (0, 0, 0.00000000000000000000e+00) (0, 0, 0.00000000000000000000e+00) (0, 0, 0.00000000000000000000e+00) (0, 0, 0.00000000000000000000e+00) (65, 5, 5.00000000000000000000e-01) (65, 5, 5.00000000000000000000e-01) (65, 5, 5.00000000000000000000e-01) (65, 5, 5.00000000000000000000e-01) (65, 5, 5.00000000000000000000e-01) (65, 5, 5.00000000000000000000e-01) (65, 5, 5.00000000000000000000e-01) (65, 5, 5.00000000000000000000e-01) (65, 5, 5.00000000000000000000e-01) (65, 5, 5.00000000000000000000e-01) (0, 5, 0.00000000000000000000e+00) (11, 11, 5.00000000000000000000e-01) (11, 11, 5.00000000000000000000e-01) (0, 11, 0.00000000000000000000e+00) 
connections (connected_to_neuron, weight)=(0, 1.23565697669982910156e+00) (1, -1.74249145507812500000e+02) (2, 1.27389192581176757812e+00) (3, -1.35625839233398437500e+01) (4, 1.34919989109039306641e+00) (5, 1.66327857971191406250e+01) (6, 1.30164968967437744141e+00) (7, 2.14648032188415527344e+00) (8, 1.21931076049804687500e+00) (9, -1.24209419250488281250e+02) (10, 1.30704331398010253906e+00) (11, -3.48694572448730468750e+01) (12, 1.29368889331817626953e+00) (13, 3.00546203613281250000e+02) (14, 1.19962036609649658203e+00) (15, 4.02766561508178710938e+00) (16, 1.34914505481719970703e+00) (17, -1.92005737304687500000e+02) (18, 1.35255265235900878906e+00) (19, -2.90518856048583984375e+00) (20, 1.28356659412384033203e+00) (21, 7.59891605377197265625e+00) (22, 1.29891598224639892578e+00) (23, 3.40478181838989257812e+00) (24, 1.25632500648498535156e+00) (25, -2.00959415435791015625e+01) (26, 1.33953464031219482422e+00) (27, 1.40189104080200195312e+01) (28, 1.27526843547821044922e+00) (29, -6.81787338256835937500e+01) (30, 1.18957948684692382812e+00) (31, -2.23284168243408203125e+01) (32, 1.18226873874664306641e+00) (33, 7.13281936645507812500e+01) (34, 1.31998753547668457031e+00) (35, -3.04767646789550781250e+01) (36, 1.32732963562011718750e+00) (37, 8.35760726928710937500e+01) (38, 1.19504904747009277344e+00) (39, -3.46081900596618652344e+00) (40, 1.27535462379455566406e+00) (41, 6.86781454086303710938e+00) (42, 1.33491849899291992188e+00) (43, 1.17534275054931640625e+01) (44, 1.22358107566833496094e+00) (45, 2.68926639556884765625e+01) (46, 1.20439696311950683594e+00) (47, 1.66854000091552734375e+01) (48, 1.25053131580352783203e+00) (49, -4.20420875549316406250e+01) (50, 1.18518328666687011719e+00) (51, 5.97644958496093750000e+01) (52, 1.19662356376647949219e+00) (53, 1.22858734130859375000e+01) (54, 1.32067406177520751953e+00) (55, 8.90637435913085937500e+01) (56, 1.24830603599548339844e+00) (57, 3.81617813110351562500e+01) (58, 1.35046565532684326172e+00) (59, -5.08820533752441406250e+01) (60, 1.25657725334167480469e+00) (61, -2.56942710876464843750e+01) (62, 1.17902588844299316406e+00) (63, 1.58796148300170898438e+01) (64, 1.34415364265441894531e+00) (0, 1.43940448760986328125e-01) (1, -1.76884784698486328125e+01) (2, 1.17137342691421508789e-01) (3, -3.39602088928222656250e+00) (4, -4.39332202076911926270e-02) (5, -1.68346357345581054688e+00) (6, -1.53841404244303703308e-02) (7, -6.28854870796203613281e-01) (8, 1.39102905988693237305e-01) (9, -1.63310794830322265625e+01) (10, 1.68271642178297042847e-02) (11, -9.58409214019775390625e+00) (12, 1.04160800576210021973e-01) (13, -1.03900857269763946533e-01) (14, 6.47478848695755004883e-02) (15, 5.07771015167236328125e-01) (16, 1.22987493872642517090e-01) (17, -4.23021221160888671875e+00) (18, -1.05066429823637008667e-02) (19, -8.59481525421142578125e+00) (20, 6.59166276454925537109e-02) (21, -8.15717056393623352051e-02) (22, -4.70698205754160881042e-03) (23, -2.16142296791076660156e-01) (24, 1.46800577640533447266e-01) (25, 1.07528197765350341797e+00) (26, 1.25037163496017456055e-01) (27, -1.96578323841094970703e+00) (28, 4.39867563545703887939e-02) (29, -4.38389442861080169678e-02) (30, -2.67127584666013717651e-02) (31, -1.34860897064208984375e+00) (32, 2.60225385427474975586e-02) (33, 3.37716579437255859375e+00) (34, -5.81053458154201507568e-02) (35, 3.60994315147399902344e+00) (36, -4.77624945342540740967e-02) (37, -1.57641553878784179688e+00) (38, 3.61235328018665313721e-02) (39, -1.60206878185272216797e+00) (40, 8.87393951416015625000e-02) (41, 2.84994792938232421875e+00) (42, -4.09613065421581268311e-02) (43, 5.24220418930053710938e+00) (44, 5.73294349014759063721e-02) (45, 8.36205109953880310059e-02) (46, 5.02056851983070373535e-02) (47, 2.80864477157592773438e-01) (48, 2.34102532267570495605e-02) (49, 1.83954656124114990234e+00) (50, -1.80594436824321746826e-02) (51, 2.75155043601989746094e+00) (52, 1.02851629257202148438e-01) (53, -1.72318100929260253906e-01) (54, 1.29741560667753219604e-02) (55, -5.63087105751037597656e-01) (56, 9.54505801200866699219e-02) (57, -1.28956735134124755859e-01) (58, 1.33944049477577209473e-01) (59, 3.87830185890197753906e+00) (60, 1.04425936937332153320e-01) (61, -1.39521110057830810547e+00) (62, 7.97725319862365722656e-02) (63, -1.48461496829986572266e+00) (64, -4.89505045115947723389e-02) (0, 1.34430915117263793945e-01) (1, 3.23644371032714843750e+01) (2, -1.99728142470121383667e-02) (3, 5.13849544525146484375e+00) (4, 5.31696155667304992676e-03) (5, -4.80277180671691894531e-01) (6, 1.14921323955059051514e-01) (7, 2.41172862052917480469e+00) (8, 1.19267553091049194336e-02) (9, 1.93982543945312500000e+01) (10, 4.86986152827739715576e-02) (11, 6.78715085983276367188e+00) (12, 1.10210888087749481201e-01) (13, -3.76742768287658691406e+00) (14, 1.62991210818290710449e-02) (15, 2.18529891967773437500e+00) (16, 1.73069521784782409668e-01) (17, 6.70528316497802734375e+00) (18, -1.11930314451456069946e-02) (19, 6.60863876342773437500e+00) (20, 7.07845538854598999023e-02) (21, -4.88004446029663085938e+00) (22, 2.23318208009004592896e-02) (23, 2.13242745399475097656e+00) (24, 1.54819637537002563477e-01) (25, -7.76121675968170166016e-01) (26, 4.00189533829689025879e-02) (27, 3.46562075614929199219e+00) (28, 1.94023281335830688477e-01) (29, -1.90656507015228271484e+00) (30, 1.68659374117851257324e-01) (31, 6.66075897216796875000e+00) (32, 1.90779976546764373779e-02) (33, -4.53087139129638671875e+00) (34, 7.12206587195396423340e-02) (35, -1.00781643390655517578e+00) (36, 1.73100143671035766602e-01) (37, 2.37904167175292968750e+00) (38, 1.93867698311805725098e-01) (39, 3.44373035430908203125e+00) (40, 2.11627036333084106445e-02) (41, -6.47780895233154296875e+00) (42, 9.36404243111610412598e-02) (43, -1.70686078071594238281e+00) (44, 2.91842706501483917236e-02) (45, 7.87330269813537597656e-01) (46, 1.93799212574958801270e-01) (47, 3.96396780014038085938e+00) (48, 1.43931016325950622559e-01) (49, -1.46942853927612304688e+00) (50, 5.07597699761390686035e-02) (51, -4.29025554656982421875e+00) (52, 1.78663939237594604492e-01) (53, 3.21000909805297851562e+00) (54, 1.26473695039749145508e-01) (55, -2.46620225906372070312e+00) (56, 1.77887693047523498535e-01) (57, 3.65202605724334716797e-01) (58, 6.95946663618087768555e-02) (59, -6.57995998859405517578e-01) (60, 9.45741161704063415527e-02) (61, -1.02296936511993408203e+00) (62, 9.83323752880096435547e-02) (63, -5.01472377777099609375e+00) (64, 3.61545830965042114258e-02) (0, 5.39187550544738769531e-01) (1, 8.81783065795898437500e+01) (2, 3.68508547544479370117e-01) (3, -2.50041446685791015625e+01) (4, 4.70148861408233642578e-01) (5, -3.31288452148437500000e+01) (6, 3.74744892120361328125e-01) (7, -4.97464218139648437500e+01) (8, 4.56220567226409912109e-01) (9, 2.45034961700439453125e+01) (10, 4.06600445508956909180e-01) (11, -2.06584987640380859375e+01) (12, 4.89360749721527099609e-01) (13, -1.37688741683959960938e+01) (14, 5.39863288402557373047e-01) (15, 1.36274397373199462891e+00) (16, 4.84141290187835693359e-01) (17, 4.16853027343750000000e+01) (18, 4.70267593860626220703e-01) (19, -1.57960176467895507812e+01) (20, 4.69331473112106323242e-01) (21, -3.60221719741821289062e+00) (22, 3.78195792436599731445e-01) (23, 1.38780832290649414062e+00) (24, 5.03246843814849853516e-01) (25, -1.09034891128540039062e+01) (26, 3.38793456554412841797e-01) (27, -4.01967620849609375000e+00) (28, 4.38795775175094604492e-01) (29, -2.89622440338134765625e+01) (30, 4.03790026903152465820e-01) (31, 3.15633702278137207031e+00) (32, 4.05076444149017333984e-01) (33, -6.90685081481933593750e+00) (34, 4.26641285419464111328e-01) (35, -1.43723869323730468750e+01) (36, 3.96262556314468383789e-01) (37, 2.78017387390136718750e+01) (38, 5.29359340667724609375e-01) (39, 3.32483839988708496094e+00) (40, 4.17617946863174438477e-01) (41, 6.97869796752929687500e+01) (42, 3.16080629825592041016e-01) (43, 8.37990570068359375000e+00) (44, 3.95991533994674682617e-01) (45, 1.83391571044921875000e+01) (46, 5.16471087932586669922e-01) (47, -6.94653844833374023438e+00) (48, 5.49967706203460693359e-01) (49, -2.76377830505371093750e+01) (50, 3.53170067071914672852e-01) (51, 8.71987533569335937500e+00) (52, 5.06119310855865478516e-01) (53, 2.17755565643310546875e+01) (54, 3.92688751220703125000e-01) (55, 1.26481997966766357422e+00) (56, 4.10194426774978637695e-01) (57, -7.53419723510742187500e+01) (58, 4.48197931051254272461e-01) (59, 1.06135120391845703125e+01) (60, 5.20826101303100585938e-01) (61, -3.29536132812500000000e+01) (62, 3.91567528247833251953e-01) (63, -2.99132270812988281250e+01) (64, 3.96144121885299682617e-01) (0, 8.04851710796356201172e-01) (1, -2.46014614105224609375e+01) (2, 7.67985105514526367188e-01) (3, -4.42754983901977539062e+00) (4, 8.67054760456085205078e-01) (5, -2.60267829895019531250e+00) (6, 7.89146840572357177734e-01) (7, 1.52386498451232910156e+00) (8, 7.38150954246520996094e-01) (9, 7.95737152099609375000e+01) (10, 7.18710064888000488281e-01) (11, -2.12142429351806640625e+01) (12, 7.62972593307495117188e-01) (13, -1.39447345733642578125e+01) (14, 7.34822154045104980469e-01) (15, 4.51494380831718444824e-02) (16, 7.35121488571166992188e-01) (17, 7.22516860961914062500e+01) (18, 8.16643416881561279297e-01) (19, -2.04918594360351562500e+01) (20, 6.92011415958404541016e-01) (21, -5.02989959716796875000e+01) (22, 8.60572099685668945312e-01) (23, 3.35365390777587890625e+00) (24, 8.54023635387420654297e-01) (25, 6.28701477050781250000e+01) (26, 7.11587369441986083984e-01) (27, 4.79117679595947265625e+00) (28, 8.45466136932373046875e-01) (29, -7.68814945220947265625e+00) (30, 6.84544324874877929688e-01) (31, 8.39249649047851562500e+01) (32, 7.46446609497070312500e-01) (33, 3.49287676811218261719e+00) (34, 8.10083925724029541016e-01) (35, -4.81841135025024414062e+00) (36, 8.27839732170104980469e-01) (37, -5.90464859008789062500e+01) (38, 7.28782832622528076172e-01) (39, 5.87193527221679687500e+01) (40, 8.44135463237762451172e-01) (41, 4.91403808593750000000e+01) (42, 7.35913157463073730469e-01) (43, 1.88817906379699707031e+00) (44, 7.85918414592742919922e-01) (45, -2.23836975097656250000e+01) (46, 7.06106960773468017578e-01) (47, -3.28851356506347656250e+01) (48, 7.77594566345214843750e-01) (49, 3.45893936157226562500e+01) (50, 7.53835439682006835938e-01) (51, 1.99171562194824218750e+01) (52, 6.80889606475830078125e-01) (53, -4.94304161071777343750e+01) (54, 8.49993646144866943359e-01) (55, 6.46769404411315917969e-01) (56, 8.75273287296295166016e-01) (57, -9.12539958953857421875e+00) (58, 8.08255255222320556641e-01) (59, 3.37714004516601562500e+01) (60, 7.35531568527221679688e-01) (61, -1.66317710876464843750e+01) (62, 7.35761702060699462891e-01) (63, 9.14678115844726562500e+01) (64, 7.18149602413177490234e-01) (0, 1.13984119892120361328e+00) (1, 1.78895141601562500000e+02) (2, 1.13309299945831298828e+00) (3, 4.19650573730468750000e+01) (4, 9.81613993644714355469e-01) (5, -1.90892350673675537109e+00) (6, 1.15568387508392333984e+00) (7, -4.81185048818588256836e-01) (8, 1.01298809051513671875e+00) (9, 3.98450164794921875000e+01) (10, 9.70321118831634521484e-01) (11, 1.95488786697387695312e+00) (12, 1.02180945873260498047e+00) (13, -7.62741317749023437500e+01) (14, 1.03756868839263916016e+00) (15, 2.65078783035278320312e-01) (16, 1.02040314674377441406e+00) (17, 5.77324981689453125000e+01) (18, 1.29730176925659179688e+00) (19, 1.07252225875854492188e+01) (20, 1.11279833316802978516e+00) (21, 3.21876373291015625000e+01) (22, 1.08784461021423339844e+00) (23, 5.21547436714172363281e-01) (24, 1.09545123577117919922e+00) (25, 2.18006343841552734375e+01) (26, 9.50927913188934326172e-01) (27, 5.66557073593139648438e+00) (28, 1.10144364833831787109e+00) (29, -9.09671630859375000000e+01) (30, 1.08417356014251708984e+00) (31, 1.70639022827148437500e+02) (32, 1.07461655139923095703e+00) (33, -1.78062033653259277344e+00) (34, 1.42544090747833251953e+00) (35, -9.41758155822753906250e+00) (36, 1.06598627567291259766e+00) (37, -6.38401222229003906250e+01) (38, 1.02096438407897949219e+00) (39, 5.25262489318847656250e+01) (40, 9.63125228881835937500e-01) (41, 2.60875759124755859375e+01) (42, 1.08781528472900390625e+00) (43, 3.04436817169189453125e+01) (44, 1.02613472938537597656e+00) (45, 1.34315311908721923828e+00) (46, 1.05870187282562255859e+00) (47, -5.58293914794921875000e+00) (48, 9.74334776401519775391e-01) (49, -9.95161056518554687500e+00) (50, 1.00530016422271728516e+00) (51, 3.24285774230957031250e+01) (52, 1.09010004997253417969e+00) (53, -4.22961578369140625000e+01) (54, 1.08301115036010742188e+00) (55, -6.07411766052246093750e+01) (56, 1.04553997516632080078e+00) (57, 7.58754968643188476562e+00) (58, 1.05263090133666992188e+00) (59, -3.05139846801757812500e+01) (60, 1.02628850936889648438e+00) (61, 2.67803215980529785156e+00) (62, 1.11979985237121582031e+00) (63, -2.42714843750000000000e+01) (64, 1.15558624267578125000e+00) (0, -1.82011330127716064453e+00) (1, -9.88281097412109375000e+01) (2, -1.80752730369567871094e+00) (3, 1.48014793395996093750e+01) (4, -1.75142967700958251953e+00) (5, 3.76640052795410156250e+01) (6, -1.85642707347869873047e+00) (7, 5.75528812408447265625e+00) (8, -1.92013740539550781250e+00) (9, -8.72052993774414062500e+01) (10, -1.77480530738830566406e+00) (11, 3.15587730407714843750e+01) (12, -1.88342750072479248047e+00) (13, 5.87026405334472656250e+01) (14, -1.87706434726715087891e+00) (15, 3.17836260795593261719e+00) (16, -1.79772245883941650391e+00) (17, -1.65039691925048828125e+01) (18, -1.79910469055175781250e+00) (19, 3.22786407470703125000e+01) (20, -1.78365981578826904297e+00) (21, 1.59944975376129150391e+00) (22, -1.91405582427978515625e+00) (23, 5.49319410324096679688e+00) (24, -1.79066383838653564453e+00) (25, 1.59541244506835937500e+01) (26, -1.75426650047302246094e+00) (27, 3.00184211730957031250e+01) (28, -1.92438530921936035156e+00) (29, 8.18073272705078125000e+00) (30, -1.90879726409912109375e+00) (31, 4.00272417068481445312e+00) (32, -1.87270057201385498047e+00) (33, 8.66704940795898437500e+01) (34, -1.89177405834197998047e+00) (35, 2.89868640899658203125e+01) (36, -1.93310999870300292969e+00) (37, 5.94415855407714843750e+00) (38, -1.80908071994781494141e+00) (39, -5.50013124942779541016e-01) (40, -1.87488853931427001953e+00) (41, 7.19303588867187500000e+01) (42, -1.83274722099304199219e+00) (43, 2.31832885742187500000e+01) (44, -1.79325091838836669922e+00) (45, 1.05354270935058593750e+02) (46, -1.83063185214996337891e+00) (47, 1.19864892959594726562e+01) (48, -1.76195538043975830078e+00) (49, -2.03375473022460937500e+01) (50, -1.87675583362579345703e+00) (51, 1.53787593841552734375e+01) (52, -1.92210674285888671875e+00) (53, -2.74206905364990234375e+01) (54, -1.91328358650207519531e+00) (55, 1.04644676208496093750e+02) (56, -1.82285201549530029297e+00) (57, 6.65598907470703125000e+01) (58, -1.93021595478057861328e+00) (59, -3.67933845520019531250e+00) (60, -1.81220877170562744141e+00) (61, -1.63304557800292968750e+01) (62, -1.86643803119659423828e+00) (63, -7.71540374755859375000e+01) (64, -1.76594412326812744141e+00) (0, 1.22608339786529541016e+00) (1, -7.49778289794921875000e+01) (2, 1.31438803672790527344e+00) (3, -3.19509201049804687500e+01) (4, 1.31965935230255126953e+00) (5, -7.45381212234497070312e+00) (6, 1.20377349853515625000e+00) (7, -2.96404457092285156250e+00) (8, 1.22370564937591552734e+00) (9, -4.13334770202636718750e+01) (10, 1.14408504962921142578e+00) (11, -2.52514400482177734375e+01) (12, 1.24396169185638427734e+00) (13, -1.23597240447998046875e+01) (14, 1.15022087097167968750e+00) (15, -2.06628298759460449219e+00) (16, 1.26752007007598876953e+00) (17, -7.39236068725585937500e+01) (18, 1.29274523258209228516e+00) (19, 8.98312950134277343750e+00) (20, 1.31918561458587646484e+00) (21, 2.99147278070449829102e-01) (22, 1.24950921535491943359e+00) (23, -4.02586507797241210938e+00) (24, 1.26628255844116210938e+00) (25, 1.07046670913696289062e+01) (26, 1.24021661281585693359e+00) (27, -1.78861961364746093750e+01) (28, 1.26491427421569824219e+00) (29, -2.85979199409484863281e+00) (30, 1.28323733806610107422e+00) (31, -3.16528530120849609375e+01) (32, 1.29324364662170410156e+00) (33, -3.58006477355957031250e+01) (34, 1.17736387252807617188e+00) (35, -1.96977252960205078125e+01) (36, 1.28558671474456787109e+00) (37, -1.68845863342285156250e+01) (38, 1.14981341361999511719e+00) (39, -4.01370353698730468750e+01) (40, 1.25628578662872314453e+00) (41, 3.39110136032104492188e+00) (42, 1.22995078563690185547e+00) (43, -7.80935287475585937500e+00) (44, 1.26982688903808593750e+00) (45, -3.09819436073303222656e+00) (46, 1.31602776050567626953e+00) (47, 7.98844873905181884766e-01) (48, 1.21324157714843750000e+00) (49, 3.23431816101074218750e+01) (50, 1.22546708583831787109e+00) (51, -1.90022277832031250000e+01) (52, 1.21301901340484619141e+00) (53, 7.69282293319702148438e+00) (54, 1.18532252311706542969e+00) (55, 2.17493495941162109375e+01) (56, 1.19825029373168945312e+00) (57, 5.70912694931030273438e+00) (58, 1.13645589351654052734e+00) (59, -5.47242701053619384766e-01) (60, 1.20377230644226074219e+00) (61, 8.20960903167724609375e+00) (62, 1.17303657531738281250e+00) (63, 2.37902584075927734375e+01) (64, 1.23220407962799072266e+00) (0, -6.56732618808746337891e-01) (1, 1.22450012207031250000e+02) (2, -7.35698878765106201172e-01) (3, 1.66675262451171875000e+01) (4, -7.27754175662994384766e-01) (5, -2.90576782226562500000e+01) (6, -5.98367393016815185547e-01) (7, 2.74139046669006347656e+00) (8, -7.30298101902008056641e-01) (9, 1.07863235473632812500e+02) (10, -7.61102676391601562500e-01) (11, -4.64509239196777343750e+01) (12, -5.60319840908050537109e-01) (13, -1.67760448455810546875e+01) (14, -7.16240346431732177734e-01) (15, 2.35531711578369140625e+00) (16, -5.72952568531036376953e-01) (17, 3.10195236206054687500e+01) (18, -7.38027334213256835938e-01) (19, 2.33563880920410156250e+01) (20, -5.75530469417572021484e-01) (21, 1.25386972427368164062e+01) (22, -6.86557948589324951172e-01) (23, 3.47530517578125000000e+01) (24, -6.84155642986297607422e-01) (25, -2.42901039123535156250e+01) (26, -7.32598483562469482422e-01) (27, 9.71396732330322265625e+00) (28, -6.25535905361175537109e-01) (29, 2.56590461730957031250e+00) (30, -6.09947860240936279297e-01) (31, 5.41711807250976562500e+00) (32, -6.79106175899505615234e-01) (33, 1.25832939147949218750e+01) (34, -7.19449043273925781250e-01) (35, 4.80297241210937500000e+01) (36, -6.20130240917205810547e-01) (37, -3.58186912536621093750e+01) (38, -5.83487689495086669922e-01) (39, 1.37520034790039062500e+02) (40, -7.47471988201141357422e-01) (41, -2.41676107048988342285e-01) (42, -6.58999800682067871094e-01) (43, 2.22989540100097656250e+01) (44, -6.82785451412200927734e-01) (45, -2.70162181854248046875e+01) (46, -6.04022681713104248047e-01) (47, 5.39114117622375488281e-01) (48, -6.92817151546478271484e-01) (49, 2.26814556121826171875e+01) (50, -7.35708475112915039062e-01) (51, 1.20387153625488281250e+01) (52, -7.10024178028106689453e-01) (53, -9.69120597839355468750e+00) (54, -5.62508046627044677734e-01) (55, 4.61810052394866943359e-01) (56, -5.64109027385711669922e-01) (57, -2.53736877441406250000e+00) (58, -6.19733095169067382812e-01) (59, 6.20462417602539062500e+00) (60, -6.67576372623443603516e-01) (61, -1.20741205215454101562e+01) (62, -6.09051644802093505859e-01) (63, -9.36681594848632812500e+01) (64, -6.54253542423248291016e-01) (0, 1.51195549964904785156e+00) (1, 2.41167877197265625000e+02) (2, 1.34454917907714843750e+00) (3, 5.24131059646606445312e+00) (4, 1.34767043590545654297e+00) (5, -5.45235824584960937500e+01) (6, 1.52167630195617675781e+00) (7, -2.00186538696289062500e+01) (8, 1.41462182998657226562e+00) (9, 6.76069488525390625000e+01) (10, 1.39222157001495361328e+00) (11, -1.40665674209594726562e+01) (12, 1.46655917167663574219e+00) (13, -1.45162292480468750000e+02) (14, 1.42577064037322998047e+00) (15, -6.44125509262084960938e+00) (16, 1.49114096164703369141e+00) (17, 2.95782356262207031250e+01) (18, 1.48348093032836914062e+00) (19, -1.38493957519531250000e+01) (20, 1.45138335227966308594e+00) (21, 2.36135902404785156250e+01) (22, 1.39988720417022705078e+00) (23, -1.21462488174438476562e+00) (24, 1.34829306602478027344e+00) (25, 1.31376739501953125000e+02) (26, 1.33640491962432861328e+00) (27, 2.63137429952621459961e-01) (28, 1.45607125759124755859e+00) (29, 6.40801239013671875000e+01) (30, 1.34739327430725097656e+00) (31, 1.36833114624023437500e+02) (32, 1.37516427040100097656e+00) (33, -6.25196113586425781250e+01) (34, 1.42187690734863281250e+00) (35, -1.91551952362060546875e+01) (36, 1.37223875522613525391e+00) (37, -9.82690963745117187500e+01) (38, 1.41686773300170898438e+00) (39, 1.67402400970458984375e+01) (40, 1.43144845962524414062e+00) (41, 1.12705398559570312500e+02) (42, 1.49127566814422607422e+00) (43, -7.94609451293945312500e+00) (44, 1.42555403709411621094e+00) (45, -7.33530654907226562500e+01) (46, 1.49987912178039550781e+00) (47, -6.29060685634613037109e-01) (48, 1.35294139385223388672e+00) (49, -2.71348628997802734375e+01) (50, 1.46027135848999023438e+00) (51, -6.37227058410644531250e+00) (52, 1.35195732116699218750e+00) (53, -4.25219612121582031250e+01) (54, 1.42299008369445800781e+00) (55, -8.35731506347656250000e+01) (56, 1.35450470447540283203e+00) (57, 3.30447273254394531250e+01) (58, 1.48832321166992187500e+00) (59, 3.62386169433593750000e+01) (60, 1.43816018104553222656e+00) (61, -1.44178558349609375000e+02) (62, 1.40873289108276367188e+00) (63, -1.40560180664062500000e+02) (64, 1.38534867763519287109e+00) (65, 1.22609338760375976562e+01) (66, 1.48065307617187500000e+02) (67, 3.05787811279296875000e+02) (68, -1.73674888610839843750e+01) (69, 6.83309650421142578125e+00) (70, 8.13929176330566406250e+00) (71, 7.47523689270019531250e+00) (72, 9.64194488525390625000e+00) (73, -1.62298171997070312500e+02) (74, 4.67783784866333007812e+00) (75, 2.55258369445800781250e+01) (65, 3.68119657039642333984e-01) (66, 2.75704562664031982422e-01) (67, -2.20131441950798034668e-01) (68, -1.63537397980690002441e-01) (69, -2.22564414143562316895e-01) (70, -2.37764239311218261719e-01) (71, 2.55626320838928222656e-01) (72, 3.40139269828796386719e-01) (73, -8.54210630059242248535e-02) (74, -2.62399196624755859375e-01) (75, 3.67499709129333496094e-01) 
