FANN_FLO_2.1
num_layers=3
learning_rate=0.700000
connection_rate=1.000000
network_type=0
learning_momentum=0.000000
training_algorithm=2
train_error_function=1
train_stop_function=0
cascade_output_change_fraction=0.010000
quickprop_decay=-0.000100
quickprop_mu=1.750000
rprop_increase_factor=1.200000
rprop_decrease_factor=0.500000
rprop_delta_min=0.000000
rprop_delta_max=50.000000
rprop_delta_zero=0.100000
cascade_output_stagnation_epochs=12
cascade_candidate_change_fraction=0.010000
cascade_candidate_stagnation_epochs=12
cascade_max_out_epochs=150
cascade_max_cand_epochs=150
cascade_num_candidate_groups=2
bit_fail_limit=3.49999994039535522461e-01
cascade_candidate_limit=1.00000000000000000000e+03
cascade_weight_multiplier=4.00000005960464477539e-01
cascade_activation_functions_count=10
cascade_activation_functions=3 5 7 8 10 11 14 15 16 17 
cascade_activation_steepnesses_count=4
cascade_activation_steepnesses=2.50000000000000000000e-01 5.00000000000000000000e-01 7.50000000000000000000e-01 1.00000000000000000000e+00 
layer_sizes=73 11 3 
scale_included=0
neurons (num_inputs, activation_function, activation_steepness)=(0, 0, 0.00000000000000000000e+00) (0, 0, 0.00000000000000000000e+00) (0, 0, 0.00000000000000000000e+00) (0, 0, 0.00000000000000000000e+00) (0, 0, 0.00000000000000000000e+00) (0, 0, 0.00000000000000000000e+00) (0, 0, 0.00000000000000000000e+00) (0, 0, 0.00000000000000000000e+00) (0, 0, 0.00000000000000000000e+00) (0, 0, 0.00000000000000000000e+00) (0, 0, 0.00000000000000000000e+00) (0, 0, 0.00000000000000000000e+00) (0, 0, 0.00000000000000000000e+00) (0, 0, 0.00000000000000000000e+00) (0, 0, 0.00000000000000000000e+00) (0, 0, 0.00000000000000000000e+00) (0, 0, 0.00000000000000000000e+00) (0, 0, 0.00000000000000000000e+00) (0, 0, 0.00000000000000000000e+00) (0, 0, 0.00000000000000000000e+00) (0, 0, 0.00000000000000000000e+00) (0, 0, 0.00000000000000000000e+00) (0, 0, 0.00000000000000000000e+00) (0, 0, 0.00000000000000000000e+00) (0, 0, 0.00000000000000000000e+00) (0, 0, 0.00000000000000000000e+00) (0, 0, 0.00000000000000000000e+00) (0, 0, 0.00000000000000000000e+00) (0, 0, 0.00000000000000000000e+00) (0, 0, 0.00000000000000000000e+00) (0, 0, 0.00000000000000000000e+00) (0, 0, 0.00000000000000000000e+00) (0, 0, 0.00000000000000000000e+00) (0, 0, 0.00000000000000000000e+00) (0, 0, 0.00000000000000000000e+00) (0, 0, 0.00000000000000000000e+00) (0, 0, 0.00000000000000000000e+00) (0, 0, 0.00000000000000000000e+00) (0, 0, 0.00000000000000000000e+00) (0, 0, 0.00000000000000000000e+00) (0, 0, 0.00000000000000000000e+00) (0, 0, 0.00000000000000000000e+00) (0, 0, 0.00000000000000000000e+00) (0, 0, 0.00000000000000000000e+00) (0, 0, 0.00000000000000000000e+00) (0, 0, 0.00000000000000000000e+00) (0, 0, 0.00000000000000000000e+00) (0, 0, 0.00000000000000000000e+00) (0, 0, 0.00000000000000000000e+00) (0, 0, 0.00000000000000000000e+00) (0, 0, 0.00000000000000000000e+00) (0, 0, 0.00000000000000000000e+00) (0, 0, 0.00000000000000000000e+00) (0, 0, 0.00000000000000000000e+00) (0, 0, 0.00000000000000000000e+00) (0, 0, 0.00000000000000000000e+00) (0, 0, 0.00000000000000000000e+00) (0, 0, 0.00000000000000000000e+00) (0, 0, 0.00000000000000000000e+00) (0, 0, 0.00000000000000000000e+00) (0, 0, 0.00000000000000000000e+00) (0, 0, 0.00000000000000000000e+00) (0, 0, 0.00000000000000000000e+00) (0, 0, 0.00000000000000000000e+00) (0, 0, 0.00000000000000000000e+00) (0, 0, 0.00000000000000000000e+00) (0, 0, 0.00000000000000000000e+00) (0, 0, 0.00000000000000000000e+00) (0, 0, 0.00000000000000000000e+00) (0, 0, 0.00000000000000000000e+00) (0, 0, 0.00000000000000000000e+00) (0, 0, 0.00000000000000000000e+00) (0, 0, 0.00000000000000000000e+00) (73, 5, 5.00000000000000000000e-01) (73, 5, 5.00000000000000000000e-01) (73, 5, 5.00000000000000000000e-01) (73, 5, 5.00000000000000000000e-01) (73, 5, 5.00000000000000000000e-01) (73, 5, 5.00000000000000000000e-01) (73, 5, 5.00000000000000000000e-01) (73, 5, 5.00000000000000000000e-01) (73, 5, 5.00000000000000000000e-01) (73, 5, 5.00000000000000000000e-01) (0, 5, 0.00000000000000000000e+00) (11, 11, 5.00000000000000000000e-01) (11, 11, 5.00000000000000000000e-01) (0, 11, 0.00000000000000000000e+00) 
connections (connected_to_neuron, weight)=(0, -3.44073534011840820312e-01) (1, -6.34662857055664062500e+01) (2, -2.79036760330200195312e-01) (3, 5.68153095245361328125e+00) (4, -3.98100197315216064453e-01) (5, 1.50331268310546875000e+01) (6, -2.67500221729278564453e-01) (7, -3.63177299499511718750e+00) (8, -2.58160471916198730469e-01) (9, -2.63416996002197265625e+01) (10, -4.25254434347152709961e-01) (11, 6.94037246704101562500e+00) (12, -3.99099290370941162109e-01) (13, -2.46631393432617187500e+01) (14, -4.18499976396560668945e-01) (15, -1.00105476379394531250e+01) (16, -2.81446278095245361328e-01) (17, -1.10427236557006835938e+01) (18, -3.67138743400573730469e-01) (19, -1.39684951305389404297e+00) (20, -2.69560217857360839844e-01) (21, 6.92272872924804687500e+01) (22, -3.85324120521545410156e-01) (23, -1.08900585174560546875e+01) (24, -2.19495609402656555176e-01) (25, -4.82622593641281127930e-01) (26, -2.35943868756294250488e-01) (27, 2.92074656486511230469e+00) (28, -2.67105638980865478516e-01) (29, -1.43563003540039062500e+01) (30, -3.20767223834991455078e-01) (31, -5.01546478271484375000e+01) (32, -2.58861362934112548828e-01) (33, -7.17626428604125976562e+00) (34, -4.17782187461853027344e-01) (35, 4.69352960586547851562e+00) (36, -4.16065484285354614258e-01) (37, 3.59748244285583496094e+00) (38, -4.18104529380798339844e-01) (39, -2.07022151947021484375e+01) (40, -3.41211557388305664062e-01) (41, 1.94449639320373535156e+00) (42, -2.45500549674034118652e-01) (43, -1.17070255279541015625e+01) (44, -2.77199268341064453125e-01) (45, -4.90945768356323242188e+00) (46, -2.68195688724517822266e-01) (47, 4.11221647262573242188e+00) (48, -2.22346797585487365723e-01) (49, -1.71893730163574218750e+01) (50, -2.68830835819244384766e-01) (51, -1.23436479568481445312e+01) (52, -3.56211960315704345703e-01) (53, 1.51799869537353515625e+01) (54, -3.73554050922393798828e-01) (55, -1.12367839813232421875e+01) (56, -3.24427366256713867188e-01) (57, 5.62680168151855468750e+01) (58, -3.33623349666595458984e-01) (59, 1.75342807769775390625e+01) (60, -3.25186729431152343750e-01) (61, -1.54400527477264404297e-01) (62, -3.46515536308288574219e-01) (63, -1.28051729202270507812e+01) (64, -3.83618831634521484375e-01) (65, -1.62472095489501953125e+01) (66, -3.85400116443634033203e-01) (67, -1.29801406860351562500e+01) (68, -3.75873267650604248047e-01) (69, -5.46526670455932617188e+00) (70, -4.20017391443252563477e-01) (71, 2.53843479156494140625e+01) (72, -3.82768988609313964844e-01) (0, 5.21726012229919433594e-01) (1, 9.67599105834960937500e+01) (2, 5.64709246158599853516e-01) (3, -4.16131172180175781250e+01) (4, 5.05747020244598388672e-01) (5, -3.33379287719726562500e+01) (6, 5.03423094749450683594e-01) (7, 2.54132103919982910156e+00) (8, 3.46685826778411865234e-01) (9, 5.22169113159179687500e+00) (10, 3.95851016044616699219e-01) (11, -1.68349800109863281250e+01) (12, 4.89131003618240356445e-01) (13, 7.27262039184570312500e+01) (14, 4.37548428773880004883e-01) (15, 2.80025124549865722656e+00) (16, 5.29565691947937011719e-01) (17, -3.65065917968750000000e+01) (18, 4.03566658496856689453e-01) (19, 8.11463928222656250000e+00) (20, 3.45736712217330932617e-01) (21, 1.33568458557128906250e+01) (22, 3.64711940288543701172e-01) (23, 3.07579112052917480469e+00) (24, 4.98990595340728759766e-01) (25, 6.54281387329101562500e+01) (26, 4.77935522794723510742e-01) (27, -7.45564985275268554688e+00) (28, 3.94733041524887084961e-01) (29, 1.16212177276611328125e+01) (30, 3.79047125577926635742e-01) (31, 2.82737827301025390625e+00) (32, 4.10110235214233398438e-01) (33, 2.63939037322998046875e+01) (34, 5.58373451232910156250e-01) (35, -1.96090583801269531250e+01) (36, 4.09194529056549072266e-01) (37, 1.74531192779541015625e+01) (38, 3.60139787197113037109e-01) (39, 2.27708339691162109375e+00) (40, 4.10320609807968139648e-01) (41, -2.13821604847908020020e-01) (42, 4.36807453632354736328e-01) (43, 3.62407417297363281250e+01) (44, 4.87823307514190673828e-01) (45, -2.05553698539733886719e+00) (46, 5.44919192790985107422e-01) (47, 3.52098426818847656250e+01) (48, 4.30018246173858642578e-01) (49, -8.39795379638671875000e+01) (50, 4.76794570684432983398e-01) (51, 6.07468366622924804688e+00) (52, 5.45098185539245605469e-01) (53, -1.26302614212036132812e+01) (54, 5.28232455253601074219e-01) (55, 7.07191944122314453125e+00) (56, 5.33181369304656982422e-01) (57, -5.32998847961425781250e+01) (58, 4.96985644102096557617e-01) (59, -6.64023923873901367188e+00) (60, 5.08952260017395019531e-01) (61, -3.11071071624755859375e+01) (62, 4.20591086149215698242e-01) (63, -1.24335422515869140625e+01) (64, 5.34294366836547851562e-01) (65, -8.03335494995117187500e+01) (66, 3.98719251155853271484e-01) (67, -5.47576179504394531250e+01) (68, 3.74522209167480468750e-01) (69, 1.09164838790893554688e+01) (70, 4.61153119802474975586e-01) (71, -7.89443130493164062500e+01) (72, 4.58871096372604370117e-01) (0, -2.67988395690917968750e+00) (1, -8.42796630859375000000e+02) (2, -2.78282475471496582031e+00) (3, 5.57827329635620117188e+00) (4, -2.75789070129394531250e+00) (5, -1.48509206771850585938e+01) (6, -2.65324759483337402344e+00) (7, -4.90474700927734375000e+00) (8, -2.73424816131591796875e+00) (9, -1.50641998291015625000e+02) (10, -2.69570064544677734375e+00) (11, 2.80353088378906250000e+02) (12, -2.79151010513305664062e+00) (13, 1.12077724933624267578e+00) (14, -2.82438349723815917969e+00) (15, -1.13870067596435546875e+01) (16, -2.79281949996948242188e+00) (17, -6.74611568450927734375e+00) (18, -2.72429847717285156250e+00) (19, 5.81298484802246093750e+01) (20, -2.72442245483398437500e+00) (21, 1.61581375122070312500e+02) (22, -2.83369851112365722656e+00) (23, -5.79692840576171875000e+00) (24, -2.83957052230834960938e+00) (25, 2.12980972290039062500e+02) (26, -2.83717489242553710938e+00) (27, 8.52064208984375000000e+01) (28, -2.68727397918701171875e+00) (29, 3.44851715087890625000e+02) (30, -2.65204930305480957031e+00) (31, -7.76544332504272460938e+00) (32, -2.66050171852111816406e+00) (33, 4.38600425720214843750e+01) (34, -2.80817818641662597656e+00) (35, 1.39798736572265625000e+02) (36, -2.79361343383789062500e+00) (37, -8.58136444091796875000e+01) (38, -2.81914496421813964844e+00) (39, -2.45887889862060546875e+01) (40, -2.74062848091125488281e+00) (41, 6.46320114135742187500e+01) (42, -2.84371948242187500000e+00) (43, -6.23138275146484375000e+01) (44, -2.76679825782775878906e+00) (45, -3.07652374267578125000e+02) (46, -2.72654891014099121094e+00) (47, 8.51215286254882812500e+01) (48, -2.76906132698059082031e+00) (49, 1.45023870468139648438e+01) (50, -2.68416237831115722656e+00) (51, -7.67705230712890625000e+01) (52, -2.66261792182922363281e+00) (53, -3.35312690734863281250e+01) (54, -2.66326451301574707031e+00) (55, 1.16175361633300781250e+02) (56, -2.82271838188171386719e+00) (57, 6.33850631713867187500e+01) (58, -2.77959060668945312500e+00) (59, -8.71922988891601562500e+01) (60, -2.76733136177062988281e+00) (61, 1.87503414154052734375e+01) (62, -2.74184155464172363281e+00) (63, 8.92988204956054687500e+00) (64, -2.73420786857604980469e+00) (65, -1.04763687133789062500e+02) (66, -2.70741152763366699219e+00) (67, 2.01950130462646484375e+01) (68, -2.68131566047668457031e+00) (69, 5.16974975585937500000e+02) (70, -2.72081756591796875000e+00) (71, 4.27282752990722656250e+01) (72, -2.71156644821166992188e+00) (0, 1.42426013946533203125e-01) (1, -2.34349308013916015625e+01) (2, 2.04360187053680419922e-02) (3, -3.08115410804748535156e+00) (4, 1.63601800799369812012e-01) (5, -3.40869832038879394531e+00) (6, 4.50458079576492309570e-02) (7, -4.43971633911132812500e-01) (8, 1.16346254944801330566e-01) (9, -1.60884094238281250000e+01) (10, 1.70453727245330810547e-01) (11, 2.48780041933059692383e-01) (12, 2.27179229259490966797e-02) (13, -3.36067497730255126953e-01) (14, 1.13667778670787811279e-01) (15, -7.30455100536346435547e-01) (16, 3.40280979871749877930e-02) (17, -2.61108183860778808594e+00) (18, 8.16012695431709289551e-02) (19, 6.29350781440734863281e-01) (20, 1.96266517043113708496e-01) (21, -1.13751327991485595703e+00) (22, 2.00248464941978454590e-01) (23, -9.48040544986724853516e-01) (24, 8.22642371058464050293e-02) (25, 3.72671055793762207031e+00) (26, 8.77851769328117370605e-02) (27, 1.17670845985412597656e+00) (28, 8.64626541733741760254e-02) (29, 1.83192050457000732422e+00) (30, 1.69047042727470397949e-01) (31, -1.66413938999176025391e+00) (32, 1.89355090260505676270e-01) (33, -6.57061994075775146484e-01) (34, 1.60879537463188171387e-01) (35, -1.08125127851963043213e-01) (36, 1.24159179627895355225e-01) (37, 1.13261210918426513672e+00) (38, 1.07629209756851196289e-01) (39, -3.99816513061523437500e+00) (40, 2.04886063933372497559e-01) (41, 2.27713990211486816406e+00) (42, 1.00717045366764068604e-01) (43, -6.49186277389526367188e+00) (44, 2.43640169501304626465e-02) (45, 1.56615316867828369141e+00) (46, 1.90402001142501831055e-01) (47, -3.36471527814865112305e-01) (48, 5.95054142177104949951e-02) (49, 1.74921047687530517578e+00) (50, 1.17008082568645477295e-01) (51, -3.44040679931640625000e+00) (52, 1.90807685256004333496e-01) (53, 7.54214107990264892578e-01) (54, 1.41599774360656738281e-01) (55, -5.02821087837219238281e-01) (56, 2.58584897965192794800e-02) (57, 3.48244607448577880859e-01) (58, 8.25179740786552429199e-02) (59, -6.53796255588531494141e-01) (60, 1.65986821055412292480e-01) (61, -2.18073773384094238281e+00) (62, 7.53764584660530090332e-02) (63, -3.28350335359573364258e-01) (64, 1.88199713826179504395e-01) (65, 1.78095245361328125000e+00) (66, 6.24142885208129882812e-02) (67, -3.38881582021713256836e-01) (68, 1.80893093347549438477e-01) (69, -3.43895578384399414062e+00) (70, 8.45734849572181701660e-02) (71, -2.77505964040756225586e-01) (72, 1.90247461199760437012e-01) (0, 6.98472166061401367188e+00) (1, 1.06014880371093750000e+03) (2, 9.01647090911865234375e+00) (3, -9.68469421386718750000e+02) (4, 6.94542932510375976562e+00) (5, 1.50000000000000000000e+03) (6, 6.98715448379516601562e+00) (7, 1.50000000000000000000e+03) (8, 6.91304254531860351562e+00) (9, 1.50000000000000000000e+03) (10, 8.77431488037109375000e+00) (11, -1.23251184082031250000e+03) (12, 6.92404222488403320312e+00) (13, 1.50000000000000000000e+03) (14, 6.97985887527465820312e+00) (15, 1.50000000000000000000e+03) (16, 7.00518751144409179688e+00) (17, 1.50000000000000000000e+03) (18, 8.68591594696044921875e+00) (19, 1.93173614501953125000e+02) (20, 6.89483880996704101562e+00) (21, 1.50000000000000000000e+03) (22, 7.00529718399047851562e+00) (23, 1.50000000000000000000e+03) (24, 6.96301364898681640625e+00) (25, 1.50000000000000000000e+03) (26, 8.68874645233154296875e+00) (27, -1.50000000000000000000e+03) (28, 6.92736625671386718750e+00) (29, 1.50000000000000000000e+03) (30, 6.89667415618896484375e+00) (31, 1.50000000000000000000e+03) (32, 6.95733118057250976562e+00) (33, 1.50000000000000000000e+03) (34, 7.09317207336425781250e+00) (35, -1.44354528808593750000e+03) (36, 6.85335826873779296875e+00) (37, 1.50000000000000000000e+03) (38, 7.01869153976440429688e+00) (39, 1.50000000000000000000e+03) (40, 6.90732192993164062500e+00) (41, 1.50000000000000000000e+03) (42, 8.67984485626220703125e+00) (43, -1.26565222167968750000e+03) (44, 6.88594675064086914062e+00) (45, 1.50000000000000000000e+03) (46, 6.88854026794433593750e+00) (47, 1.50000000000000000000e+03) (48, 7.01501083374023437500e+00) (49, 1.50000000000000000000e+03) (50, 6.98135280609130859375e+00) (51, 7.48752517700195312500e+01) (52, 6.86683797836303710938e+00) (53, 1.50000000000000000000e+03) (54, 6.96632862091064453125e+00) (55, 1.50000000000000000000e+03) (56, 6.88844728469848632812e+00) (57, 1.50000000000000000000e+03) (58, 7.01629304885864257812e+00) (59, -5.31514770507812500000e+02) (60, 6.98907279968261718750e+00) (61, 1.50000000000000000000e+03) (62, 6.84676933288574218750e+00) (63, 8.35341430664062500000e+02) (64, 7.00937795639038085938e+00) (65, 1.50000000000000000000e+03) (66, 6.95069742202758789062e+00) (67, 1.50000000000000000000e+03) (68, 6.91116523742675781250e+00) (69, 1.50000000000000000000e+03) (70, 6.92126846313476562500e+00) (71, -1.50000000000000000000e+03) (72, 7.01582098007202148438e+00) (0, 3.27769607305526733398e-01) (1, -8.75605926513671875000e+01) (2, 2.29424968361854553223e-01) (3, -1.64387531280517578125e+01) (4, 3.83168905973434448242e-01) (5, 4.96464490890502929688e+00) (6, 2.74590522050857543945e-01) (7, -1.77565307617187500000e+01) (8, 3.41306686401367187500e-01) (9, -2.59529933929443359375e+01) (10, 2.92785465717315673828e-01) (11, -1.23672456741333007812e+01) (12, 2.62650191783905029297e-01) (13, 5.03589324951171875000e+01) (14, 4.06773328781127929688e-01) (15, -1.31003494262695312500e+01) (16, 3.66269677877426147461e-01) (17, -3.28584122657775878906e+00) (18, 3.75860035419464111328e-01) (19, -3.11389398574829101562e+00) (20, 3.63140463829040527344e-01) (21, 9.66596126556396484375e+00) (22, 2.79592365026473999023e-01) (23, -3.27676467895507812500e+01) (24, 3.42262953519821166992e-01) (25, 2.51964244842529296875e+01) (26, 4.11925792694091796875e-01) (27, -3.56843733787536621094e+00) (28, 3.43509703874588012695e-01) (29, 6.73489141464233398438e+00) (30, 3.76450419425964355469e-01) (31, -3.27367782592773437500e+01) (32, 2.36050039529800415039e-01) (33, 2.17873287200927734375e+00) (34, 3.52586388587951660156e-01) (35, -2.58383989334106445312e-01) (36, 2.63257205486297607422e-01) (37, 6.13538980484008789062e+00) (38, 4.03989702463150024414e-01) (39, -9.94144082069396972656e-01) (40, 2.75917559862136840820e-01) (41, 9.54266488552093505859e-01) (42, 3.20693612098693847656e-01) (43, 1.44797897338867187500e+01) (44, 3.26174437999725341797e-01) (45, 1.05019390583038330078e+00) (46, 2.71590828895568847656e-01) (47, 1.64048314094543457031e-01) (48, 4.37936216592788696289e-01) (49, -2.99733233451843261719e+00) (50, 3.24496358633041381836e-01) (51, -1.05600023269653320312e+00) (52, 4.16499555110931396484e-01) (53, -6.02864646911621093750e+00) (54, 2.54450470209121704102e-01) (55, 7.37016439437866210938e-01) (56, 2.29602545499801635742e-01) (57, -9.60359764099121093750e+00) (58, 2.87382155656814575195e-01) (59, 3.45465689897537231445e-01) (60, 3.48555713891983032227e-01) (61, 3.47980575561523437500e+01) (62, 3.55622708797454833984e-01) (63, 1.17389268875122070312e+01) (64, 4.21648651361465454102e-01) (65, 6.60864019393920898438e+00) (66, 3.25815528631210327148e-01) (67, -1.50075638294219970703e+00) (68, 3.91412228345870971680e-01) (69, -3.86059646606445312500e+01) (70, 3.99247914552688598633e-01) (71, 3.30414123535156250000e+01) (72, 3.38150441646575927734e-01) (0, -2.70536914467811584473e-03) (1, -9.59993171691894531250e+00) (2, 1.17298156023025512695e-01) (3, -6.20024347305297851562e+00) (4, 4.48812507092952728271e-02) (5, 2.16229304671287536621e-01) (6, 5.84009028971195220947e-02) (7, -3.26415657997131347656e-01) (8, 5.33772185444831848145e-02) (9, -9.97340965270996093750e+00) (10, 1.94259323179721832275e-02) (11, -1.09503250122070312500e+01) (12, 3.34131158888339996338e-02) (13, 9.29363489151000976562e-01) (14, 1.93481110036373138428e-02) (15, -9.72898781299591064453e-01) (16, -1.39149250462651252747e-02) (17, -4.71974611282348632812e+00) (18, -3.51571962237358093262e-02) (19, -8.29469490051269531250e+00) (20, 8.00804719328880310059e-02) (21, 8.30894172191619873047e-01) (22, 5.90011570602655410767e-03) (23, -2.35707595944404602051e-01) (24, -1.60927008837461471558e-02) (25, 2.10245594382286071777e-01) (26, 7.73558467626571655273e-02) (27, -2.62472295761108398438e+00) (28, 2.23522949963808059692e-02) (29, -1.08160507678985595703e+00) (30, -5.07144480943679809570e-02) (31, -4.02153301239013671875e+00) (32, -5.07465973496437072754e-02) (33, 2.62000751495361328125e+00) (34, 1.88155435025691986084e-02) (35, 1.87769472599029541016e+00) (36, -5.08938431739807128906e-02) (37, -1.64114928245544433594e+00) (38, -3.77576984465122222900e-02) (39, -2.22975111007690429688e+00) (40, 1.12741934135556221008e-02) (41, 1.79977524280548095703e+00) (42, -4.30837944149971008301e-02) (43, 8.09075355529785156250e+00) (44, 3.37366759777069091797e-02) (45, -4.77102577686309814453e-01) (46, 2.71269455552101135254e-02) (47, 1.66129088401794433594e+00) (48, 5.54675236344337463379e-02) (49, 6.09634339809417724609e-01) (50, -3.07458639144897460938e-02) (51, 5.98442697525024414062e+00) (52, 2.95761935412883758545e-02) (53, -6.59232437610626220703e-01) (54, -1.55696226283907890320e-02) (55, 9.40586864948272705078e-01) (56, -4.78111207485198974609e-02) (57, 1.11685383319854736328e+00) (58, 5.66281517967581748962e-03) (59, 2.23782420158386230469e+00) (60, 8.41635242104530334473e-02) (61, -4.72727239131927490234e-01) (62, 2.49474844895303249359e-03) (63, -3.31642217934131622314e-02) (64, 2.60547734797000885010e-02) (65, 7.49537229537963867188e-01) (66, 6.76778852939605712891e-02) (67, 1.48864999413490295410e-01) (68, 1.06833152472972869873e-01) (69, 1.28047204017639160156e+00) (70, -1.40503831207752227783e-02) (71, -3.32381665706634521484e-01) (72, -1.16394842043519020081e-02) (0, -1.31322368979454040527e-01) (1, -3.36438674926757812500e+01) (2, -5.64077720046043395996e-02) (3, -8.21004867553710937500e+00) (4, -7.52512216567993164062e-02) (5, 1.75788092613220214844e+00) (6, -8.98357778787612915039e-02) (7, 4.98608857393264770508e-01) (8, -5.69748058915138244629e-02) (9, -1.86479606628417968750e+01) (10, -5.22063970565795898438e-02) (11, -9.96121788024902343750e+00) (12, -1.60754561424255371094e-01) (13, 4.37232398986816406250e+00) (14, -1.18481554090976715088e-01) (15, -3.00583571195602416992e-01) (16, -1.99956707656383514404e-02) (17, 1.38077938556671142578e+00) (18, -2.05377832055091857910e-01) (19, -5.82667827606201171875e+00) (20, -1.32586836814880371094e-01) (21, 1.36412503197789192200e-02) (22, -3.44985052943229675293e-02) (23, -2.36824297904968261719e+00) (24, -1.28396242856979370117e-01) (25, -3.07053184509277343750e+00) (26, -2.14811548590660095215e-01) (27, -5.95044791698455810547e-01) (28, -6.47624731063842773438e-02) (29, 4.04259109497070312500e+00) (30, -1.35154351592063903809e-01) (31, -3.68614411354064941406e+00) (32, -9.88697260618209838867e-02) (33, 3.96658277511596679688e+00) (34, -2.02083289623260498047e-01) (35, 4.37563753128051757812e+00) (36, -5.36458082497119903564e-02) (37, 5.18236696720123291016e-01) (38, -9.53484922647476196289e-02) (39, -7.42351245880126953125e+00) (40, -6.44934102892875671387e-02) (41, 6.08081197738647460938e+00) (42, -4.41303811967372894287e-02) (43, -1.84040451049804687500e+00) (44, -2.04433232545852661133e-01) (45, 2.40984514355659484863e-01) (46, -1.64110198616981506348e-01) (47, 3.23127293586730957031e+00) (48, -1.22889824211597442627e-01) (49, -3.10585707426071166992e-01) (50, -1.48787632584571838379e-01) (51, 5.00139188766479492188e+00) (52, -1.76767244935035705566e-01) (53, -2.42282792925834655762e-01) (54, -2.08489790558815002441e-01) (55, 1.09617443084716796875e+01) (56, -6.11581876873970031738e-02) (57, -3.25249981880187988281e+00) (58, -8.95503237843513488770e-02) (59, 1.07551765441894531250e+00) (60, -1.16409219801425933838e-01) (61, -2.76937508583068847656e+00) (62, -8.91046226024627685547e-02) (63, -8.38707637786865234375e+00) (64, -1.56279906630516052246e-01) (65, -4.97784852981567382812e+00) (66, -1.62548363208770751953e-01) (67, 1.63160550594329833984e+00) (68, -1.07545241713523864746e-01) (69, -8.79908502101898193359e-01) (70, -8.72972831130027770996e-02) (71, -2.76743817329406738281e+00) (72, -1.52429118752479553223e-01) (0, 4.16805565357208251953e-01) (1, -3.27923202514648437500e+01) (2, 3.61814051866531372070e-01) (3, 2.63819828033447265625e+01) (4, 4.00272846221923828125e-01) (5, 9.79789962768554687500e+01) (6, 3.87643158435821533203e-01) (7, -6.69102370738983154297e-01) (8, 4.51100468635559082031e-01) (9, -3.48468055725097656250e+01) (10, 4.82882082462310791016e-01) (11, 4.92974166870117187500e+01) (12, 3.62489163875579833984e-01) (13, -3.23198471069335937500e+01) (14, 4.60807353258132934570e-01) (15, -3.38540916442871093750e+01) (16, 3.49256753921508789062e-01) (17, -1.57713432312011718750e+01) (18, 4.64347183704376220703e-01) (19, 8.33792781829833984375e+00) (20, 4.85559701919555664062e-01) (21, 1.28411235809326171875e+01) (22, 4.21334445476531982422e-01) (23, -1.20948123931884765625e+01) (24, 3.47522586584091186523e-01) (25, -1.78983478546142578125e+01) (26, 3.34338188171386718750e-01) (27, -3.63709945678710937500e+01) (28, 3.63220363855361938477e-01) (29, 3.01192531585693359375e+01) (30, 3.89141410589218139648e-01) (31, -8.41089706420898437500e+01) (32, 4.47572499513626098633e-01) (33, -2.02087554931640625000e+01) (34, 4.81096535921096801758e-01) (35, -4.64251232147216796875e+00) (36, 3.31210255622863769531e-01) (37, 1.67821919918060302734e+00) (38, 3.06924402713775634766e-01) (39, -3.17697563171386718750e+01) (40, 4.25943970680236816406e-01) (41, -2.41506710052490234375e+01) (42, 4.85945045948028564453e-01) (43, 1.10191154479980468750e+01) (44, 4.10118699073791503906e-01) (45, 7.67603254318237304688e+00) (46, 3.76099824905395507812e-01) (47, 2.56005229949951171875e+01) (48, 3.14895808696746826172e-01) (49, 9.20223312377929687500e+01) (50, 3.22967141866683959961e-01) (51, -3.02976932525634765625e+01) (52, 3.47732663154602050781e-01) (53, -3.67608571052551269531e+00) (54, 4.42612588405609130859e-01) (55, -5.99664688110351562500e+00) (56, 3.85310351848602294922e-01) (57, 6.95777416229248046875e+00) (58, 4.08856362104415893555e-01) (59, 1.35561428070068359375e+01) (60, 3.86636137962341308594e-01) (61, 2.02413330078125000000e+01) (62, 4.32623982429504394531e-01) (63, 1.05572996139526367188e+01) (64, 4.72907036542892456055e-01) (65, 1.64377212524414062500e+01) (66, 3.73698353767395019531e-01) (67, 3.54251891374588012695e-01) (68, 4.84759837388992309570e-01) (69, 2.13404178619384765625e+01) (70, 4.88396793603897094727e-01) (71, 1.11519599914550781250e+02) (72, 3.92846465110778808594e-01) (0, 5.30406475067138671875e-01) (1, 3.76283798217773437500e+01) (2, 3.55126291513442993164e-01) (3, 1.51591234207153320312e+01) (4, 5.25204241275787353516e-01) (5, 1.11668186187744140625e+01) (6, 5.02561688423156738281e-01) (7, 3.80125975608825683594e+00) (8, 5.41544139385223388672e-01) (9, 1.02711715698242187500e+01) (10, 4.37993347644805908203e-01) (11, -9.97264564037322998047e-01) (12, 4.47323024272918701172e-01) (13, -5.99637641906738281250e+01) (14, 3.78497987985610961914e-01) (15, 7.70077056884765625000e+01) (16, 4.51766967773437500000e-01) (17, 2.54505443572998046875e+01) (18, 5.18533706665039062500e-01) (19, -1.52705335617065429688e+01) (20, 4.62499916553497314453e-01) (21, 1.41188216209411621094e+00) (22, 4.38571691513061523438e-01) (23, 5.38017749786376953125e+00) (24, 4.43433791399002075195e-01) (25, -3.30204734802246093750e+01) (26, 3.71035069227218627930e-01) (27, -5.24558246135711669922e-01) (28, 4.32483285665512084961e-01) (29, 1.36119050979614257812e+01) (30, 4.30862486362457275391e-01) (31, 1.81488304138183593750e+01) (32, 3.77374768257141113281e-01) (33, -5.59569549560546875000e+01) (34, 3.62605482339859008789e-01) (35, -8.84554290771484375000e+00) (36, 4.01960074901580810547e-01) (37, -1.00743484497070312500e+01) (38, 3.96872729063034057617e-01) (39, 1.11135616302490234375e+01) (40, 4.71679866313934326172e-01) (41, 7.47015457153320312500e+01) (42, 5.58368921279907226562e-01) (43, -5.64654445648193359375e+00) (44, 4.65794324874877929688e-01) (45, -6.04943122863769531250e+01) (46, 4.65245187282562255859e-01) (47, -5.85096168518066406250e+01) (48, 3.57887148857116699219e-01) (49, -7.53529250621795654297e-01) (50, 5.04386901855468750000e-01) (51, 8.10289955139160156250e+00) (52, 4.55984920263290405273e-01) (53, 2.21010856628417968750e+01) (54, 5.06553828716278076172e-01) (55, -3.91114196777343750000e+01) (56, 4.79115664958953857422e-01) (57, 7.01356277465820312500e+01) (58, 5.49466967582702636719e-01) (59, 5.05669517517089843750e+01) (60, 4.52853202819824218750e-01) (61, -2.38322353363037109375e+01) (62, 4.36884760856628417969e-01) (63, -4.72297286987304687500e+00) (64, 5.16624748706817626953e-01) (65, -1.83853454589843750000e+01) (66, 4.98952805995941162109e-01) (67, 1.11404466629028320312e+01) (68, 4.15201634168624877930e-01) (69, -1.82466011047363281250e+01) (70, 4.23258751630783081055e-01) (71, -1.89427971839904785156e+00) (72, 4.80640441179275512695e-01) (73, 3.66640949249267578125e+00) (74, 2.72358703613281250000e+00) (75, 2.36214218139648437500e+01) (76, 3.32604103088378906250e+01) (77, 6.12365341186523437500e+00) (78, -2.14276885986328125000e+00) (79, 1.80180633544921875000e+02) (80, -2.02462112426757812500e+02) (81, -1.87455868721008300781e+00) (82, 5.33950281143188476562e+00) (83, 2.96589393615722656250e+01) (73, 5.26051461696624755859e-01) (74, -1.13753095269203186035e-01) (75, 1.26297280192375183105e-01) (76, 3.89255166053771972656e-01) (77, -8.04610084742307662964e-03) (78, 5.69158077239990234375e-01) (79, 3.65869849920272827148e-01) (80, 3.94482076168060302734e-01) (81, 2.98887401819229125977e-01) (82, -1.98031216859817504883e-01) (83, 8.55924468487501144409e-03) 
