FANN_FLO_2.1
num_layers=3
learning_rate=0.700000
connection_rate=1.000000
network_type=0
learning_momentum=0.000000
training_algorithm=2
train_error_function=1
train_stop_function=0
cascade_output_change_fraction=0.010000
quickprop_decay=-0.000100
quickprop_mu=1.750000
rprop_increase_factor=1.200000
rprop_decrease_factor=0.500000
rprop_delta_min=0.000000
rprop_delta_max=50.000000
rprop_delta_zero=0.100000
cascade_output_stagnation_epochs=12
cascade_candidate_change_fraction=0.010000
cascade_candidate_stagnation_epochs=12
cascade_max_out_epochs=150
cascade_max_cand_epochs=150
cascade_num_candidate_groups=2
bit_fail_limit=3.49999994039535522461e-01
cascade_candidate_limit=1.00000000000000000000e+03
cascade_weight_multiplier=4.00000005960464477539e-01
cascade_activation_functions_count=10
cascade_activation_functions=3 5 7 8 10 11 14 15 16 17 
cascade_activation_steepnesses_count=4
cascade_activation_steepnesses=2.50000000000000000000e-01 5.00000000000000000000e-01 7.50000000000000000000e-01 1.00000000000000000000e+00 
layer_sizes=100 11 3 
scale_included=0
neurons (num_inputs, activation_function, activation_steepness)=(0, 0, 0.00000000000000000000e+00) (0, 0, 0.00000000000000000000e+00) (0, 0, 0.00000000000000000000e+00) (0, 0, 0.00000000000000000000e+00) (0, 0, 0.00000000000000000000e+00) (0, 0, 0.00000000000000000000e+00) (0, 0, 0.00000000000000000000e+00) (0, 0, 0.00000000000000000000e+00) (0, 0, 0.00000000000000000000e+00) (0, 0, 0.00000000000000000000e+00) (0, 0, 0.00000000000000000000e+00) (0, 0, 0.00000000000000000000e+00) (0, 0, 0.00000000000000000000e+00) (0, 0, 0.00000000000000000000e+00) (0, 0, 0.00000000000000000000e+00) (0, 0, 0.00000000000000000000e+00) (0, 0, 0.00000000000000000000e+00) (0, 0, 0.00000000000000000000e+00) (0, 0, 0.00000000000000000000e+00) (0, 0, 0.00000000000000000000e+00) (0, 0, 0.00000000000000000000e+00) (0, 0, 0.00000000000000000000e+00) (0, 0, 0.00000000000000000000e+00) (0, 0, 0.00000000000000000000e+00) (0, 0, 0.00000000000000000000e+00) (0, 0, 0.00000000000000000000e+00) (0, 0, 0.00000000000000000000e+00) (0, 0, 0.00000000000000000000e+00) (0, 0, 0.00000000000000000000e+00) (0, 0, 0.00000000000000000000e+00) (0, 0, 0.00000000000000000000e+00) (0, 0, 0.00000000000000000000e+00) (0, 0, 0.00000000000000000000e+00) (0, 0, 0.00000000000000000000e+00) (0, 0, 0.00000000000000000000e+00) (0, 0, 0.00000000000000000000e+00) (0, 0, 0.00000000000000000000e+00) (0, 0, 0.00000000000000000000e+00) (0, 0, 0.00000000000000000000e+00) (0, 0, 0.00000000000000000000e+00) (0, 0, 0.00000000000000000000e+00) (0, 0, 0.00000000000000000000e+00) (0, 0, 0.00000000000000000000e+00) (0, 0, 0.00000000000000000000e+00) (0, 0, 0.00000000000000000000e+00) (0, 0, 0.00000000000000000000e+00) (0, 0, 0.00000000000000000000e+00) (0, 0, 0.00000000000000000000e+00) (0, 0, 0.00000000000000000000e+00) (0, 0, 0.00000000000000000000e+00) (0, 0, 0.00000000000000000000e+00) (0, 0, 0.00000000000000000000e+00) (0, 0, 0.00000000000000000000e+00) (0, 0, 0.00000000000000000000e+00) (0, 0, 0.00000000000000000000e+00) (0, 0, 0.00000000000000000000e+00) (0, 0, 0.00000000000000000000e+00) (0, 0, 0.00000000000000000000e+00) (0, 0, 0.00000000000000000000e+00) (0, 0, 0.00000000000000000000e+00) (0, 0, 0.00000000000000000000e+00) (0, 0, 0.00000000000000000000e+00) (0, 0, 0.00000000000000000000e+00) (0, 0, 0.00000000000000000000e+00) (0, 0, 0.00000000000000000000e+00) (0, 0, 0.00000000000000000000e+00) (0, 0, 0.00000000000000000000e+00) (0, 0, 0.00000000000000000000e+00) (0, 0, 0.00000000000000000000e+00) (0, 0, 0.00000000000000000000e+00) (0, 0, 0.00000000000000000000e+00) (0, 0, 0.00000000000000000000e+00) (0, 0, 0.00000000000000000000e+00) (0, 0, 0.00000000000000000000e+00) (0, 0, 0.00000000000000000000e+00) (0, 0, 0.00000000000000000000e+00) (0, 0, 0.00000000000000000000e+00) (0, 0, 0.00000000000000000000e+00) (0, 0, 0.00000000000000000000e+00) (0, 0, 0.00000000000000000000e+00) (0, 0, 0.00000000000000000000e+00) (0, 0, 0.00000000000000000000e+00) (0, 0, 0.00000000000000000000e+00) (0, 0, 0.00000000000000000000e+00) (0, 0, 0.00000000000000000000e+00) (0, 0, 0.00000000000000000000e+00) (0, 0, 0.00000000000000000000e+00) (0, 0, 0.00000000000000000000e+00) (0, 0, 0.00000000000000000000e+00) (0, 0, 0.00000000000000000000e+00) (0, 0, 0.00000000000000000000e+00) (0, 0, 0.00000000000000000000e+00) (0, 0, 0.00000000000000000000e+00) (0, 0, 0.00000000000000000000e+00) (0, 0, 0.00000000000000000000e+00) (0, 0, 0.00000000000000000000e+00) (0, 0, 0.00000000000000000000e+00) (0, 0, 0.00000000000000000000e+00) (0, 0, 0.00000000000000000000e+00) (0, 0, 0.00000000000000000000e+00) (100, 5, 5.00000000000000000000e-01) (100, 5, 5.00000000000000000000e-01) (100, 5, 5.00000000000000000000e-01) (100, 5, 5.00000000000000000000e-01) (100, 5, 5.00000000000000000000e-01) (100, 5, 5.00000000000000000000e-01) (100, 5, 5.00000000000000000000e-01) (100, 5, 5.00000000000000000000e-01) (100, 5, 5.00000000000000000000e-01) (100, 5, 5.00000000000000000000e-01) (0, 5, 0.00000000000000000000e+00) (11, 11, 5.00000000000000000000e-01) (11, 11, 5.00000000000000000000e-01) (0, 11, 0.00000000000000000000e+00) 
connections (connected_to_neuron, weight)=(0, 1.39982178807258605957e-01) (1, 8.25779557228088378906e-01) (2, -2.10075229406356811523e-02) (3, -1.10879346728324890137e-01) (4, 1.84801891446113586426e-01) (5, 2.36981302499771118164e-01) (6, 2.88410950452089309692e-02) (7, 1.26812746748328208923e-02) (8, 1.47868081927299499512e-01) (9, -1.12616944313049316406e+00) (10, 3.07535956380888819695e-04) (11, -2.98608565330505371094e+00) (12, -1.07880747318267822266e+00) (13, 8.73448047786951065063e-03) (14, -9.16158929467201232910e-02) (15, 5.56811690330505371094e-02) (16, 1.01541630923748016357e-01) (17, 7.51701882109045982361e-03) (18, 2.54063704051077365875e-03) (19, 2.40618839859962463379e-01) (20, 9.86526906490325927734e-02) (21, 5.65960444509983062744e-03) (22, -3.25818252563476562500e+00) (23, -1.61142063140869140625e+00) (24, -1.77744065877050161362e-03) (25, 3.68477473966777324677e-03) (26, 3.06362435221672058105e-02) (27, 3.62199991941452026367e-02) (28, 2.14497447013854980469e-02) (29, 1.81156471371650695801e-02) (30, 9.83966514468193054199e-02) (31, 2.84440070390701293945e-01) (32, 1.22316470369696617126e-02) (33, -3.17428874969482421875e+00) (34, -1.94081735610961914062e+00) (35, 1.56655013561248779297e-02) (36, 2.38723661750555038452e-02) (37, -7.19472707714885473251e-04) (38, -2.17488687485456466675e-02) (39, 1.97474434971809387207e-02) (40, 1.28243826329708099365e-02) (41, 1.02506585419178009033e-01) (42, 4.06530052423477172852e-01) (43, 9.41793527454137802124e-03) (44, -2.57692217826843261719e+00) (45, -1.67263484001159667969e+00) (46, 2.07670908421277999878e-02) (47, 1.90286189317703247070e-02) (48, 3.02231637760996818542e-03) (49, 3.36970053613185882568e-02) (50, 1.23290661722421646118e-02) (51, 1.49879464879631996155e-02) (52, 1.39569580554962158203e-01) (53, 4.74107027053833007812e-01) (54, 7.83160421997308731079e-03) (55, -1.49273562431335449219e+00) (56, -1.15890908241271972656e+00) (57, 3.14748063683509826660e-02) (58, 4.73950318992137908936e-02) (59, 2.11289506405591964722e-02) (60, -3.32531169988214969635e-03) (61, 4.36498271301388740540e-03) (62, 6.90900953486561775208e-03) (63, 1.32214024662971496582e-01) (64, -1.72289013862609863281e-01) (65, 5.98393427208065986633e-03) (66, -4.18745040893554687500e-01) (67, -5.34619390964508056641e-01) (68, 1.15810791030526161194e-02) (69, 1.88256558030843734741e-02) (70, 6.52661401545628905296e-05) (71, 1.17248641327023506165e-02) (72, 5.50155818928033113480e-04) (73, -1.02363573387265205383e-02) (74, 2.64533966779708862305e-01) (75, -1.13703116774559020996e-01) (76, -2.52445857040584087372e-03) (77, 2.10536435246467590332e-01) (78, -5.77917024493217468262e-02) (79, -3.61942425370216369629e-02) (80, -2.94131599366664886475e-03) (81, -2.68042925745248794556e-02) (82, 3.35775204002857208252e-02) (83, 6.29630638286471366882e-03) (84, -4.23520756885409355164e-03) (85, 1.54195293784141540527e-01) (86, -2.11234033107757568359e-01) (87, 7.85064534284174442291e-04) (88, 1.81126371026039123535e-01) (89, -2.54614561796188354492e-01) (90, -2.43446119129657745361e-02) (91, -9.98716279864311218262e-02) (92, -1.19198625907301902771e-02) (93, 1.50429056957364082336e-02) (94, -6.47360505536198616028e-03) (95, 2.68132216297090053558e-03) (96, 1.50380849838256835938e-01) (97, -2.67336703836917877197e-02) (98, 5.19387307576835155487e-04) (99, 1.20741285383701324463e-01) (0, -7.58236206054687500000e+02) (1, 1.50000000000000000000e+03) (2, 2.81596088409423828125e+01) (3, 1.49301855468750000000e+03) (4, 6.76413452148437500000e+02) (5, 2.04365600585937500000e+02) (6, 1.44276879882812500000e+03) (7, 4.82697082519531250000e+02) (8, -8.58050727844238281250e+00) (9, 1.44654833984375000000e+03) (10, -1.03954125976562500000e+03) (11, 1.37099121093750000000e+03) (12, -7.95942810058593750000e+02) (13, -2.45687637329101562500e+02) (14, 1.43626525878906250000e+03) (15, 1.28816308593750000000e+03) (16, -5.81892013549804687500e+01) (17, 1.43405041503906250000e+03) (18, 5.72449707031250000000e+02) (19, -8.58351421356201171875e+00) (20, 8.31910461425781250000e+02) (21, -1.50000000000000000000e+03) (22, 7.96631591796875000000e+02) (23, 7.86813842773437500000e+02) (24, -8.00711303710937500000e+02) (25, 1.38013684082031250000e+03) (26, 1.12481762695312500000e+03) (27, -1.16838951110839843750e+02) (28, 1.42601391601562500000e+03) (29, 6.03546752929687500000e+02) (30, -8.67063140869140625000e+00) (31, 1.10619750976562500000e+03) (32, -1.43897363281250000000e+03) (33, 7.06005371093750000000e+02) (34, -1.00554913330078125000e+03) (35, -9.87461914062500000000e+02) (36, 1.29301391601562500000e+03) (37, -5.71106750488281250000e+02) (38, -1.27929771423339843750e+02) (39, 1.49943627929687500000e+03) (40, 5.92228393554687500000e+02) (41, -8.66882896423339843750e+00) (42, 7.62695861816406250000e+02) (43, -1.39454089355468750000e+03) (44, 5.51227172851562500000e+02) (45, -9.40136535644531250000e+02) (46, -4.94072204589843750000e+02) (47, 1.32853405761718750000e+03) (48, 5.98802734375000000000e+02) (49, -2.19935699462890625000e+02) (50, 1.49999536132812500000e+03) (51, 7.12303649902343750000e+02) (52, -8.56221103668212890625e+00) (53, -6.36754516601562500000e+02) (54, -1.40027502441406250000e+03) (55, -1.98287353515625000000e+02) (56, 1.43193652343750000000e+03) (57, -4.12700805664062500000e+02) (58, 1.26686804199218750000e+03) (59, -6.82597412109375000000e+02) (60, 1.06835189819335937500e+02) (61, 1.49985314941406250000e+03) (62, 8.46065002441406250000e+02) (63, -8.53890037536621093750e+00) (64, -3.66228302001953125000e+02) (65, -1.43300244140625000000e+03) (66, -1.49218310546875000000e+03) (67, -1.06915173339843750000e+03) (68, 1.10016931152343750000e+03) (69, 1.22860180664062500000e+03) (70, -3.63646453857421875000e+02) (71, -1.12588264465332031250e+02) (72, 1.49999829101562500000e+03) (73, 5.81382141113281250000e+02) (74, -8.57985496520996093750e+00) (75, 1.17994628906250000000e+03) (76, -1.43300244140625000000e+03) (77, 7.80126831054687500000e+02) (78, -6.97076660156250000000e+02) (79, -3.90482910156250000000e+02) (80, 7.99699523925781250000e+02) (81, 1.47560693359375000000e+03) (82, -1.00000526428222656250e+02) (83, 1.49999804687500000000e+03) (84, 8.25236877441406250000e+02) (85, -8.54546928405761718750e+00) (86, 8.91502136230468750000e+02) (87, -1.06787353515625000000e+03) (88, -1.24317529296875000000e+03) (89, -1.15333361816406250000e+03) (90, 5.41284729003906250000e+02) (91, 9.88559814453125000000e+02) (92, 3.39288116455078125000e+02) (93, 2.68788299560546875000e+02) (94, 1.49999719238281250000e+03) (95, 8.70627014160156250000e+02) (96, -8.55719280242919921875e+00) (97, -6.98817321777343750000e+02) (98, -1.22586193847656250000e+03) (99, -8.61002349853515625000e+00) (0, 1.49993310546875000000e+03) (1, 1.50000000000000000000e+03) (2, 1.50000000000000000000e+03) (3, -1.47500000000000000000e+03) (4, 1.50000000000000000000e+03) (5, -1.47500000000000000000e+03) (6, 1.49081237792968750000e+03) (7, -1.47500000000000000000e+03) (8, 5.60049591064453125000e+01) (9, -8.36480712890625000000e+02) (10, 1.50000000000000000000e+03) (11, 1.44087963867187500000e+03) (12, 1.50000000000000000000e+03) (13, 1.50000000000000000000e+03) (14, -1.20342468261718750000e+03) (15, 1.50000000000000000000e+03) (16, -1.47500000000000000000e+03) (17, 1.35359313964843750000e+03) (18, -1.47500000000000000000e+03) (19, 5.59841384887695312500e+01) (20, -1.39151538085937500000e+03) (21, 1.50000000000000000000e+03) (22, 1.49689660644531250000e+03) (23, 1.50000000000000000000e+03) (24, 1.50000000000000000000e+03) (25, -1.37570837402343750000e+03) (26, 1.50000000000000000000e+03) (27, -1.47500000000000000000e+03) (28, 5.62910034179687500000e+02) (29, -1.47500000000000000000e+03) (30, 5.59895439147949218750e+01) (31, -1.05666589355468750000e+03) (32, 1.50000000000000000000e+03) (33, 1.49768847656250000000e+03) (34, 1.50000000000000000000e+03) (35, 1.50000000000000000000e+03) (36, -1.48582934570312500000e+03) (37, 1.50000000000000000000e+03) (38, -1.47500000000000000000e+03) (39, 6.49911682128906250000e+02) (40, -1.47500000000000000000e+03) (41, 5.60705871582031250000e+01) (42, -1.35866564941406250000e+03) (43, -4.97925079345703125000e+02) (44, 1.48782971191406250000e+03) (45, 1.50000000000000000000e+03) (46, 1.50000000000000000000e+03) (47, -1.46281347656250000000e+03) (48, 1.50000000000000000000e+03) (49, -1.47500000000000000000e+03) (50, 9.65799621582031250000e+02) (51, -1.47500000000000000000e+03) (52, 5.60535812377929687500e+01) (53, -1.43250585937500000000e+03) (54, 1.50000000000000000000e+03) (55, 1.42212182617187500000e+03) (56, 1.50000000000000000000e+03) (57, 1.50000000000000000000e+03) (58, -1.43098986816406250000e+03) (59, 1.50000000000000000000e+03) (60, -1.47500000000000000000e+03) (61, -1.23900158691406250000e+03) (62, -1.47500000000000000000e+03) (63, 5.55594596862792968750e+01) (64, -1.49891076660156250000e+03) (65, 1.50000000000000000000e+03) (66, -1.42123974609375000000e+03) (67, 1.50000000000000000000e+03) (68, 1.50000000000000000000e+03) (69, -1.25729759216308593750e+02) (70, 1.50000000000000000000e+03) (71, -1.50000000000000000000e+03) (72, -4.49939880371093750000e+01) (73, -1.47500000000000000000e+03) (74, 5.54890861511230468750e+01) (75, -1.25073059082031250000e+03) (76, 1.50000000000000000000e+03) (77, -1.43215368652343750000e+03) (78, 1.50000000000000000000e+03) (79, 1.50000000000000000000e+03) (80, 1.42362548828125000000e+03) (81, 1.50000000000000000000e+03) (82, -1.50000000000000000000e+03) (83, -8.60838439941406250000e+02) (84, -1.47500000000000000000e+03) (85, 5.55208244323730468750e+01) (86, 9.46183105468750000000e+02) (87, 1.50000000000000000000e+03) (88, -1.39663085937500000000e+03) (89, 1.41962060546875000000e+03) (90, 1.50000000000000000000e+03) (91, 1.49778149414062500000e+03) (92, 1.50000000000000000000e+03) (93, -1.50000000000000000000e+03) (94, -1.44921105957031250000e+03) (95, -1.47500000000000000000e+03) (96, 5.55093383789062500000e+01) (97, -1.48892797851562500000e+03) (98, 1.50000000000000000000e+03) (99, 5.61232719421386718750e+01) (0, 4.17115181684494018555e-01) (1, 2.86610603332519531250e-01) (2, -7.18976184725761413574e-03) (3, -8.83893221616744995117e-02) (4, -1.22231528162956237793e-01) (5, 1.19672082364559173584e-01) (6, -1.44018530845642089844e-02) (7, 1.66966821998357772827e-02) (8, -4.17793765664100646973e-02) (9, 1.00102508068084716797e+00) (10, 8.41588713228702545166e-04) (11, 1.87642371654510498047e+00) (12, -8.51236939430236816406e-01) (13, -1.59076750278472900391e-02) (14, 3.19925695657730102539e-02) (15, -5.37702590227127075195e-02) (16, 3.24132964015007019043e-02) (17, -4.26309928297996520996e-03) (18, 1.35509697720408439636e-02) (19, -1.94875195622444152832e-01) (20, 2.51822859048843383789e-01) (21, 1.80662682396359741688e-05) (22, 1.85508239269256591797e+00) (23, -9.51184868812561035156e-01) (24, 5.26050152257084846497e-03) (25, -1.76082029938697814941e-02) (26, -1.94495934993028640747e-02) (27, 8.36267601698637008667e-03) (28, -1.74429323524236679077e-02) (29, 1.40582546591758728027e-02) (30, -5.75629286468029022217e-02) (31, -1.20932862162590026855e-01) (32, -7.90676218457520008087e-04) (33, 1.95887839794158935547e+00) (34, -1.14261329174041748047e+00) (35, 1.43765881657600402832e-02) (36, 3.71461501345038414001e-03) (37, -1.45170561154372990131e-05) (38, 5.09343016892671585083e-03) (39, -1.42902536317706108093e-02) (40, 1.28950811922550201416e-02) (41, -1.10696114599704742432e-01) (42, 8.60111229121685028076e-03) (43, -2.22842162474989891052e-03) (44, 2.04148507118225097656e+00) (45, -1.40771269798278808594e+00) (46, -6.03895541280508041382e-03) (47, -1.49791166186332702637e-02) (48, 9.89266857504844665527e-03) (49, -1.24890059232711791992e-02) (50, -4.71511995419859886169e-03) (51, 1.69081613421440124512e-02) (52, -8.87798666954040527344e-02) (53, -2.04670846462249755859e-01) (54, 1.06151809450238943100e-03) (55, 1.53212141990661621094e+00) (56, -9.93947923183441162109e-01) (57, -2.00106073170900344849e-02) (58, -1.09568703919649124146e-03) (59, 2.72806789726018905640e-02) (60, -2.64419103041291236877e-03) (61, -7.24536366760730743408e-03) (62, 4.20047668740153312683e-03) (63, -1.53587311506271362305e-01) (64, 9.62883457541465759277e-02) (65, 3.74603224918246269226e-03) (66, 1.01854598522186279297e+00) (67, -6.75826013088226318359e-01) (68, -2.13947389274835586548e-02) (69, 3.22178304195404052734e-02) (70, 1.15208225324749946594e-02) (71, 9.26946755498647689819e-04) (72, -1.21717777801677584648e-04) (73, 3.60768579412251710892e-04) (74, -7.44409486651420593262e-02) (75, -9.20279100537300109863e-02) (76, 3.64376511424779891968e-03) (77, 6.21399521827697753906e-01) (78, -6.12284123897552490234e-01) (79, 3.03689576685428619385e-02) (80, 7.87610094994306564331e-03) (81, 2.97178886830806732178e-02) (82, -1.08830295503139495850e-02) (83, -2.35980981960892677307e-03) (84, -5.26554835960268974304e-03) (85, -1.59695208072662353516e-01) (86, 5.53264804184436798096e-02) (87, 2.70619243383407592773e-03) (88, 2.77937710285186767578e-01) (89, -3.71535390615463256836e-01) (90, 4.53680083155632019043e-02) (91, 5.82905858755111694336e-02) (92, -1.76008641719818115234e-02) (93, -4.97627479489892721176e-05) (94, -1.42325367778539657593e-03) (95, -1.20597658678889274597e-03) (96, -1.79052114486694335938e-01) (97, 2.59466357529163360596e-02) (98, 2.35999422147870063782e-03) (99, -1.77716970443725585938e-01) (0, 1.49024047851562500000e+03) (1, -1.47500000000000000000e+03) (2, 1.36997961425781250000e+03) (3, -1.94378890991210937500e+02) (4, -8.42024536132812500000e+02) (5, -1.24465661621093750000e+03) (6, -1.50000000000000000000e+03) (7, -1.04776818847656250000e+03) (8, 2.42648105621337890625e+01) (9, -1.43586877441406250000e+03) (10, 1.46833618164062500000e+03) (11, -1.49996948242187500000e+03) (12, 1.49340368652343750000e+03) (13, 6.63287536621093750000e+02) (14, 2.63827545166015625000e+02) (15, -1.20132336425781250000e+03) (16, -3.69631805419921875000e+01) (17, -1.49194787597656250000e+03) (18, -1.26484252929687500000e+03) (19, 2.41958465576171875000e+01) (20, 3.92829284667968750000e+02) (21, 1.47152868652343750000e+03) (22, 1.49963000488281250000e+03) (23, -2.06734527587890625000e+02) (24, 2.09796524047851562500e+02) (25, -2.03355270385742187500e+02) (26, -1.14819750976562500000e+03) (27, -4.44293395996093750000e+02) (28, -1.09828894042968750000e+03) (29, -1.29514758300781250000e+03) (30, 2.42362995147705078125e+01) (31, -1.06430651855468750000e+03) (32, 1.47192858886718750000e+03) (33, 1.49813061523437500000e+03) (34, 1.49925109863281250000e+03) (35, -3.89941741943359375000e+02) (36, 2.68785522460937500000e+02) (37, -2.24500534057617187500e+02) (38, -4.44066223144531250000e+02) (39, -2.01422744750976562500e+02) (40, -2.80059661865234375000e+02) (41, 2.42962245941162109375e+01) (42, -1.49690490722656250000e+03) (43, 1.43985131835937500000e+03) (44, 1.49987548828125000000e+03) (45, 1.49730383300781250000e+03) (46, -6.70515991210937500000e+02) (47, 4.68636352539062500000e+02) (48, -1.14403488159179687500e+02) (49, -8.93678771972656250000e+02) (50, -2.18577209472656250000e+02) (51, -9.25961791992187500000e+02) (52, 2.41992931365966796875e+01) (53, -1.47411633300781250000e+03) (54, 1.44203222656250000000e+03) (55, 1.45229675292968750000e+03) (56, -4.88977569580078125000e+02) (57, -8.15194015502929687500e+01) (58, 1.03271752929687500000e+03) (59, -1.31635290527343750000e+03) (60, -4.58127197265625000000e+02) (61, 9.28627563476562500000e+02) (62, 5.13781372070312500000e+02) (63, 2.43141307830810546875e+01) (64, -1.49999011230468750000e+03) (65, 1.32649511718750000000e+03) (66, 1.49375988769531250000e+03) (67, 1.46358764648437500000e+03) (68, -1.09363792419433593750e+02) (69, 1.49608410644531250000e+03) (70, -1.13340673828125000000e+03) (71, -9.49670944213867187500e+01) (72, 1.37730212402343750000e+03) (73, 2.85531066894531250000e+02) (74, 2.43347530364990234375e+01) (75, -1.49995654296875000000e+03) (76, 1.32501708984375000000e+03) (77, 1.27979663085937500000e+03) (78, 1.49986254882812500000e+03) (79, -2.65159667968750000000e+02) (80, 1.14727087402343750000e+03) (81, -6.75264221191406250000e+02) (82, -4.58127197265625000000e+02) (83, 7.23416870117187500000e+02) (84, 7.33908004760742187500e+01) (85, 2.42812252044677734375e+01) (86, -1.49985070800781250000e+03) (87, 1.32498229980468750000e+03) (88, 1.42848706054687500000e+03) (89, 1.49980273437500000000e+03) (90, -3.61150390625000000000e+02) (91, -3.38399505615234375000e+02) (92, -4.50446014404296875000e+02) (93, -1.41949377441406250000e+03) (94, 3.46347351074218750000e+02) (95, 5.78641845703125000000e+02) (96, 2.43109188079833984375e+01) (97, -1.46136584472656250000e+03) (98, 1.44109802246093750000e+03) (99, 2.43271999359130859375e+01) (0, -1.49999902343750000000e+03) (1, -1.29878503417968750000e+03) (2, 1.49999963378906250000e+03) (3, 1.50000000000000000000e+03) (4, 1.49999987792968750000e+03) (5, 1.50000000000000000000e+03) (6, 1.50000000000000000000e+03) (7, 1.49997924804687500000e+03) (8, -1.17898437500000000000e+02) (9, 1.49999926757812500000e+03) (10, 8.36166320800781250000e+02) (11, -1.49999902343750000000e+03) (12, -1.48062072753906250000e+03) (13, 1.49999963378906250000e+03) (14, 1.50000000000000000000e+03) (15, 1.49999987792968750000e+03) (16, 1.49999987792968750000e+03) (17, 1.50000000000000000000e+03) (18, 1.48500000000000000000e+03) (19, -1.17718147277832031250e+02) (20, 1.49999987792968750000e+03) (21, -1.55931076049804687500e+02) (22, -1.49990173339843750000e+03) (23, -1.43910253906250000000e+03) (24, 1.49999963378906250000e+03) (25, 1.50000000000000000000e+03) (26, 1.49999987792968750000e+03) (27, 1.49999987792968750000e+03) (28, 1.50000000000000000000e+03) (29, 1.49999951171875000000e+03) (30, -1.17734207153320312500e+02) (31, 1.49999987792968750000e+03) (32, -1.47732092285156250000e+03) (33, -1.49969445800781250000e+03) (34, -1.47549841308593750000e+03) (35, 1.49999963378906250000e+03) (36, 1.49999987792968750000e+03) (37, 1.49999987792968750000e+03) (38, 1.49999987792968750000e+03) (39, 1.50000000000000000000e+03) (40, 1.49997924804687500000e+03) (41, -1.17820205688476562500e+02) (42, 1.49999987792968750000e+03) (43, 9.39520202636718750000e+02) (44, -1.49985485839843750000e+03) (45, -1.49992834472656250000e+03) (46, 1.49999963378906250000e+03) (47, 1.49999987792968750000e+03) (48, 1.49999987792968750000e+03) (49, 1.49999987792968750000e+03) (50, 1.50000000000000000000e+03) (51, 1.49999951171875000000e+03) (52, -1.17801284790039062500e+02) (53, 1.35710888671875000000e+03) (54, 6.42609191894531250000e+02) (55, -1.44302661132812500000e+03) (56, -1.49608435058593750000e+03) (57, 1.49999963378906250000e+03) (58, 1.50000000000000000000e+03) (59, 1.49999987792968750000e+03) (60, 1.49999987792968750000e+03) (61, 1.50000000000000000000e+03) (62, 1.49999987792968750000e+03) (63, -1.17802734375000000000e+02) (64, 1.49999951171875000000e+03) (65, -1.49986987304687500000e+03) (66, -1.49999487304687500000e+03) (67, -1.49457385253906250000e+03) (68, 1.49999963378906250000e+03) (69, 1.49979943847656250000e+03) (70, 1.49999963378906250000e+03) (71, 1.49999987792968750000e+03) (72, 1.50000000000000000000e+03) (73, 1.49999987792968750000e+03) (74, -1.17714927673339843750e+02) (75, 1.49999987792968750000e+03) (76, -1.49963549804687500000e+03) (77, -1.49064855957031250000e+03) (78, -1.43000000000000000000e+03) (79, 1.49999963378906250000e+03) (80, 1.49552917480468750000e+03) (81, 1.49999963378906250000e+03) (82, 1.49999987792968750000e+03) (83, 1.50000000000000000000e+03) (84, 1.49999987792968750000e+03) (85, -1.17793861389160156250e+02) (86, 1.49999792480468750000e+03) (87, -1.47577343750000000000e+03) (88, -1.48613977050781250000e+03) (89, -1.49618969726562500000e+03) (90, 1.49999865722656250000e+03) (91, 1.48927001953125000000e+03) (92, 1.49999963378906250000e+03) (93, 1.49999987792968750000e+03) (94, 1.50000000000000000000e+03) (95, 1.49999987792968750000e+03) (96, -1.17754173278808593750e+02) (97, 1.49999987792968750000e+03) (98, -1.50000000000000000000e+03) (99, -1.17825538635253906250e+02) (0, 1.42542846679687500000e+03) (1, 1.49966357421875000000e+03) (2, 1.34518432617187500000e+03) (3, -1.45486645507812500000e+03) (4, 1.37468261718750000000e+03) (5, -1.24411096191406250000e+03) (6, 3.88345581054687500000e+02) (7, -5.02019531250000000000e+02) (8, 3.56133162975311279297e-01) (9, 1.30046936035156250000e+03) (10, -8.39787292480468750000e+02) (11, 1.45311743164062500000e+03) (12, 2.30384338378906250000e+02) (13, 1.49999645996093750000e+03) (14, -1.48214172363281250000e+03) (15, 7.53267883300781250000e+02) (16, -1.36928613281250000000e+03) (17, 3.64421203613281250000e+02) (18, -5.52376831054687500000e+02) (19, 3.52396607398986816406e-01) (20, 2.27781372070312500000e+01) (21, -3.44554718017578125000e+02) (22, 1.31808081054687500000e+03) (23, -1.34867480468750000000e+03) (24, 1.29929626464843750000e+03) (25, -1.87796203613281250000e+02) (26, 1.20984057617187500000e+03) (27, -1.41780187988281250000e+03) (28, -1.49557836914062500000e+03) (29, -1.36786889648437500000e+03) (30, 4.08328354358673095703e-01) (31, 1.90870971679687500000e+02) (32, -2.09025985717773437500e+02) (33, 3.87852691650390625000e+02) (34, 1.43808532714843750000e+03) (35, 1.49355822753906250000e+03) (36, 3.96378631591796875000e+02) (37, 1.49999645996093750000e+03) (38, -1.45083398437500000000e+03) (39, -1.49825451660156250000e+03) (40, -1.01163842773437500000e+03) (41, 4.46284025907516479492e-01) (42, -4.85484741210937500000e+02) (43, 1.49289062500000000000e+03) (44, 1.41063781738281250000e+03) (45, 1.49071911621093750000e+03) (46, 1.49731518554687500000e+03) (47, 1.12464782714843750000e+03) (48, 1.49999645996093750000e+03) (49, -1.45083398437500000000e+03) (50, 1.43584213256835937500e+02) (51, -1.36527673339843750000e+03) (52, 1.45541444420814514160e-01) (53, -2.05243576049804687500e+02) (54, 1.25716113281250000000e+03) (55, 1.38840417480468750000e+03) (56, 1.38952868652343750000e+03) (57, 1.49731518554687500000e+03) (58, 1.26559924316406250000e+03) (59, 1.49999645996093750000e+03) (60, -1.46849304199218750000e+03) (61, 1.27054162597656250000e+03) (62, -1.34843750000000000000e+03) (63, 8.33374112844467163086e-02) (64, -6.11881347656250000000e+02) (65, 1.33660864257812500000e+03) (66, -1.47155700683593750000e+03) (67, 1.42693212890625000000e+03) (68, 1.49731518554687500000e+03) (69, 1.24118518066406250000e+03) (70, 1.49999645996093750000e+03) (71, -1.46849304199218750000e+03) (72, 1.48745141601562500000e+03) (73, -1.41763684082031250000e+03) (74, 2.57445484399795532227e-01) (75, 2.79623279571533203125e+01) (76, 9.02373901367187500000e+02) (77, -1.39640405273437500000e+03) (78, 1.38317785644531250000e+03) (79, 1.49347204589843750000e+03) (80, 6.23147644042968750000e+02) (81, 1.49970751953125000000e+03) (82, -1.45168432617187500000e+03) (83, 1.48310412597656250000e+03) (84, -1.41274340820312500000e+03) (85, 1.20940469205379486084e-01) (86, -8.31115783691406250000e+02) (87, -4.12591949462890625000e+02) (88, -1.49998950195312500000e+03) (89, 1.49807727050781250000e+03) (90, 1.49347204589843750000e+03) (91, 1.51077941894531250000e+02) (92, 1.49654553222656250000e+03) (93, -1.45586022949218750000e+03) (94, 1.41601794433593750000e+03) (95, -1.44974389648437500000e+03) (96, 2.51312494277954101562e-01) (97, 1.45986474609375000000e+03) (98, -4.20782989501953125000e+02) (99, 3.73793900012969970703e-01) (0, -1.49989624023437500000e+03) (1, -1.50000000000000000000e+03) (2, 8.64020507812500000000e+02) (3, 1.50000000000000000000e+03) (4, 1.48378112792968750000e+03) (5, 1.50000000000000000000e+03) (6, 1.49999975585937500000e+03) (7, 1.50000000000000000000e+03) (8, 8.36725082397460937500e+01) (9, 1.50000000000000000000e+03) (10, -1.50000000000000000000e+03) (11, -1.33206604003906250000e+03) (12, -1.47500000000000000000e+03) (13, -1.46730392456054687500e+02) (14, 1.47000000000000000000e+03) (15, 1.49239135742187500000e+03) (16, 1.50000000000000000000e+03) (17, 1.49999938964843750000e+03) (18, 1.50000000000000000000e+03) (19, 8.35787506103515625000e+01) (20, -7.89093994140625000000e+02) (21, -1.50000000000000000000e+03) (22, -1.49856689453125000000e+03) (23, -1.50000000000000000000e+03) (24, -4.17544525146484375000e+02) (25, -8.72793518066406250000e+02) (26, 1.49435144042968750000e+03) (27, 1.50000000000000000000e+03) (28, 1.49999938964843750000e+03) (29, 1.50000000000000000000e+03) (30, 8.37286758422851562500e+01) (31, -3.92292633056640625000e+02) (32, -1.50000000000000000000e+03) (33, -1.43102416992187500000e+03) (34, -1.50000000000000000000e+03) (35, -1.46423864746093750000e+03) (36, -1.18534069824218750000e+03) (37, 7.06345581054687500000e+02) (38, 1.50000000000000000000e+03) (39, 1.49999987792968750000e+03) (40, 1.50000000000000000000e+03) (41, 8.37033157348632812500e+01) (42, 1.49982373046875000000e+03) (43, -1.50000000000000000000e+03) (44, -1.45507067871093750000e+03) (45, -1.50000000000000000000e+03) (46, -1.42078784179687500000e+03) (47, -1.36352502441406250000e+03) (48, 8.58782714843750000000e+02) (49, 1.50000000000000000000e+03) (50, -1.48358605957031250000e+03) (51, 1.50000000000000000000e+03) (52, 8.36432723999023437500e+01) (53, 1.49999572753906250000e+03) (54, -1.50000000000000000000e+03) (55, -1.49840710449218750000e+03) (56, -1.50000000000000000000e+03) (57, -1.27751953125000000000e+03) (58, -4.08960601806640625000e+02) (59, -2.81348693847656250000e+02) (60, 1.50000000000000000000e+03) (61, 9.81199218750000000000e+02) (62, 1.50000000000000000000e+03) (63, 8.37301559448242187500e+01) (64, 1.49890527343750000000e+03) (65, -1.50000000000000000000e+03) (66, -1.42623266601562500000e+03) (67, -1.50000000000000000000e+03) (68, -1.19925048828125000000e+03) (69, -8.91043029785156250000e+02) (70, -1.46293151855468750000e+03) (71, 1.50000000000000000000e+03) (72, 1.47840600585937500000e+03) (73, 1.50000000000000000000e+03) (74, 8.36799011230468750000e+01) (75, 1.49425927734375000000e+03) (76, -1.50000000000000000000e+03) (77, -1.28836401367187500000e+03) (78, -1.50000000000000000000e+03) (79, -1.20609033203125000000e+03) (80, -1.44908190917968750000e+03) (81, -1.31139855957031250000e+03) (82, 1.50000000000000000000e+03) (83, 1.48927636718750000000e+03) (84, 1.50000000000000000000e+03) (85, 8.35606994628906250000e+01) (86, 2.53719345092773437500e+02) (87, -1.50000000000000000000e+03) (88, -1.46717065429687500000e+03) (89, -1.50000000000000000000e+03) (90, -1.25119250488281250000e+03) (91, -1.42704516601562500000e+03) (92, -1.30264428710937500000e+03) (93, 1.50000000000000000000e+03) (94, 1.47769067382812500000e+03) (95, 1.50000000000000000000e+03) (96, 8.66715850830078125000e+01) (97, 1.49721447753906250000e+03) (98, -1.50000000000000000000e+03) (99, 8.37086410522460937500e+01) (0, 1.41099572753906250000e+03) (1, -1.32048437500000000000e+03) (2, 1.14425939941406250000e+03) (3, 1.44913525390625000000e+03) (4, -2.56629821777343750000e+02) (5, 1.50000000000000000000e+03) (6, 1.44753662109375000000e+02) (7, 1.50000000000000000000e+03) (8, 2.14174866676330566406e+00) (9, 3.91310241699218750000e+02) (10, -4.12530700683593750000e+02) (11, 1.49717871093750000000e+03) (12, -4.15728393554687500000e+02) (13, 3.94465911865234375000e+02) (14, 1.44332666015625000000e+03) (15, -1.38682812500000000000e+03) (16, 1.50000000000000000000e+03) (17, 1.40811254882812500000e+03) (18, 1.50000000000000000000e+03) (19, 2.03678369522094726562e+00) (20, 1.49986389160156250000e+03) (21, 1.93872108459472656250e+01) (22, 1.50000000000000000000e+03) (23, -1.07873925781250000000e+03) (24, 4.36824981689453125000e+02) (25, 1.48969396972656250000e+03) (26, -1.35935192871093750000e+03) (27, 1.50000000000000000000e+03) (28, 1.48435205078125000000e+03) (29, 1.50000000000000000000e+03) (30, 2.20092940330505371094e+00) (31, 1.49924755859375000000e+03) (32, 1.92255496978759765625e+01) (33, 1.01169647216796875000e+03) (34, -1.38683447265625000000e+03) (35, 1.49275000000000000000e+03) (36, 1.48910571289062500000e+03) (37, -1.34014868164062500000e+03) (38, 1.50000000000000000000e+03) (39, 1.49191357421875000000e+03) (40, 1.50000000000000000000e+03) (41, 2.16062593460083007812e+00) (42, 5.15486816406250000000e+02) (43, -1.19000988769531250000e+03) (44, 1.48491894531250000000e+03) (45, -1.49384204101562500000e+03) (46, 1.46154968261718750000e+03) (47, 1.48705419921875000000e+03) (48, -1.24019384765625000000e+03) (49, 1.50000000000000000000e+03) (50, 1.49662646484375000000e+03) (51, 1.50000000000000000000e+03) (52, 2.02582621574401855469e+00) (53, -7.36439697265625000000e+02) (54, -4.11801940917968750000e+02) (55, 7.71606750488281250000e+02) (56, -1.49807800292968750000e+03) (57, 9.53967590332031250000e+02) (58, 1.48840258789062500000e+03) (59, -6.33951354980468750000e+02) (60, 1.50000000000000000000e+03) (61, 1.32026293945312500000e+03) (62, 1.50000000000000000000e+03) (63, 2.09984755516052246094e+00) (64, -1.47490075683593750000e+03) (65, -8.77379760742187500000e+02) (66, 1.48558593750000000000e+03) (67, -1.42743786621093750000e+03) (68, 1.46143969726562500000e+03) (69, 1.48839062500000000000e+03) (70, 1.49282897949218750000e+03) (71, 1.50000000000000000000e+03) (72, 1.45794641113281250000e+03) (73, 1.50000000000000000000e+03) (74, 2.15533113479614257812e+00) (75, 1.38663537597656250000e+03) (76, -8.14560241699218750000e+02) (77, 1.50000000000000000000e+03) (78, -1.10534228515625000000e+03) (79, 5.16679748535156250000e+02) (80, 1.45660998535156250000e+03) (81, 1.04976831054687500000e+03) (82, 1.50000000000000000000e+03) (83, 1.49879187011718750000e+03) (84, 1.50000000000000000000e+03) (85, 2.19160079956054687500e+00) (86, 1.49282055664062500000e+03) (87, -4.74331726074218750000e+02) (88, 1.50000000000000000000e+03) (89, -1.49755224609375000000e+03) (90, 1.39913110351562500000e+03) (91, 1.42508312988281250000e+03) (92, 1.48395935058593750000e+03) (93, 1.50000000000000000000e+03) (94, 1.49998461914062500000e+03) (95, 1.50000000000000000000e+03) (96, 2.05268836021423339844e+00) (97, 8.65627258300781250000e+02) (98, -4.73635620117187500000e+02) (99, 2.22024774551391601562e+00) (0, -1.07369311523437500000e+03) (1, 1.50000000000000000000e+03) (2, -6.71592163085937500000e+02) (3, 1.49993579101562500000e+03) (4, -2.55297103881835937500e+02) (5, 1.12830126953125000000e+03) (6, 1.50000000000000000000e+03) (7, 1.26296423339843750000e+03) (8, 2.89099540710449218750e+01) (9, 1.48949377441406250000e+03) (10, -1.44775866699218750000e+03) (11, -6.86733779907226562500e+01) (12, -1.47676098632812500000e+03) (13, -1.49687744140625000000e+03) (14, 1.49999328613281250000e+03) (15, -1.49916699218750000000e+03) (16, 1.43359814453125000000e+03) (17, 1.50000000000000000000e+03) (18, 1.49698815917968750000e+03) (19, 2.90221481323242187500e+01) (20, 1.49945495605468750000e+03) (21, -1.45528356933593750000e+03) (22, 1.49996899414062500000e+03) (23, -4.01514373779296875000e+02) (24, -1.49687475585937500000e+03) (25, 1.49999768066406250000e+03) (26, -1.49916894531250000000e+03) (27, 1.37576989746093750000e+03) (28, 1.19996887207031250000e+03) (29, 1.02784594726562500000e+03) (30, 2.90564842224121093750e+01) (31, 6.45686584472656250000e+02) (32, -1.46493469238281250000e+03) (33, 1.49997351074218750000e+03) (34, -1.48756872558593750000e+03) (35, -1.49549084472656250000e+03) (36, 1.49999975585937500000e+03) (37, -1.49818188476562500000e+03) (38, 1.35357238769531250000e+03) (39, 1.07878393554687500000e+03) (40, 1.02139093017578125000e+03) (41, 2.89755821228027343750e+01) (42, 5.65861938476562500000e+02) (43, -1.21695263671875000000e+03) (44, -1.38352563476562500000e+03) (45, -1.40074169921875000000e+03) (46, -1.47605053710937500000e+03) (47, 1.49999987792968750000e+03) (48, -1.49818212890625000000e+03) (49, 1.16345568847656250000e+03) (50, 1.30100817871093750000e+03) (51, 1.01901940917968750000e+03) (52, 2.89385643005371093750e+01) (53, 1.49998364257812500000e+03) (54, -1.38931896972656250000e+03) (55, 1.49954699707031250000e+03) (56, 1.50000000000000000000e+03) (57, -1.29400927734375000000e+03) (58, 1.49999987792968750000e+03) (59, -1.49579492187500000000e+03) (60, 1.35541088867187500000e+03) (61, -1.42189343261718750000e+03) (62, 1.01776055908203125000e+03) (63, 2.89612159729003906250e+01) (64, -1.45405212402343750000e+03) (65, -1.43424426269531250000e+03) (66, 1.49537780761718750000e+03) (67, 1.50000000000000000000e+03) (68, -1.68523315429687500000e+02) (69, 1.49999987792968750000e+03) (70, -1.49002246093750000000e+03) (71, 8.61797363281250000000e+02) (72, -1.46009973144531250000e+03) (73, 9.76485473632812500000e+02) (74, 2.90117588043212890625e+01) (75, 3.36219635009765625000e+02) (76, -1.33023950195312500000e+03) (77, 1.46438378906250000000e+03) (78, -1.49532434082031250000e+03) (79, 1.20273901367187500000e+03) (80, 1.49999340820312500000e+03) (81, -1.47609301757812500000e+03) (82, 5.17890136718750000000e+02) (83, -3.11817047119140625000e+02) (84, 1.28161584472656250000e+03) (85, 2.90241756439208984375e+01) (86, 5.23268013000488281250e+01) (87, -1.47532763671875000000e+03) (88, 1.47873754882812500000e+03) (89, -1.48819726562500000000e+03) (90, 8.59130554199218750000e+02) (91, 1.49999975585937500000e+03) (92, -1.46394201660156250000e+03) (93, 1.44897290039062500000e+03) (94, -1.80106216430664062500e+02) (95, 9.87083618164062500000e+02) (96, 2.90012035369873046875e+01) (97, 1.49858068847656250000e+03) (98, -1.48136413574218750000e+03) (99, 2.89851093292236328125e+01) (100, 4.86063182353973388672e-01) (101, 1.33167172316461801529e-03) (102, 8.21606162935495376587e-03) (103, -5.88627338409423828125e-01) (104, -4.51708491891622543335e-03) (105, 7.56655354052782058716e-03) (106, -9.67692583799362182617e-04) (107, -3.53857479058206081390e-03) (108, -1.52750406414270401001e-03) (109, 3.55005171149969100952e-03) (110, -6.33516013622283935547e-01) (100, 6.12315297126770019531e-01) (101, 1.57053011935204267502e-03) (102, -3.59327415935695171356e-03) (103, 8.15893888473510742188e-01) (104, -1.80578930303454399109e-03) (105, 8.77864751964807510376e-03) (106, -4.30280168075114488602e-04) (107, 4.23212535679340362549e-03) (108, -4.69220249215140938759e-04) (109, 3.56374977855011820793e-04) (110, 6.04236498475074768066e-02) 
