FANN_FLO_2.1
num_layers=3
learning_rate=0.700000
connection_rate=1.000000
network_type=0
learning_momentum=0.000000
training_algorithm=2
train_error_function=1
train_stop_function=0
cascade_output_change_fraction=0.010000
quickprop_decay=-0.000100
quickprop_mu=1.750000
rprop_increase_factor=1.200000
rprop_decrease_factor=0.500000
rprop_delta_min=0.000000
rprop_delta_max=50.000000
rprop_delta_zero=0.100000
cascade_output_stagnation_epochs=12
cascade_candidate_change_fraction=0.010000
cascade_candidate_stagnation_epochs=12
cascade_max_out_epochs=150
cascade_max_cand_epochs=150
cascade_num_candidate_groups=2
bit_fail_limit=3.49999994039535522461e-01
cascade_candidate_limit=1.00000000000000000000e+03
cascade_weight_multiplier=4.00000005960464477539e-01
cascade_activation_functions_count=10
cascade_activation_functions=3 5 7 8 10 11 14 15 16 17 
cascade_activation_steepnesses_count=4
cascade_activation_steepnesses=2.50000000000000000000e-01 5.00000000000000000000e-01 7.50000000000000000000e-01 1.00000000000000000000e+00 
layer_sizes=49 11 3 
scale_included=0
neurons (num_inputs, activation_function, activation_steepness)=(0, 0, 0.00000000000000000000e+00) (0, 0, 0.00000000000000000000e+00) (0, 0, 0.00000000000000000000e+00) (0, 0, 0.00000000000000000000e+00) (0, 0, 0.00000000000000000000e+00) (0, 0, 0.00000000000000000000e+00) (0, 0, 0.00000000000000000000e+00) (0, 0, 0.00000000000000000000e+00) (0, 0, 0.00000000000000000000e+00) (0, 0, 0.00000000000000000000e+00) (0, 0, 0.00000000000000000000e+00) (0, 0, 0.00000000000000000000e+00) (0, 0, 0.00000000000000000000e+00) (0, 0, 0.00000000000000000000e+00) (0, 0, 0.00000000000000000000e+00) (0, 0, 0.00000000000000000000e+00) (0, 0, 0.00000000000000000000e+00) (0, 0, 0.00000000000000000000e+00) (0, 0, 0.00000000000000000000e+00) (0, 0, 0.00000000000000000000e+00) (0, 0, 0.00000000000000000000e+00) (0, 0, 0.00000000000000000000e+00) (0, 0, 0.00000000000000000000e+00) (0, 0, 0.00000000000000000000e+00) (0, 0, 0.00000000000000000000e+00) (0, 0, 0.00000000000000000000e+00) (0, 0, 0.00000000000000000000e+00) (0, 0, 0.00000000000000000000e+00) (0, 0, 0.00000000000000000000e+00) (0, 0, 0.00000000000000000000e+00) (0, 0, 0.00000000000000000000e+00) (0, 0, 0.00000000000000000000e+00) (0, 0, 0.00000000000000000000e+00) (0, 0, 0.00000000000000000000e+00) (0, 0, 0.00000000000000000000e+00) (0, 0, 0.00000000000000000000e+00) (0, 0, 0.00000000000000000000e+00) (0, 0, 0.00000000000000000000e+00) (0, 0, 0.00000000000000000000e+00) (0, 0, 0.00000000000000000000e+00) (0, 0, 0.00000000000000000000e+00) (0, 0, 0.00000000000000000000e+00) (0, 0, 0.00000000000000000000e+00) (0, 0, 0.00000000000000000000e+00) (0, 0, 0.00000000000000000000e+00) (0, 0, 0.00000000000000000000e+00) (0, 0, 0.00000000000000000000e+00) (0, 0, 0.00000000000000000000e+00) (0, 0, 0.00000000000000000000e+00) (49, 5, 5.00000000000000000000e-01) (49, 5, 5.00000000000000000000e-01) (49, 5, 5.00000000000000000000e-01) (49, 5, 5.00000000000000000000e-01) (49, 5, 5.00000000000000000000e-01) (49, 5, 5.00000000000000000000e-01) (49, 5, 5.00000000000000000000e-01) (49, 5, 5.00000000000000000000e-01) (49, 5, 5.00000000000000000000e-01) (49, 5, 5.00000000000000000000e-01) (0, 5, 0.00000000000000000000e+00) (11, 11, 5.00000000000000000000e-01) (11, 11, 5.00000000000000000000e-01) (0, 11, 0.00000000000000000000e+00) 
connections (connected_to_neuron, weight)=(0, 7.52371430397033691406e-01) (1, -1.89928874969482421875e+01) (2, 7.58992612361907958984e-01) (3, -1.69988365173339843750e+01) (4, 7.96499013900756835938e-01) (5, -1.76146331787109375000e+02) (6, 8.55784714221954345703e-01) (7, -1.12825193405151367188e+01) (8, 7.46580898761749267578e-01) (9, 8.42674026489257812500e+01) (10, 8.71154069900512695312e-01) (11, 2.15674457550048828125e+01) (12, 8.24494481086730957031e-01) (13, -3.88017463684082031250e+01) (14, 9.43603456020355224609e-01) (15, -7.34807891845703125000e+01) (16, 8.70860636234283447266e-01) (17, -1.80718345642089843750e+01) (18, 9.03607964515686035156e-01) (19, 2.26350288391113281250e+01) (20, 1.00893151760101318359e+00) (21, -5.31587944030761718750e+01) (22, 9.49314475059509277344e-01) (23, -5.85575370788574218750e+01) (24, 8.41932177543640136719e-01) (25, -1.61637821197509765625e+01) (26, 8.78129839897155761719e-01) (27, -5.23048782348632812500e+00) (28, 9.21962738037109375000e-01) (29, 3.64467391967773437500e+01) (30, 1.01486408710479736328e+00) (31, 8.82069015502929687500e+00) (32, 8.44838440418243408203e-01) (33, 1.32565107345581054688e+01) (34, 7.83212900161743164062e-01) (35, -6.11209640502929687500e+01) (36, 9.09519314765930175781e-01) (37, 1.68104690551757812500e+02) (38, 9.71965253353118896484e-01) (39, -1.91032484173774719238e-01) (40, 9.61141645908355712891e-01) (41, -2.85681390762329101562e+00) (42, 7.77993679046630859375e-01) (43, 2.66979670524597167969e+00) (44, 8.43247354030609130859e-01) (45, 5.67836093902587890625e+00) (46, 9.35671210289001464844e-01) (47, 2.21991100311279296875e+01) (48, 1.00283646583557128906e+00) (0, 7.76857912540435791016e-01) (1, 1.29915420532226562500e+02) (2, 1.53666329383850097656e+00) (3, -1.11448013305664062500e+02) (4, 1.43908214569091796875e+00) (5, -1.32748458862304687500e+02) (6, 2.37894034385681152344e+00) (7, -7.19243240356445312500e+01) (8, 8.53290498256683349609e-01) (9, -5.49414014816284179688e+00) (10, 1.45256459712982177734e+00) (11, 3.95008163452148437500e+01) (12, 1.42809140682220458984e+00) (13, -8.63328399658203125000e+01) (14, 2.26113629341125488281e+00) (15, 5.60482559204101562500e+01) (16, 8.61735641956329345703e-01) (17, -4.91909370422363281250e+01) (18, 1.48250484466552734375e+00) (19, -1.17658767700195312500e+01) (20, 1.57966387271881103516e+00) (21, -1.99403305053710937500e+02) (22, 2.36210823059082031250e+00) (23, -4.69786357879638671875e+00) (24, 1.42525827884674072266e+00) (25, 4.84391822814941406250e+01) (26, 1.43796360492706298828e+00) (27, -3.38407731056213378906e+00) (28, 1.41728544235229492188e+00) (29, 9.08442230224609375000e+01) (30, 2.33303523063659667969e+00) (31, -6.28085136413574218750e+01) (32, 1.54844415187835693359e+00) (33, -6.24743652343750000000e+01) (34, 1.51674485206604003906e+00) (35, -3.83278007507324218750e+01) (36, 2.28095030784606933594e+00) (37, 1.65187316894531250000e+02) (38, 2.36576342582702636719e+00) (39, -3.69581222534179687500e+01) (40, 2.32496833801269531250e+00) (41, -3.69477462768554687500e+01) (42, 1.45623922348022460938e+00) (43, -3.69612007141113281250e+01) (44, 2.33131885528564453125e+00) (45, 1.69555604457855224609e+00) (46, 2.34716010093688964844e+00) (47, -2.67658066749572753906e+00) (48, 2.34375023841857910156e+00) (0, 1.50000000000000000000e+03) (1, 1.50000000000000000000e+03) (2, 1.50000000000000000000e+03) (3, 1.50000000000000000000e+03) (4, 1.50000000000000000000e+03) (5, 1.50000000000000000000e+03) (6, 1.50000000000000000000e+03) (7, 1.50000000000000000000e+03) (8, 1.50000000000000000000e+03) (9, 1.50000000000000000000e+03) (10, 1.50000000000000000000e+03) (11, 1.50000000000000000000e+03) (12, 1.50000000000000000000e+03) (13, 1.50000000000000000000e+03) (14, 1.50000000000000000000e+03) (15, 1.50000000000000000000e+03) (16, 1.50000000000000000000e+03) (17, 1.50000000000000000000e+03) (18, 1.50000000000000000000e+03) (19, 1.50000000000000000000e+03) (20, 1.50000000000000000000e+03) (21, 1.50000000000000000000e+03) (22, 1.50000000000000000000e+03) (23, 1.50000000000000000000e+03) (24, 1.50000000000000000000e+03) (25, 1.50000000000000000000e+03) (26, 1.50000000000000000000e+03) (27, 1.50000000000000000000e+03) (28, 1.50000000000000000000e+03) (29, 1.50000000000000000000e+03) (30, 1.50000000000000000000e+03) (31, 1.50000000000000000000e+03) (32, 1.50000000000000000000e+03) (33, 1.50000000000000000000e+03) (34, 1.50000000000000000000e+03) (35, 1.50000000000000000000e+03) (36, 1.50000000000000000000e+03) (37, 1.50000000000000000000e+03) (38, 1.50000000000000000000e+03) (39, 1.50000000000000000000e+03) (40, 1.50000000000000000000e+03) (41, 1.50000000000000000000e+03) (42, 1.50000000000000000000e+03) (43, 1.50000000000000000000e+03) (44, 1.50000000000000000000e+03) (45, 1.50000000000000000000e+03) (46, 1.50000000000000000000e+03) (47, 1.50000000000000000000e+03) (48, 1.50000000000000000000e+03) (0, -1.12539186477661132812e+01) (1, 5.22954223632812500000e+02) (2, -3.47352752685546875000e+01) (3, -1.50000000000000000000e+03) (4, -1.12524013519287109375e+01) (5, -1.27320239257812500000e+03) (6, -1.36987047195434570312e+01) (7, -1.47313366699218750000e+03) (8, -1.21870317459106445312e+01) (9, 1.50000000000000000000e+03) (10, -1.18170051574707031250e+01) (11, -3.17257110595703125000e+02) (12, -1.12750530242919921875e+01) (13, -9.08909606933593750000e+02) (14, -3.44404869079589843750e+01) (15, -1.08906311035156250000e+03) (16, -1.49999523925781250000e+03) (17, -1.49952783203125000000e+03) (18, -1.16768722534179687500e+01) (19, -1.49981103515625000000e+03) (20, -1.13452892303466796875e+01) (21, -3.50584289550781250000e+02) (22, -3.42580871582031250000e+01) (23, -9.67969909667968750000e+02) (24, -1.71346893310546875000e+01) (25, -1.48912878417968750000e+03) (26, -1.13645057678222656250e+01) (27, -5.70289306640625000000e+02) (28, -1.13154306411743164062e+01) (29, -1.13434973144531250000e+03) (30, -3.44346809387207031250e+01) (31, -1.49809997558593750000e+03) (32, -1.64529094696044921875e+01) (33, -1.49952636718750000000e+03) (34, -1.12722330093383789062e+01) (35, -9.35825378417968750000e+02) (36, -2.89084568023681640625e+01) (37, -1.14618762207031250000e+03) (38, -3.37743453979492187500e+01) (39, -2.95624656677246093750e+01) (40, -1.38304309844970703125e+01) (41, -1.50000000000000000000e+03) (42, -1.13610916137695312500e+01) (43, -1.50000000000000000000e+03) (44, -3.11469402313232421875e+01) (45, 4.71574287414550781250e+01) (46, -3.39177665710449218750e+01) (47, 5.82443542480468750000e+02) (48, -7.93116149902343750000e+01) (0, -5.49275092780590057373e-02) (1, 8.51948547363281250000e+00) (2, -4.88062165677547454834e-02) (3, -6.51349648833274841309e-02) (4, 1.31044074892997741699e-01) (5, 3.78416967391967773438e+00) (6, -7.17235496267676353455e-03) (7, 9.65919613838195800781e-01) (8, -6.99159875512123107910e-02) (9, 4.67554473876953125000e+00) (10, 3.78778725862503051758e-02) (11, 2.37199850380420684814e-02) (12, 1.10237635672092437744e-01) (13, 1.41064965724945068359e+00) (14, -4.06176559627056121826e-02) (15, -3.62959480285644531250e+00) (16, 1.40588702633976936340e-02) (17, -1.35261431336402893066e-01) (18, 8.19871798157691955566e-02) (19, 2.60180383920669555664e-01) (20, 4.48325946927070617676e-02) (21, 1.04342207312583923340e-01) (22, 9.51293036341667175293e-02) (23, -2.37734597176313400269e-02) (24, 4.83988933265209197998e-02) (25, -6.02326869964599609375e-01) (26, -5.04396967589855194092e-02) (27, 3.44103008508682250977e-01) (28, 3.20757701992988586426e-02) (29, -1.93702578544616699219e+00) (30, 6.03267364203929901123e-02) (31, 8.05731773376464843750e-01) (32, 1.14920012652873992920e-01) (33, -2.81101226806640625000e-01) (34, 8.84639024734497070312e-02) (35, 3.22846025228500366211e-01) (36, 8.46761986613273620605e-02) (37, -8.79764974117279052734e-01) (38, 5.74170835316181182861e-02) (39, 5.57060301303863525391e-01) (40, 1.01320363581180572510e-01) (41, 7.45455622673034667969e-02) (42, 1.67113430798053741455e-02) (43, 6.27682030200958251953e-01) (44, -5.19173033535480499268e-02) (45, 5.42274583131074905396e-03) (46, 2.71242414601147174835e-03) (47, 6.13274872303009033203e-01) (48, -2.45985598303377628326e-03) (0, 1.50000000000000000000e+03) (1, 1.50000000000000000000e+03) (2, 1.50000000000000000000e+03) (3, 1.50000000000000000000e+03) (4, 1.50000000000000000000e+03) (5, 1.50000000000000000000e+03) (6, 1.50000000000000000000e+03) (7, 1.50000000000000000000e+03) (8, 1.50000000000000000000e+03) (9, 1.50000000000000000000e+03) (10, 1.50000000000000000000e+03) (11, 1.50000000000000000000e+03) (12, 1.50000000000000000000e+03) (13, 1.50000000000000000000e+03) (14, 1.50000000000000000000e+03) (15, 1.50000000000000000000e+03) (16, 1.50000000000000000000e+03) (17, 1.50000000000000000000e+03) (18, 1.50000000000000000000e+03) (19, 1.50000000000000000000e+03) (20, 1.50000000000000000000e+03) (21, 1.50000000000000000000e+03) (22, 1.50000000000000000000e+03) (23, 1.50000000000000000000e+03) (24, 1.50000000000000000000e+03) (25, 1.50000000000000000000e+03) (26, 1.50000000000000000000e+03) (27, 1.50000000000000000000e+03) (28, 1.50000000000000000000e+03) (29, 1.50000000000000000000e+03) (30, 1.50000000000000000000e+03) (31, 1.50000000000000000000e+03) (32, 1.50000000000000000000e+03) (33, 1.50000000000000000000e+03) (34, 1.50000000000000000000e+03) (35, 1.50000000000000000000e+03) (36, 1.50000000000000000000e+03) (37, 1.50000000000000000000e+03) (38, 1.50000000000000000000e+03) (39, 1.50000000000000000000e+03) (40, 1.50000000000000000000e+03) (41, 1.50000000000000000000e+03) (42, 1.50000000000000000000e+03) (43, 1.50000000000000000000e+03) (44, 1.50000000000000000000e+03) (45, 1.50000000000000000000e+03) (46, 1.50000000000000000000e+03) (47, 1.50000000000000000000e+03) (48, 1.50000000000000000000e+03) (0, 1.53344976902008056641e+00) (1, 1.16988929748535156250e+02) (2, 2.98014950752258300781e+00) (3, -1.50412658691406250000e+02) (4, 2.22857713699340820312e+00) (5, -6.32075988769531250000e+02) (6, 6.93043851852416992188e+00) (7, 6.41214895248413085938e+00) (8, 1.73516869544982910156e+00) (9, 3.60723388671875000000e+02) (10, 6.96353054046630859375e+00) (11, -2.43999908447265625000e+02) (12, 3.51938772201538085938e+00) (13, -2.68863616943359375000e+02) (14, 6.97163295745849609375e+00) (15, -4.56758379936218261719e-01) (16, 9.72054004669189453125e-01) (17, -1.52052490234375000000e+02) (18, 3.65367555618286132812e+00) (19, 4.65071487426757812500e+01) (20, 3.53689432144165039062e+00) (21, -1.18010459899902343750e+02) (22, 7.56217670440673828125e+00) (23, -5.38044128417968750000e+01) (24, 1.69741237163543701172e+00) (25, -9.33489761352539062500e+01) (26, 2.36126875877380371094e+00) (27, 2.67584552764892578125e+01) (28, 3.61357307434082031250e+00) (29, -5.81450462341308593750e+00) (30, 7.60513496398925781250e+00) (31, -2.92439479827880859375e+01) (32, 2.32164716720581054688e+00) (33, -4.12338943481445312500e+01) (34, 2.20522785186767578125e+00) (35, -6.89910888671875000000e+01) (36, 7.07026100158691406250e+00) (37, 1.58878585815429687500e+02) (38, 9.90967273712158203125e+00) (39, 7.68743515014648437500e+00) (40, 3.28534126281738281250e+00) (41, -9.85978622436523437500e+01) (42, 2.28273153305053710938e+00) (43, -8.68745422363281250000e+01) (44, 6.91145086288452148438e+00) (45, 2.56619293212890625000e+02) (46, 7.72894430160522460938e+00) (47, -7.55704069137573242188e+00) (48, 9.91336154937744140625e+00) (0, -4.23604927062988281250e+01) (1, -1.50000000000000000000e+03) (2, -5.90193328857421875000e+01) (3, -1.50000000000000000000e+03) (4, -4.24184875488281250000e+01) (5, -1.50000000000000000000e+03) (6, -4.36232604980468750000e+01) (7, -1.50000000000000000000e+03) (8, -7.09022369384765625000e+01) (9, 4.78029052734375000000e+02) (10, -4.39563636779785156250e+01) (11, -1.50000000000000000000e+03) (12, -4.28913536071777343750e+01) (13, -1.50000000000000000000e+03) (14, -5.88985671997070312500e+01) (15, -1.50000000000000000000e+03) (16, -1.50000000000000000000e+03) (17, -1.50000000000000000000e+03) (18, -4.38235893249511718750e+01) (19, -1.50000000000000000000e+03) (20, -4.28949356079101562500e+01) (21, -1.50000000000000000000e+03) (22, -5.90526199340820312500e+01) (23, -1.50000000000000000000e+03) (24, -2.56477844238281250000e+02) (25, -1.50000000000000000000e+03) (26, -4.29955406188964843750e+01) (27, -1.50000000000000000000e+03) (28, -4.30434036254882812500e+01) (29, -1.50000000000000000000e+03) (30, -5.90536270141601562500e+01) (31, -1.50000000000000000000e+03) (32, -4.77277793884277343750e+01) (33, -1.50000000000000000000e+03) (34, -4.24282646179199218750e+01) (35, -1.50000000000000000000e+03) (36, -4.30138778686523437500e+01) (37, -1.50000000000000000000e+03) (38, -5.90435371398925781250e+01) (39, -1.50000000000000000000e+03) (40, -4.78460578918457031250e+01) (41, -1.50000000000000000000e+03) (42, -4.10503044128417968750e+01) (43, -1.50000000000000000000e+03) (44, -4.78342399597167968750e+01) (45, -1.50000000000000000000e+03) (46, -5.90348243713378906250e+01) (47, -1.50000000000000000000e+03) (48, -8.59876098632812500000e+01) (0, 1.50000000000000000000e+03) (1, 1.50000000000000000000e+03) (2, 1.50000000000000000000e+03) (3, 1.50000000000000000000e+03) (4, 1.50000000000000000000e+03) (5, 1.50000000000000000000e+03) (6, 1.50000000000000000000e+03) (7, 1.50000000000000000000e+03) (8, 1.50000000000000000000e+03) (9, 1.50000000000000000000e+03) (10, 1.50000000000000000000e+03) (11, 1.50000000000000000000e+03) (12, 1.50000000000000000000e+03) (13, 1.50000000000000000000e+03) (14, 1.50000000000000000000e+03) (15, 1.50000000000000000000e+03) (16, 1.50000000000000000000e+03) (17, 1.50000000000000000000e+03) (18, 1.50000000000000000000e+03) (19, 1.50000000000000000000e+03) (20, 1.50000000000000000000e+03) (21, 1.50000000000000000000e+03) (22, 1.50000000000000000000e+03) (23, 1.50000000000000000000e+03) (24, 1.50000000000000000000e+03) (25, 1.50000000000000000000e+03) (26, 1.50000000000000000000e+03) (27, 1.50000000000000000000e+03) (28, 1.50000000000000000000e+03) (29, 1.50000000000000000000e+03) (30, 1.50000000000000000000e+03) (31, 1.50000000000000000000e+03) (32, 1.50000000000000000000e+03) (33, 1.50000000000000000000e+03) (34, 1.50000000000000000000e+03) (35, 1.50000000000000000000e+03) (36, 1.50000000000000000000e+03) (37, 1.50000000000000000000e+03) (38, 1.50000000000000000000e+03) (39, 1.50000000000000000000e+03) (40, 1.50000000000000000000e+03) (41, 1.50000000000000000000e+03) (42, 1.50000000000000000000e+03) (43, 1.50000000000000000000e+03) (44, 1.50000000000000000000e+03) (45, 1.50000000000000000000e+03) (46, 1.50000000000000000000e+03) (47, 1.50000000000000000000e+03) (48, 1.50000000000000000000e+03) (0, 6.44208679199218750000e+02) (1, -1.50000000000000000000e+03) (2, 6.45190429687500000000e+02) (3, -1.50000000000000000000e+03) (4, 6.51794555664062500000e+02) (5, -1.50000000000000000000e+03) (6, 6.56680847167968750000e+02) (7, -1.50000000000000000000e+03) (8, 6.43730346679687500000e+02) (9, -5.20838623046875000000e+01) (10, 6.51755249023437500000e+02) (11, -1.50000000000000000000e+03) (12, 6.51707641601562500000e+02) (13, -1.50000000000000000000e+03) (14, 6.65158081054687500000e+02) (15, -1.50000000000000000000e+03) (16, 6.41760192871093750000e+02) (17, -1.50000000000000000000e+03) (18, 6.46948425292968750000e+02) (19, -1.50000000000000000000e+03) (20, 6.51649902343750000000e+02) (21, -1.50000000000000000000e+03) (22, 6.63751342773437500000e+02) (23, -1.50000000000000000000e+03) (24, 6.43889526367187500000e+02) (25, -1.50000000000000000000e+03) (26, 6.51750732421875000000e+02) (27, -1.50000000000000000000e+03) (28, 6.51606811523437500000e+02) (29, -1.50000000000000000000e+03) (30, 6.52877807617187500000e+02) (31, -1.50000000000000000000e+03) (32, 6.44638793945312500000e+02) (33, -1.50000000000000000000e+03) (34, 6.51656494140625000000e+02) (35, -1.50000000000000000000e+03) (36, 6.56598144531250000000e+02) (37, -1.50000000000000000000e+03) (38, 1.50000000000000000000e+03) (39, -1.50000000000000000000e+03) (40, 7.06406311035156250000e+02) (41, -1.50000000000000000000e+03) (42, 6.51749389648437500000e+02) (43, -1.50000000000000000000e+03) (44, 6.56702758789062500000e+02) (45, -1.50000000000000000000e+03) (46, 6.91945312500000000000e+02) (47, -1.50000000000000000000e+03) (48, 7.48341796875000000000e+02) (49, 1.50000000000000000000e+03) (50, 1.50000000000000000000e+03) (51, 1.50000000000000000000e+03) (52, -1.50000000000000000000e+03) (53, 1.50000000000000000000e+03) (54, 1.50000000000000000000e+03) (55, 1.50000000000000000000e+03) (56, -1.50000000000000000000e+03) (57, 1.50000000000000000000e+03) (58, 1.50000000000000000000e+03) (59, 1.50000000000000000000e+03) (49, 3.59565526247024536133e-01) (50, 3.35668563842773437500e-01) (51, -1.52636855840682983398e-01) (52, 3.84582638740539550781e-01) (53, -3.23849737644195556641e-01) (54, -2.15046167373657226562e-01) (55, 3.81327390670776367188e-01) (56, 3.43072041869163513184e-02) (57, -1.30462944507598876953e-01) (58, 1.80249474942684173584e-02) (59, -5.84626756608486175537e-02) 
