FANN_FLO_2.1
num_layers=3
learning_rate=0.700000
connection_rate=1.000000
network_type=0
learning_momentum=0.000000
training_algorithm=2
train_error_function=1
train_stop_function=0
cascade_output_change_fraction=0.010000
quickprop_decay=-0.000100
quickprop_mu=1.750000
rprop_increase_factor=1.200000
rprop_decrease_factor=0.500000
rprop_delta_min=0.000000
rprop_delta_max=50.000000
rprop_delta_zero=0.100000
cascade_output_stagnation_epochs=12
cascade_candidate_change_fraction=0.010000
cascade_candidate_stagnation_epochs=12
cascade_max_out_epochs=150
cascade_max_cand_epochs=150
cascade_num_candidate_groups=2
bit_fail_limit=3.49999994039535522461e-01
cascade_candidate_limit=1.00000000000000000000e+03
cascade_weight_multiplier=4.00000005960464477539e-01
cascade_activation_functions_count=10
cascade_activation_functions=3 5 7 8 10 11 14 15 16 17 
cascade_activation_steepnesses_count=4
cascade_activation_steepnesses=2.50000000000000000000e-01 5.00000000000000000000e-01 7.50000000000000000000e-01 1.00000000000000000000e+00 
layer_sizes=49 11 3 
scale_included=0
neurons (num_inputs, activation_function, activation_steepness)=(0, 0, 0.00000000000000000000e+00) (0, 0, 0.00000000000000000000e+00) (0, 0, 0.00000000000000000000e+00) (0, 0, 0.00000000000000000000e+00) (0, 0, 0.00000000000000000000e+00) (0, 0, 0.00000000000000000000e+00) (0, 0, 0.00000000000000000000e+00) (0, 0, 0.00000000000000000000e+00) (0, 0, 0.00000000000000000000e+00) (0, 0, 0.00000000000000000000e+00) (0, 0, 0.00000000000000000000e+00) (0, 0, 0.00000000000000000000e+00) (0, 0, 0.00000000000000000000e+00) (0, 0, 0.00000000000000000000e+00) (0, 0, 0.00000000000000000000e+00) (0, 0, 0.00000000000000000000e+00) (0, 0, 0.00000000000000000000e+00) (0, 0, 0.00000000000000000000e+00) (0, 0, 0.00000000000000000000e+00) (0, 0, 0.00000000000000000000e+00) (0, 0, 0.00000000000000000000e+00) (0, 0, 0.00000000000000000000e+00) (0, 0, 0.00000000000000000000e+00) (0, 0, 0.00000000000000000000e+00) (0, 0, 0.00000000000000000000e+00) (0, 0, 0.00000000000000000000e+00) (0, 0, 0.00000000000000000000e+00) (0, 0, 0.00000000000000000000e+00) (0, 0, 0.00000000000000000000e+00) (0, 0, 0.00000000000000000000e+00) (0, 0, 0.00000000000000000000e+00) (0, 0, 0.00000000000000000000e+00) (0, 0, 0.00000000000000000000e+00) (0, 0, 0.00000000000000000000e+00) (0, 0, 0.00000000000000000000e+00) (0, 0, 0.00000000000000000000e+00) (0, 0, 0.00000000000000000000e+00) (0, 0, 0.00000000000000000000e+00) (0, 0, 0.00000000000000000000e+00) (0, 0, 0.00000000000000000000e+00) (0, 0, 0.00000000000000000000e+00) (0, 0, 0.00000000000000000000e+00) (0, 0, 0.00000000000000000000e+00) (0, 0, 0.00000000000000000000e+00) (0, 0, 0.00000000000000000000e+00) (0, 0, 0.00000000000000000000e+00) (0, 0, 0.00000000000000000000e+00) (0, 0, 0.00000000000000000000e+00) (0, 0, 0.00000000000000000000e+00) (49, 5, 5.00000000000000000000e-01) (49, 5, 5.00000000000000000000e-01) (49, 5, 5.00000000000000000000e-01) (49, 5, 5.00000000000000000000e-01) (49, 5, 5.00000000000000000000e-01) (49, 5, 5.00000000000000000000e-01) (49, 5, 5.00000000000000000000e-01) (49, 5, 5.00000000000000000000e-01) (49, 5, 5.00000000000000000000e-01) (49, 5, 5.00000000000000000000e-01) (0, 5, 0.00000000000000000000e+00) (11, 11, 5.00000000000000000000e-01) (11, 11, 5.00000000000000000000e-01) (0, 11, 0.00000000000000000000e+00) 
connections (connected_to_neuron, weight)=(0, 1.50000000000000000000e+03) (1, -1.50000000000000000000e+03) (2, 4.10686492919921875000e+01) (3, 1.50000000000000000000e+03) (4, -1.48854858398437500000e+03) (5, -1.49711645507812500000e+03) (6, -1.48497741699218750000e+03) (7, -1.49724645996093750000e+03) (8, -1.50000000000000000000e+03) (9, 1.50000000000000000000e+03) (10, 1.11715230941772460938e+01) (11, 1.50000000000000000000e+03) (12, -2.20157585144042968750e+01) (13, 1.50000000000000000000e+03) (14, -1.46252050781250000000e+03) (15, 1.50000000000000000000e+03) (16, -1.50000000000000000000e+03) (17, 1.50000000000000000000e+03) (18, 2.63697147369384765625e+00) (19, 1.50000000000000000000e+03) (20, 4.81021928787231445312e+00) (21, -6.81340576171875000000e+02) (22, -1.46251135253906250000e+03) (23, 1.50000000000000000000e+03) (24, 1.50000000000000000000e+03) (25, -1.50000000000000000000e+03) (26, -3.14807772636413574219e+00) (27, 1.50000000000000000000e+03) (28, -1.48818041992187500000e+03) (29, 1.50000000000000000000e+03) (30, -1.46251806640625000000e+03) (31, 1.50000000000000000000e+03) (32, -1.50000000000000000000e+03) (33, 1.50000000000000000000e+03) (34, 4.27791237831115722656e-01) (35, 1.50000000000000000000e+03) (36, -1.13590347290039062500e+02) (37, 1.50000000000000000000e+03) (38, -1.46252551269531250000e+03) (39, 1.50000000000000000000e+03) (40, 1.50000000000000000000e+03) (41, 1.49999987792968750000e+03) (42, -1.62876635789871215820e-01) (43, 1.50000000000000000000e+03) (44, 2.34184527397155761719e+00) (45, 1.50000000000000000000e+03) (46, -1.49078323364257812500e+02) (47, 1.50000000000000000000e+03) (48, 3.01713928222656250000e+02) (0, 6.19871444702148437500e+01) (1, -2.60332317352294921875e+01) (2, 2.67222970724105834961e-01) (3, -1.45987617969512939453e+00) (4, 1.65996611118316650391e+00) (5, 1.41816449165344238281e+00) (6, 1.33609071373939514160e-01) (7, 2.02194328308105468750e+01) (8, -5.75163364410400390625e+00) (9, -2.88941364288330078125e+01) (10, 2.87664711475372314453e-01) (11, -5.55482149124145507812e+00) (12, 3.09702754020690917969e-01) (13, 1.22764754295349121094e+00) (14, 4.73561704158782958984e-01) (15, 4.60277032852172851562e+00) (16, -1.25677394866943359375e+01) (17, 2.00563488006591796875e+01) (18, 4.21684741973876953125e-01) (19, -3.27842861413955688477e-01) (20, 4.92277979850769042969e-01) (21, 2.35746288299560546875e+00) (22, 4.11142498254776000977e-01) (23, -7.17522025108337402344e-01) (24, -3.02016043663024902344e+00) (25, 3.30203628540039062500e+00) (26, 3.44223707914352416992e-01) (27, -3.49974542856216430664e-01) (28, 1.64135321974754333496e-01) (29, -3.12350749969482421875e-01) (30, 2.95250326395034790039e-01) (31, -1.83493709564208984375e+00) (32, 2.86955585479736328125e+01) (33, -8.82399940490722656250e+00) (34, 4.75781172513961791992e-01) (35, -8.90896975994110107422e-01) (36, 2.60350614786148071289e-01) (37, -2.54159665107727050781e+00) (38, 1.28710043430328369141e+00) (39, -9.03097820281982421875e+00) (40, 1.34090404510498046875e+01) (41, -3.67572426795959472656e+00) (42, 4.70201611518859863281e-01) (43, -3.25527358055114746094e+00) (44, 2.38497078418731689453e-01) (45, -1.23520478606224060059e-01) (46, 2.37086847424507141113e-01) (47, 3.82412219047546386719e+00) (48, 3.74892091751098632812e+00) (0, -4.77061653137207031250e+01) (1, 2.96354064941406250000e+01) (2, -4.36339944601058959961e-01) (3, 1.68089733123779296875e+01) (4, -1.93096601963043212891e+00) (5, -1.36556649208068847656e+00) (6, -3.71565842628479003906e+00) (7, -2.88725013732910156250e+01) (8, -3.18489894866943359375e+01) (9, 3.74853401184082031250e+01) (10, -1.71912387013435363770e-01) (11, 2.89128351211547851562e+00) (12, -3.10055136680603027344e-01) (13, -1.11237716674804687500e+00) (14, -1.73552855849266052246e-01) (15, -1.67333087921142578125e+01) (16, 4.26454448699951171875e+00) (17, 3.23987030982971191406e+00) (18, -2.69287288188934326172e-01) (19, 4.40043306350708007812e+00) (20, -2.13763207197189331055e-01) (21, -2.26629781723022460938e+00) (22, -3.00074934959411621094e-01) (23, 3.10511755943298339844e+00) (24, 9.51193618774414062500e+00) (25, -2.61084556579589843750e+01) (26, -1.01540453732013702393e-01) (27, -7.50777721405029296875e-01) (28, -2.65099406242370605469e-01) (29, 5.68773567676544189453e-01) (30, -8.68148148059844970703e-01) (31, 1.45764245986938476562e+01) (32, -2.68625469207763671875e+01) (33, 1.86062717437744140625e+01) (34, 9.45119038224220275879e-02) (35, 7.54561614990234375000e+00) (36, -3.13595741987228393555e-01) (37, 2.12915635108947753906e+00) (38, 7.22600817680358886719e-02) (39, -5.47706508636474609375e+00) (40, 1.88060736656188964844e+00) (41, -2.00218582153320312500e+01) (42, 3.63149374723434448242e-01) (43, -1.35358023643493652344e+00) (44, -2.08020031452178955078e-01) (45, 3.29009026288986206055e-01) (46, -4.18038256466388702393e-02) (47, -5.72363376617431640625e+00) (48, -4.11690568923950195312e+00) (0, 1.60292768478393554688e+00) (1, -9.23720169067382812500e+00) (2, 1.35810434818267822266e-01) (3, 3.91587674617767333984e-01) (4, -1.77181302569806575775e-03) (5, -1.19321001693606376648e-02) (6, 1.42761275172233581543e-01) (7, 1.43167889118194580078e+00) (8, 1.43724882602691650391e+00) (9, -5.12926387786865234375e+00) (10, 3.98263558745384216309e-02) (11, -7.14370131492614746094e-01) (12, 1.08430519700050354004e-01) (13, 4.33317199349403381348e-02) (14, 1.11645810306072235107e-01) (15, 3.26345294713973999023e-01) (16, 8.11610221862792968750e-01) (17, 2.27691233158111572266e-02) (18, -2.98231113702058792114e-02) (19, 2.28233695030212402344e-01) (20, 3.40528301894664764404e-02) (21, 9.43921655416488647461e-02) (22, -1.85299701988697052002e-02) (23, 2.66220420598983764648e-01) (24, 1.68966114521026611328e+00) (25, -2.84945392608642578125e+00) (26, 6.79329503327608108521e-03) (27, 7.18962371349334716797e-01) (28, -3.54700237512588500977e-02) (29, 5.36316037178039550781e-01) (30, -3.64455841481685638428e-02) (31, -7.37857460975646972656e-01) (32, -2.32553887367248535156e+00) (33, 1.09046176075935363770e-01) (34, 1.34442493319511413574e-01) (35, 7.56522953510284423828e-01) (36, 1.47429304197430610657e-02) (37, 6.14914596080780029297e-01) (38, 1.21822163462638854980e-01) (39, 7.14215755462646484375e-01) (40, 2.33785772323608398438e+00) (41, -2.68279314041137695312e+00) (42, 4.94538545608520507812e-02) (43, 7.49144434928894042969e-01) (44, 1.79235517978668212891e-01) (45, 7.04025626182556152344e-01) (46, 1.22442856431007385254e-01) (47, -1.25930517911911010742e-01) (48, 1.88819661736488342285e-01) (0, -1.50000000000000000000e+03) (1, 1.45153259277343750000e+03) (2, 5.32467079162597656250e+00) (3, -1.49446423339843750000e+03) (4, 5.23886728286743164062e+00) (5, 2.58466091156005859375e+01) (6, 4.92092704772949218750e+00) (7, 1.50000000000000000000e+03) (8, -1.50000000000000000000e+03) (9, -1.50000000000000000000e+03) (10, 3.00289797782897949219e+00) (11, -1.49831250000000000000e+03) (12, 1.23194396495819091797e+00) (13, -1.50000000000000000000e+03) (14, 4.25613355636596679688e+00) (15, -1.49969726562500000000e+03) (16, -1.50000000000000000000e+03) (17, 1.49999914550781250000e+03) (18, 1.77441716194152832031e+00) (19, -1.50000000000000000000e+03) (20, 2.76287126541137695312e+00) (21, 3.68183654785156250000e+02) (22, 4.33038043975830078125e+00) (23, -1.49430529785156250000e+03) (24, -1.50000000000000000000e+03) (25, 9.92183837890625000000e+02) (26, 1.00158905982971191406e+00) (27, -1.50000000000000000000e+03) (28, 5.85614347457885742188e+00) (29, -1.50000000000000000000e+03) (30, 4.83871841430664062500e+00) (31, -1.50000000000000000000e+03) (32, 1.50000000000000000000e+03) (33, -1.50000000000000000000e+03) (34, 9.45612072944641113281e-01) (35, -1.50000000000000000000e+03) (36, 1.54847800731658935547e+00) (37, -1.50000000000000000000e+03) (38, 1.68775486946105957031e+00) (39, -1.49766906738281250000e+03) (40, -1.50000000000000000000e+03) (41, -1.50000000000000000000e+03) (42, 9.70993101596832275391e-01) (43, -1.50000000000000000000e+03) (44, 1.29788851737976074219e+00) (45, -1.50000000000000000000e+03) (46, 2.42499327659606933594e+00) (47, -1.50000000000000000000e+03) (48, 4.02843566894531250000e+02) (0, 1.50000000000000000000e+03) (1, 3.65790313720703125000e+02) (2, -7.69514560699462890625e+00) (3, 9.34311032295227050781e-01) (4, -3.39985680580139160156e+00) (5, 2.63750642538070678711e-01) (6, -7.99329471588134765625e+00) (7, -5.35940185546875000000e+02) (8, -1.50000000000000000000e+03) (9, 1.50000000000000000000e+03) (10, -8.47093200683593750000e+00) (11, 2.82341748476028442383e-01) (12, -1.40059459209442138672e+00) (13, -1.46692867279052734375e+01) (14, -6.16155624389648437500e+00) (15, 3.56269683837890625000e+02) (16, -1.50000000000000000000e+03) (17, 1.49999987792968750000e+03) (18, -3.77313065528869628906e+00) (19, 2.47371807694435119629e-01) (20, -7.64156281948089599609e-01) (21, -2.29816192626953125000e+02) (22, -6.18767595291137695312e+00) (23, 8.17860424518585205078e-01) (24, -4.86051879882812500000e+02) (25, -4.11306579589843750000e+02) (26, -1.37189424037933349609e+00) (27, 8.72417539358139038086e-02) (28, -4.08452415466308593750e+00) (29, 1.28822052478790283203e+00) (30, -7.77179384231567382812e+00) (31, 2.53502488136291503906e-01) (32, -1.50000000000000000000e+03) (33, -1.99835739135742187500e+02) (34, -1.41455554962158203125e+00) (35, 7.20400989055633544922e-01) (36, -2.44003748893737792969e+00) (37, 2.22572937011718750000e+01) (38, -2.39217495918273925781e+00) (39, 5.73808471679687500000e+02) (40, -5.85446044921875000000e+02) (41, 3.24430145263671875000e+02) (42, -7.43951499462127685547e-01) (43, 4.82644510269165039062e+00) (44, -8.31466913223266601562e-01) (45, 1.01936998367309570312e+01) (46, -3.24544072151184082031e+00) (47, 1.58137187361717224121e-01) (48, -7.07288818359375000000e+02) (0, -9.16479587554931640625e-01) (1, -2.92842221260070800781e+00) (2, 5.60930371284484863281e-02) (3, 2.12206542491912841797e-02) (4, -2.36588209867477416992e-01) (5, -3.52316647768020629883e-01) (6, -2.39748973399400711060e-02) (7, -2.15944066643714904785e-01) (8, -2.63273090124130249023e-01) (9, -7.31876611709594726562e+00) (10, -7.06755369901657104492e-02) (11, -7.59235262870788574219e-01) (12, 1.24940864741802215576e-01) (13, -7.57611915469169616699e-02) (14, 1.11725106835365295410e-01) (15, -3.19701701402664184570e-01) (16, -2.00231045484542846680e-01) (17, -2.05568718910217285156e+00) (18, 1.09239488840103149414e-01) (19, 1.21895384788513183594e+00) (20, 4.71344590187072753906e-02) (21, 2.77565885335206985474e-03) (22, 2.15643972158432006836e-01) (23, 5.22089242935180664062e-01) (24, 3.04633951187133789062e+00) (25, 2.02289175987243652344e+00) (26, 3.00171673297882080078e-02) (27, 2.71952241659164428711e-01) (28, 5.09408824145793914795e-02) (29, 3.03158581256866455078e-01) (30, -2.19358518719673156738e-01) (31, -1.19167044758796691895e-01) (32, -8.35311710834503173828e-01) (33, 1.14389312267303466797e+00) (34, 1.17887690663337707520e-01) (35, 1.25264692306518554688e+00) (36, 2.73452717810869216919e-02) (37, 6.89096987247467041016e-01) (38, 3.63062322139739990234e-02) (39, 1.15034866333007812500e+00) (40, -3.01757484674453735352e-01) (41, -1.66389560699462890625e+00) (42, 6.55925124883651733398e-02) (43, 5.05885601043701171875e-01) (44, 1.90127462148666381836e-01) (45, 4.13819402456283569336e-01) (46, 1.24851763248443603516e-01) (47, -1.34675347805023193359e+00) (48, 2.17041559517383575439e-02) (0, 3.46986603736877441406e+00) (1, -1.36830387115478515625e+01) (2, -5.21121472120285034180e-02) (3, 2.92302787303924560547e-01) (4, 3.02962772548198699951e-02) (5, 7.86647051572799682617e-02) (6, 2.82637700438499450684e-02) (7, 3.33980053663253784180e-01) (8, -6.93906724452972412109e-01) (9, -2.50152039527893066406e+00) (10, 2.27467492222785949707e-02) (11, 1.53350770473480224609e-01) (12, -2.58118566125631332397e-03) (13, 9.26220640540122985840e-02) (14, 4.34338562190532684326e-02) (15, 6.11903779208660125732e-02) (16, -4.57594573497772216797e-01) (17, -2.30566620826721191406e-01) (18, -4.35813143849372863770e-02) (19, 5.22423125803470611572e-02) (20, 1.60836577415466308594e-02) (21, -1.01270154118537902832e-02) (22, -3.34423109889030456543e-02) (23, -2.61667687445878982544e-02) (24, 1.24977612495422363281e+00) (25, -3.29820799827575683594e+00) (26, 6.51363059878349304199e-02) (27, 1.61046430002897977829e-03) (28, -5.60581833124160766602e-02) (29, 8.04015621542930603027e-02) (30, -4.28806543350219726562e-02) (31, -1.40810459852218627930e-01) (32, -1.63880586624145507812e+00) (33, -1.19861996173858642578e+00) (34, -3.17748598754405975342e-02) (35, 2.23625898361206054688e-02) (36, -2.28639338165521621704e-02) (37, 1.95522215217351913452e-02) (38, 6.78856000304222106934e-02) (39, -1.85463711619377136230e-01) (40, 1.98541915416717529297e+00) (41, -1.36620736122131347656e+00) (42, 4.29757609963417053223e-02) (43, 6.12214803695678710938e-02) (44, 3.69018800556659698486e-02) (45, 1.35090202093124389648e-01) (46, 8.49891267716884613037e-03) (47, 1.66034549474716186523e-01) (48, 1.14065960049629211426e-01) (0, -1.28952157497406005859e+00) (1, 1.40411443710327148438e+01) (2, 3.16999368369579315186e-02) (3, -8.34577083587646484375e-02) (4, -5.95420673489570617676e-02) (5, -1.99519633315503597260e-03) (6, 7.29309255257248878479e-03) (7, 5.18647134304046630859e-02) (8, -6.77791416645050048828e-01) (9, 2.54194974899291992188e+00) (10, 5.95499277114868164062e-02) (11, -7.66580924391746520996e-02) (12, -6.74852263182401657104e-03) (13, -1.05110228061676025391e-01) (14, -4.38545569777488708496e-02) (15, 1.22470803558826446533e-01) (16, -5.98728060722351074219e-01) (17, 6.91138923168182373047e-01) (18, -1.68110672384500503540e-02) (19, -2.14856564998626708984e-01) (20, -1.70413386076688766479e-02) (21, 1.83976590633392333984e-02) (22, -1.92362889647483825684e-02) (23, -5.30634671449661254883e-02) (24, -6.20575666427612304688e-01) (25, 3.41886258125305175781e+00) (26, -2.13645417243242263794e-02) (27, -2.15955842286348342896e-02) (28, 6.80257678031921386719e-02) (29, -2.32780650258064270020e-02) (30, 6.27254992723464965820e-02) (31, -1.38213828206062316895e-01) (32, 1.32033002376556396484e+00) (33, 1.18329036235809326172e+00) (34, -2.00270190834999084473e-02) (35, -5.87939582765102386475e-02) (36, 2.17074789106845855713e-02) (37, -1.04210183024406433105e-01) (38, -4.07702401280403137207e-02) (39, 8.97898077964782714844e-02) (40, -1.68216133117675781250e+00) (41, 1.27857720851898193359e+00) (42, -4.21734936535358428955e-02) (43, -9.99404862523078918457e-03) (44, -5.46689666807651519775e-02) (45, -1.35099738836288452148e-01) (46, -4.37455549836158752441e-02) (47, 4.35805171728134155273e-02) (48, 2.18224525451660156250e-02) (0, -5.21514463424682617188e+00) (1, 2.08787560462951660156e+00) (2, 1.01617573818657547235e-04) (3, -1.60795915126800537109e+00) (4, 3.21503609418869018555e-01) (5, -1.51325777173042297363e-01) (6, -1.76547199487686157227e-01) (7, -1.56795322895050048828e+00) (8, 1.37007732391357421875e+01) (9, 4.31203746795654296875e+00) (10, -7.49987512826919555664e-02) (11, 2.16734394431114196777e-01) (12, -1.66322439908981323242e-02) (13, 9.91582646965980529785e-02) (14, 6.92940056324005126953e-02) (15, -6.52407824993133544922e-01) (16, -5.78862130641937255859e-01) (17, -5.84806144237518310547e-01) (18, 2.13415473699569702148e-02) (19, 5.01816391944885253906e-01) (20, -3.08426134288311004639e-02) (21, -9.86064132302999496460e-03) (22, 1.02165021002292633057e-01) (23, 1.52741551399230957031e-01) (24, -4.57480001449584960938e+00) (25, -1.73527562618255615234e+00) (26, -2.61105708777904510498e-02) (27, -2.45271757245063781738e-01) (28, -9.18347984552383422852e-02) (29, -3.74983340501785278320e-01) (30, -7.12894871830940246582e-02) (31, 1.37421870231628417969e+00) (32, 3.32576537132263183594e+00) (33, -8.32887291908264160156e-01) (34, -1.52232227846980094910e-02) (35, -1.68956249952316284180e-01) (36, -9.18908882886171340942e-03) (37, 1.09506100416183471680e-01) (38, -3.88614572584629058838e-02) (39, -1.37068748474121093750e-01) (40, -1.29999434947967529297e+00) (41, 1.70317912101745605469e+00) (42, 7.16753005981445312500e-02) (43, -6.09981715679168701172e-01) (44, 5.92572032473981380463e-05) (45, -1.25373050570487976074e-01) (46, 6.40087500214576721191e-02) (47, -2.01308697462081909180e-01) (48, -4.39922586083412170410e-02) (49, 7.05081745982170104980e-02) (50, 9.80480968952178955078e-01) (51, 8.45174372196197509766e-01) (52, -2.87595927715301513672e-01) (53, 2.91011552326381206512e-03) (54, 4.76830959320068359375e-01) (55, 5.36536693572998046875e-01) (56, 3.39222741127014160156e+00) (57, 3.18086147308349609375e+00) (58, 6.11895680427551269531e-01) (59, 2.20375984907150268555e-01) (49, 1.42922289669513702393e-02) (50, -9.94701962918043136597e-03) (51, -1.26515962183475494385e-02) (52, 7.04647749662399291992e-02) (53, -4.27926285192370414734e-03) (54, 2.53202915191650390625e-02) (55, -3.78662794828414916992e-02) (56, -3.50616313517093658447e-02) (57, 1.57560124993324279785e-01) (58, 3.22956033051013946533e-02) (59, 2.69084516912698745728e-02) 
