FANN_FLO_2.1
num_layers=3
learning_rate=0.700000
connection_rate=1.000000
network_type=0
learning_momentum=0.000000
training_algorithm=2
train_error_function=1
train_stop_function=0
cascade_output_change_fraction=0.010000
quickprop_decay=-0.000100
quickprop_mu=1.750000
rprop_increase_factor=1.200000
rprop_decrease_factor=0.500000
rprop_delta_min=0.000000
rprop_delta_max=50.000000
rprop_delta_zero=0.100000
cascade_output_stagnation_epochs=12
cascade_candidate_change_fraction=0.010000
cascade_candidate_stagnation_epochs=12
cascade_max_out_epochs=150
cascade_max_cand_epochs=150
cascade_num_candidate_groups=2
bit_fail_limit=3.49999994039535522461e-01
cascade_candidate_limit=1.00000000000000000000e+03
cascade_weight_multiplier=4.00000005960464477539e-01
cascade_activation_functions_count=10
cascade_activation_functions=3 5 7 8 10 11 14 15 16 17 
cascade_activation_steepnesses_count=4
cascade_activation_steepnesses=2.50000000000000000000e-01 5.00000000000000000000e-01 7.50000000000000000000e-01 1.00000000000000000000e+00 
layer_sizes=57 11 3 
scale_included=0
neurons (num_inputs, activation_function, activation_steepness)=(0, 0, 0.00000000000000000000e+00) (0, 0, 0.00000000000000000000e+00) (0, 0, 0.00000000000000000000e+00) (0, 0, 0.00000000000000000000e+00) (0, 0, 0.00000000000000000000e+00) (0, 0, 0.00000000000000000000e+00) (0, 0, 0.00000000000000000000e+00) (0, 0, 0.00000000000000000000e+00) (0, 0, 0.00000000000000000000e+00) (0, 0, 0.00000000000000000000e+00) (0, 0, 0.00000000000000000000e+00) (0, 0, 0.00000000000000000000e+00) (0, 0, 0.00000000000000000000e+00) (0, 0, 0.00000000000000000000e+00) (0, 0, 0.00000000000000000000e+00) (0, 0, 0.00000000000000000000e+00) (0, 0, 0.00000000000000000000e+00) (0, 0, 0.00000000000000000000e+00) (0, 0, 0.00000000000000000000e+00) (0, 0, 0.00000000000000000000e+00) (0, 0, 0.00000000000000000000e+00) (0, 0, 0.00000000000000000000e+00) (0, 0, 0.00000000000000000000e+00) (0, 0, 0.00000000000000000000e+00) (0, 0, 0.00000000000000000000e+00) (0, 0, 0.00000000000000000000e+00) (0, 0, 0.00000000000000000000e+00) (0, 0, 0.00000000000000000000e+00) (0, 0, 0.00000000000000000000e+00) (0, 0, 0.00000000000000000000e+00) (0, 0, 0.00000000000000000000e+00) (0, 0, 0.00000000000000000000e+00) (0, 0, 0.00000000000000000000e+00) (0, 0, 0.00000000000000000000e+00) (0, 0, 0.00000000000000000000e+00) (0, 0, 0.00000000000000000000e+00) (0, 0, 0.00000000000000000000e+00) (0, 0, 0.00000000000000000000e+00) (0, 0, 0.00000000000000000000e+00) (0, 0, 0.00000000000000000000e+00) (0, 0, 0.00000000000000000000e+00) (0, 0, 0.00000000000000000000e+00) (0, 0, 0.00000000000000000000e+00) (0, 0, 0.00000000000000000000e+00) (0, 0, 0.00000000000000000000e+00) (0, 0, 0.00000000000000000000e+00) (0, 0, 0.00000000000000000000e+00) (0, 0, 0.00000000000000000000e+00) (0, 0, 0.00000000000000000000e+00) (0, 0, 0.00000000000000000000e+00) (0, 0, 0.00000000000000000000e+00) (0, 0, 0.00000000000000000000e+00) (0, 0, 0.00000000000000000000e+00) (0, 0, 0.00000000000000000000e+00) (0, 0, 0.00000000000000000000e+00) (0, 0, 0.00000000000000000000e+00) (0, 0, 0.00000000000000000000e+00) (57, 5, 5.00000000000000000000e-01) (57, 5, 5.00000000000000000000e-01) (57, 5, 5.00000000000000000000e-01) (57, 5, 5.00000000000000000000e-01) (57, 5, 5.00000000000000000000e-01) (57, 5, 5.00000000000000000000e-01) (57, 5, 5.00000000000000000000e-01) (57, 5, 5.00000000000000000000e-01) (57, 5, 5.00000000000000000000e-01) (57, 5, 5.00000000000000000000e-01) (0, 5, 0.00000000000000000000e+00) (11, 11, 5.00000000000000000000e-01) (11, 11, 5.00000000000000000000e-01) (0, 11, 0.00000000000000000000e+00) 
connections (connected_to_neuron, weight)=(0, -6.37437403202056884766e-02) (1, -9.12762060761451721191e-02) (2, -8.56374949216842651367e-02) (3, -5.99014200270175933838e-03) (4, -8.95747020840644836426e-02) (5, 1.54534475877881050110e-02) (6, -3.32004539668560028076e-02) (7, -3.43581428751349449158e-03) (8, 2.59476173669099807739e-02) (9, -7.28192254900932312012e-02) (10, -1.69325899332761764526e-03) (11, -3.13321687281131744385e-02) (12, -3.01674660295248031616e-02) (13, 4.38349582254886627197e-02) (14, 1.51926409453153610229e-02) (15, -8.56978893280029296875e-02) (16, -4.37190011143684387207e-02) (17, -5.78641239553689956665e-03) (18, 8.48565921187400817871e-02) (19, 2.04265676438808441162e-02) (20, -7.43186622858047485352e-02) (21, -7.20609277486801147461e-02) (22, -9.17620882391929626465e-02) (23, 2.62558250688016414642e-03) (24, -9.25629809498786926270e-02) (25, 4.71554361283779144287e-02) (26, -6.07698075473308563232e-02) (27, -5.01590035855770111084e-02) (28, 2.15001925826072692871e-02) (29, 8.44930764287710189819e-03) (30, -9.86451804637908935547e-02) (31, 5.77564537525177001953e-02) (32, 1.71731039881706237793e-02) (33, -8.42826738953590393066e-02) (34, -4.82336916029453277588e-02) (35, 2.75984033942222595215e-02) (36, 3.11707705259323120117e-02) (37, 1.85658577829599380493e-02) (38, -7.58374109864234924316e-02) (39, -4.28816117346286773682e-02) (40, 4.57466356456279754639e-02) (41, 2.24693287163972854614e-02) (42, 2.57862191647291183472e-02) (43, -8.44208300113677978516e-02) (44, -3.36957126855850219727e-02) (45, -5.90211413800716400146e-02) (46, -7.01187178492546081543e-02) (47, 2.25852876901626586914e-02) (48, 3.51924486458301544189e-02) (49, -8.52621272206306457520e-02) (50, -5.69881461560726165771e-02) (51, 6.08737878501415252686e-02) (52, -5.73230534791946411133e-02) (53, -4.87502329051494598389e-02) (54, -3.65006290376186370850e-02) (55, -4.98860292136669158936e-02) (56, 9.84052047133445739746e-02) (0, 2.72956467233598232269e-03) (1, -4.50314946647267788649e-05) (2, 1.99053995311260223389e-02) (3, -8.88211280107498168945e-02) (4, 1.30978820379823446274e-03) (5, -2.23381500691175460815e-02) (6, 2.83519756048917770386e-02) (7, 1.70271117240190505981e-02) (8, 2.94281598180532455444e-02) (9, -4.40496243536472320557e-02) (10, -5.18021173775196075439e-02) (11, -5.20059838891029357910e-02) (12, -1.98870338499546051025e-02) (13, 5.31627237796783447266e-03) (14, 9.37406569719314575195e-02) (15, -9.74177047610282897949e-02) (16, -6.88975080847740173340e-02) (17, -9.06801819801330566406e-02) (18, -3.11134178191423416138e-02) (19, -2.79186498373746871948e-02) (20, -6.07988946139812469482e-02) (21, 9.14718732237815856934e-02) (22, -9.27262008190155029297e-02) (23, -4.60610203444957733154e-02) (24, -6.55162781476974487305e-02) (25, 6.81475847959518432617e-02) (26, -3.38407070375978946686e-03) (27, -1.42665058374404907227e-02) (28, -6.83530420064926147461e-02) (29, 4.67298999428749084473e-02) (30, -1.58613007515668869019e-02) (31, 3.43765243887901306152e-02) (32, -5.33151328563690185547e-02) (33, -9.59559008479118347168e-02) (34, 4.55553941428661346436e-02) (35, 4.79946583509445190430e-02) (36, -1.82940512895584106445e-02) (37, -2.60926298797130584717e-02) (38, -3.49782295525074005127e-02) (39, -8.88658910989761352539e-02) (40, 2.98577472567558288574e-02) (41, 1.32196526974439620972e-02) (42, -4.08718734979629516602e-02) (43, -9.00292843580245971680e-02) (44, -8.14640745520591735840e-02) (45, -4.71312217414379119873e-02) (46, -8.74469950795173645020e-02) (47, -5.03615848720073699951e-02) (48, -3.78114022314548492432e-02) (49, -1.85604076832532882690e-02) (50, 2.17197667807340621948e-02) (51, 1.38970534317195415497e-03) (52, -2.70885378122329711914e-02) (53, 2.89935655891895294189e-02) (54, 5.53286857903003692627e-02) (55, 7.39518739283084869385e-03) (56, -2.85884691402316093445e-03) (0, -4.80553843080997467041e-02) (1, 9.31286811828613281250e-02) (2, 2.87881121039390563965e-02) (3, 9.86745208501815795898e-02) (4, -2.27326191961765289307e-02) (5, -3.68353687226772308350e-02) (6, -5.46406172215938568115e-02) (7, -1.86885204166173934937e-02) (8, -9.12799760699272155762e-02) (9, 9.33540463447570800781e-02) (10, 6.30174279212951660156e-02) (11, -1.73726025968790054321e-02) (12, -4.16241884231567382812e-02) (13, 7.41515383124351501465e-02) (14, -8.75148549675941467285e-02) (15, 7.15954676270484924316e-02) (16, -6.67203366756439208984e-02) (17, -7.75441452860832214355e-02) (18, 9.01313871145248413086e-02) (19, -1.38515559956431388855e-02) (20, -6.49911314249038696289e-02) (21, -6.02301955223083496094e-02) (22, 4.83370460569858551025e-02) (23, 1.64484605193138122559e-02) (24, 6.14895708858966827393e-02) (25, -5.02732507884502410889e-02) (26, 8.93599241971969604492e-02) (27, -9.51686315238475799561e-03) (28, -9.49445664882659912109e-02) (29, -3.24489129707217216492e-03) (30, 8.76242890954017639160e-02) (31, -4.29999493062496185303e-02) (32, -1.01162092760205268860e-02) (33, 1.64124015718698501587e-02) (34, -4.43254336714744567871e-02) (35, 6.71511739492416381836e-02) (36, 7.95770362019538879395e-02) (37, 1.03395269252359867096e-03) (38, -5.15373460948467254639e-02) (39, 8.82970616221427917480e-02) (40, -5.61200594529509544373e-03) (41, -8.85199159383773803711e-02) (42, -2.90755406022071838379e-02) (43, 5.27638047933578491211e-02) (44, 8.56316238641738891602e-02) (45, -1.65903959423303604126e-02) (46, 2.43592690676450729370e-02) (47, -8.10887143015861511230e-02) (48, 5.86546398699283599854e-03) (49, 1.44906565546989440918e-02) (50, 5.05973119288682937622e-03) (51, 4.08743321895599365234e-02) (52, 5.42604587972164154053e-02) (53, -4.66032251715660095215e-02) (54, -4.26772087812423706055e-02) (55, 1.57500300556421279907e-02) (56, 3.12352576293051242828e-03) (0, -5.33172897994518280029e-02) (1, -9.37668308615684509277e-02) (2, 8.17896239459514617920e-03) (3, 4.34378199279308319092e-02) (4, 9.38574597239494323730e-02) (5, 6.51790127158164978027e-02) (6, -6.66783899068832397461e-02) (7, 1.02698579430580139160e-02) (8, -7.91464149951934814453e-02) (9, -9.95272174477577209473e-02) (10, -1.01531082764267921448e-02) (11, 2.18875352293252944946e-02) (12, -5.10645620524883270264e-02) (13, -2.18560472130775451660e-02) (14, -8.37244689464569091797e-02) (15, -3.95844802260398864746e-02) (16, 4.90684136748313903809e-02) (17, 6.90393373370170593262e-02) (18, -5.39528615772724151611e-02) (19, -6.75219818949699401855e-02) (20, -6.60139834508299827576e-03) (21, -3.50415743887424468994e-02) (22, 3.83434817194938659668e-02) (23, -9.21107456088066101074e-02) (24, 7.00181573629379272461e-02) (25, -2.07821875810623168945e-02) (26, 6.21497184038162231445e-02) (27, -7.65850692987442016602e-02) (28, 3.65406051278114318848e-02) (29, -2.21002530306577682495e-02) (30, 2.65384614467620849609e-02) (31, 8.32233205437660217285e-02) (32, -1.58670861274003982544e-02) (33, -6.52825757861137390137e-02) (34, 2.66611371189355850220e-02) (35, -2.20096278935670852661e-02) (36, 9.98964384198188781738e-02) (37, 5.99827505648136138916e-02) (38, 8.82602334022521972656e-02) (39, -7.92499780654907226562e-02) (40, 6.04555346071720123291e-02) (41, -2.18928791582584381104e-02) (42, 4.26375567913055419922e-02) (43, -9.06090289354324340820e-02) (44, 5.62510751187801361084e-02) (45, 5.89130856096744537354e-02) (46, -3.01935113966464996338e-02) (47, 5.31948776915669441223e-03) (48, 2.79524195939302444458e-02) (49, 1.58536303788423538208e-02) (50, 3.77975068986415863037e-02) (51, -7.86489844322204589844e-02) (52, 8.08120593428611755371e-02) (53, -2.38590128719806671143e-02) (54, -7.07597211003303527832e-02) (55, 5.08302189409732818604e-02) (56, 5.53588010370731353760e-02) (0, 9.13899987936019897461e-02) (1, 7.42451548576354980469e-02) (2, -8.10059625655412673950e-03) (3, -3.07102575898170471191e-02) (4, 7.83612427767366170883e-04) (5, -2.48772799968719482422e-02) (6, 5.34226596355438232422e-02) (7, 3.55010367929935455322e-02) (8, -9.82161462306976318359e-02) (9, -6.85869678854942321777e-02) (10, 3.53974737226963043213e-02) (11, 6.17666058242321014404e-02) (12, -8.03267434239387512207e-02) (13, 5.61474934220314025879e-02) (14, 2.22221389412879943848e-02) (15, -2.21961853094398975372e-03) (16, -1.21495302300900220871e-03) (17, 3.16131077706813812256e-02) (18, -4.59685437381267547607e-02) (19, -4.23018708825111389160e-02) (20, -9.85804051160812377930e-02) (21, 5.93509450554847717285e-02) (22, 8.56505483388900756836e-02) (23, 1.72732286155223846436e-02) (24, -2.85155023448169231415e-03) (25, -9.29984301328659057617e-02) (26, -1.91471294965595006943e-03) (27, 7.32894390821456909180e-02) (28, -6.37581497430801391602e-02) (29, -5.10844960808753967285e-02) (30, 2.86482367664575576782e-02) (31, -7.23681598901748657227e-02) (32, -7.68393427133560180664e-02) (33, -7.94523581862449645996e-02) (34, -3.07841203175485134125e-03) (35, 2.39442680031061172485e-02) (36, -4.32963948696851730347e-03) (37, -4.96557541191577911377e-02) (38, -4.05546985566616058350e-02) (39, -2.54578213207423686981e-03) (40, -1.82427223771810531616e-02) (41, 9.48427766561508178711e-02) (42, -4.07791770994663238525e-02) (43, 1.43053743522614240646e-03) (44, 5.09902685880661010742e-02) (45, 8.14429670572280883789e-02) (46, 9.92109179496765136719e-02) (47, -5.02246841788291931152e-02) (48, 1.30560724064707756042e-02) (49, -4.67576235532760620117e-02) (50, 7.47344642877578735352e-03) (51, 1.44756715744733810425e-02) (52, -8.74066799879074096680e-02) (53, -6.87600392848253250122e-03) (54, -6.82511031627655029297e-02) (55, 9.74177010357379913330e-03) (56, 1.25566773931495845318e-04) (0, 2.98341866582632064819e-02) (1, -1.69687941670417785645e-02) (2, 3.63674163818359375000e-02) (3, 7.87496939301490783691e-02) (4, -8.83205607533454895020e-02) (5, 6.39992579817771911621e-02) (6, -9.80896577239036560059e-02) (7, -6.77729174494743347168e-02) (8, -3.90791520476341247559e-02) (9, 2.58546154946088790894e-02) (10, 2.78974454849958419800e-02) (11, 1.12650943920016288757e-02) (12, 8.52999240159988403320e-02) (13, -7.46483355760574340820e-02) (14, 9.30223762989044189453e-02) (15, 8.01426991820335388184e-02) (16, -1.54275139793753623962e-02) (17, -5.54709089919924736023e-03) (18, 3.11329644173383712769e-02) (19, -3.39845493435859680176e-02) (20, -6.33617164567112922668e-03) (21, 8.09082761406898498535e-02) (22, 7.90715217590332031250e-02) (23, 4.69062030315399169922e-02) (24, -1.16182751953601837158e-02) (25, -6.45280629396438598633e-03) (26, 5.94995245337486267090e-02) (27, 8.15057232975959777832e-02) (28, 2.52960938960313796997e-02) (29, -3.07587068527936935425e-02) (30, -1.83687116950750350952e-02) (31, -4.48697209358215332031e-02) (32, 5.22725023329257965088e-02) (33, -8.20012986660003662109e-02) (34, -6.61200284957885742188e-02) (35, 6.39519467949867248535e-02) (36, 8.19979608058929443359e-02) (37, -6.42096847295761108398e-02) (38, 9.61790308356285095215e-02) (39, -5.70811890065670013428e-02) (40, 6.16449378430843353271e-02) (41, 2.40764729678630828857e-02) (42, 5.41839078068733215332e-02) (43, 4.69448566436767578125e-02) (44, 4.94281351566314697266e-02) (45, 4.72062788903713226318e-02) (46, 2.70875506103038787842e-02) (47, -6.59993812441825866699e-02) (48, -5.83408139646053314209e-02) (49, -4.17794845998287200928e-02) (50, 1.60713680088520050049e-05) (51, 3.53230163455009460449e-02) (52, -6.08712062239646911621e-02) (53, -2.09124069660902023315e-02) (54, -1.77707821130752563477e-02) (55, 2.75105182081460952759e-02) (56, 7.26347863674163818359e-02) (0, -5.82712590694427490234e-02) (1, 9.01623908430337905884e-03) (2, -2.06911819986999034882e-03) (3, 1.09700355678796768188e-02) (4, 9.06475260853767395020e-02) (5, 5.30611649155616760254e-02) (6, -3.67574654519557952881e-02) (7, -9.13537740707397460938e-02) (8, 8.69411379098892211914e-02) (9, -7.28055238723754882812e-02) (10, 9.06441956758499145508e-02) (11, -7.72685483098030090332e-02) (12, -7.66264945268630981445e-02) (13, -6.64369985461235046387e-02) (14, 8.43763947486877441406e-02) (15, 4.74499799311161041260e-02) (16, 8.77469107508659362793e-02) (17, 3.13212461769580841064e-02) (18, -3.12188710086047649384e-03) (19, 3.49531881511211395264e-02) (20, -4.15912047028541564941e-02) (21, 3.08787338435649871826e-02) (22, 7.66123756766319274902e-02) (23, 1.66293121874332427979e-02) (24, -6.91051930189132690430e-02) (25, 1.19353905320167541504e-02) (26, 5.57581037282943725586e-02) (27, 9.98239964246749877930e-03) (28, 9.41646099090576171875e-02) (29, -1.67313776910305023193e-02) (30, -1.73828117549419403076e-02) (31, -6.41066506505012512207e-02) (32, 9.22848656773567199707e-02) (33, 8.05480703711509704590e-02) (34, 4.68633882701396942139e-02) (35, 8.29323902726173400879e-02) (36, 3.36092337965965270996e-02) (37, -8.98940786719322204590e-02) (38, 9.15786176919937133789e-02) (39, 2.05503683537244796753e-02) (40, -6.26996010541915893555e-02) (41, 8.22228118777275085449e-02) (42, 4.32818233966827392578e-02) (43, -3.93260940909385681152e-02) (44, -8.42141807079315185547e-02) (45, 2.76582129299640655518e-02) (46, -9.18761119246482849121e-02) (47, -9.64672714471817016602e-02) (48, -4.10205423831939697266e-02) (49, 5.00199943780899047852e-03) (50, 3.84859181940555572510e-02) (51, 1.73882562667131423950e-02) (52, -6.41192644834518432617e-02) (53, 1.50982905179262161255e-02) (54, -6.59824311733245849609e-02) (55, -3.32244597375392913818e-02) (56, -7.29663223028182983398e-02) (0, 8.97756740450859069824e-02) (1, 7.67579376697540283203e-02) (2, -7.88017138838768005371e-02) (3, -2.69557069987058639526e-02) (4, -4.06248755753040313721e-02) (5, -4.29083593189716339111e-02) (6, -3.46708446741104125977e-02) (7, -6.00768029689788818359e-02) (8, -9.60449725389480590820e-02) (9, -5.17384558916091918945e-02) (10, 7.35324323177337646484e-02) (11, -8.59390497207641601562e-02) (12, -6.01598396897315979004e-02) (13, -5.91720454394817352295e-03) (14, -4.86386492848396301270e-02) (15, -7.79370293021202087402e-02) (16, -6.26353845000267028809e-02) (17, 1.20352609083056449890e-02) (18, -6.21512085199356079102e-02) (19, 6.50228336453437805176e-02) (20, 2.01591476798057556152e-02) (21, -5.86184822022914886475e-02) (22, -7.59977102279663085938e-02) (23, -7.48388543725013732910e-02) (24, 7.98674374818801879883e-02) (25, 4.13905456662178039551e-02) (26, -3.89581210911273956299e-02) (27, -5.03427395597100257874e-03) (28, 7.54081085324287414551e-02) (29, 2.78174206614494323730e-02) (30, 2.19994075596332550049e-02) (31, 6.51837810873985290527e-02) (32, 4.57535870373249053955e-03) (33, 4.31976988911628723145e-02) (34, -6.17719255387783050537e-02) (35, 6.39504864811897277832e-02) (36, -9.97106656432151794434e-02) (37, 3.55723034590482711792e-03) (38, -9.61263179779052734375e-02) (39, -9.57556366920471191406e-02) (40, 5.18187731504440307617e-02) (41, 7.74061083793640136719e-02) (42, -8.16946849226951599121e-02) (43, 9.16589349508285522461e-02) (44, -2.85110939294099807739e-02) (45, -3.03333308547735214233e-02) (46, -8.62780883908271789551e-02) (47, 8.85352306067943572998e-03) (48, 8.17019343376159667969e-02) (49, -4.84292991459369659424e-02) (50, -2.61236466467380523682e-02) (51, 1.86107656918466091156e-03) (52, -7.04777892678976058960e-03) (53, -2.12135817855596542358e-03) (54, 2.70222239196300506592e-02) (55, -2.71803438663482666016e-02) (56, -6.07308149337768554688e-02) (0, 8.80641043186187744141e-02) (1, 6.77853822708129882812e-02) (2, -8.53227078914642333984e-02) (3, 1.58815216273069381714e-02) (4, -1.02152107283473014832e-02) (5, 7.98610821366310119629e-02) (6, -7.95431211590766906738e-02) (7, -6.70175179839134216309e-02) (8, -8.19108486175537109375e-02) (9, 8.44073668122291564941e-02) (10, -6.67281746864318847656e-02) (11, 2.16463841497898101807e-02) (12, 8.82810503244400024414e-02) (13, -6.24838098883628845215e-02) (14, -2.65348423272371292114e-02) (15, 6.56871572136878967285e-02) (16, -4.41784933209419250488e-02) (17, -3.48759070038795471191e-02) (18, -6.28239363431930541992e-02) (19, 2.54881754517555236816e-02) (20, -2.11539976298809051514e-02) (21, 4.60295863449573516846e-02) (22, 7.19010550528764724731e-03) (23, 3.04167047142982482910e-02) (24, -8.00940617918968200684e-02) (25, -9.09488201141357421875e-02) (26, -7.66310766339302062988e-02) (27, 1.77845824509859085083e-02) (28, 3.60734052956104278564e-02) (29, -3.81141854450106620789e-03) (30, 5.70537708699703216553e-02) (31, 2.41375081241130828857e-02) (32, -3.60260382294654846191e-02) (33, 7.17310681939125061035e-02) (34, -5.99809698760509490967e-02) (35, 5.37587553262710571289e-02) (36, 5.15921451151371002197e-02) (37, -3.95240895450115203857e-02) (38, 8.67412388324737548828e-02) (39, 6.96813017129898071289e-02) (40, -5.51167242228984832764e-02) (41, -7.99869373440742492676e-02) (42, -8.67231842130422592163e-03) (43, -6.68356791138648986816e-02) (44, -4.24707494676113128662e-02) (45, 6.47928416728973388672e-02) (46, 9.88514870405197143555e-02) (47, 1.33507596328854560852e-02) (48, -7.00830668210983276367e-02) (49, -6.39724507927894592285e-02) (50, -6.11610673367977142334e-02) (51, 8.76293517649173736572e-03) (52, 8.20571333169937133789e-02) (53, 4.60290424525737762451e-02) (54, -6.08203597366809844971e-02) (55, -9.80369225144386291504e-02) (56, 5.50802238285541534424e-02) (0, -3.74514348804950714111e-02) (1, 1.97476577013731002808e-02) (2, -8.84637236595153808594e-03) (3, 5.87371475994586944580e-02) (4, -2.31985729187726974487e-02) (5, -8.47088694572448730469e-02) (6, -7.72888883948326110840e-02) (7, -5.14675080776214599609e-02) (8, -4.46898341178894042969e-02) (9, 7.64698684215545654297e-02) (10, -9.98753681778907775879e-02) (11, 1.57860759645700454712e-02) (12, 6.32111057639122009277e-02) (13, 6.98059350252151489258e-02) (14, 6.06693550944328308105e-02) (15, 8.32241699099540710449e-02) (16, -3.88663858175277709961e-02) (17, 9.38336774706840515137e-02) (18, -5.92465810477733612061e-02) (19, -7.40735456347465515137e-02) (20, 9.26851630210876464844e-02) (21, 5.41041791439056396484e-02) (22, -4.41566146910190582275e-02) (23, -7.12872892618179321289e-02) (24, 9.29431170225143432617e-02) (25, 6.46063238382339477539e-02) (26, -8.92301574349403381348e-02) (27, 3.89721542596817016602e-02) (28, -9.62140411138534545898e-02) (29, -8.72670784592628479004e-02) (30, -5.94762340188026428223e-03) (31, -3.36654745042324066162e-02) (32, 3.24805788695812225342e-02) (33, 8.52060019969940185547e-02) (34, -7.49283283948898315430e-02) (35, -9.07179936766624450684e-02) (36, -9.95028614997863769531e-02) (37, -5.22172190248966217041e-02) (38, -4.21855039894580841064e-02) (39, -4.41926978528499603271e-02) (40, -7.57473558187484741211e-02) (41, -4.20608706772327423096e-02) (42, 7.15933814644813537598e-02) (43, 8.74637514352798461914e-02) (44, -7.22549408674240112305e-02) (45, 3.22627350687980651855e-02) (46, 7.06879198551177978516e-02) (47, -1.11213224008679389954e-02) (48, 2.60964129120111465454e-02) (49, -8.85586664080619812012e-02) (50, 1.48051315918564796448e-02) (51, 1.87815763056278228760e-02) (52, 6.55455142259597778320e-02) (53, 7.06485211849212646484e-02) (54, 4.74942848086357116699e-02) (55, 5.84886260330677032471e-02) (56, 3.52548398077487945557e-02) (57, 5.82641288638114929199e-02) (58, -2.53921956755220890045e-03) (59, 3.90408001840114593506e-02) (60, 7.09970518946647644043e-02) (61, 9.15131568908691406250e-02) (62, -9.46246758103370666504e-02) (63, 3.47762787714600563049e-03) (64, 7.67191648483276367188e-02) (65, -6.95530027151107788086e-02) (66, 1.27596324309706687927e-02) (67, 7.72163048386573791504e-02) (57, -2.17702202498912811279e-02) (58, 7.05741271376609802246e-02) (59, -6.69763982295989990234e-02) (60, 2.48242542147636413574e-03) (61, -7.14867413043975830078e-02) (62, -9.53830182552337646484e-02) (63, -1.00538264960050582886e-02) (64, -4.37416769564151763916e-02) (65, 3.68797183036804199219e-02) (66, -3.93659099936485290527e-02) (67, 4.51370030641555786133e-02) 
