FANN_FLO_2.1
num_layers=3
learning_rate=0.700000
connection_rate=1.000000
network_type=0
learning_momentum=0.000000
training_algorithm=2
train_error_function=1
train_stop_function=0
cascade_output_change_fraction=0.010000
quickprop_decay=-0.000100
quickprop_mu=1.750000
rprop_increase_factor=1.200000
rprop_decrease_factor=0.500000
rprop_delta_min=0.000000
rprop_delta_max=50.000000
rprop_delta_zero=0.100000
cascade_output_stagnation_epochs=12
cascade_candidate_change_fraction=0.010000
cascade_candidate_stagnation_epochs=12
cascade_max_out_epochs=150
cascade_max_cand_epochs=150
cascade_num_candidate_groups=2
bit_fail_limit=3.49999994039535522461e-01
cascade_candidate_limit=1.00000000000000000000e+03
cascade_weight_multiplier=4.00000005960464477539e-01
cascade_activation_functions_count=10
cascade_activation_functions=3 5 7 8 10 11 14 15 16 17 
cascade_activation_steepnesses_count=4
cascade_activation_steepnesses=2.50000000000000000000e-01 5.00000000000000000000e-01 7.50000000000000000000e-01 1.00000000000000000000e+00 
layer_sizes=57 11 3 
scale_included=0
neurons (num_inputs, activation_function, activation_steepness)=(0, 0, 0.00000000000000000000e+00) (0, 0, 0.00000000000000000000e+00) (0, 0, 0.00000000000000000000e+00) (0, 0, 0.00000000000000000000e+00) (0, 0, 0.00000000000000000000e+00) (0, 0, 0.00000000000000000000e+00) (0, 0, 0.00000000000000000000e+00) (0, 0, 0.00000000000000000000e+00) (0, 0, 0.00000000000000000000e+00) (0, 0, 0.00000000000000000000e+00) (0, 0, 0.00000000000000000000e+00) (0, 0, 0.00000000000000000000e+00) (0, 0, 0.00000000000000000000e+00) (0, 0, 0.00000000000000000000e+00) (0, 0, 0.00000000000000000000e+00) (0, 0, 0.00000000000000000000e+00) (0, 0, 0.00000000000000000000e+00) (0, 0, 0.00000000000000000000e+00) (0, 0, 0.00000000000000000000e+00) (0, 0, 0.00000000000000000000e+00) (0, 0, 0.00000000000000000000e+00) (0, 0, 0.00000000000000000000e+00) (0, 0, 0.00000000000000000000e+00) (0, 0, 0.00000000000000000000e+00) (0, 0, 0.00000000000000000000e+00) (0, 0, 0.00000000000000000000e+00) (0, 0, 0.00000000000000000000e+00) (0, 0, 0.00000000000000000000e+00) (0, 0, 0.00000000000000000000e+00) (0, 0, 0.00000000000000000000e+00) (0, 0, 0.00000000000000000000e+00) (0, 0, 0.00000000000000000000e+00) (0, 0, 0.00000000000000000000e+00) (0, 0, 0.00000000000000000000e+00) (0, 0, 0.00000000000000000000e+00) (0, 0, 0.00000000000000000000e+00) (0, 0, 0.00000000000000000000e+00) (0, 0, 0.00000000000000000000e+00) (0, 0, 0.00000000000000000000e+00) (0, 0, 0.00000000000000000000e+00) (0, 0, 0.00000000000000000000e+00) (0, 0, 0.00000000000000000000e+00) (0, 0, 0.00000000000000000000e+00) (0, 0, 0.00000000000000000000e+00) (0, 0, 0.00000000000000000000e+00) (0, 0, 0.00000000000000000000e+00) (0, 0, 0.00000000000000000000e+00) (0, 0, 0.00000000000000000000e+00) (0, 0, 0.00000000000000000000e+00) (0, 0, 0.00000000000000000000e+00) (0, 0, 0.00000000000000000000e+00) (0, 0, 0.00000000000000000000e+00) (0, 0, 0.00000000000000000000e+00) (0, 0, 0.00000000000000000000e+00) (0, 0, 0.00000000000000000000e+00) (0, 0, 0.00000000000000000000e+00) (0, 0, 0.00000000000000000000e+00) (57, 5, 5.00000000000000000000e-01) (57, 5, 5.00000000000000000000e-01) (57, 5, 5.00000000000000000000e-01) (57, 5, 5.00000000000000000000e-01) (57, 5, 5.00000000000000000000e-01) (57, 5, 5.00000000000000000000e-01) (57, 5, 5.00000000000000000000e-01) (57, 5, 5.00000000000000000000e-01) (57, 5, 5.00000000000000000000e-01) (57, 5, 5.00000000000000000000e-01) (0, 5, 0.00000000000000000000e+00) (11, 11, 5.00000000000000000000e-01) (11, 11, 5.00000000000000000000e-01) (0, 11, 0.00000000000000000000e+00) 
connections (connected_to_neuron, weight)=(0, -1.50000000000000000000e+03) (1, 1.50000000000000000000e+03) (2, 1.50000000000000000000e+03) (3, -1.50000000000000000000e+03) (4, -5.65687438964843750000e+02) (5, 1.50000000000000000000e+03) (6, 1.50000000000000000000e+03) (7, -1.50000000000000000000e+03) (8, -1.50000000000000000000e+03) (9, 1.50000000000000000000e+03) (10, 1.50000000000000000000e+03) (11, -1.50000000000000000000e+03) (12, -3.10621585845947265625e+01) (13, -1.50000000000000000000e+03) (14, 1.50000000000000000000e+03) (15, -1.50000000000000000000e+03) (16, -1.50000000000000000000e+03) (17, 1.50000000000000000000e+03) (18, 1.50000000000000000000e+03) (19, -1.50000000000000000000e+03) (20, 1.34512507915496826172e+00) (21, 1.50000000000000000000e+03) (22, 1.50000000000000000000e+03) (23, -1.50000000000000000000e+03) (24, -1.50000000000000000000e+03) (25, 1.50000000000000000000e+03) (26, 1.50000000000000000000e+03) (27, -1.50000000000000000000e+03) (28, 1.50000000000000000000e+03) (29, -1.50000000000000000000e+03) (30, 1.50000000000000000000e+03) (31, -1.50000000000000000000e+03) (32, -1.50000000000000000000e+03) (33, 1.50000000000000000000e+03) (34, 1.50000000000000000000e+03) (35, -1.50000000000000000000e+03) (36, 1.50000000000000000000e+03) (37, -1.50000000000000000000e+03) (38, 1.50000000000000000000e+03) (39, -1.50000000000000000000e+03) (40, -1.50000000000000000000e+03) (41, 1.50000000000000000000e+03) (42, 1.50000000000000000000e+03) (43, -1.50000000000000000000e+03) (44, 1.49999853515625000000e+03) (45, -1.50000000000000000000e+03) (46, 1.50000000000000000000e+03) (47, -1.50000000000000000000e+03) (48, -1.50000000000000000000e+03) (49, 1.50000000000000000000e+03) (50, 1.50000000000000000000e+03) (51, -1.50000000000000000000e+03) (52, 1.50000000000000000000e+03) (53, -1.50000000000000000000e+03) (54, 1.50000000000000000000e+03) (55, -1.50000000000000000000e+03) (56, -3.91099700927734375000e+01) (0, -1.50000000000000000000e+03) (1, 1.50000000000000000000e+03) (2, 1.49114135742187500000e+03) (3, 1.50000000000000000000e+03) (4, -1.50000000000000000000e+03) (5, -1.50000000000000000000e+03) (6, -1.49386364746093750000e+03) (7, -1.50000000000000000000e+03) (8, -1.50000000000000000000e+03) (9, 1.50000000000000000000e+03) (10, 1.45571838378906250000e+03) (11, 1.50000000000000000000e+03) (12, -1.47500000000000000000e+03) (13, -1.50000000000000000000e+03) (14, -1.48221728515625000000e+03) (15, 1.50000000000000000000e+03) (16, -1.47969982910156250000e+03) (17, 1.50000000000000000000e+03) (18, 1.49094641113281250000e+03) (19, 1.50000000000000000000e+03) (20, -1.47500000000000000000e+03) (21, 1.50000000000000000000e+03) (22, -1.49588793945312500000e+03) (23, 1.50000000000000000000e+03) (24, 1.50000000000000000000e+03) (25, 1.50000000000000000000e+03) (26, -5.02249176025390625000e+02) (27, 1.50000000000000000000e+03) (28, -1.47760510253906250000e+03) (29, 1.50000000000000000000e+03) (30, -1.47760510253906250000e+03) (31, 1.50000000000000000000e+03) (32, -1.49940502929687500000e+03) (33, 1.50000000000000000000e+03) (34, -1.45604785156250000000e+03) (35, 1.50000000000000000000e+03) (36, -1.47760510253906250000e+03) (37, 1.50000000000000000000e+03) (38, -1.48606188964843750000e+03) (39, 1.50000000000000000000e+03) (40, -1.47419433593750000000e+03) (41, 1.50000000000000000000e+03) (42, -1.45604943847656250000e+03) (43, 1.50000000000000000000e+03) (44, -1.47760510253906250000e+03) (45, 1.50000000000000000000e+03) (46, -1.47760510253906250000e+03) (47, 1.50000000000000000000e+03) (48, -1.50000000000000000000e+03) (49, 1.50000000000000000000e+03) (50, -1.46676452636718750000e+03) (51, 1.50000000000000000000e+03) (52, -1.30791885375976562500e+02) (53, 1.82215225219726562500e+02) (54, -1.49932507324218750000e+03) (55, 1.50000000000000000000e+03) (56, 3.25529724121093750000e+02) (0, -1.50000000000000000000e+03) (1, 1.50000000000000000000e+03) (2, -1.49656677246093750000e+03) (3, 1.50000000000000000000e+03) (4, -1.50000000000000000000e+03) (5, -1.50000000000000000000e+03) (6, -1.47760510253906250000e+03) (7, 1.50000000000000000000e+03) (8, -1.50000000000000000000e+03) (9, 1.50000000000000000000e+03) (10, -1.49581250000000000000e+03) (11, 1.50000000000000000000e+03) (12, -1.47500000000000000000e+03) (13, -1.50000000000000000000e+03) (14, -1.49066882324218750000e+03) (15, 1.50000000000000000000e+03) (16, 1.50000000000000000000e+03) (17, 1.50000000000000000000e+03) (18, -1.49972790527343750000e+03) (19, 1.50000000000000000000e+03) (20, -1.47500000000000000000e+03) (21, -1.44182885742187500000e+03) (22, -1.47760510253906250000e+03) (23, 1.50000000000000000000e+03) (24, 1.50000000000000000000e+03) (25, 1.50000000000000000000e+03) (26, -1.47760510253906250000e+03) (27, 1.50000000000000000000e+03) (28, -1.47500000000000000000e+03) (29, 1.50000000000000000000e+03) (30, -1.47760510253906250000e+03) (31, 1.50000000000000000000e+03) (32, -1.49202917480468750000e+03) (33, 1.50000000000000000000e+03) (34, -1.47500000000000000000e+03) (35, 1.50000000000000000000e+03) (36, -1.47760510253906250000e+03) (37, 1.50000000000000000000e+03) (38, -1.47760510253906250000e+03) (39, 1.50000000000000000000e+03) (40, -1.48079589843750000000e+03) (41, 1.50000000000000000000e+03) (42, -1.47500000000000000000e+03) (43, 1.50000000000000000000e+03) (44, -1.47760510253906250000e+03) (45, 1.50000000000000000000e+03) (46, -1.47760510253906250000e+03) (47, 1.50000000000000000000e+03) (48, -1.48614074707031250000e+03) (49, 1.50000000000000000000e+03) (50, -1.47500000000000000000e+03) (51, 1.50000000000000000000e+03) (52, -1.49066882324218750000e+03) (53, 1.50000000000000000000e+03) (54, -1.47760510253906250000e+03) (55, 1.50000000000000000000e+03) (56, 2.31713211059570312500e+02) (0, -1.50000000000000000000e+03) (1, 1.50000000000000000000e+03) (2, -1.49999243164062500000e+03) (3, 1.50000000000000000000e+03) (4, -1.50000000000000000000e+03) (5, -1.50000000000000000000e+03) (6, -1.49066882324218750000e+03) (7, 1.50000000000000000000e+03) (8, -1.50000000000000000000e+03) (9, 1.50000000000000000000e+03) (10, -1.49457910156250000000e+03) (11, 1.50000000000000000000e+03) (12, -1.47500000000000000000e+03) (13, -1.50000000000000000000e+03) (14, -1.49066882324218750000e+03) (15, 1.50000000000000000000e+03) (16, 1.50000000000000000000e+03) (17, 1.50000000000000000000e+03) (18, -1.49462976074218750000e+03) (19, 1.50000000000000000000e+03) (20, -1.47500000000000000000e+03) (21, -1.47483203125000000000e+03) (22, -1.47760510253906250000e+03) (23, 1.50000000000000000000e+03) (24, 1.50000000000000000000e+03) (25, 1.50000000000000000000e+03) (26, -1.49588793945312500000e+03) (27, 1.50000000000000000000e+03) (28, -1.47500000000000000000e+03) (29, 1.50000000000000000000e+03) (30, -1.47760510253906250000e+03) (31, 1.50000000000000000000e+03) (32, -1.49385266113281250000e+03) (33, 1.50000000000000000000e+03) (34, -1.47760510253906250000e+03) (35, 1.50000000000000000000e+03) (36, -1.47760510253906250000e+03) (37, 1.50000000000000000000e+03) (38, -1.47760510253906250000e+03) (39, 1.50000000000000000000e+03) (40, -1.46612561035156250000e+03) (41, 1.50000000000000000000e+03) (42, -1.47760510253906250000e+03) (43, 1.50000000000000000000e+03) (44, -1.47760510253906250000e+03) (45, 1.50000000000000000000e+03) (46, -1.47760510253906250000e+03) (47, 1.50000000000000000000e+03) (48, -1.41901379394531250000e+03) (49, 1.50000000000000000000e+03) (50, -1.47500000000000000000e+03) (51, 1.50000000000000000000e+03) (52, -1.49066882324218750000e+03) (53, 1.50000000000000000000e+03) (54, -1.47760510253906250000e+03) (55, 1.50000000000000000000e+03) (56, 1.51616964340209960938e+01) (0, -1.50000000000000000000e+03) (1, 1.50000000000000000000e+03) (2, 1.50000000000000000000e+03) (3, -1.50000000000000000000e+03) (4, -1.50000000000000000000e+03) (5, -1.50000000000000000000e+03) (6, 1.49990856933593750000e+03) (7, -1.50000000000000000000e+03) (8, -1.50000000000000000000e+03) (9, 1.50000000000000000000e+03) (10, 1.50000000000000000000e+03) (11, 1.49557946777343750000e+03) (12, -1.50000000000000000000e+03) (13, -1.50000000000000000000e+03) (14, 1.49991040039062500000e+03) (15, -1.50000000000000000000e+03) (16, -1.50000000000000000000e+03) (17, 1.50000000000000000000e+03) (18, 1.50000000000000000000e+03) (19, 1.50000000000000000000e+03) (20, -1.50000000000000000000e+03) (21, 1.50000000000000000000e+03) (22, 1.49966027832031250000e+03) (23, 1.50000000000000000000e+03) (24, -1.50000000000000000000e+03) (25, 1.50000000000000000000e+03) (26, 1.50000000000000000000e+03) (27, 1.50000000000000000000e+03) (28, 1.28803540039062500000e+03) (29, -1.50000000000000000000e+03) (30, 1.49967797851562500000e+03) (31, -1.50000000000000000000e+03) (32, -1.50000000000000000000e+03) (33, 1.50000000000000000000e+03) (34, 1.49999743652343750000e+03) (35, 1.50000000000000000000e+03) (36, 1.48919470214843750000e+03) (37, 1.50000000000000000000e+03) (38, 1.49992773437500000000e+03) (39, -1.46396911621093750000e+03) (40, -1.50000000000000000000e+03) (41, 1.50000000000000000000e+03) (42, 1.49999768066406250000e+03) (43, 1.50000000000000000000e+03) (44, -1.34419726562500000000e+03) (45, -1.50000000000000000000e+03) (46, 1.49870373535156250000e+03) (47, 1.50000000000000000000e+03) (48, -1.50000000000000000000e+03) (49, 1.50000000000000000000e+03) (50, 1.50000000000000000000e+03) (51, 1.50000000000000000000e+03) (52, 1.49901306152343750000e+03) (53, -1.50000000000000000000e+03) (54, 1.49934350585937500000e+03) (55, 6.49371704101562500000e+02) (56, 4.80061607360839843750e+01) (0, 1.28677453994750976562e+01) (1, 5.06746816635131835938e+00) (2, 1.90546642988920211792e-02) (3, -1.02096343040466308594e+00) (4, 1.47117093205451965332e-01) (5, 2.28387147188186645508e-01) (6, -7.27555388584733009338e-03) (7, 6.56094312667846679688e-01) (8, -5.83478093147277832031e-01) (9, 3.83369469642639160156e+00) (10, 4.78081218898296356201e-02) (11, -1.48478552699089050293e-01) (12, 7.02969655394554138184e-02) (13, 1.66403561830520629883e-01) (14, 4.67249676585197448730e-02) (15, 2.65210539102554321289e-01) (16, -8.74334454536437988281e-01) (17, 1.05079460144042968750e+00) (18, 2.79756672680377960205e-02) (19, -5.87777383625507354736e-02) (20, 4.40285615622997283936e-02) (21, 1.50525093078613281250e-01) (22, 1.19542606174945831299e-01) (23, -3.09838145971298217773e-01) (24, -7.26544761657714843750e+00) (25, 9.47104394435882568359e-01) (26, 1.52362817898392677307e-02) (27, -1.10850721597671508789e-01) (28, 1.03059947490692138672e-01) (29, -5.45010790228843688965e-02) (30, -3.31397652626037597656e-02) (31, 2.06931024789810180664e-01) (32, 7.78108501434326171875e+00) (33, -7.71237909793853759766e-02) (34, 3.16680558025836944580e-02) (35, 6.44874349236488342285e-02) (36, 4.25548590719699859619e-02) (37, -4.23038937151432037354e-02) (38, 2.12071701884269714355e-01) (39, 2.57504396140575408936e-02) (40, 1.78595650196075439453e+00) (41, -1.07356059551239013672e+00) (42, 1.12723015248775482178e-01) (43, 3.50283905863761901855e-02) (44, 1.56668260693550109863e-01) (45, 6.35205805301666259766e-02) (46, 3.73915620148181915283e-02) (47, 3.62939313054084777832e-02) (48, 3.09762048721313476562e+00) (49, 2.39163637161254882812e-01) (50, 7.88801014423370361328e-02) (51, 4.48594912886619567871e-02) (52, 5.53474426269531250000e-02) (53, 1.14839762449264526367e-01) (54, 1.71451985836029052734e-01) (55, -1.16414137184619903564e-01) (56, -4.71900068223476409912e-02) (0, 3.97637534141540527344e+00) (1, 1.98656451702117919922e+00) (2, 7.97764211893081665039e-02) (3, -5.19928038120269775391e-01) (4, 1.26807168126106262207e-01) (5, 2.19062224030494689941e-01) (6, 6.29933178424835205078e-02) (7, 6.12012028694152832031e-01) (8, 7.25803673267364501953e-01) (9, 2.26356291770935058594e+00) (10, 6.77751097828149795532e-03) (11, -1.79798498749732971191e-01) (12, 7.17997178435325622559e-02) (13, 1.66208907961845397949e-01) (14, -1.61018385551869869232e-03) (15, 1.99516698718070983887e-01) (16, 1.34507417678833007812e-01) (17, 4.27481174468994140625e-01) (18, 8.95545110106468200684e-02) (19, -4.35446083545684814453e-01) (20, 3.42864841222763061523e-02) (21, 1.53448879718780517578e-01) (22, 9.40776243805885314941e-02) (23, -2.64938324689865112305e-01) (24, -7.44449472427368164062e+00) (25, 2.26326301693916320801e-01) (26, 1.41726732254028320312e-01) (27, -1.85165181756019592285e-01) (28, 1.05569347739219665527e-01) (29, -7.18479454517364501953e-02) (30, 3.85244898498058319092e-02) (31, 2.15007856488227844238e-01) (32, 1.02860670089721679688e+01) (33, -1.99859344959259033203e+00) (34, -2.86268532363465055823e-05) (35, -1.74803305417299270630e-02) (36, 8.21338072419166564941e-02) (37, -2.91869919747114181519e-02) (38, -2.89386021904647350311e-03) (39, 1.00945875048637390137e-01) (40, 2.89494991302490234375e+00) (41, -2.34334278106689453125e+00) (42, 6.97692409157752990723e-02) (43, 7.16746374964714050293e-02) (44, 1.46341785788536071777e-01) (45, 5.75605593621730804443e-02) (46, 1.16502836346626281738e-01) (47, -7.13969394564628601074e-02) (48, 3.29780387878417968750e+00) (49, -3.27082574367523193359e-01) (50, 6.08673915266990661621e-02) (51, 2.35247731208801269531e-01) (52, 8.60928297042846679688e-02) (53, 9.64300930500030517578e-02) (54, 1.71942085027694702148e-01) (55, -1.13274797797203063965e-01) (56, 9.01836231350898742676e-02) (0, -1.50000000000000000000e+03) (1, 1.50000000000000000000e+03) (2, 1.49983593750000000000e+03) (3, 1.50000000000000000000e+03) (4, -1.50000000000000000000e+03) (5, -1.50000000000000000000e+03) (6, -1.49066882324218750000e+03) (7, -1.32589794921875000000e+03) (8, -1.50000000000000000000e+03) (9, 1.50000000000000000000e+03) (10, 1.49919946289062500000e+03) (11, 1.50000000000000000000e+03) (12, -1.47500000000000000000e+03) (13, -1.50000000000000000000e+03) (14, -1.49546044921875000000e+03) (15, 1.50000000000000000000e+03) (16, 1.50000000000000000000e+03) (17, 1.50000000000000000000e+03) (18, 1.49917822265625000000e+03) (19, 1.50000000000000000000e+03) (20, -1.47500000000000000000e+03) (21, 1.50000000000000000000e+03) (22, -1.47760510253906250000e+03) (23, 1.50000000000000000000e+03) (24, 1.50000000000000000000e+03) (25, 1.50000000000000000000e+03) (26, 1.21868566894531250000e+03) (27, 1.50000000000000000000e+03) (28, -1.47500000000000000000e+03) (29, 1.50000000000000000000e+03) (30, -1.47760510253906250000e+03) (31, 1.50000000000000000000e+03) (32, -3.90943145751953125000e+02) (33, 1.50000000000000000000e+03) (34, -1.47760510253906250000e+03) (35, 1.50000000000000000000e+03) (36, -1.47760510253906250000e+03) (37, 1.50000000000000000000e+03) (38, -1.47760510253906250000e+03) (39, 1.50000000000000000000e+03) (40, -1.46613183593750000000e+03) (41, 1.50000000000000000000e+03) (42, -1.47760510253906250000e+03) (43, 1.50000000000000000000e+03) (44, -1.47760510253906250000e+03) (45, 1.50000000000000000000e+03) (46, -1.47760510253906250000e+03) (47, 1.50000000000000000000e+03) (48, -1.45094213867187500000e+03) (49, 1.50000000000000000000e+03) (50, -1.47500000000000000000e+03) (51, 1.50000000000000000000e+03) (52, -1.49066882324218750000e+03) (53, 1.50000000000000000000e+03) (54, -1.47760510253906250000e+03) (55, 1.50000000000000000000e+03) (56, -1.48812963867187500000e+03) (0, -4.28973942995071411133e-01) (1, -9.26132261753082275391e-01) (2, 1.14975333213806152344e-01) (3, 5.07616698741912841797e-01) (4, 7.92795345187187194824e-02) (5, 2.04643964767456054688e-01) (6, 6.02190718054771423340e-02) (7, 1.11651927232742309570e-01) (8, -8.33817541599273681641e-01) (9, 6.12592399120330810547e-01) (10, 7.41311535239219665527e-02) (11, -8.90075489878654479980e-02) (12, 4.82820421457290649414e-02) (13, 1.39227241277694702148e-01) (14, 3.51452194154262542725e-02) (15, -6.68370276689529418945e-02) (16, -9.27596271038055419922e-01) (17, -1.34793013334274291992e-01) (18, 3.02255470305681228638e-02) (19, -7.06560254096984863281e-01) (20, 1.19075365364551544189e-02) (21, 1.17932572960853576660e-01) (22, 1.42234042286872863770e-02) (23, -2.14355692267417907715e-01) (24, -3.81981396675109863281e+00) (25, -1.55439853668212890625e+00) (26, 1.42903253436088562012e-01) (27, 3.18377390503883361816e-02) (28, 9.31494310498237609863e-02) (29, -7.02850595116615295410e-02) (30, -6.17736838757991790771e-02) (31, 2.50166326761245727539e-01) (32, 1.34452295303344726562e+01) (33, -4.44038343429565429688e+00) (34, 6.68551027774810791016e-02) (35, -1.21709890663623809814e-02) (36, 1.12139016389846801758e-01) (37, -4.99892011284828186035e-02) (38, 3.16364802420139312744e-02) (39, -2.20124348998069763184e-01) (40, 4.63053274154663085938e+00) (41, -3.79815721511840820312e+00) (42, 1.16870775818824768066e-01) (43, 9.68053340911865234375e-02) (44, 9.82138514518737792969e-02) (45, 3.27955707907676696777e-02) (46, 3.52035346440970897675e-03) (47, 5.60050010681152343750e-02) (48, 3.10984754562377929688e+00) (49, -1.16378533840179443359e+00) (50, 5.42210508137941360474e-03) (51, -1.06291480362415313721e-01) (52, 1.21491961181163787842e-01) (53, 9.32868644595146179199e-02) (54, 2.28640452027320861816e-01) (55, 4.88055776804685592651e-03) (56, 3.24345022439956665039e-01) (0, 1.50000000000000000000e+03) (1, 1.50000000000000000000e+03) (2, 2.48158950805664062500e+01) (3, -1.04861791992187500000e+03) (4, 4.24442958831787109375e+00) (5, 2.29179167747497558594e+00) (6, 8.88053119182586669922e-01) (7, 9.10806518554687500000e+02) (8, 1.17965576171875000000e+03) (9, 1.50000000000000000000e+03) (10, 2.80995521545410156250e+01) (11, -7.21982055664062500000e+02) (12, 1.11772756576538085938e+01) (13, 7.08436431884765625000e+01) (14, 4.28891032934188842773e-02) (15, -3.47995567321777343750e+01) (16, -1.50000000000000000000e+03) (17, 1.50000000000000000000e+03) (18, 1.73961913585662841797e+00) (19, -1.67712974548339843750e+01) (20, 1.20583641529083251953e+00) (21, -6.45338821411132812500e+01) (22, 1.19398375973105430603e-02) (23, -6.54312927246093750000e+02) (24, -1.50000000000000000000e+03) (25, 1.50000000000000000000e+03) (26, 1.17472858428955078125e+01) (27, 2.39452743530273437500e+00) (28, 8.49890351295471191406e-01) (29, 1.79827713012695312500e+02) (30, 2.54723596572875976562e+00) (31, -9.32241439819335937500e+01) (32, 1.49983068847656250000e+03) (33, 1.50000000000000000000e+03) (34, 1.14273719787597656250e+01) (35, 4.86164569854736328125e+00) (36, 1.35269680023193359375e+01) (37, 7.17223834991455078125e+00) (38, 2.15149939060211181641e-01) (39, 2.76207275390625000000e+01) (40, 1.49999584960937500000e+03) (41, 1.50000000000000000000e+03) (42, 1.08500528335571289062e+01) (43, 4.99045276641845703125e+00) (44, 8.55409145355224609375e-01) (45, 1.70322967529296875000e+02) (46, 4.97129487991333007812e+00) (47, 7.41289091110229492188e+00) (48, 1.31240539550781250000e+03) (49, 1.50000000000000000000e+03) (50, 3.10907125473022460938e+00) (51, 4.39707107543945312500e+01) (52, 5.36682548522949218750e+01) (53, 2.25770050048828125000e+02) (54, -7.28744924068450927734e-01) (55, 4.01411018371582031250e+01) (56, 4.62092638015747070312e+00) (57, 1.87521358020603656769e-03) (58, 2.24707480520009994507e-02) (59, 7.54517987370491027832e-02) (60, 8.24212655425071716309e-02) (61, 3.95926553755998611450e-03) (62, 2.86852931976318359375e+00) (63, -5.05401849746704101562e+00) (64, 3.20579633116722106934e-02) (65, 2.45616126060485839844e+00) (66, -5.09916320443153381348e-02) (67, 2.11880922317504882812e-01) (57, 4.53022234141826629639e-02) (58, 1.68463643640279769897e-02) (59, 2.78883520513772964478e-02) (60, 3.93824204802513122559e-02) (61, 1.27606038004159927368e-02) (62, 3.63301992416381835938e-01) (63, 1.39392048120498657227e-01) (64, 1.48392049595713615417e-02) (65, -6.31109595298767089844e-01) (66, 2.84668076783418655396e-02) (67, 1.40497460961341857910e-01) 
