FANN_FLO_2.1
num_layers=3
learning_rate=0.700000
connection_rate=1.000000
network_type=0
learning_momentum=0.000000
training_algorithm=2
train_error_function=1
train_stop_function=0
cascade_output_change_fraction=0.010000
quickprop_decay=-0.000100
quickprop_mu=1.750000
rprop_increase_factor=1.200000
rprop_decrease_factor=0.500000
rprop_delta_min=0.000000
rprop_delta_max=50.000000
rprop_delta_zero=0.100000
cascade_output_stagnation_epochs=12
cascade_candidate_change_fraction=0.010000
cascade_candidate_stagnation_epochs=12
cascade_max_out_epochs=150
cascade_max_cand_epochs=150
cascade_num_candidate_groups=2
bit_fail_limit=3.49999994039535522461e-01
cascade_candidate_limit=1.00000000000000000000e+03
cascade_weight_multiplier=4.00000005960464477539e-01
cascade_activation_functions_count=10
cascade_activation_functions=3 5 7 8 10 11 14 15 16 17 
cascade_activation_steepnesses_count=4
cascade_activation_steepnesses=2.50000000000000000000e-01 5.00000000000000000000e-01 7.50000000000000000000e-01 1.00000000000000000000e+00 
layer_sizes=65 11 3 
scale_included=0
neurons (num_inputs, activation_function, activation_steepness)=(0, 0, 0.00000000000000000000e+00) (0, 0, 0.00000000000000000000e+00) (0, 0, 0.00000000000000000000e+00) (0, 0, 0.00000000000000000000e+00) (0, 0, 0.00000000000000000000e+00) (0, 0, 0.00000000000000000000e+00) (0, 0, 0.00000000000000000000e+00) (0, 0, 0.00000000000000000000e+00) (0, 0, 0.00000000000000000000e+00) (0, 0, 0.00000000000000000000e+00) (0, 0, 0.00000000000000000000e+00) (0, 0, 0.00000000000000000000e+00) (0, 0, 0.00000000000000000000e+00) (0, 0, 0.00000000000000000000e+00) (0, 0, 0.00000000000000000000e+00) (0, 0, 0.00000000000000000000e+00) (0, 0, 0.00000000000000000000e+00) (0, 0, 0.00000000000000000000e+00) (0, 0, 0.00000000000000000000e+00) (0, 0, 0.00000000000000000000e+00) (0, 0, 0.00000000000000000000e+00) (0, 0, 0.00000000000000000000e+00) (0, 0, 0.00000000000000000000e+00) (0, 0, 0.00000000000000000000e+00) (0, 0, 0.00000000000000000000e+00) (0, 0, 0.00000000000000000000e+00) (0, 0, 0.00000000000000000000e+00) (0, 0, 0.00000000000000000000e+00) (0, 0, 0.00000000000000000000e+00) (0, 0, 0.00000000000000000000e+00) (0, 0, 0.00000000000000000000e+00) (0, 0, 0.00000000000000000000e+00) (0, 0, 0.00000000000000000000e+00) (0, 0, 0.00000000000000000000e+00) (0, 0, 0.00000000000000000000e+00) (0, 0, 0.00000000000000000000e+00) (0, 0, 0.00000000000000000000e+00) (0, 0, 0.00000000000000000000e+00) (0, 0, 0.00000000000000000000e+00) (0, 0, 0.00000000000000000000e+00) (0, 0, 0.00000000000000000000e+00) (0, 0, 0.00000000000000000000e+00) (0, 0, 0.00000000000000000000e+00) (0, 0, 0.00000000000000000000e+00) (0, 0, 0.00000000000000000000e+00) (0, 0, 0.00000000000000000000e+00) (0, 0, 0.00000000000000000000e+00) (0, 0, 0.00000000000000000000e+00) (0, 0, 0.00000000000000000000e+00) (0, 0, 0.00000000000000000000e+00) (0, 0, 0.00000000000000000000e+00) (0, 0, 0.00000000000000000000e+00) (0, 0, 0.00000000000000000000e+00) (0, 0, 0.00000000000000000000e+00) (0, 0, 0.00000000000000000000e+00) (0, 0, 0.00000000000000000000e+00) (0, 0, 0.00000000000000000000e+00) (0, 0, 0.00000000000000000000e+00) (0, 0, 0.00000000000000000000e+00) (0, 0, 0.00000000000000000000e+00) (0, 0, 0.00000000000000000000e+00) (0, 0, 0.00000000000000000000e+00) (0, 0, 0.00000000000000000000e+00) (0, 0, 0.00000000000000000000e+00) (0, 0, 0.00000000000000000000e+00) (65, 5, 5.00000000000000000000e-01) (65, 5, 5.00000000000000000000e-01) (65, 5, 5.00000000000000000000e-01) (65, 5, 5.00000000000000000000e-01) (65, 5, 5.00000000000000000000e-01) (65, 5, 5.00000000000000000000e-01) (65, 5, 5.00000000000000000000e-01) (65, 5, 5.00000000000000000000e-01) (65, 5, 5.00000000000000000000e-01) (65, 5, 5.00000000000000000000e-01) (0, 5, 0.00000000000000000000e+00) (11, 11, 5.00000000000000000000e-01) (11, 11, 5.00000000000000000000e-01) (0, 11, 0.00000000000000000000e+00) 
connections (connected_to_neuron, weight)=(0, -3.75990159809589385986e-02) (1, 1.12070732116699218750e+01) (2, 3.93385365605354309082e-02) (3, 4.02752876281738281250e+00) (4, -2.59884372353553771973e-02) (5, -8.52900981903076171875e+00) (6, -7.04230219125747680664e-02) (7, -3.37584185600280761719e+00) (8, 2.62601394206285476685e-02) (9, 5.20718078613281250000e+01) (10, -2.10744459182024002075e-02) (11, -8.61371517181396484375e-01) (12, 6.90731555223464965820e-02) (13, -9.37365722656250000000e+00) (14, -4.58257682621479034424e-02) (15, -8.80920791625976562500e+00) (16, -2.81222723424434661865e-02) (17, 2.88411426544189453125e+00) (18, 8.38291719555854797363e-02) (19, 3.33982855081558227539e-01) (20, 8.19700509309768676758e-02) (21, -9.35148906707763671875e+00) (22, 8.71426612138748168945e-02) (23, -7.45221078395843505859e-01) (24, 8.49634259939193725586e-02) (25, -3.27909965515136718750e+01) (26, 1.68967824429273605347e-02) (27, -5.74138402938842773438e-01) (28, -7.76142850518226623535e-02) (29, -8.07733440399169921875e+00) (30, -2.48826909810304641724e-02) (31, 5.50918865203857421875e+00) (32, 4.03205528855323791504e-02) (33, -1.60155372619628906250e+01) (34, 6.10745921730995178223e-02) (35, -1.06523059308528900146e-01) (36, -4.28700149059295654297e-02) (37, 4.62061452865600585938e+00) (38, -7.95481577515602111816e-02) (39, 2.52853608131408691406e+00) (40, 8.61381366848945617676e-02) (41, -4.63755226135253906250e+00) (42, -3.25054936110973358154e-02) (43, 1.90946502685546875000e+01) (44, -3.43604460358619689941e-02) (45, -7.16782510280609130859e-01) (46, -4.18298132717609405518e-02) (47, 2.00403556823730468750e+01) (48, -6.00968860089778900146e-02) (49, 6.86032104492187500000e+00) (50, -5.18107935786247253418e-02) (51, -3.08249645233154296875e+01) (52, 5.69584146142005920410e-02) (53, 1.00196599960327148438e+01) (54, 4.40668351948261260986e-02) (55, -1.97684061527252197266e+00) (56, 7.13501423597335815430e-02) (57, 6.27685368061065673828e-01) (58, 8.46317596733570098877e-03) (59, 3.09327697753906250000e+00) (60, -6.42074272036552429199e-02) (61, 1.68032188415527343750e+01) (62, -4.04063463211059570312e-02) (63, -4.17254924774169921875e+00) (64, 8.38321894407272338867e-02) (0, 1.37157249450683593750e+00) (1, 5.76375818252563476562e+00) (2, 1.38715863227844238281e+00) (3, 2.26576137542724609375e+01) (4, 1.54036331176757812500e+00) (5, -1.65548858642578125000e+02) (6, 1.53647506237030029297e+00) (7, -2.87399635314941406250e+01) (8, 1.42679464817047119141e+00) (9, -6.63369598388671875000e+01) (10, 1.49398696422576904297e+00) (11, -1.26301050186157226562e+01) (12, 1.53316521644592285156e+00) (13, -2.31489443778991699219e+00) (14, 1.37474083900451660156e+00) (15, -1.12618055343627929688e+01) (16, 1.46608424186706542969e+00) (17, -7.38521194458007812500e+01) (18, 1.52147376537322998047e+00) (19, -4.87816085815429687500e+01) (20, 1.52643752098083496094e+00) (21, -8.65739517211914062500e+01) (22, 1.45710217952728271484e+00) (23, 4.74967155456542968750e+01) (24, 1.55524992942810058594e+00) (25, 9.81847534179687500000e+01) (26, 1.41401994228363037109e+00) (27, -6.43145065307617187500e+01) (28, 1.49402844905853271484e+00) (29, 1.65181060791015625000e+02) (30, 1.50431001186370849609e+00) (31, -4.31357345581054687500e+01) (32, 1.55052304267883300781e+00) (33, -5.72905807495117187500e+01) (34, 1.51096439361572265625e+00) (35, -1.67439632415771484375e+01) (36, 1.54168450832366943359e+00) (37, -4.92896938323974609375e+00) (38, 1.41263580322265625000e+00) (39, -1.92563232421875000000e+02) (40, 1.41657161712646484375e+00) (41, -5.89976310729980468750e+01) (42, 1.39969754219055175781e+00) (43, 2.85627441406250000000e+01) (44, 1.41750729084014892578e+00) (45, 1.20418495178222656250e+02) (46, 1.40662419795989990234e+00) (47, -2.70975704193115234375e+01) (48, 1.44889283180236816406e+00) (49, -2.36764774322509765625e+01) (50, 1.46572256088256835938e+00) (51, 1.62141246795654296875e+01) (52, 1.47025263309478759766e+00) (53, 2.05307078361511230469e+00) (54, 1.44593179225921630859e+00) (55, -1.69098968505859375000e+01) (56, 1.45008563995361328125e+00) (57, -1.22996425628662109375e+01) (58, 1.44028568267822265625e+00) (59, -6.35148696899414062500e+01) (60, 1.52855587005615234375e+00) (61, 6.91601514816284179688e+00) (62, 1.54316484928131103516e+00) (63, 3.80137748718261718750e+01) (64, 1.36939215660095214844e+00) (0, 7.79290795326232910156e-02) (1, 3.72697949409484863281e+00) (2, -6.35165199637413024902e-02) (3, 8.60530555248260498047e-01) (4, -5.86646534502506256104e-02) (5, -7.56353998184204101562e+00) (6, 7.68611803650856018066e-02) (7, 2.89613747596740722656e+00) (8, 3.83194945752620697021e-02) (9, 2.36481976509094238281e+00) (10, -3.43611609423533082008e-04) (11, -2.83389300107955932617e-01) (12, -3.43464016914367675781e-02) (13, -8.06473493576049804688e-01) (14, -6.26245932653546333313e-03) (15, 2.02861860394477844238e-01) (16, 7.95227065682411193848e-02) (17, 2.36448660492897033691e-01) (18, 9.74565297365188598633e-02) (19, -9.62638139724731445312e-01) (20, -5.08081428706645965576e-02) (21, -4.34888660907745361328e-01) (22, -1.10121862962841987610e-02) (23, -2.57249140739440917969e+00) (24, 9.89078655838966369629e-02) (25, -3.70870172977447509766e-01) (26, 7.14370757341384887695e-02) (27, -4.39446061849594116211e-01) (28, 1.04591092094779014587e-02) (29, 2.75348216295242309570e-01) (30, -5.52484430372714996338e-02) (31, -4.92989391088485717773e-01) (32, -9.95166506618261337280e-03) (33, -1.91481149196624755859e+00) (34, 3.37858796119689941406e-02) (35, -2.38419592380523681641e-01) (36, 3.76722100190818309784e-03) (37, -1.71955358982086181641e+00) (38, -3.98185243830084800720e-03) (39, 1.29929935932159423828e+00) (40, -4.88090366125106811523e-02) (41, -1.75052309036254882812e+00) (42, 7.27251842617988586426e-02) (43, -7.26763010025024414062e-01) (44, 9.63725969195365905762e-02) (45, -8.14554691314697265625e-01) (46, 2.72183939814567565918e-02) (47, 7.71274089813232421875e-01) (48, 5.19197471439838409424e-02) (49, -1.17868947982788085938e+00) (50, 4.60367416962981224060e-03) (51, -1.11251783370971679688e+00) (52, 6.54915049672126770020e-02) (53, 7.76206552982330322266e-01) (54, 2.79513392597436904907e-02) (55, 6.22000217437744140625e-01) (56, -5.69153912365436553955e-02) (57, -8.98005425930023193359e-01) (58, 1.93036496639251708984e-02) (59, -3.68080401420593261719e+00) (60, 6.74773082137107849121e-02) (61, -7.69987642765045166016e-01) (62, 3.58259454369544982910e-02) (63, 5.01220583915710449219e-01) (64, 4.15467135608196258545e-02) (0, 7.96768292784690856934e-02) (1, 8.44307899475097656250e+00) (2, 5.91285787522792816162e-02) (3, 8.25851142406463623047e-01) (4, -1.25842485576868057251e-02) (5, 2.40881299972534179688e+00) (6, -6.97585567831993103027e-02) (7, -9.05054330825805664062e-01) (8, -3.69897074997425079346e-02) (9, -1.07357149124145507812e+01) (10, 7.32260793447494506836e-02) (11, -9.10513520240783691406e-01) (12, 6.71239942312240600586e-02) (13, -1.34716582298278808594e+00) (14, 7.29559585452079772949e-02) (15, 7.21662163734436035156e-01) (16, 4.74899858236312866211e-02) (17, -9.72136497497558593750e+00) (18, 5.16281835734844207764e-02) (19, 8.77478957176208496094e-01) (20, -1.04079946875572204590e-01) (21, 5.60692071914672851562e-01) (22, -2.35413946211338043213e-02) (23, -4.19518977403640747070e-01) (24, 3.08038108050823211670e-02) (25, -4.15829133987426757812e+00) (26, 5.68317398428916931152e-02) (27, -7.53549933433532714844e-02) (28, -4.10088114440441131592e-02) (29, 9.88060176372528076172e-01) (30, 3.25569324195384979248e-02) (31, -7.11495590209960937500e+00) (32, -1.13968960940837860107e-01) (33, -9.70067143440246582031e-01) (34, -1.06948930770158767700e-02) (35, -5.58841049671173095703e-01) (36, -4.87428791821002960205e-02) (37, 4.82776403427124023438e+00) (38, 1.84185020625591278076e-02) (39, -6.51605749130249023438e+00) (40, -7.25779160857200622559e-02) (41, 1.48467659950256347656e+00) (42, -9.48651358485221862793e-02) (43, -2.08234739303588867188e+00) (44, -9.54980924725532531738e-02) (45, 1.09969234466552734375e+00) (46, -5.12406937777996063232e-02) (47, -4.21367645263671875000e+00) (48, 1.44181149080395698547e-02) (49, 9.02229213714599609375e+00) (50, -4.48528043925762176514e-02) (51, -6.97921574115753173828e-01) (52, -2.41025537252426147461e-02) (53, 1.52081441879272460938e+00) (54, 6.83412104845046997070e-02) (55, -2.67364412546157836914e-01) (56, 2.17223558574914932251e-02) (57, 4.02949666976928710938e+00) (58, -3.57842482626438140869e-02) (59, 2.25234198570251464844e+00) (60, -9.85097605735063552856e-04) (61, 1.48355758190155029297e+00) (62, -3.00248693674802780151e-02) (63, -9.06486093997955322266e-01) (64, 3.66176180541515350342e-02) (0, 7.66770616173744201660e-02) (1, -4.53441276550292968750e+01) (2, -6.66282996535301208496e-02) (3, 3.35636943578720092773e-01) (4, 4.23921048641204833984e-02) (5, -3.36420822143554687500e+01) (6, 7.17739760875701904297e-02) (7, -1.27253808975219726562e+01) (8, 7.68906101584434509277e-02) (9, -1.41455011367797851562e+01) (10, 1.72808300703763961792e-02) (11, 2.03791633248329162598e-01) (12, -3.46184968948364257812e-02) (13, -2.51963710784912109375e+01) (14, 1.75591409206390380859e-02) (15, -1.44981546401977539062e+01) (16, 4.73802462220191955566e-02) (17, -4.50527811050415039062e+00) (18, -8.02660286426544189453e-02) (19, 9.76620167493820190430e-02) (20, -5.34631088376045227051e-02) (21, -5.90592002868652343750e+00) (22, -5.42432256042957305908e-02) (23, 6.78126454353332519531e-01) (24, 1.11316256225109100342e-02) (25, 2.86580219268798828125e+01) (26, 4.85017597675323486328e-02) (27, -7.62193560600280761719e-01) (28, 4.75114546716213226318e-02) (29, 6.19845390319824218750e-01) (30, -4.23010997474193572998e-03) (31, 2.20354557037353515625e+00) (32, -3.79155315458774566650e-02) (33, 2.09588756561279296875e+01) (34, -1.83794908225536346436e-02) (35, -1.78766477108001708984e+00) (36, -1.30235822871327400208e-02) (37, -3.90094137191772460938e+00) (38, 3.07706417515873908997e-03) (39, 3.27925848960876464844e+00) (40, -1.30359875038266181946e-02) (41, -5.92258930206298828125e-01) (42, -1.99147723615169525146e-02) (43, -4.93119907379150390625e+00) (44, -3.57414339669048786163e-03) (45, -2.19820618629455566406e+00) (46, -1.90473273396492004395e-02) (47, -1.22257308959960937500e+01) (48, -8.72952770441770553589e-03) (49, 5.35301351547241210938e+00) (50, 7.98753798007965087891e-02) (51, 1.10143363952636718750e+02) (52, 3.43824177980422973633e-02) (53, -8.06737899780273437500e+00) (54, 7.21732676029205322266e-02) (55, -6.16506397724151611328e-01) (56, 2.10577715188264846802e-02) (57, 1.51448190212249755859e-01) (58, -7.83862695097923278809e-02) (59, 6.64195394515991210938e+00) (60, 6.23938441276550292969e-02) (61, -3.95777797698974609375e+00) (62, -6.43664523959159851074e-02) (63, -1.93247509002685546875e+00) (64, -7.20451772212982177734e-03) (0, -5.53939461708068847656e-01) (1, 5.48066825866699218750e+01) (2, -5.19335091114044189453e-01) (3, -7.39311361312866210938e+00) (4, -6.92778468132019042969e-01) (5, -8.92676391601562500000e+01) (6, -5.66840052604675292969e-01) (7, -1.71076660156250000000e+01) (8, -5.31021893024444580078e-01) (9, -8.13565921783447265625e+00) (10, -5.57820320129394531250e-01) (11, -2.60154414176940917969e+00) (12, -6.88027560710906982422e-01) (13, -7.97973709106445312500e+01) (14, -5.96749305725097656250e-01) (15, -7.25935173034667968750e+00) (16, -6.90612018108367919922e-01) (17, 4.68503417968750000000e+01) (18, -6.33841693401336669922e-01) (19, -2.61051673889160156250e+01) (20, -6.40496313571929931641e-01) (21, -1.21941967010498046875e+01) (22, -6.97650134563446044922e-01) (23, 4.52441310882568359375e+00) (24, -5.19136130809783935547e-01) (25, 8.59346008300781250000e+01) (26, -5.36716341972351074219e-01) (27, -1.29963359832763671875e+01) (28, -5.50285458564758300781e-01) (29, -1.26330184936523437500e+00) (30, -6.91646695137023925781e-01) (31, -1.69477672576904296875e+01) (32, -5.89868724346160888672e-01) (33, 1.89597663879394531250e+01) (34, -5.63151180744171142578e-01) (35, -3.22925519943237304688e+00) (36, -6.33691310882568359375e-01) (37, -7.46058940887451171875e+00) (38, -5.44396400451660156250e-01) (39, -8.71081352233886718750e+00) (40, -5.08720517158508300781e-01) (41, 1.97563343048095703125e+01) (42, -6.59737527370452880859e-01) (43, 1.79173243045806884766e+00) (44, -5.82453012466430664062e-01) (45, -3.66893424987792968750e+01) (46, -5.72189092636108398438e-01) (47, -2.63172683715820312500e+01) (48, -6.79375708103179931641e-01) (49, 1.58116626739501953125e+01) (50, -6.96894645690917968750e-01) (51, -5.11146831512451171875e+00) (52, -5.56711852550506591797e-01) (53, -6.85785245895385742188e+00) (54, -6.27608895301818847656e-01) (55, -2.11432266235351562500e+00) (56, -5.91806173324584960938e-01) (57, -1.05420398712158203125e+01) (58, -6.48356616497039794922e-01) (59, -2.08469734191894531250e+01) (60, -6.41814887523651123047e-01) (61, -7.04543054103851318359e-01) (62, -5.35309016704559326172e-01) (63, -7.67559051513671875000e+00) (64, -6.39495730400085449219e-01) (0, 1.55929255485534667969e+00) (1, -2.60363864898681640625e+00) (2, 1.58394956588745117188e+00) (3, 6.11354231834411621094e-01) (4, 1.50731563568115234375e+00) (5, -2.74881835937500000000e+02) (6, 1.62590396404266357422e+00) (7, -7.79085388183593750000e+01) (8, 1.46502280235290527344e+00) (9, -3.37934379577636718750e+01) (10, 1.52965903282165527344e+00) (11, 3.29866676330566406250e+01) (12, 1.56829178333282470703e+00) (13, -2.63675231933593750000e+02) (14, 1.63829588890075683594e+00) (15, -9.54216537475585937500e+01) (16, 1.46506309509277343750e+00) (17, -4.02892684936523437500e+01) (18, 1.51295590400695800781e+00) (19, -7.30326232910156250000e+01) (20, 1.60322546958923339844e+00) (21, 6.32969093322753906250e+00) (22, 1.58962261676788330078e+00) (23, -3.44247528076171875000e+02) (24, 1.50156402587890625000e+00) (25, -1.62039245605468750000e+02) (26, 1.50182282924652099609e+00) (27, -5.53382835388183593750e+01) (28, 1.62582254409790039062e+00) (29, 1.77498779296875000000e+02) (30, 1.64072537422180175781e+00) (31, 2.26584747314453125000e+02) (32, 1.57488548755645751953e+00) (33, 1.81231155395507812500e+01) (34, 1.51347529888153076172e+00) (35, -3.89043693542480468750e+01) (36, 1.55004692077636718750e+00) (37, 6.22143974304199218750e+01) (38, 1.59599077701568603516e+00) (39, 1.09719230651855468750e+02) (40, 1.47955930233001708984e+00) (41, -5.71405601501464843750e+01) (42, 1.53504395484924316406e+00) (43, -6.25473937988281250000e+01) (44, 1.49388265609741210938e+00) (45, 1.15867261886596679688e+01) (46, 1.52121353149414062500e+00) (47, -1.27119350433349609375e+01) (48, 1.60945260524749755859e+00) (49, 5.05454330444335937500e+01) (50, 1.54544270038604736328e+00) (51, -2.67479476928710937500e+01) (52, 1.58147633075714111328e+00) (53, 1.22582176208496093750e+02) (54, 1.55770587921142578125e+00) (55, 1.91542315483093261719e+00) (56, 1.49803459644317626953e+00) (57, -8.95482635498046875000e+01) (58, 1.56076574325561523438e+00) (59, -5.07701263427734375000e+01) (60, 1.64435148239135742188e+00) (61, 7.54168243408203125000e+01) (62, 1.56151413917541503906e+00) (63, 6.42930679321289062500e+01) (64, 1.48226749897003173828e+00) (0, -4.03638631105422973633e-02) (1, 4.65818595886230468750e+00) (2, -8.22935402393341064453e-02) (3, -2.32164573669433593750e+00) (4, -1.58049777150154113770e-01) (5, -2.59063816070556640625e+01) (6, -1.57497927546501159668e-01) (7, -4.43268537521362304688e+00) (8, -7.70285725593566894531e-02) (9, 1.22737636566162109375e+01) (10, -8.21940898895263671875e-02) (11, -7.92896330356597900391e-01) (12, -1.31637439131736755371e-01) (13, -1.29372129440307617188e+01) (14, -2.67490725964307785034e-02) (15, 1.53546202182769775391e+00) (16, -1.09476357698440551758e-01) (17, 3.48007345199584960938e+00) (18, -5.71285597980022430420e-02) (19, -3.24059081077575683594e+00) (20, -2.04389333724975585938e-01) (21, -2.71185588836669921875e+00) (22, -2.13244974613189697266e-01) (23, 1.31240260601043701172e+00) (24, -1.47124871611595153809e-01) (25, -6.41254472732543945312e+00) (26, -4.09077964723110198975e-02) (27, -1.85814678668975830078e+00) (28, -7.23372921347618103027e-02) (29, -1.97124743461608886719e+00) (30, -2.07217961549758911133e-01) (31, 9.13984656333923339844e-01) (32, -2.02201813459396362305e-01) (33, -2.48131513595581054688e+00) (34, -6.10769875347614288330e-02) (35, 1.16000282764434814453e+00) (36, -2.13415190577507019043e-01) (37, -5.90386912226676940918e-02) (38, -4.85028140246868133545e-02) (39, -2.89902400970458984375e+00) (40, -1.82683154940605163574e-01) (41, -2.59258365631103515625e+00) (42, -3.13415937125682830811e-02) (43, -9.86284434795379638672e-01) (44, -1.01855896413326263428e-01) (45, 1.68532311916351318359e+00) (46, -6.98821395635604858398e-02) (47, 1.21796071529388427734e+00) (48, -1.33571118116378784180e-01) (49, -4.55628871917724609375e+00) (50, -3.73573601245880126953e-02) (51, -1.10769653320312500000e+00) (52, -1.58301085233688354492e-01) (53, 1.60487818717956542969e+00) (54, -1.36695995926856994629e-01) (55, -1.82381558418273925781e+00) (56, -2.00419098138809204102e-01) (57, -7.92968809604644775391e-01) (58, -1.15073621273040771484e-01) (59, -1.94954979419708251953e+00) (60, -5.66533245146274566650e-02) (61, 1.08948202133178710938e+01) (62, -1.22621878981590270996e-01) (63, 5.65134382247924804688e+00) (64, -1.54902413487434387207e-01) (0, 3.93222570419311523438e-02) (1, 4.12077674865722656250e+01) (2, 5.39061799645423889160e-02) (3, 2.33766674995422363281e+00) (4, 1.30444532260298728943e-02) (5, -2.00217223167419433594e+00) (6, 9.17470008134841918945e-02) (7, 1.87118034362792968750e+01) (8, 1.07240874785929918289e-03) (9, 5.61300086975097656250e+00) (10, 4.06085997819900512695e-02) (11, 1.09497556686401367188e+01) (12, 1.65870457887649536133e-01) (13, 1.22939643859863281250e+01) (14, 6.48300871253013610840e-02) (15, 1.07971656322479248047e+00) (16, 4.33625876903533935547e-02) (17, -1.01822738647460937500e+01) (18, 1.35074049234390258789e-01) (19, 2.70528483390808105469e+00) (20, 5.17255663871765136719e-02) (21, 6.54480648040771484375e+00) (22, 4.83726970851421356201e-02) (23, -6.10470533370971679688e+00) (24, 1.71082243323326110840e-01) (25, 1.47501373291015625000e+01) (26, 7.19389840960502624512e-02) (27, 2.19623398780822753906e+00) (28, 1.14903531968593597412e-01) (29, 4.33385181427001953125e+00) (30, 1.52536973357200622559e-01) (31, 7.69408893585205078125e+00) (32, 1.09457626938819885254e-01) (33, -7.57823824882507324219e-01) (34, 3.79756689071655273438e-02) (35, -5.77557611465454101562e+00) (36, 5.26602417230606079102e-02) (37, 3.74816489219665527344e+00) (38, 7.81011283397674560547e-02) (39, 2.72359943389892578125e+00) (40, 1.76560282707214355469e-01) (41, -4.42121028900146484375e+00) (42, 6.19972273707389831543e-02) (43, 5.41344499588012695312e+00) (44, 1.54485898092389106750e-02) (45, 1.14905118942260742188e+00) (46, 5.22333085536956787109e-02) (47, 2.74434876441955566406e+00) (48, 1.25593394041061401367e-01) (49, -1.65980834960937500000e+01) (50, 1.24338030815124511719e-01) (51, -3.41782832145690917969e+00) (52, 8.71304348111152648926e-02) (53, 1.75369322299957275391e+00) (54, 1.22679091989994049072e-01) (55, 2.62077164649963378906e+00) (56, 2.04179845750331878662e-02) (57, -1.41075468063354492188e+01) (58, 1.74009889364242553711e-01) (59, 6.74864768981933593750e+00) (60, 8.22048336267471313477e-02) (61, 1.13975346088409423828e+00) (62, 1.36266171932220458984e-01) (63, 1.72276690602302551270e-01) (64, 1.82438865303993225098e-01) (0, -7.19127953052520751953e-02) (1, -3.51187629699707031250e+01) (2, -1.15222409367561340332e-02) (3, -7.23204672336578369141e-01) (4, -6.50566723197698593140e-03) (5, 4.02753829956054687500e+00) (6, 8.62707942724227905273e-02) (7, 1.20618844032287597656e+00) (8, -5.09360060095787048340e-02) (9, 5.19759321212768554688e+00) (10, -2.46406774967908859253e-02) (11, 5.89329123497009277344e-01) (12, -7.14697539806365966797e-02) (13, -6.32053017616271972656e-02) (14, 5.34582436084747314453e-02) (15, 1.46173465251922607422e+00) (16, 5.40821813046932220459e-03) (17, 6.62750196456909179688e+00) (18, 5.22449202835559844971e-02) (19, 3.46130609512329101562e-01) (20, 1.38778844848275184631e-03) (21, -4.41798150539398193359e-01) (22, 4.82842437922954559326e-02) (23, 2.57533335685729980469e+00) (24, -6.66434392333030700684e-02) (25, 3.17641329765319824219e+00) (26, -7.28313028812408447266e-02) (27, -1.75332590937614440918e-01) (28, -3.30073647201061248779e-02) (29, -1.20411586761474609375e+00) (30, 8.98098796606063842773e-02) (31, 1.52545273303985595703e+00) (32, -7.07029700279235839844e-02) (33, 4.20236968994140625000e+00) (34, -5.35598248243331909180e-02) (35, -3.63035589456558227539e-01) (36, 1.05537667870521545410e-01) (37, -1.10386908054351806641e+00) (38, 2.40939948707818984985e-02) (39, 1.16461217403411865234e+00) (40, 5.05346395075321197510e-02) (41, 1.39567410945892333984e+00) (42, -7.59737566113471984863e-02) (43, 3.40817570686340332031e+00) (44, 2.26563196629285812378e-02) (45, 1.08949765563011169434e-01) (46, 8.56187865138053894043e-02) (47, 1.37286365032196044922e+00) (48, -2.27221637032926082611e-03) (49, -1.52213299274444580078e+00) (50, -2.57565476931631565094e-03) (51, 8.59178185462951660156e-01) (52, 3.43138054013252258301e-02) (53, -1.46863961219787597656e+00) (54, -1.41581883653998374939e-02) (55, 1.51746392250061035156e+00) (56, 1.72881111502647399902e-02) (57, -1.62100696563720703125e+00) (58, 1.48875322192907333374e-02) (59, 2.93336629867553710938e+00) (60, 1.93034093827009201050e-02) (61, 9.71336513757705688477e-02) (62, 1.16870060563087463379e-01) (63, 1.23131763935089111328e+00) (64, 1.79290883243083953857e-02) (65, 2.81450653076171875000e+00) (66, 2.00410690307617187500e+01) (67, -4.64543647766113281250e+01) (68, -4.25767745971679687500e+01) (69, 9.48415660858154296875e+00) (70, -6.62246894836425781250e+00) (71, 3.67070587158203125000e+02) (72, -6.36693716049194335938e+00) (73, 3.37175659179687500000e+02) (74, -2.44299850463867187500e+01) (75, 3.50076332092285156250e+01) (65, -1.12957917153835296631e-01) (66, 1.93303123116493225098e-01) (67, 6.05792641639709472656e-01) (68, 4.09249007701873779297e-01) (69, -7.57200196385383605957e-02) (70, 4.12715047597885131836e-01) (71, 6.10199719667434692383e-02) (72, 3.92259210348129272461e-01) (73, 1.84444654732942581177e-02) (74, 4.69147115945816040039e-01) (75, 3.18953841924667358398e-01) 
