FANN_FLO_2.1
num_layers=3
learning_rate=0.700000
connection_rate=1.000000
network_type=0
learning_momentum=0.000000
training_algorithm=2
train_error_function=1
train_stop_function=0
cascade_output_change_fraction=0.010000
quickprop_decay=-0.000100
quickprop_mu=1.750000
rprop_increase_factor=1.200000
rprop_decrease_factor=0.500000
rprop_delta_min=0.000000
rprop_delta_max=50.000000
rprop_delta_zero=0.100000
cascade_output_stagnation_epochs=12
cascade_candidate_change_fraction=0.010000
cascade_candidate_stagnation_epochs=12
cascade_max_out_epochs=150
cascade_max_cand_epochs=150
cascade_num_candidate_groups=2
bit_fail_limit=3.49999994039535522461e-01
cascade_candidate_limit=1.00000000000000000000e+03
cascade_weight_multiplier=4.00000005960464477539e-01
cascade_activation_functions_count=10
cascade_activation_functions=3 5 7 8 10 11 14 15 16 17 
cascade_activation_steepnesses_count=4
cascade_activation_steepnesses=2.50000000000000000000e-01 5.00000000000000000000e-01 7.50000000000000000000e-01 1.00000000000000000000e+00 
layer_sizes=65 11 3 
scale_included=0
neurons (num_inputs, activation_function, activation_steepness)=(0, 0, 0.00000000000000000000e+00) (0, 0, 0.00000000000000000000e+00) (0, 0, 0.00000000000000000000e+00) (0, 0, 0.00000000000000000000e+00) (0, 0, 0.00000000000000000000e+00) (0, 0, 0.00000000000000000000e+00) (0, 0, 0.00000000000000000000e+00) (0, 0, 0.00000000000000000000e+00) (0, 0, 0.00000000000000000000e+00) (0, 0, 0.00000000000000000000e+00) (0, 0, 0.00000000000000000000e+00) (0, 0, 0.00000000000000000000e+00) (0, 0, 0.00000000000000000000e+00) (0, 0, 0.00000000000000000000e+00) (0, 0, 0.00000000000000000000e+00) (0, 0, 0.00000000000000000000e+00) (0, 0, 0.00000000000000000000e+00) (0, 0, 0.00000000000000000000e+00) (0, 0, 0.00000000000000000000e+00) (0, 0, 0.00000000000000000000e+00) (0, 0, 0.00000000000000000000e+00) (0, 0, 0.00000000000000000000e+00) (0, 0, 0.00000000000000000000e+00) (0, 0, 0.00000000000000000000e+00) (0, 0, 0.00000000000000000000e+00) (0, 0, 0.00000000000000000000e+00) (0, 0, 0.00000000000000000000e+00) (0, 0, 0.00000000000000000000e+00) (0, 0, 0.00000000000000000000e+00) (0, 0, 0.00000000000000000000e+00) (0, 0, 0.00000000000000000000e+00) (0, 0, 0.00000000000000000000e+00) (0, 0, 0.00000000000000000000e+00) (0, 0, 0.00000000000000000000e+00) (0, 0, 0.00000000000000000000e+00) (0, 0, 0.00000000000000000000e+00) (0, 0, 0.00000000000000000000e+00) (0, 0, 0.00000000000000000000e+00) (0, 0, 0.00000000000000000000e+00) (0, 0, 0.00000000000000000000e+00) (0, 0, 0.00000000000000000000e+00) (0, 0, 0.00000000000000000000e+00) (0, 0, 0.00000000000000000000e+00) (0, 0, 0.00000000000000000000e+00) (0, 0, 0.00000000000000000000e+00) (0, 0, 0.00000000000000000000e+00) (0, 0, 0.00000000000000000000e+00) (0, 0, 0.00000000000000000000e+00) (0, 0, 0.00000000000000000000e+00) (0, 0, 0.00000000000000000000e+00) (0, 0, 0.00000000000000000000e+00) (0, 0, 0.00000000000000000000e+00) (0, 0, 0.00000000000000000000e+00) (0, 0, 0.00000000000000000000e+00) (0, 0, 0.00000000000000000000e+00) (0, 0, 0.00000000000000000000e+00) (0, 0, 0.00000000000000000000e+00) (0, 0, 0.00000000000000000000e+00) (0, 0, 0.00000000000000000000e+00) (0, 0, 0.00000000000000000000e+00) (0, 0, 0.00000000000000000000e+00) (0, 0, 0.00000000000000000000e+00) (0, 0, 0.00000000000000000000e+00) (0, 0, 0.00000000000000000000e+00) (0, 0, 0.00000000000000000000e+00) (65, 5, 5.00000000000000000000e-01) (65, 5, 5.00000000000000000000e-01) (65, 5, 5.00000000000000000000e-01) (65, 5, 5.00000000000000000000e-01) (65, 5, 5.00000000000000000000e-01) (65, 5, 5.00000000000000000000e-01) (65, 5, 5.00000000000000000000e-01) (65, 5, 5.00000000000000000000e-01) (65, 5, 5.00000000000000000000e-01) (65, 5, 5.00000000000000000000e-01) (0, 5, 0.00000000000000000000e+00) (11, 11, 5.00000000000000000000e-01) (11, 11, 5.00000000000000000000e-01) (0, 11, 0.00000000000000000000e+00) 
connections (connected_to_neuron, weight)=(0, 6.11094355583190917969e-01) (1, -1.01185396313667297363e-01) (2, 7.68840359523892402649e-03) (3, -9.51568782329559326172e-03) (4, 2.79921386390924453735e-03) (5, 6.13527558743953704834e-03) (6, 1.70158762484788894653e-02) (7, 1.04114398360252380371e-01) (8, 6.17583870887756347656e-01) (9, -1.33532822132110595703e-01) (10, -1.20941898785531520844e-03) (11, -5.76314702630043029785e-02) (12, 3.96563950926065444946e-03) (13, -3.99862090125679969788e-03) (14, 1.88283771276473999023e-02) (15, 3.92391979694366455078e-02) (16, -3.21188235282897949219e+00) (17, 3.51691514253616333008e-01) (18, 3.13604921102523803711e-02) (19, -2.34049797058105468750e-01) (20, 1.71562330797314643860e-03) (21, 1.58866979181766510010e-02) (22, -1.31262270733714103699e-02) (23, 8.50686207413673400879e-02) (24, -9.43285703659057617188e-01) (25, 1.84352874755859375000e-01) (26, -3.12403626739978790283e-02) (27, -1.17101691663265228271e-01) (28, -2.15495951124466955662e-04) (29, 1.78920943289995193481e-02) (30, 1.14777740091085433960e-02) (31, 6.54738768935203552246e-02) (32, -3.60575318336486816406e-02) (33, 1.42461657524108886719e-01) (34, 4.55858223140239715576e-02) (35, -1.08822090551257133484e-02) (36, 2.19692569226026535034e-03) (37, 1.63163598626852035522e-02) (38, -1.96099765598773956299e-02) (39, 2.63719353824853897095e-03) (40, 6.14647194743156433105e-03) (41, 2.27342516183853149414e-01) (42, -6.42266348004341125488e-02) (43, 8.54152739048004150391e-02) (44, -1.75249457242898643017e-04) (45, 1.15125849843025207520e-02) (46, -2.03102594241499900818e-03) (47, -5.86061403155326843262e-02) (48, -1.31557905115187168121e-03) (49, 1.96459263563156127930e-01) (50, -1.36743960902094841003e-02) (51, -3.55884395539760589600e-02) (52, -2.29010148905217647552e-03) (53, 4.47162240743637084961e-03) (54, 2.92548667639493942261e-02) (55, -4.04514856636524200439e-02) (56, 2.51623149961233139038e-02) (57, 1.08317583799362182617e-01) (58, 7.57135031744837760925e-03) (59, 1.62803590297698974609e-01) (60, -6.69287145137786865234e-03) (61, 5.40219061076641082764e-03) (62, -2.36816536635160446167e-02) (63, 3.90841849148273468018e-02) (64, -2.16385543346405029297e-01) (0, 1.50000000000000000000e+03) (1, -1.50000000000000000000e+03) (2, 1.50000000000000000000e+03) (3, -1.50000000000000000000e+03) (4, 1.50000000000000000000e+03) (5, -1.50000000000000000000e+03) (6, 1.49998352050781250000e+03) (7, -1.50000000000000000000e+03) (8, 1.50000000000000000000e+03) (9, -1.50000000000000000000e+03) (10, 1.50000000000000000000e+03) (11, -1.50000000000000000000e+03) (12, 2.16032528877258300781e+00) (13, 1.50000000000000000000e+03) (14, 1.49998876953125000000e+03) (15, -1.50000000000000000000e+03) (16, 1.50000000000000000000e+03) (17, -1.50000000000000000000e+03) (18, 1.49999975585937500000e+03) (19, -1.50000000000000000000e+03) (20, 1.16968050003051757812e+01) (21, -1.50000000000000000000e+03) (22, 1.49999877929687500000e+03) (23, -1.50000000000000000000e+03) (24, 1.50000000000000000000e+03) (25, 1.50000000000000000000e+03) (26, 1.50000000000000000000e+03) (27, -1.50000000000000000000e+03) (28, 1.78367638587951660156e+00) (29, -1.50000000000000000000e+03) (30, 1.49999902343750000000e+03) (31, -1.50000000000000000000e+03) (32, -1.50000000000000000000e+03) (33, 1.50000000000000000000e+03) (34, 1.13610778808593750000e+03) (35, -1.50000000000000000000e+03) (36, 7.57509899139404296875e+00) (37, -1.50000000000000000000e+03) (38, 1.49999951171875000000e+03) (39, -1.50000000000000000000e+03) (40, -1.50000000000000000000e+03) (41, 1.50000000000000000000e+03) (42, 7.85026184082031250000e+02) (43, -1.50000000000000000000e+03) (44, 2.77731728553771972656e+00) (45, -1.50000000000000000000e+03) (46, 1.49999902343750000000e+03) (47, -1.50000000000000000000e+03) (48, -1.50000000000000000000e+03) (49, 1.50000000000000000000e+03) (50, 7.39224929809570312500e+01) (51, -1.50000000000000000000e+03) (52, 2.62265801429748535156e+00) (53, -1.50000000000000000000e+03) (54, 1.50000000000000000000e+03) (55, -1.50000000000000000000e+03) (56, -1.50000000000000000000e+03) (57, 1.50000000000000000000e+03) (58, 1.49114746093750000000e+03) (59, -1.50000000000000000000e+03) (60, 1.62659633159637451172e+00) (61, -1.50000000000000000000e+03) (62, 1.50000000000000000000e+03) (63, -1.50000000000000000000e+03) (64, 1.07824417114257812500e+02) (0, -1.50000000000000000000e+03) (1, 1.50000000000000000000e+03) (2, -4.45211696624755859375e+00) (3, 1.50000000000000000000e+03) (4, -1.49758618164062500000e+03) (5, 1.50000000000000000000e+03) (6, 1.32721545410156250000e+03) (7, 1.50000000000000000000e+03) (8, -1.50000000000000000000e+03) (9, 1.50000000000000000000e+03) (10, -9.55181121826171875000e+00) (11, 1.50000000000000000000e+03) (12, 1.47848159074783325195e-01) (13, -1.49730322265625000000e+03) (14, 6.90227478027343750000e+02) (15, 1.50000000000000000000e+03) (16, -1.50000000000000000000e+03) (17, 1.50000000000000000000e+03) (18, -1.05483331680297851562e+01) (19, 1.50000000000000000000e+03) (20, -8.36919546127319335938e-01) (21, 1.50000000000000000000e+03) (22, 4.03098358154296875000e+02) (23, 1.50000000000000000000e+03) (24, -1.50000000000000000000e+03) (25, 1.50000000000000000000e+03) (26, -1.25962699890136718750e+02) (27, 1.50000000000000000000e+03) (28, -4.81557607650756835938e+00) (29, 1.50000000000000000000e+03) (30, 1.57200634479522705078e-01) (31, 1.50000000000000000000e+03) (32, 1.50000000000000000000e+03) (33, 1.50000000000000000000e+03) (34, -5.94980278015136718750e+01) (35, 1.50000000000000000000e+03) (36, -5.76195869445800781250e+01) (37, 1.50000000000000000000e+03) (38, -3.71992230415344238281e+00) (39, 1.50000000000000000000e+03) (40, 1.50000000000000000000e+03) (41, 1.50000000000000000000e+03) (42, -4.89593362808227539062e+00) (43, 1.50000000000000000000e+03) (44, -5.65555906295776367188e+00) (45, 1.50000000000000000000e+03) (46, -1.80985510349273681641e+00) (47, 1.50000000000000000000e+03) (48, 1.50000000000000000000e+03) (49, 1.50000000000000000000e+03) (50, -2.93916397094726562500e+01) (51, 1.50000000000000000000e+03) (52, -2.48483586311340332031e+00) (53, 1.50000000000000000000e+03) (54, -9.64543437957763671875e+00) (55, 1.50000000000000000000e+03) (56, 1.50000000000000000000e+03) (57, 1.50000000000000000000e+03) (58, -1.49344641113281250000e+03) (59, 1.50000000000000000000e+03) (60, -6.39587342739105224609e-01) (61, 1.50000000000000000000e+03) (62, -9.20333504676818847656e-01) (63, 1.50000000000000000000e+03) (64, -9.71934509277343750000e+02) (0, 1.50000000000000000000e+03) (1, -1.50000000000000000000e+03) (2, -1.94142646789550781250e+01) (3, 1.27131188964843750000e+03) (4, 2.56600036621093750000e+01) (5, 6.20349264144897460938e+00) (6, -3.01442384719848632812e-01) (7, 8.60750732421875000000e+01) (8, 1.50000000000000000000e+03) (9, -1.50000000000000000000e+03) (10, -3.19790124893188476562e+00) (11, 1.43282669067382812500e+02) (12, 5.61471414566040039062e+00) (13, -1.13448509216308593750e+02) (14, 4.80573743581771850586e-01) (15, -1.74300109863281250000e+02) (16, 1.50000000000000000000e+03) (17, -1.50000000000000000000e+03) (18, -3.93747305870056152344e+00) (19, -1.45529890060424804688e+01) (20, 9.66518020629882812500e+00) (21, -6.99869155883789062500e+01) (22, 6.63082838058471679688e+00) (23, -9.80080413818359375000e+01) (24, -1.02675439453125000000e+03) (25, -1.50000000000000000000e+03) (26, -2.07056808471679687500e+00) (27, -1.58427963256835937500e+01) (28, -4.66132831573486328125e+00) (29, -1.37399196624755859375e+01) (30, 6.46455347537994384766e-01) (31, -6.30810241699218750000e+01) (32, 2.16501907348632812500e+02) (33, -1.50000000000000000000e+03) (34, -1.30943040847778320312e+01) (35, 3.00791664123535156250e+01) (36, 3.11478595733642578125e+01) (37, -1.05285806655883789062e+01) (38, 1.65903329849243164062e+00) (39, -2.29284501075744628906e+00) (40, -1.50000000000000000000e+03) (41, -1.50000000000000000000e+03) (42, -1.38832700252532958984e+00) (43, -1.35126800537109375000e+01) (44, 2.14488506317138671875e+01) (45, -4.59695129394531250000e+01) (46, -8.26036632061004638672e-02) (47, -4.64593029022216796875e+00) (48, 1.36153869628906250000e+03) (49, -1.50000000000000000000e+03) (50, -4.36029815673828125000e+00) (51, -8.94362068176269531250e+00) (52, 1.08622064590454101562e+01) (53, -4.64139480590820312500e+01) (54, -1.68374013900756835938e+00) (55, 6.92476501464843750000e+01) (56, -8.46631713867187500000e+02) (57, -1.50000000000000000000e+03) (58, 2.01593933105468750000e+01) (59, -6.52842941284179687500e+01) (60, 2.55725073814392089844e+00) (61, -3.12341213226318359375e+01) (62, -6.43923655152320861816e-02) (63, -1.20858030319213867188e+01) (64, 5.84695358276367187500e+01) (0, 1.50000000000000000000e+03) (1, 1.50000000000000000000e+03) (2, -9.19117641448974609375e+00) (3, -1.50000000000000000000e+03) (4, 3.42145490646362304688e+00) (5, -1.50000000000000000000e+03) (6, -7.07330688476562500000e+02) (7, -1.50000000000000000000e+03) (8, 1.50000000000000000000e+03) (9, 1.50000000000000000000e+03) (10, -9.01228141784667968750e+00) (11, -1.50000000000000000000e+03) (12, 1.55145680904388427734e+00) (13, 1.50000000000000000000e+03) (14, 1.95522537231445312500e+01) (15, -1.50000000000000000000e+03) (16, 1.50000000000000000000e+03) (17, 1.50000000000000000000e+03) (18, -8.16586780548095703125e+00) (19, -1.50000000000000000000e+03) (20, -3.51013153791427612305e-01) (21, -1.50000000000000000000e+03) (22, 2.50680899620056152344e+00) (23, -1.50000000000000000000e+03) (24, 1.50000000000000000000e+03) (25, 1.50000000000000000000e+03) (26, -7.92633724212646484375e+00) (27, -1.50000000000000000000e+03) (28, 2.88882613182067871094e-01) (29, -1.50000000000000000000e+03) (30, 1.00937521457672119141e+00) (31, -1.50000000000000000000e+03) (32, -8.04422485351562500000e+02) (33, 1.50000000000000000000e+03) (34, -5.92259120941162109375e+00) (35, -1.50000000000000000000e+03) (36, 6.33659884333610534668e-02) (37, -1.50000000000000000000e+03) (38, -1.72129666805267333984e+00) (39, -1.50000000000000000000e+03) (40, -1.50000000000000000000e+03) (41, 1.50000000000000000000e+03) (42, -4.10981273651123046875e+00) (43, -1.50000000000000000000e+03) (44, 2.16467872262001037598e-01) (45, -1.50000000000000000000e+03) (46, -1.89037346839904785156e+00) (47, -1.50000000000000000000e+03) (48, 7.61186889648437500000e+02) (49, 1.50000000000000000000e+03) (50, -2.71459722518920898438e+00) (51, -1.50000000000000000000e+03) (52, 1.33373737335205078125e-01) (53, -1.50000000000000000000e+03) (54, -3.03886198997497558594e+00) (55, -1.50000000000000000000e+03) (56, 1.46278088378906250000e+03) (57, 1.50000000000000000000e+03) (58, -4.13999214172363281250e+01) (59, -1.50000000000000000000e+03) (60, 3.18662405014038085938e-01) (61, -1.50000000000000000000e+03) (62, -3.32508206367492675781e+00) (63, -1.50000000000000000000e+03) (64, 3.62125062942504882812e+00) (0, 1.50000000000000000000e+03) (1, -1.50000000000000000000e+03) (2, 3.22654495239257812500e+01) (3, -1.50000000000000000000e+03) (4, 1.50000000000000000000e+03) (5, -1.50000000000000000000e+03) (6, -2.09736221313476562500e+02) (7, -1.50000000000000000000e+03) (8, 1.50000000000000000000e+03) (9, -1.50000000000000000000e+03) (10, 9.89835071563720703125e+00) (11, -1.50000000000000000000e+03) (12, -1.45116912841796875000e+02) (13, 1.50000000000000000000e+03) (14, -3.82105834960937500000e+02) (15, -1.50000000000000000000e+03) (16, 1.50000000000000000000e+03) (17, -1.50000000000000000000e+03) (18, -1.22467641830444335938e+01) (19, -1.50000000000000000000e+03) (20, -4.25493286132812500000e+02) (21, -1.50000000000000000000e+03) (22, -7.02025512695312500000e+02) (23, -1.50000000000000000000e+03) (24, 1.50000000000000000000e+03) (25, -1.41523999023437500000e+03) (26, -3.08911285400390625000e+01) (27, -1.50000000000000000000e+03) (28, -1.23090148925781250000e+02) (29, -1.50000000000000000000e+03) (30, -1.80721130371093750000e+01) (31, -1.50000000000000000000e+03) (32, -1.50000000000000000000e+03) (33, -1.38915148925781250000e+03) (34, -4.34603805541992187500e+01) (35, -1.50000000000000000000e+03) (36, -2.06323516845703125000e+02) (37, -1.50000000000000000000e+03) (38, -4.82563638687133789062e+00) (39, -1.50000000000000000000e+03) (40, -1.50000000000000000000e+03) (41, 1.50000000000000000000e+03) (42, -2.15240936279296875000e+01) (43, -1.50000000000000000000e+03) (44, -1.26877258300781250000e+03) (45, -1.50000000000000000000e+03) (46, -1.47965043783187866211e-01) (47, -1.50000000000000000000e+03) (48, -1.50000000000000000000e+03) (49, -1.43439843750000000000e+03) (50, -6.16488304138183593750e+01) (51, -1.50000000000000000000e+03) (52, -3.10635643005371093750e+01) (53, -1.50000000000000000000e+03) (54, 3.65341830253601074219e+00) (55, -1.50000000000000000000e+03) (56, -1.50000000000000000000e+03) (57, -1.49089306640625000000e+03) (58, 1.66518203735351562500e+02) (59, -1.50000000000000000000e+03) (60, -3.81741833686828613281e+00) (61, -1.50000000000000000000e+03) (62, 1.77982978820800781250e+01) (63, -1.50000000000000000000e+03) (64, -3.80710601806640625000e+02) (0, 7.37505249023437500000e+02) (1, -1.50000000000000000000e+03) (2, -1.44130506515502929688e+01) (3, 1.43523864746093750000e+03) (4, -1.41470584869384765625e+01) (5, -1.22416753768920898438e+01) (6, 6.05285108089447021484e-01) (7, -2.95304382324218750000e+02) (8, 1.50000000000000000000e+03) (9, -1.50000000000000000000e+03) (10, -3.66826087236404418945e-01) (11, 1.62803421020507812500e+02) (12, -1.04237806797027587891e+00) (13, 3.36641159057617187500e+01) (14, 5.45168495178222656250e+00) (15, -8.01592559814453125000e+01) (16, 1.50000000000000000000e+03) (17, -1.50000000000000000000e+03) (18, -7.44946718215942382812e+00) (19, 5.62311124801635742188e+00) (20, 9.82524603605270385742e-02) (21, -4.60617294311523437500e+01) (22, 6.97992610931396484375e+00) (23, -3.34284637451171875000e+02) (24, 7.42541809082031250000e+02) (25, -1.50000000000000000000e+03) (26, -8.95720958709716796875e+00) (27, -3.21372699737548828125e+00) (28, 1.07892798259854316711e-02) (29, -3.33327598571777343750e+01) (30, 2.44163274765014648438e+00) (31, -4.05238403320312500000e+02) (32, -1.49690917968750000000e+03) (33, -1.50000000000000000000e+03) (34, -5.08959426879882812500e+01) (35, -1.45819854736328125000e+00) (36, -8.50134968757629394531e-01) (37, -1.39537992477416992188e+01) (38, 2.98646140098571777344e+00) (39, -8.31529159545898437500e+01) (40, 3.69873596191406250000e+02) (41, -1.50000000000000000000e+03) (42, -6.47705030441284179688e+00) (43, 5.15671310424804687500e+01) (44, 1.15425832569599151611e-01) (45, 8.13739681243896484375e+00) (46, 4.50831919908523559570e-01) (47, 2.13021793365478515625e+01) (48, -7.22060791015625000000e+02) (49, -1.50000000000000000000e+03) (50, -4.02836894989013671875e+00) (51, 1.59026451110839843750e+01) (52, 4.89514827728271484375e-01) (53, 3.69790344238281250000e+01) (54, 1.73144534230232238770e-01) (55, 2.67750015258789062500e+01) (56, 2.55330703735351562500e+02) (57, -1.50000000000000000000e+03) (58, 5.05010187625885009766e-01) (59, -3.79121978759765625000e+02) (60, 9.29462552070617675781e-01) (61, -3.97126884460449218750e+01) (62, 5.49051761627197265625e-01) (63, -2.29592380523681640625e+01) (64, -4.82662544250488281250e+01) (0, -1.50000000000000000000e+03) (1, 1.50000000000000000000e+03) (2, 3.85794708251953125000e+02) (3, 1.50000000000000000000e+03) (4, -1.49961889648437500000e+03) (5, 1.50000000000000000000e+03) (6, 1.49080944824218750000e+03) (7, 1.50000000000000000000e+03) (8, -1.50000000000000000000e+03) (9, 1.50000000000000000000e+03) (10, -1.39230545043945312500e+02) (11, 1.50000000000000000000e+03) (12, 9.30125198364257812500e+01) (13, -1.48717358398437500000e+03) (14, 1.42799340820312500000e+03) (15, 1.50000000000000000000e+03) (16, -1.50000000000000000000e+03) (17, 1.50000000000000000000e+03) (18, 4.65257759094238281250e+01) (19, 1.50000000000000000000e+03) (20, -3.35220551490783691406e+00) (21, 1.50000000000000000000e+03) (22, 1.49999987792968750000e+03) (23, 1.50000000000000000000e+03) (24, -1.50000000000000000000e+03) (25, 1.50000000000000000000e+03) (26, -1.39572830200195312500e+01) (27, 1.50000000000000000000e+03) (28, -3.39205002784729003906e+00) (29, 1.50000000000000000000e+03) (30, 1.49999987792968750000e+03) (31, 1.50000000000000000000e+03) (32, 1.50000000000000000000e+03) (33, 1.50000000000000000000e+03) (34, -6.89761199951171875000e+01) (35, 1.50000000000000000000e+03) (36, -3.24638137817382812500e+01) (37, 1.50000000000000000000e+03) (38, 1.49988098144531250000e+03) (39, 1.50000000000000000000e+03) (40, 1.50000000000000000000e+03) (41, 1.50000000000000000000e+03) (42, -4.40495697021484375000e+02) (43, 1.50000000000000000000e+03) (44, -1.35403795242309570312e+01) (45, 1.50000000000000000000e+03) (46, 2.26738037109375000000e+02) (47, 1.50000000000000000000e+03) (48, 1.50000000000000000000e+03) (49, 1.50000000000000000000e+03) (50, -1.04828735351562500000e+03) (51, 1.50000000000000000000e+03) (52, -2.07837080955505371094e+00) (53, 1.50000000000000000000e+03) (54, -1.38067607879638671875e+01) (55, 1.50000000000000000000e+03) (56, 1.50000000000000000000e+03) (57, 1.50000000000000000000e+03) (58, -1.47633447265625000000e+03) (59, 1.50000000000000000000e+03) (60, -3.40966820716857910156e-01) (61, 1.50000000000000000000e+03) (62, -4.60182609558105468750e+01) (63, 1.50000000000000000000e+03) (64, -3.64164733886718750000e+01) (0, -1.50000000000000000000e+03) (1, 1.50000000000000000000e+03) (2, -2.86486476659774780273e-01) (3, -4.23617126464843750000e+02) (4, 1.85318412780761718750e+01) (5, 3.28045806884765625000e+01) (6, -4.29703178405761718750e+01) (7, 3.80422477722167968750e+01) (8, -1.50000000000000000000e+03) (9, 1.50000000000000000000e+03) (10, -4.94229774475097656250e+01) (11, -8.52849960327148437500e+00) (12, 4.51837873458862304688e+00) (13, -7.95639190673828125000e+01) (14, 4.22829208374023437500e+01) (15, 8.21716232299804687500e+01) (16, -1.50000000000000000000e+03) (17, 1.50000000000000000000e+03) (18, 3.35922956466674804688e+00) (19, 2.19636650085449218750e+01) (20, 1.88194119930267333984e+00) (21, -1.06206855773925781250e+02) (22, 4.75280151367187500000e+01) (23, -5.82485809326171875000e+01) (24, 1.50000000000000000000e+03) (25, 1.50000000000000000000e+03) (26, 1.25090873241424560547e+00) (27, 7.01179742813110351562e+00) (28, -9.79662016034126281738e-02) (29, -4.74036750793457031250e+01) (30, 5.94135940074920654297e-01) (31, -1.36177230834960937500e+02) (32, 1.36662915039062500000e+03) (33, 1.50000000000000000000e+03) (34, 3.34723615646362304688e+00) (35, -2.16643257141113281250e+01) (36, 4.87470102310180664062e+00) (37, -2.75077486038208007812e+00) (38, 7.97364664077758789062e+00) (39, 5.40118255615234375000e+01) (40, 1.49672302246093750000e+03) (41, 1.50000000000000000000e+03) (42, 9.42422580718994140625e+00) (43, -3.91860542297363281250e+01) (44, 6.74011826515197753906e-01) (45, 2.32116203308105468750e+01) (46, -1.51360261440277099609e+00) (47, -9.42835903167724609375e+00) (48, 1.40606433105468750000e+03) (49, 1.50000000000000000000e+03) (50, 4.23877143859863281250e+00) (51, -3.47444605827331542969e+00) (52, 5.21471321582794189453e-01) (53, 4.03306045532226562500e+01) (54, 1.61992979049682617188e+00) (55, -2.33359756469726562500e+01) (56, 1.49996618652343750000e+03) (57, 1.50000000000000000000e+03) (58, 3.11621040105819702148e-01) (59, 3.84449501037597656250e+01) (60, -8.77369567751884460449e-02) (61, -2.40333843231201171875e+01) (62, -4.05916452407836914062e+00) (63, -6.38937616348266601562e+00) (64, 3.77968139648437500000e+01) (0, 4.89077148437500000000e+02) (1, -1.24999938964843750000e+02) (2, 5.89236545562744140625e+00) (3, 9.90800048828125000000e+02) (4, -1.43358398437500000000e+03) (5, 1.04080004882812500000e+03) (6, 1.49999951171875000000e+03) (7, 9.40800048828125000000e+02) (8, 4.18387451171875000000e+02) (9, -1.74138488769531250000e+02) (10, 4.10122156143188476562e+00) (11, 9.90800048828125000000e+02) (12, 7.89888954162597656250e+00) (13, 7.18289733886718750000e+02) (14, 1.49961865234375000000e+03) (15, 9.90800048828125000000e+02) (16, 4.59310546875000000000e+02) (17, -5.30166748046875000000e+02) (18, 3.78686785697937011719e+00) (19, 9.90800048828125000000e+02) (20, 1.37886464595794677734e+00) (21, 1.20076379394531250000e+03) (22, 1.49999951171875000000e+03) (23, 9.90800048828125000000e+02) (24, 8.75000061035156250000e+02) (25, 6.39538635253906250000e+02) (26, 1.21530127525329589844e+00) (27, 9.90800048828125000000e+02) (28, 7.19177842140197753906e-01) (29, 1.04080004882812500000e+03) (30, 2.69566993713378906250e+01) (31, 9.90800048828125000000e+02) (32, 7.98872558593750000000e+02) (33, 7.75000061035156250000e+02) (34, 1.31248927116394042969e+00) (35, 9.90800048828125000000e+02) (36, 3.57372425496578216553e-02) (37, 1.04080004882812500000e+03) (38, 1.60238285064697265625e+01) (39, 9.90800048828125000000e+02) (40, 1.04080004882812500000e+03) (41, 7.75000061035156250000e+02) (42, 8.67309629917144775391e-01) (43, 9.90800048828125000000e+02) (44, 1.60150277614593505859e+00) (45, 9.90800048828125000000e+02) (46, 7.85020828247070312500e+00) (47, 9.90800048828125000000e+02) (48, 1.17086633300781250000e+03) (49, 6.72273132324218750000e+02) (50, 6.86148330569267272949e-02) (51, 9.90800048828125000000e+02) (52, 1.03565371036529541016e+00) (53, 9.40800048828125000000e+02) (54, 4.81739044189453125000e+00) (55, 9.90800048828125000000e+02) (56, 5.55377990722656250000e+02) (57, 7.75000061035156250000e+02) (58, -1.47572326660156250000e+03) (59, 9.90800048828125000000e+02) (60, 1.96277034282684326172e+00) (61, 9.40800048828125000000e+02) (62, 1.73262238502502441406e+00) (63, 9.90800048828125000000e+02) (64, 1.05159980773925781250e+02) (65, -4.57720756530761718750e+00) (66, -2.56399154663085937500e-01) (67, 5.55266905575990676880e-03) (68, -4.84224185347557067871e-02) (69, -1.11786220222711563110e-02) (70, -2.48050075024366378784e-02) (71, -2.00330857187509536743e-02) (72, 2.75316797196865081787e-02) (73, 2.39177197217941284180e-02) (74, -5.42901828885078430176e-03) (75, -2.33606055378913879395e-01) (65, -6.16300255060195922852e-02) (66, 1.62045508623123168945e-02) (67, 4.87853260710835456848e-03) (68, -6.23924583196640014648e-02) (69, 1.09216365963220596313e-02) (70, -4.39027371612610295415e-06) (71, -5.87354525923728942871e-02) (72, 4.79297200217843055725e-03) (73, 5.61851933598518371582e-02) (74, 3.06541565805673599243e-03) (75, -3.35252694785594940186e-02) 
