FANN_FLO_2.1
num_layers=3
learning_rate=0.700000
connection_rate=1.000000
network_type=0
learning_momentum=0.000000
training_algorithm=2
train_error_function=1
train_stop_function=0
cascade_output_change_fraction=0.010000
quickprop_decay=-0.000100
quickprop_mu=1.750000
rprop_increase_factor=1.200000
rprop_decrease_factor=0.500000
rprop_delta_min=0.000000
rprop_delta_max=50.000000
rprop_delta_zero=0.100000
cascade_output_stagnation_epochs=12
cascade_candidate_change_fraction=0.010000
cascade_candidate_stagnation_epochs=12
cascade_max_out_epochs=150
cascade_max_cand_epochs=150
cascade_num_candidate_groups=2
bit_fail_limit=3.49999994039535522461e-01
cascade_candidate_limit=1.00000000000000000000e+03
cascade_weight_multiplier=4.00000005960464477539e-01
cascade_activation_functions_count=10
cascade_activation_functions=3 5 7 8 10 11 14 15 16 17 
cascade_activation_steepnesses_count=4
cascade_activation_steepnesses=2.50000000000000000000e-01 5.00000000000000000000e-01 7.50000000000000000000e-01 1.00000000000000000000e+00 
layer_sizes=73 11 3 
scale_included=0
neurons (num_inputs, activation_function, activation_steepness)=(0, 0, 0.00000000000000000000e+00) (0, 0, 0.00000000000000000000e+00) (0, 0, 0.00000000000000000000e+00) (0, 0, 0.00000000000000000000e+00) (0, 0, 0.00000000000000000000e+00) (0, 0, 0.00000000000000000000e+00) (0, 0, 0.00000000000000000000e+00) (0, 0, 0.00000000000000000000e+00) (0, 0, 0.00000000000000000000e+00) (0, 0, 0.00000000000000000000e+00) (0, 0, 0.00000000000000000000e+00) (0, 0, 0.00000000000000000000e+00) (0, 0, 0.00000000000000000000e+00) (0, 0, 0.00000000000000000000e+00) (0, 0, 0.00000000000000000000e+00) (0, 0, 0.00000000000000000000e+00) (0, 0, 0.00000000000000000000e+00) (0, 0, 0.00000000000000000000e+00) (0, 0, 0.00000000000000000000e+00) (0, 0, 0.00000000000000000000e+00) (0, 0, 0.00000000000000000000e+00) (0, 0, 0.00000000000000000000e+00) (0, 0, 0.00000000000000000000e+00) (0, 0, 0.00000000000000000000e+00) (0, 0, 0.00000000000000000000e+00) (0, 0, 0.00000000000000000000e+00) (0, 0, 0.00000000000000000000e+00) (0, 0, 0.00000000000000000000e+00) (0, 0, 0.00000000000000000000e+00) (0, 0, 0.00000000000000000000e+00) (0, 0, 0.00000000000000000000e+00) (0, 0, 0.00000000000000000000e+00) (0, 0, 0.00000000000000000000e+00) (0, 0, 0.00000000000000000000e+00) (0, 0, 0.00000000000000000000e+00) (0, 0, 0.00000000000000000000e+00) (0, 0, 0.00000000000000000000e+00) (0, 0, 0.00000000000000000000e+00) (0, 0, 0.00000000000000000000e+00) (0, 0, 0.00000000000000000000e+00) (0, 0, 0.00000000000000000000e+00) (0, 0, 0.00000000000000000000e+00) (0, 0, 0.00000000000000000000e+00) (0, 0, 0.00000000000000000000e+00) (0, 0, 0.00000000000000000000e+00) (0, 0, 0.00000000000000000000e+00) (0, 0, 0.00000000000000000000e+00) (0, 0, 0.00000000000000000000e+00) (0, 0, 0.00000000000000000000e+00) (0, 0, 0.00000000000000000000e+00) (0, 0, 0.00000000000000000000e+00) (0, 0, 0.00000000000000000000e+00) (0, 0, 0.00000000000000000000e+00) (0, 0, 0.00000000000000000000e+00) (0, 0, 0.00000000000000000000e+00) (0, 0, 0.00000000000000000000e+00) (0, 0, 0.00000000000000000000e+00) (0, 0, 0.00000000000000000000e+00) (0, 0, 0.00000000000000000000e+00) (0, 0, 0.00000000000000000000e+00) (0, 0, 0.00000000000000000000e+00) (0, 0, 0.00000000000000000000e+00) (0, 0, 0.00000000000000000000e+00) (0, 0, 0.00000000000000000000e+00) (0, 0, 0.00000000000000000000e+00) (0, 0, 0.00000000000000000000e+00) (0, 0, 0.00000000000000000000e+00) (0, 0, 0.00000000000000000000e+00) (0, 0, 0.00000000000000000000e+00) (0, 0, 0.00000000000000000000e+00) (0, 0, 0.00000000000000000000e+00) (0, 0, 0.00000000000000000000e+00) (0, 0, 0.00000000000000000000e+00) (73, 5, 5.00000000000000000000e-01) (73, 5, 5.00000000000000000000e-01) (73, 5, 5.00000000000000000000e-01) (73, 5, 5.00000000000000000000e-01) (73, 5, 5.00000000000000000000e-01) (73, 5, 5.00000000000000000000e-01) (73, 5, 5.00000000000000000000e-01) (73, 5, 5.00000000000000000000e-01) (73, 5, 5.00000000000000000000e-01) (73, 5, 5.00000000000000000000e-01) (0, 5, 0.00000000000000000000e+00) (11, 11, 5.00000000000000000000e-01) (11, 11, 5.00000000000000000000e-01) (0, 11, 0.00000000000000000000e+00) 
connections (connected_to_neuron, weight)=(0, 1.03158795833587646484e+00) (1, 2.03800201416015625000e+02) (2, 9.25545156002044677734e-01) (3, -2.44432907104492187500e+01) (4, 1.03849709033966064453e+00) (5, -3.89525413513183593750e+01) (6, 9.84837949275970458984e-01) (7, -2.77843505859375000000e+02) (8, 1.10813522338867187500e+00) (9, 2.50996541976928710938e+00) (10, 9.46115911006927490234e-01) (11, -6.43909378051757812500e+01) (12, 9.57846939563751220703e-01) (13, -6.64309921264648437500e+01) (14, 9.70203101634979248047e-01) (15, 6.24462356567382812500e+01) (16, 1.07163405418395996094e+00) (17, -7.64005737304687500000e+01) (18, 9.69615519046783447266e-01) (19, -3.81849746704101562500e+01) (20, 1.05126523971557617188e+00) (21, -3.42790489196777343750e+01) (22, 1.10870862007141113281e+00) (23, -1.68916237354278564453e+00) (24, 9.30227696895599365234e-01) (25, -1.93999493122100830078e+00) (26, 1.09613549709320068359e+00) (27, 7.87705535888671875000e+01) (28, 9.29572045803070068359e-01) (29, 1.49221740722656250000e+02) (30, 9.71289098262786865234e-01) (31, -1.78412490844726562500e+02) (32, 1.06739783287048339844e+00) (33, -1.52941608428955078125e+01) (34, 1.11012887954711914062e+00) (35, 6.61888046264648437500e+01) (36, 9.30829942226409912109e-01) (37, -1.47258119583129882812e+01) (38, 1.06581556797027587891e+00) (39, -3.77055625915527343750e+01) (40, 9.72241103649139404297e-01) (41, -9.08388233184814453125e+00) (42, 1.07711637020111083984e+00) (43, -6.55787429809570312500e+01) (44, 1.10750710964202880859e+00) (45, 4.21872425079345703125e+00) (46, 1.05419647693634033203e+00) (47, 1.06262786865234375000e+02) (48, 9.91605222225189208984e-01) (49, -2.10505752563476562500e+01) (50, 1.07736480236053466797e+00) (51, -3.09051971435546875000e+01) (52, 1.01054716110229492188e+00) (53, 5.57051134109497070312e+00) (54, 9.99209225177764892578e-01) (55, -1.10269939899444580078e+00) (56, 9.42609965801239013672e-01) (57, -9.83346176147460937500e+00) (58, 9.98790204524993896484e-01) (59, -8.91750030517578125000e+01) (60, 1.07434582710266113281e+00) (61, 5.63271446228027343750e+01) (62, 1.05903553962707519531e+00) (63, 4.14501113891601562500e+01) (64, 1.09082889556884765625e+00) (65, -3.69792442321777343750e+01) (66, 1.07263886928558349609e+00) (67, -6.98812055587768554688e+00) (68, 1.08826065063476562500e+00) (69, 5.87040786743164062500e+01) (70, 1.08816194534301757812e+00) (71, 3.22193450927734375000e+01) (72, 9.74831879138946533203e-01) (0, 7.98040390014648437500e-01) (1, -3.78511810302734375000e+02) (2, 8.01748156547546386719e-01) (3, 9.38094139099121093750e+00) (4, 7.92145013809204101562e-01) (5, 7.30965995788574218750e+00) (6, 8.60827684402465820312e-01) (7, -3.23896102905273437500e+01) (8, 7.99071848392486572266e-01) (9, 1.07768049240112304688e+01) (10, 8.49217951297760009766e-01) (11, -1.19722557067871093750e+01) (12, 8.17464590072631835938e-01) (13, 1.02985527038574218750e+02) (14, 8.38758170604705810547e-01) (15, 1.96446247100830078125e+01) (16, 8.16735565662384033203e-01) (17, 2.29056167602539062500e+01) (18, 8.09083461761474609375e-01) (19, 5.91450576782226562500e+01) (20, 7.95409500598907470703e-01) (21, 2.64100856781005859375e+01) (22, 9.00962710380554199219e-01) (23, 2.62848544120788574219e+00) (24, 8.48825633525848388672e-01) (25, 5.46604232788085937500e+01) (26, 8.75404775142669677734e-01) (27, -3.27027320861816406250e+01) (28, 8.36356163024902343750e-01) (29, 1.79164520263671875000e+02) (30, 7.86320924758911132812e-01) (31, 3.63360099792480468750e+01) (32, 7.80624985694885253906e-01) (33, 2.64551563262939453125e+01) (34, 8.63753914833068847656e-01) (35, 2.53906364440917968750e+01) (36, 7.81190574169158935547e-01) (37, 2.15072738647460937500e+02) (38, 7.94070363044738769531e-01) (39, 3.45871772766113281250e+01) (40, 8.18848192691802978516e-01) (41, -1.43864135742187500000e+01) (42, 9.46757256984710693359e-01) (43, 3.40994682312011718750e+01) (44, 8.44520926475524902344e-01) (45, 3.51069641113281250000e+01) (46, 9.52787876129150390625e-01) (47, 1.46061611175537109375e+01) (48, 9.08173799514770507812e-01) (49, -1.90766696929931640625e+01) (50, 8.52897226810455322266e-01) (51, -4.60289230346679687500e+01) (52, 9.23756480216979980469e-01) (53, -2.97682220458984375000e+02) (54, 8.74593615531921386719e-01) (55, -2.37222537994384765625e+01) (56, 8.89370322227478027344e-01) (57, 4.78651275634765625000e+01) (58, 9.71076011657714843750e-01) (59, 6.94672851562500000000e+01) (60, 8.98250579833984375000e-01) (61, -2.01236724853515625000e+02) (62, 9.35781598091125488281e-01) (63, 5.00030059814453125000e+01) (64, 8.37905764579772949219e-01) (65, 8.49176502227783203125e+00) (66, 9.39441680908203125000e-01) (67, 4.44809417724609375000e+01) (68, 9.04527485370635986328e-01) (69, -3.25536193847656250000e+01) (70, 7.72921442985534667969e-01) (71, 4.15998649597167968750e+01) (72, 8.68384420871734619141e-01) (0, 1.12142479419708251953e+00) (1, -4.68762893676757812500e+01) (2, 1.11655747890472412109e+00) (3, -1.12648935317993164062e+01) (4, 1.00135862827301025391e+00) (5, -3.72379608154296875000e+02) (6, 1.10726654529571533203e+00) (7, -2.68846893310546875000e+02) (8, 1.11273193359375000000e+00) (9, -5.26908149719238281250e+01) (10, 9.78226780891418457031e-01) (11, -1.43167648315429687500e+01) (12, 9.73278164863586425781e-01) (13, -2.15541133880615234375e+01) (14, 1.04993343353271484375e+00) (15, 2.62834381103515625000e+02) (16, 1.00872135162353515625e+00) (17, -6.46675643920898437500e+01) (18, 1.11268401145935058594e+00) (19, -2.32437267303466796875e+01) (20, 9.99534249305725097656e-01) (21, 8.57900314331054687500e+01) (22, 1.09299898147583007812e+00) (23, -2.70855593681335449219e+00) (24, 1.01846206188201904297e+00) (25, -1.14250259399414062500e+02) (26, 9.94260311126708984375e-01) (27, -7.88662948608398437500e+01) (28, 9.72647070884704589844e-01) (29, 7.22038955688476562500e+01) (30, 1.10846185684204101562e+00) (31, 9.47407066822052001953e-01) (32, 1.04879701137542724609e+00) (33, 8.96317005157470703125e+00) (34, 9.79102849960327148438e-01) (35, -1.75920639038085937500e+01) (36, 9.70247626304626464844e-01) (37, -3.77630004882812500000e+01) (38, 9.87346768379211425781e-01) (39, -5.94505548477172851562e+00) (40, 1.06545650959014892578e+00) (41, 3.77721824645996093750e+01) (42, 1.13159418106079101562e+00) (43, -2.97601432800292968750e+01) (44, 1.08770167827606201172e+00) (45, 1.09657257080078125000e+02) (46, 1.13589024543762207031e+00) (47, -2.05449371337890625000e+01) (48, 1.12713766098022460938e+00) (49, 1.57772197723388671875e+01) (50, 1.03605115413665771484e+00) (51, 9.24356079101562500000e+00) (52, 1.01059198379516601562e+00) (53, 6.58766021728515625000e+01) (54, 1.09880840778350830078e+00) (55, -5.49792442321777343750e+01) (56, 1.01097095012664794922e+00) (57, -5.33945617675781250000e+01) (58, 9.49265301227569580078e-01) (59, -3.68811264038085937500e+01) (60, 9.81016278266906738281e-01) (61, 7.83227205276489257812e+00) (62, 1.04878699779510498047e+00) (63, 5.93112525939941406250e+01) (64, 1.05153012275695800781e+00) (65, 1.86021060943603515625e+01) (66, 1.04600727558135986328e+00) (67, 1.20816593170166015625e+01) (68, 1.08124887943267822266e+00) (69, -6.70079116821289062500e+01) (70, 1.07816386222839355469e+00) (71, 2.96158943176269531250e+01) (72, 9.69431400299072265625e-01) (0, 1.43535280227661132812e+01) (1, -1.50000000000000000000e+03) (2, 2.11596878051757812500e+02) (3, -1.50000000000000000000e+03) (4, 1.44122447967529296875e+01) (5, -1.50000000000000000000e+03) (6, 1.46087045669555664062e+01) (7, -1.50000000000000000000e+03) (8, 2.97060661315917968750e+01) (9, -1.50000000000000000000e+03) (10, 8.88467178344726562500e+01) (11, -1.50000000000000000000e+03) (12, 2.98310012817382812500e+01) (13, -1.50000000000000000000e+03) (14, 3.19054107666015625000e+01) (15, -1.50000000000000000000e+03) (16, 2.98619956970214843750e+01) (17, -1.50000000000000000000e+03) (18, 2.97308502197265625000e+01) (19, -1.50000000000000000000e+03) (20, 3.19542007446289062500e+01) (21, -1.50000000000000000000e+03) (22, 3.57021789550781250000e+01) (23, -1.50000000000000000000e+03) (24, 7.85950613021850585938e+00) (25, -1.50000000000000000000e+03) (26, 1.43173751831054687500e+01) (27, -1.42736291503906250000e+03) (28, 1.45351467132568359375e+01) (29, -1.50000000000000000000e+03) (30, 7.99079055786132812500e+01) (31, -5.91246215820312500000e+02) (32, 1.43854837417602539062e+01) (33, -1.50000000000000000000e+03) (34, 3.17869453430175781250e+01) (35, -1.50000000000000000000e+03) (36, 1.42603521347045898438e+01) (37, -1.50000000000000000000e+03) (38, 3.57364273071289062500e+01) (39, -1.50000000000000000000e+03) (40, 1.43561277389526367188e+01) (41, -1.50000000000000000000e+03) (42, 6.81285247802734375000e+01) (43, 1.50000000000000000000e+03) (44, 3.57123527526855468750e+01) (45, -1.50000000000000000000e+03) (46, 3.57309036254882812500e+01) (47, -1.50000000000000000000e+03) (48, 1.43000354766845703125e+01) (49, -1.50000000000000000000e+03) (50, 1.42759332656860351562e+01) (51, 9.22989624023437500000e+02) (52, 3.56812095642089843750e+01) (53, -1.50000000000000000000e+03) (54, 3.57853698730468750000e+01) (55, 7.50080749511718750000e+02) (56, 2.97026252746582031250e+01) (57, -1.50000000000000000000e+03) (58, 2.54590511322021484375e+01) (59, -1.20703849792480468750e+01) (60, 4.65904998779296875000e+01) (61, -1.50000000000000000000e+03) (62, 3.56806335449218750000e+01) (63, 1.50000000000000000000e+03) (64, 1.44896907806396484375e+01) (65, -1.50000000000000000000e+03) (66, 2.56209907531738281250e+01) (67, -1.50000000000000000000e+03) (68, 3.58030624389648437500e+01) (69, -1.50000000000000000000e+03) (70, 3.57992706298828125000e+01) (71, 1.50000000000000000000e+03) (72, 3.57667045593261718750e+01) (0, 7.00733721256256103516e-01) (1, 2.30496330261230468750e+01) (2, 6.28729522228240966797e-01) (3, 5.37525520324707031250e+01) (4, 5.91281890869140625000e-01) (5, 6.38731918334960937500e+01) (6, 7.04810678958892822266e-01) (7, 2.62936186790466308594e+00) (8, 7.12755203247070312500e-01) (9, 1.48230466842651367188e+01) (10, 6.05033159255981445312e-01) (11, -1.22568740844726562500e+01) (12, 6.65861368179321289062e-01) (13, 1.60207481384277343750e+01) (14, 6.47978723049163818359e-01) (15, 1.54295408725738525391e+00) (16, 5.86159586906433105469e-01) (17, 4.29921340942382812500e+01) (18, 5.74838817119598388672e-01) (19, 9.04703044891357421875e+00) (20, 6.72337412834167480469e-01) (21, 4.89661521911621093750e+01) (22, 7.24367380142211914062e-01) (23, -9.73935186862945556641e-01) (24, 5.81276297569274902344e-01) (25, -2.36562881469726562500e+01) (26, 7.26926565170288085938e-01) (27, 1.31485767364501953125e+01) (28, 5.60581743717193603516e-01) (29, -3.09461891651153564453e-01) (30, 6.19203984737396240234e-01) (31, 4.99930458068847656250e+01) (32, 7.27909445762634277344e-01) (33, -1.32314717769622802734e+00) (34, 6.03398621082305908203e-01) (35, -4.64159202575683593750e+01) (36, 6.22409462928771972656e-01) (37, -9.68770217895507812500e+00) (38, 7.07836925983428955078e-01) (39, 5.37968397140502929688e+00) (40, 7.13731408119201660156e-01) (41, -1.08337450027465820312e+01) (42, 5.96924602985382080078e-01) (43, 3.18747639656066894531e+00) (44, 5.71640074253082275391e-01) (45, 7.68369369506835937500e+01) (46, 7.20538794994354248047e-01) (47, -1.27653274536132812500e+01) (48, 5.60719966888427734375e-01) (49, -2.01880836486816406250e+01) (50, 6.78558468818664550781e-01) (51, 2.39111709594726562500e+01) (52, 5.88176488876342773438e-01) (53, -2.85740032196044921875e+01) (54, 6.82075679302215576172e-01) (55, 4.57375717163085937500e+00) (56, 6.88979327678680419922e-01) (57, -7.16598701477050781250e+00) (58, 6.89345717430114746094e-01) (59, 1.38891763687133789062e+01) (60, 6.72286570072174072266e-01) (61, 5.12153482437133789062e+00) (62, 6.27875566482543945312e-01) (63, -4.51037521362304687500e+01) (64, 6.75533771514892578125e-01) (65, -1.94602031707763671875e+01) (66, 6.38126075267791748047e-01) (67, -1.38523979187011718750e+01) (68, 6.58247053623199462891e-01) (69, 9.78947353363037109375e+00) (70, 7.49687731266021728516e-01) (71, -5.00951080322265625000e+01) (72, 5.77115535736083984375e-01) (0, -8.84452387690544128418e-02) (1, -1.46457195281982421875e+01) (2, -8.59577506780624389648e-02) (3, 3.06136254221200942993e-03) (4, -4.53799702227115631104e-02) (5, -2.65764331817626953125e+00) (6, 3.57858166098594665527e-02) (7, 2.99091005325317382812e+00) (8, 6.50989562273025512695e-02) (9, -1.62770807743072509766e+00) (10, -4.30599041283130645752e-02) (11, -2.70696789026260375977e-01) (12, 6.96821808815002441406e-02) (13, -5.88840425014495849609e-01) (14, 7.73124769330024719238e-02) (15, 1.23100864887237548828e+00) (16, -6.94016665220260620117e-02) (17, 6.95024430751800537109e-01) (18, 7.05701932311058044434e-02) (19, -5.06446897983551025391e-01) (20, 7.30622336268424987793e-02) (21, 6.35876476764678955078e-01) (22, 3.61415408551692962646e-02) (23, -7.29922235012054443359e-01) (24, 2.71792393177747726440e-02) (25, 9.64071452617645263672e-01) (26, 8.30003842711448669434e-02) (27, -6.13384068012237548828e-01) (28, 1.17035850416868925095e-03) (29, 1.40113759040832519531e+00) (30, 6.85602650046348571777e-02) (31, -2.11810111999511718750e+00) (32, 4.01470474898815155029e-02) (33, 8.31179440021514892578e-01) (34, -2.28773094713687896729e-02) (35, -7.82735288143157958984e-01) (36, -4.10631969571113586426e-02) (37, 1.05556237697601318359e+00) (38, -4.71286177635192871094e-02) (39, -1.13659107685089111328e+00) (40, -1.46570047363638877869e-02) (41, 1.06569182872772216797e+00) (42, 2.62197828851640224457e-03) (43, -8.34923088550567626953e-01) (44, -5.67984692752361297607e-02) (45, 7.54519283771514892578e-01) (46, 4.54454831779003143311e-02) (47, 2.43093684315681457520e-01) (48, -8.66661295294761657715e-02) (49, 2.38204583525657653809e-01) (50, 2.57046073675155639648e-02) (51, -7.79667556285858154297e-01) (52, -1.06788493692874908447e-01) (53, -4.79913324117660522461e-01) (54, -6.38981873635202646255e-04) (55, 1.31102964282035827637e-01) (56, -9.96065437793731689453e-02) (57, 4.11456614732742309570e-01) (58, -1.08393200207501649857e-03) (59, -4.21214848756790161133e-01) (60, 4.02430891990661621094e-02) (61, -9.43358778953552246094e-01) (62, -4.24425937235355377197e-02) (63, 2.33426615595817565918e-01) (64, -1.15928770974278450012e-02) (65, -2.46590957045555114746e-01) (66, 1.49837881326675415039e-02) (67, -2.77145534753799438477e-01) (68, 8.75720381736755371094e-02) (69, -8.15343976020812988281e-01) (70, -8.32943245768547058105e-02) (71, 4.76742029190063476562e-01) (72, 1.73517521470785140991e-02) (0, 1.08849549293518066406e+00) (1, 6.63130737304687500000e+02) (2, 1.13046896457672119141e+00) (3, -2.19620285034179687500e+01) (4, 1.08667290210723876953e+00) (5, -3.96187133789062500000e+02) (6, 1.02495276927947998047e+00) (7, -3.86258201599121093750e+01) (8, 9.70944106578826904297e-01) (9, -4.31387977600097656250e+01) (10, 1.03554832935333251953e+00) (11, -2.05356636047363281250e+01) (12, 9.50082242488861083984e-01) (13, 8.84537982940673828125e+00) (14, 1.07709062099456787109e+00) (15, 1.25514511108398437500e+02) (16, 1.09152412414550781250e+00) (17, -6.88885803222656250000e+01) (18, 1.00981676578521728516e+00) (19, 5.22750282287597656250e+00) (20, 1.07682836055755615234e+00) (21, -1.35627914428710937500e+02) (22, 1.09456038475036621094e+00) (23, -1.50955820083618164062e+01) (24, 1.04475188255310058594e+00) (25, -3.33530998229980468750e+01) (26, 1.03828370571136474609e+00) (27, -4.55240535736083984375e+00) (28, 1.10105478763580322266e+00) (29, 3.86978416442871093750e+01) (30, 9.71785485744476318359e-01) (31, -8.40071182250976562500e+01) (32, 1.12470710277557373047e+00) (33, -6.00614738464355468750e+01) (34, 1.10342359542846679688e+00) (35, 6.82304687500000000000e+01) (36, 1.05014109611511230469e+00) (37, 3.89484367370605468750e+01) (38, 9.55459892749786376953e-01) (39, -3.51305465698242187500e+01) (40, 1.07707667350769042969e+00) (41, -1.86700363159179687500e+02) (42, 9.99601781368255615234e-01) (43, -5.33560867309570312500e+01) (44, 1.08696222305297851562e+00) (45, 8.51276016235351562500e+01) (46, 1.00216937065124511719e+00) (47, -4.18596687316894531250e+01) (48, 9.96488511562347412109e-01) (49, 1.84276218414306640625e+01) (50, 1.08606469631195068359e+00) (51, -3.29617309570312500000e+01) (52, 1.04225695133209228516e+00) (53, 2.33076507568359375000e+02) (54, 1.02520942687988281250e+00) (55, -2.36803627014160156250e+01) (56, 9.63653743267059326172e-01) (57, -8.77080688476562500000e+01) (58, 1.04036223888397216797e+00) (59, 4.93296852111816406250e+01) (60, 1.11478757858276367188e+00) (61, 1.96019668579101562500e+01) (62, 1.02858340740203857422e+00) (63, 5.17199783325195312500e+01) (64, 1.08333194255828857422e+00) (65, 1.75259761810302734375e+01) (66, 1.02005171775817871094e+00) (67, -9.25773086547851562500e+01) (68, 1.02915167808532714844e+00) (69, -2.18329772949218750000e+01) (70, 1.12978231906890869141e+00) (71, -2.82638788223266601562e+00) (72, 1.13864302635192871094e+00) (0, 9.42615330219268798828e-01) (1, 1.17065856933593750000e+02) (2, 1.03944683074951171875e+00) (3, -2.71961383819580078125e+01) (4, 9.25564348697662353516e-01) (5, -3.15926452636718750000e+02) (6, 9.87039625644683837891e-01) (7, -2.40341125488281250000e+02) (8, 1.07536470890045166016e+00) (9, 1.97976570129394531250e+01) (10, 9.49598848819732666016e-01) (11, -2.30151343345642089844e+00) (12, 1.05660891532897949219e+00) (13, -5.79908752441406250000e+01) (14, 9.94432747364044189453e-01) (15, 8.71223373413085937500e+01) (16, 1.04603362083435058594e+00) (17, -6.47085418701171875000e+01) (18, 1.00383079051971435547e+00) (19, -5.80085945129394531250e+01) (20, 1.06005167961120605469e+00) (21, 3.68642387390136718750e+01) (22, 9.18368399143218994141e-01) (23, -2.85789718627929687500e+01) (24, 1.03540611267089843750e+00) (25, 1.92602787017822265625e+01) (26, 9.90265548229217529297e-01) (27, 5.36158227920532226562e+00) (28, 9.54265773296356201172e-01) (29, 2.12728698730468750000e+02) (30, 9.22433078289031982422e-01) (31, -1.54905731201171875000e+02) (32, 9.78006184101104736328e-01) (33, -1.12589540481567382812e+01) (34, 1.02998983860015869141e+00) (35, 4.09377174377441406250e+01) (36, 1.09613740444183349609e+00) (37, -3.62902641296386718750e+01) (38, 9.55301940441131591797e-01) (39, -3.99196128845214843750e+01) (40, 9.88646328449249267578e-01) (41, -5.38420867919921875000e+00) (42, 9.45584475994110107422e-01) (43, -6.19728317260742187500e+01) (44, 1.05455553531646728516e+00) (45, 1.09043823242187500000e+02) (46, 1.08006954193115234375e+00) (47, 7.61866226196289062500e+01) (48, 9.14097368717193603516e-01) (49, -4.32400016784667968750e+01) (50, 1.07873928546905517578e+00) (51, -3.94010429382324218750e+01) (52, 1.03946542739868164062e+00) (53, 1.93105728149414062500e+02) (54, 1.07838416099548339844e+00) (55, -3.14835720062255859375e+01) (56, 9.62602674961090087891e-01) (57, -1.75156939029693603516e+00) (58, 1.00036239624023437500e+00) (59, -8.25730025768280029297e-01) (60, 1.08054816722869873047e+00) (61, 1.62934112548828125000e+01) (62, 9.14771616458892822266e-01) (63, 8.70725631713867187500e+01) (64, 9.82739508152008056641e-01) (65, -7.95757904052734375000e+01) (66, 1.06270027160644531250e+00) (67, 8.14583683013916015625e+00) (68, 1.06096911430358886719e+00) (69, -1.05820610046386718750e+02) (70, 9.53352034091949462891e-01) (71, 2.67334060668945312500e+01) (72, 1.02211499214172363281e+00) (0, -1.58139300346374511719e+00) (1, 2.58869201660156250000e+02) (2, -1.60249412059783935547e+00) (3, -9.23058319091796875000e+01) (4, -1.60171997547149658203e+00) (5, -3.30508911132812500000e+02) (6, -1.62642633914947509766e+00) (7, -6.34963264465332031250e+01) (8, -1.52332007884979248047e+00) (9, -1.80353355407714843750e+01) (10, -1.57947075366973876953e+00) (11, -4.29981899261474609375e+00) (12, -1.67505705356597900391e+00) (13, -8.90757446289062500000e+01) (14, -1.66090238094329833984e+00) (15, 2.49027099609375000000e+01) (16, -1.60551142692565917969e+00) (17, 1.75272521972656250000e+01) (18, -1.62637364864349365234e+00) (19, -1.43945360183715820312e+01) (20, -1.52881610393524169922e+00) (21, -8.22407150268554687500e+00) (22, -1.59797179698944091797e+00) (23, -8.73116135597229003906e-01) (24, -1.60443627834320068359e+00) (25, -4.67151594161987304688e+00) (26, -1.62403225898742675781e+00) (27, 6.24083042144775390625e+00) (28, -1.66562139987945556641e+00) (29, 1.71651878356933593750e+01) (30, -1.66431748867034912109e+00) (31, -1.21808334350585937500e+02) (32, -1.67553293704986572266e+00) (33, -1.68960845470428466797e+00) (34, -1.52871298789978027344e+00) (35, 8.41212997436523437500e+01) (36, -1.60938704013824462891e+00) (37, -3.27997398376464843750e+01) (38, -1.63817989826202392578e+00) (39, -3.17369728088378906250e+01) (40, -1.65287709236145019531e+00) (41, 2.97804718017578125000e+01) (42, -1.49844706058502197266e+00) (43, -3.50725059509277343750e+01) (44, -1.56564795970916748047e+00) (45, 5.55002212524414062500e+01) (46, -1.57543432712554931641e+00) (47, -1.85674533843994140625e+01) (48, -1.54581224918365478516e+00) (49, 3.06840362548828125000e+01) (50, -1.49428236484527587891e+00) (51, 4.58616304397583007812e+00) (52, -1.61204636096954345703e+00) (53, 2.03688545227050781250e+01) (54, -1.50195038318634033203e+00) (55, -1.37863433837890625000e+02) (56, -1.65456330776214599609e+00) (57, 2.99027862548828125000e+01) (58, -1.64558017253875732422e+00) (59, -1.55623626708984375000e+02) (60, -1.54271495342254638672e+00) (61, -1.59990227222442626953e+00) (62, -1.52935636043548583984e+00) (63, -1.56865108013153076172e+00) (64, -1.54123079776763916016e+00) (65, -1.31833314895629882812e+01) (66, -1.65956175327301025391e+00) (67, -1.55042877197265625000e+01) (68, -1.57876360416412353516e+00) (69, -1.13877677917480468750e+01) (70, -1.64519083499908447266e+00) (71, 5.48121795654296875000e+01) (72, -1.47991383075714111328e+00) (0, 4.41861182451248168945e-01) (1, 3.56468276977539062500e+01) (2, 5.83881497383117675781e-01) (3, 1.41365709304809570312e+01) (4, 5.31703948974609375000e-01) (5, 8.89593582153320312500e+01) (6, 6.13597571849822998047e-01) (7, 1.13485841751098632812e+01) (8, 5.50780475139617919922e-01) (9, 6.13223361968994140625e+00) (10, 5.54008960723876953125e-01) (11, 5.48142433166503906250e+00) (12, 4.73788082599639892578e-01) (13, 6.13398895263671875000e+01) (14, 6.41490221023559570312e-01) (15, -2.49661684036254882812e+00) (16, 5.28691112995147705078e-01) (17, 4.16153755187988281250e+01) (18, 6.40635430812835693359e-01) (19, 1.95255851745605468750e+00) (20, 6.28877222537994384766e-01) (21, 3.73243293762207031250e+01) (22, 5.12339591979980468750e-01) (23, 6.24909639358520507812e+00) (24, 5.97536861896514892578e-01) (25, 1.91225223541259765625e+01) (26, 6.25527441501617431641e-01) (27, 1.11420736312866210938e+01) (28, 5.51144957542419433594e-01) (29, 3.83571028709411621094e+00) (30, 6.57335877418518066406e-01) (31, 2.60796012878417968750e+01) (32, 5.11473953723907470703e-01) (33, 4.38261032104492187500e+00) (34, 5.76175451278686523438e-01) (35, 3.20474128723144531250e+01) (36, 6.66981339454650878906e-01) (37, 2.50958466529846191406e+00) (38, 5.89773714542388916016e-01) (39, 4.26478652954101562500e+01) (40, 5.51208198070526123047e-01) (41, 9.94099712371826171875e+00) (42, 4.97241944074630737305e-01) (43, 1.56579437255859375000e+01) (44, 4.95148807764053344727e-01) (45, -4.07764396667480468750e+01) (46, 5.86976706981658935547e-01) (47, 4.21657180786132812500e+01) (48, 4.80807572603225708008e-01) (49, -1.24705123901367187500e+01) (50, 6.56132340431213378906e-01) (51, 5.19628858566284179688e+00) (52, 6.66374325752258300781e-01) (53, -2.15376453399658203125e+01) (54, 4.97923344373703002930e-01) (55, 6.55144119262695312500e+00) (56, 5.50305247306823730469e-01) (57, -8.37958049774169921875e+00) (58, 5.82733094692230224609e-01) (59, 1.01244287490844726562e+01) (60, 5.38340270519256591797e-01) (61, -5.60192337036132812500e+01) (62, 5.28655171394348144531e-01) (63, 5.26163673400878906250e+00) (64, 4.71600651741027832031e-01) (65, -2.41571731567382812500e+01) (66, 4.82954710721969604492e-01) (67, -2.67734265327453613281e+00) (68, 4.87949788570404052734e-01) (69, -5.72460441589355468750e+01) (70, 5.51322460174560546875e-01) (71, 1.96962471008300781250e+01) (72, 6.08753800392150878906e-01) (73, -4.08632612228393554688e+00) (74, 1.14246916770935058594e+00) (75, 6.76143569946289062500e+01) (76, 8.65218048095703125000e+01) (77, 8.00039005279541015625e+00) (78, -3.27524709701538085938e+00) (79, -8.59819221496582031250e+00) (80, 8.82420539855957031250e+00) (81, -2.08437585830688476562e+00) (82, 1.54176589965820312500e+02) (83, 2.23869094848632812500e+01) (73, 2.36883118748664855957e-01) (74, -2.88097053766250610352e-01) (75, 1.75090208649635314941e-01) (76, 9.79659799486398696899e-03) (77, -2.51210004091262817383e-01) (78, 1.03715813159942626953e+00) (79, 2.49338820576667785645e-01) (80, 3.14954489469528198242e-01) (81, 4.42374646663665771484e-01) (82, -1.59414619207382202148e-01) (83, 1.92937925457954406738e-01) 
