FANN_FLO_2.1
num_layers=3
learning_rate=0.700000
connection_rate=1.000000
network_type=0
learning_momentum=0.000000
training_algorithm=2
train_error_function=1
train_stop_function=0
cascade_output_change_fraction=0.010000
quickprop_decay=-0.000100
quickprop_mu=1.750000
rprop_increase_factor=1.200000
rprop_decrease_factor=0.500000
rprop_delta_min=0.000000
rprop_delta_max=50.000000
rprop_delta_zero=0.100000
cascade_output_stagnation_epochs=12
cascade_candidate_change_fraction=0.010000
cascade_candidate_stagnation_epochs=12
cascade_max_out_epochs=150
cascade_max_cand_epochs=150
cascade_num_candidate_groups=2
bit_fail_limit=3.49999994039535522461e-01
cascade_candidate_limit=1.00000000000000000000e+03
cascade_weight_multiplier=4.00000005960464477539e-01
cascade_activation_functions_count=10
cascade_activation_functions=3 5 7 8 10 11 14 15 16 17 
cascade_activation_steepnesses_count=4
cascade_activation_steepnesses=2.50000000000000000000e-01 5.00000000000000000000e-01 7.50000000000000000000e-01 1.00000000000000000000e+00 
layer_sizes=73 11 3 
scale_included=0
neurons (num_inputs, activation_function, activation_steepness)=(0, 0, 0.00000000000000000000e+00) (0, 0, 0.00000000000000000000e+00) (0, 0, 0.00000000000000000000e+00) (0, 0, 0.00000000000000000000e+00) (0, 0, 0.00000000000000000000e+00) (0, 0, 0.00000000000000000000e+00) (0, 0, 0.00000000000000000000e+00) (0, 0, 0.00000000000000000000e+00) (0, 0, 0.00000000000000000000e+00) (0, 0, 0.00000000000000000000e+00) (0, 0, 0.00000000000000000000e+00) (0, 0, 0.00000000000000000000e+00) (0, 0, 0.00000000000000000000e+00) (0, 0, 0.00000000000000000000e+00) (0, 0, 0.00000000000000000000e+00) (0, 0, 0.00000000000000000000e+00) (0, 0, 0.00000000000000000000e+00) (0, 0, 0.00000000000000000000e+00) (0, 0, 0.00000000000000000000e+00) (0, 0, 0.00000000000000000000e+00) (0, 0, 0.00000000000000000000e+00) (0, 0, 0.00000000000000000000e+00) (0, 0, 0.00000000000000000000e+00) (0, 0, 0.00000000000000000000e+00) (0, 0, 0.00000000000000000000e+00) (0, 0, 0.00000000000000000000e+00) (0, 0, 0.00000000000000000000e+00) (0, 0, 0.00000000000000000000e+00) (0, 0, 0.00000000000000000000e+00) (0, 0, 0.00000000000000000000e+00) (0, 0, 0.00000000000000000000e+00) (0, 0, 0.00000000000000000000e+00) (0, 0, 0.00000000000000000000e+00) (0, 0, 0.00000000000000000000e+00) (0, 0, 0.00000000000000000000e+00) (0, 0, 0.00000000000000000000e+00) (0, 0, 0.00000000000000000000e+00) (0, 0, 0.00000000000000000000e+00) (0, 0, 0.00000000000000000000e+00) (0, 0, 0.00000000000000000000e+00) (0, 0, 0.00000000000000000000e+00) (0, 0, 0.00000000000000000000e+00) (0, 0, 0.00000000000000000000e+00) (0, 0, 0.00000000000000000000e+00) (0, 0, 0.00000000000000000000e+00) (0, 0, 0.00000000000000000000e+00) (0, 0, 0.00000000000000000000e+00) (0, 0, 0.00000000000000000000e+00) (0, 0, 0.00000000000000000000e+00) (0, 0, 0.00000000000000000000e+00) (0, 0, 0.00000000000000000000e+00) (0, 0, 0.00000000000000000000e+00) (0, 0, 0.00000000000000000000e+00) (0, 0, 0.00000000000000000000e+00) (0, 0, 0.00000000000000000000e+00) (0, 0, 0.00000000000000000000e+00) (0, 0, 0.00000000000000000000e+00) (0, 0, 0.00000000000000000000e+00) (0, 0, 0.00000000000000000000e+00) (0, 0, 0.00000000000000000000e+00) (0, 0, 0.00000000000000000000e+00) (0, 0, 0.00000000000000000000e+00) (0, 0, 0.00000000000000000000e+00) (0, 0, 0.00000000000000000000e+00) (0, 0, 0.00000000000000000000e+00) (0, 0, 0.00000000000000000000e+00) (0, 0, 0.00000000000000000000e+00) (0, 0, 0.00000000000000000000e+00) (0, 0, 0.00000000000000000000e+00) (0, 0, 0.00000000000000000000e+00) (0, 0, 0.00000000000000000000e+00) (0, 0, 0.00000000000000000000e+00) (0, 0, 0.00000000000000000000e+00) (73, 5, 5.00000000000000000000e-01) (73, 5, 5.00000000000000000000e-01) (73, 5, 5.00000000000000000000e-01) (73, 5, 5.00000000000000000000e-01) (73, 5, 5.00000000000000000000e-01) (73, 5, 5.00000000000000000000e-01) (73, 5, 5.00000000000000000000e-01) (73, 5, 5.00000000000000000000e-01) (73, 5, 5.00000000000000000000e-01) (73, 5, 5.00000000000000000000e-01) (0, 5, 0.00000000000000000000e+00) (11, 11, 5.00000000000000000000e-01) (11, 11, 5.00000000000000000000e-01) (0, 11, 0.00000000000000000000e+00) 
connections (connected_to_neuron, weight)=(0, -1.50000000000000000000e+03) (1, 1.50000000000000000000e+03) (2, -9.20409912109375000000e+02) (3, 1.49992138671875000000e+03) (4, 3.55148530006408691406e+00) (5, -1.47550683593750000000e+03) (6, 5.81789350509643554688e+00) (7, 1.42302697753906250000e+03) (8, -1.50000000000000000000e+03) (9, 1.50000000000000000000e+03) (10, -9.21060180664062500000e+02) (11, 1.49438781738281250000e+03) (12, 2.97019596099853515625e+01) (13, 1.50000000000000000000e+03) (14, 5.87995433807373046875e+00) (15, 1.49993481445312500000e+03) (16, -1.50000000000000000000e+03) (17, 1.50000000000000000000e+03) (18, -6.46909973144531250000e+02) (19, 1.50000000000000000000e+03) (20, 1.84575366973876953125e+01) (21, 9.88186645507812500000e+02) (22, 5.64700317382812500000e+00) (23, 1.50000000000000000000e+03) (24, 1.50000000000000000000e+03) (25, -1.50000000000000000000e+03) (26, -6.44121826171875000000e+02) (27, 1.50000000000000000000e+03) (28, 1.85611362457275390625e+01) (29, 1.49849182128906250000e+03) (30, 5.66155862808227539062e+00) (31, 1.50000000000000000000e+03) (32, 1.50000000000000000000e+03) (33, -1.50000000000000000000e+03) (34, -6.19398620605468750000e+02) (35, 1.50000000000000000000e+03) (36, 3.15582237243652343750e+01) (37, -3.33276000976562500000e+02) (38, 5.72562646865844726562e+00) (39, 1.49992968750000000000e+03) (40, -1.44735815429687500000e+03) (41, -1.50000000000000000000e+03) (42, -5.59793090820312500000e+02) (43, 1.50000000000000000000e+03) (44, 1.35936355590820312500e+02) (45, -5.69308586120605468750e+01) (46, -3.37809814453125000000e+02) (47, 1.50000000000000000000e+03) (48, -1.50000000000000000000e+03) (49, 1.49919982910156250000e+03) (50, -1.16798364257812500000e+03) (51, 1.50000000000000000000e+03) (52, 1.31773529052734375000e+02) (53, 1.50000000000000000000e+03) (54, -6.83215866088867187500e+01) (55, 1.50000000000000000000e+03) (56, -1.50000000000000000000e+03) (57, 1.43348913574218750000e+03) (58, -1.46708850097656250000e+03) (59, 1.50000000000000000000e+03) (60, 5.52462829589843750000e+02) (61, 1.50000000000000000000e+03) (62, -6.16801269531250000000e+02) (63, 1.50000000000000000000e+03) (64, 1.50000000000000000000e+03) (65, -3.69696769714355468750e+01) (66, -1.46709228515625000000e+03) (67, 1.50000000000000000000e+03) (68, 8.72568908691406250000e+02) (69, 1.50000000000000000000e+03) (70, -6.18916564941406250000e+02) (71, 1.50000000000000000000e+03) (72, 3.28153564453125000000e+02) (0, -1.50000000000000000000e+03) (1, 1.50000000000000000000e+03) (2, -1.49035131835937500000e+03) (3, 3.61013061523437500000e+02) (4, -5.60804931640625000000e+02) (5, -1.50000000000000000000e+03) (6, -1.45022155761718750000e+03) (7, 6.63966445922851562500e+01) (8, -1.50000000000000000000e+03) (9, 1.50000000000000000000e+03) (10, -1.49035839843750000000e+03) (11, -1.47114379882812500000e+03) (12, 6.23138189315795898438e+00) (13, 1.50000000000000000000e+03) (14, -1.44641552734375000000e+03) (15, 1.50000000000000000000e+03) (16, -1.50000000000000000000e+03) (17, 1.50000000000000000000e+03) (18, -1.49035449218750000000e+03) (19, 1.50000000000000000000e+03) (20, 1.02035751342773437500e+01) (21, -1.19258203125000000000e+03) (22, -1.44641784667968750000e+03) (23, 1.50000000000000000000e+03) (24, 1.50000000000000000000e+03) (25, -1.50000000000000000000e+03) (26, -1.49035864257812500000e+03) (27, 1.50000000000000000000e+03) (28, 6.86639118194580078125e+00) (29, 1.50000000000000000000e+03) (30, -1.45112365722656250000e+03) (31, 1.50000000000000000000e+03) (32, 1.50000000000000000000e+03) (33, -1.50000000000000000000e+03) (34, -1.11936181640625000000e+03) (35, 1.50000000000000000000e+03) (36, -4.37582733154296875000e+02) (37, 1.50000000000000000000e+03) (38, -1.45326086425781250000e+03) (39, -1.47235424804687500000e+03) (40, -1.49997814941406250000e+03) (41, -1.50000000000000000000e+03) (42, -1.49035107421875000000e+03) (43, 1.50000000000000000000e+03) (44, -8.05231689453125000000e+02) (45, 1.50000000000000000000e+03) (46, -1.48315124511718750000e+03) (47, 1.50000000000000000000e+03) (48, -1.50000000000000000000e+03) (49, -1.63230072021484375000e+02) (50, -1.47852575683593750000e+03) (51, 1.50000000000000000000e+03) (52, -8.06029602050781250000e+02) (53, 1.50000000000000000000e+03) (54, -1.48308935546875000000e+03) (55, 1.50000000000000000000e+03) (56, -1.50000000000000000000e+03) (57, -1.44500000000000000000e+03) (58, -1.47852661132812500000e+03) (59, 1.50000000000000000000e+03) (60, -1.39853027343750000000e+03) (61, 1.50000000000000000000e+03) (62, -1.49034582519531250000e+03) (63, 1.50000000000000000000e+03) (64, 1.50000000000000000000e+03) (65, -1.50000000000000000000e+03) (66, -1.47853173828125000000e+03) (67, 1.50000000000000000000e+03) (68, -9.83764526367187500000e+02) (69, -1.46595715332031250000e+03) (70, -1.47851940917968750000e+03) (71, 1.50000000000000000000e+03) (72, 7.19848108291625976562e+00) (0, -1.50000000000000000000e+03) (1, 1.50000000000000000000e+03) (2, -1.27817329406738281250e+02) (3, 1.49905786132812500000e+03) (4, -8.01839256286621093750e+00) (5, 1.50000000000000000000e+03) (6, -8.79786777496337890625e+00) (7, 1.39435034179687500000e+03) (8, -1.50000000000000000000e+03) (9, 1.41636669921875000000e+03) (10, -4.98321189880371093750e+01) (11, 1.49904467773437500000e+03) (12, -5.96222519874572753906e-01) (13, 1.23052847385406494141e+00) (14, -3.65552401542663574219e+00) (15, 1.49999511718750000000e+03) (16, -1.50000000000000000000e+03) (17, -1.50000000000000000000e+03) (18, -4.94457855224609375000e+01) (19, 1.49998449707031250000e+03) (20, -2.69014668464660644531e+00) (21, 3.58865356445312500000e+01) (22, -3.67428755760192871094e+00) (23, 1.50000000000000000000e+03) (24, 1.50000000000000000000e+03) (25, -1.50000000000000000000e+03) (26, -1.70965156555175781250e+01) (27, 1.49999560546875000000e+03) (28, -4.64667320251464843750e+00) (29, 1.50000000000000000000e+03) (30, -2.89494562149047851562e+00) (31, 1.50000000000000000000e+03) (32, 1.50000000000000000000e+03) (33, -1.49998010253906250000e+03) (34, -1.68713486194610595703e+00) (35, 1.50000000000000000000e+03) (36, -3.13771190643310546875e+01) (37, 1.49999963378906250000e+03) (38, -1.42209184169769287109e+00) (39, 1.49936254882812500000e+03) (40, 1.50000000000000000000e+03) (41, -1.50000000000000000000e+03) (42, -3.95647311210632324219e+00) (43, 1.50000000000000000000e+03) (44, -6.72711420059204101562e+00) (45, 1.50000000000000000000e+03) (46, -4.00963878631591796875e+00) (47, 1.49999633789062500000e+03) (48, 1.50000000000000000000e+03) (49, -1.50000000000000000000e+03) (50, -2.64382781982421875000e+01) (51, 1.50000000000000000000e+03) (52, -3.00633163452148437500e+01) (53, 1.50000000000000000000e+03) (54, -3.17367196083068847656e+00) (55, 1.50000000000000000000e+03) (56, 1.49998754882812500000e+03) (57, -1.50000000000000000000e+03) (58, -1.12165718078613281250e+02) (59, 1.50000000000000000000e+03) (60, -5.94794511795043945312e-01) (61, 1.50000000000000000000e+03) (62, -4.31801033020019531250e+00) (63, 1.50000000000000000000e+03) (64, 1.50000000000000000000e+03) (65, -1.50000000000000000000e+03) (66, -1.49999768066406250000e+03) (67, 1.50000000000000000000e+03) (68, -1.33474548339843750000e+02) (69, 1.50000000000000000000e+03) (70, -2.17956390380859375000e+01) (71, 1.50000000000000000000e+03) (72, -6.19734725952148437500e+01) (0, 1.80883674621582031250e+01) (1, -2.30850009918212890625e+01) (2, -5.88911063969135284424e-02) (3, -1.15195786952972412109e+00) (4, 1.76474135369062423706e-02) (5, 3.79998818971216678619e-03) (6, 3.47866192460060119629e-02) (7, -1.90699130296707153320e-01) (8, 7.81468486785888671875e+00) (9, -4.69571113586425781250e+00) (10, -4.22458834946155548096e-02) (11, 3.75148374587297439575e-03) (12, 3.78161743283271789551e-02) (13, 7.43284821510314941406e-03) (14, 2.78376806527376174927e-02) (15, 7.56592601537704467773e-02) (16, 6.34326314926147460938e+00) (17, 4.60095077753067016602e-01) (18, -8.21494683623313903809e-02) (19, -2.19263598322868347168e-01) (20, -1.94529048167169094086e-03) (21, 2.95151434838771820068e-02) (22, -2.53728739917278289795e-02) (23, 3.42261850833892822266e-01) (24, -1.56693172454833984375e+01) (25, 3.62626743316650390625e+00) (26, 7.74429962038993835449e-02) (27, 2.94932454824447631836e-01) (28, 2.76223868131637573242e-02) (29, 1.27267837524414062500e-02) (30, -2.52929180860519409180e-02) (31, -1.25114247202873229980e-01) (32, -6.32067632675170898438e+00) (33, 4.80136781930923461914e-01) (34, -2.06913761794567108154e-02) (35, 5.55622458457946777344e-01) (36, -5.65025508403778076172e-02) (37, 9.76928230375051498413e-03) (38, 1.43154174089431762695e-01) (39, -4.72529157996177673340e-02) (40, -1.02721393108367919922e+00) (41, 6.63897812366485595703e-01) (42, -7.19494819641113281250e-02) (43, 5.53215384483337402344e-01) (44, 3.95225994288921356201e-02) (45, -8.00107344985008239746e-02) (46, -4.56059118732810020447e-03) (47, 1.12152516841888427734e-01) (48, 8.58804583549499511719e-01) (49, 7.23128020763397216797e-01) (50, 6.78442642092704772949e-02) (51, -2.20514580607414245605e-01) (52, -2.56693791598081588745e-02) (53, -6.06327392160892486572e-02) (54, -4.31669689714908599854e-03) (55, 6.50994554162025451660e-02) (56, 1.76349684596061706543e-01) (57, 7.76326376944780349731e-03) (58, 1.92347019910812377930e-02) (59, -2.09505185484886169434e-01) (60, -5.38476519286632537842e-02) (61, 8.82950436789542436600e-04) (62, -5.68656288087368011475e-02) (63, -1.04204639792442321777e-01) (64, 1.35551559925079345703e+00) (65, 4.62614268064498901367e-01) (66, -7.03915720805525779724e-03) (67, -3.31093192100524902344e-01) (68, 3.63973565399646759033e-02) (69, 7.75321051478385925293e-02) (70, 7.70703852176666259766e-02) (71, 7.06954747438430786133e-02) (72, 5.38253597915172576904e-02) (0, -1.50000000000000000000e+03) (1, 1.50000000000000000000e+03) (2, 6.44772469997406005859e-01) (3, 9.19328880310058593750e+00) (4, 2.97699236869812011719e+00) (5, 4.34715003967285156250e+01) (6, 1.13606548309326171875e+00) (7, -7.74880075454711914062e+00) (8, -1.50000000000000000000e+03) (9, 1.49650073242187500000e+03) (10, 6.36334598064422607422e-01) (11, -6.70058608055114746094e-01) (12, 5.08099412918090820312e+00) (13, -3.04090251922607421875e+01) (14, 1.42671704292297363281e+00) (15, 5.82725372314453125000e+01) (16, -1.50000000000000000000e+03) (17, -5.15515480041503906250e+01) (18, 5.70871055126190185547e-01) (19, -5.15226423740386962891e-01) (20, 2.49571204185485839844e+00) (21, -3.52265472412109375000e+01) (22, 1.94462776184082031250e+00) (23, 4.00694961547851562500e+01) (24, 1.50000000000000000000e+03) (25, -4.63704162597656250000e+02) (26, 4.91987317800521850586e-01) (27, -7.79813587665557861328e-01) (28, 5.06262588500976562500e+00) (29, -5.26651287078857421875e+00) (30, 9.11152899265289306641e-01) (31, 5.01397590637207031250e+01) (32, 1.50000000000000000000e+03) (33, -2.96602905273437500000e+02) (34, 6.13002538681030273438e-01) (35, -5.96590578556060791016e-01) (36, 9.71898615360260009766e-01) (37, -2.55070257186889648438e+00) (38, 2.01175904273986816406e+00) (39, -7.33071184158325195312e+00) (40, 1.50000000000000000000e+03) (41, -2.22556640625000000000e+02) (42, 7.03181266784667968750e-01) (43, -8.66889715194702148438e-01) (44, 1.15992140769958496094e+00) (45, 1.94661788940429687500e+01) (46, 8.93583238124847412109e-01) (47, -2.18111157417297363281e+00) (48, 9.36481237411499023438e-01) (49, -4.89749481201171875000e+02) (50, 5.91733217239379882812e-01) (51, -1.63963079452514648438e+00) (52, 9.96320903301239013672e-01) (53, -5.27896761894226074219e-01) (54, 9.41082835197448730469e-01) (55, -1.16637268066406250000e+01) (56, 2.90783813476562500000e+02) (57, -1.45249194335937500000e+03) (58, 5.38212418556213378906e-01) (59, -1.12045109272003173828e-01) (60, 1.32625889778137207031e+00) (61, -3.16468405723571777344e+00) (62, 7.60941565036773681641e-01) (63, -3.43715488910675048828e-01) (64, 7.81725341796875000000e+02) (65, -2.96368133544921875000e+02) (66, 5.53810536861419677734e-01) (67, -4.26071977615356445312e+00) (68, 2.32559852600097656250e+01) (69, -6.77052640914916992188e+00) (70, 7.39423274993896484375e-01) (71, -2.49347135424613952637e-01) (72, 4.58549232482910156250e+01) (0, 2.54098653793334960938e-01) (1, 3.06410923004150390625e+01) (2, 5.64666464924812316895e-02) (3, -1.27057838439941406250e+00) (4, -1.21433753520250320435e-02) (5, 7.35467076301574707031e-02) (6, 7.12566152215003967285e-02) (7, 1.09482835978269577026e-02) (8, -6.83008670806884765625e-01) (9, 1.79197764396667480469e+00) (10, 4.72067110240459442139e-02) (11, -2.92195230722427368164e-01) (12, 2.16537937521934509277e-02) (13, -1.75436735153198242188e-02) (14, -1.82362049818038940430e-02) (15, 3.19901645183563232422e-01) (16, -9.00151431560516357422e-01) (17, 1.69026613235473632812e-01) (18, -1.94580871611833572388e-02) (19, 2.04468425363302230835e-02) (20, 1.47432573139667510986e-02) (21, -3.39535041712224483490e-03) (22, -2.37774178385734558105e-02) (23, 3.12095910310745239258e-01) (24, -3.57276014983654022217e-02) (25, 3.54016685485839843750e+00) (26, -2.35915277153253555298e-02) (27, 4.52594980597496032715e-02) (28, 1.97670180350542068481e-02) (29, -1.44167179241776466370e-02) (30, 8.29903315752744674683e-03) (31, 1.13748073577880859375e-01) (32, -1.13970267772674560547e+00) (33, 1.31840908527374267578e+00) (34, 9.62758623063564300537e-03) (35, -3.59947800636291503906e-01) (36, -3.09833493083715438843e-02) (37, 7.00773298740386962891e-02) (38, 1.20470328256487846375e-02) (39, -5.67276962101459503174e-02) (40, 1.65473830699920654297e+00) (41, 1.38915076851844787598e-01) (42, 7.62892141938209533691e-02) (43, -9.36637073755264282227e-02) (44, -3.44252050854265689850e-03) (45, 7.01644718647003173828e-02) (46, -6.43459409475326538086e-02) (47, -1.33394971489906311035e-01) (48, 2.63378882408142089844e+00) (49, -3.09526383876800537109e-01) (50, -3.88920539990067481995e-03) (51, 9.13358032703399658203e-02) (52, -7.12542841210961341858e-03) (53, -1.93338934332132339478e-03) (54, 1.24648353084921836853e-02) (55, 2.31323577463626861572e-02) (56, 3.99063378572463989258e-01) (57, -1.52845621109008789062e-01) (58, -1.01784318685531616211e-01) (59, 1.36370629072189331055e-01) (60, -4.05006408691406250000e-02) (61, -1.14141125231981277466e-02) (62, -3.89261022210121154785e-02) (63, 9.14035513997077941895e-02) (64, 3.29641878604888916016e-01) (65, -6.09798431396484375000e-01) (66, -2.28769779205322265625e-02) (67, 1.34543552994728088379e-01) (68, -1.99670791625976562500e-02) (69, 1.97942852973937988281e-02) (70, 4.07870709896087646484e-02) (71, 1.71397924423217773438e-02) (72, 3.19384783506393432617e-02) (0, -1.50000000000000000000e+03) (1, 1.50000000000000000000e+03) (2, -1.49191101074218750000e+03) (3, 1.49987194824218750000e+03) (4, 2.08353090286254882812e+00) (5, 1.49999951171875000000e+03) (6, -3.37530899047851562500e+00) (7, 4.21422698974609375000e+02) (8, -1.50000000000000000000e+03) (9, 1.50000000000000000000e+03) (10, -1.49192089843750000000e+03) (11, 1.49906298828125000000e+03) (12, 2.61143455505371093750e+01) (13, -1.07018103027343750000e+03) (14, -3.39139246940612792969e+00) (15, 1.50000000000000000000e+03) (16, -1.50000000000000000000e+03) (17, -1.50000000000000000000e+03) (18, -1.49191601562500000000e+03) (19, 1.49999975585937500000e+03) (20, 1.12237997055053710938e+01) (21, -2.67049759626388549805e-01) (22, -3.18893947601318359375e+01) (23, 1.49288500976562500000e+03) (24, 1.50000000000000000000e+03) (25, -1.50000000000000000000e+03) (26, -1.49074279785156250000e+03) (27, 1.49999975585937500000e+03) (28, 1.11078672409057617188e+01) (29, -1.73188293457031250000e+02) (30, -1.17015368652343750000e+03) (31, 1.50000000000000000000e+03) (32, 1.50000000000000000000e+03) (33, -1.50000000000000000000e+03) (34, -1.49140124511718750000e+03) (35, 1.50000000000000000000e+03) (36, 1.05762948989868164062e+01) (37, 1.50000000000000000000e+03) (38, -1.48663537597656250000e+03) (39, 1.49994946289062500000e+03) (40, 1.50000000000000000000e+03) (41, -1.50000000000000000000e+03) (42, -1.49074011230468750000e+03) (43, 1.50000000000000000000e+03) (44, 1.08870592117309570312e+01) (45, 1.50000000000000000000e+03) (46, -1.49073486328125000000e+03) (47, 1.49999926757812500000e+03) (48, 1.50000000000000000000e+03) (49, -1.50000000000000000000e+03) (50, -1.49078674316406250000e+03) (51, 1.50000000000000000000e+03) (52, -6.31883716583251953125e+00) (53, 1.50000000000000000000e+03) (54, -1.47934912109375000000e+03) (55, 1.50000000000000000000e+03) (56, 1.49986633300781250000e+03) (57, -1.50000000000000000000e+03) (58, -1.49225817871093750000e+03) (59, 1.50000000000000000000e+03) (60, 2.93394923210144042969e+00) (61, 1.50000000000000000000e+03) (62, -1.49073779296875000000e+03) (63, 1.50000000000000000000e+03) (64, 1.50000000000000000000e+03) (65, -1.50000000000000000000e+03) (66, -1.49531103515625000000e+03) (67, 1.50000000000000000000e+03) (68, -4.53914245605468750000e+02) (69, 1.50000000000000000000e+03) (70, -1.49208471679687500000e+03) (71, 1.50000000000000000000e+03) (72, 6.04754638671875000000e+02) (0, -1.50000000000000000000e+03) (1, 1.50000000000000000000e+03) (2, -1.49787341308593750000e+03) (3, 1.47505249023437500000e+03) (4, 1.13057076930999755859e+00) (5, 7.79273864746093750000e+02) (6, 1.46836996078491210938e+01) (7, 1.30962731933593750000e+03) (8, -1.50000000000000000000e+03) (9, 1.50000000000000000000e+03) (10, -1.49754064941406250000e+03) (11, -1.49999963378906250000e+03) (12, 6.27330818176269531250e+01) (13, -1.49574340820312500000e+03) (14, 1.98219680786132812500e+01) (15, 1.50000000000000000000e+03) (16, -1.50000000000000000000e+03) (17, -1.45624365234375000000e+03) (18, -1.49753393554687500000e+03) (19, -1.49146911621093750000e+03) (20, 2.17907600402832031250e+01) (21, -9.58118247985839843750e+00) (22, 1.96854667663574218750e+01) (23, 1.49818786621093750000e+03) (24, 1.50000000000000000000e+03) (25, -1.50000000000000000000e+03) (26, -1.49754895019531250000e+03) (27, 1.38140930175781250000e+03) (28, 4.70926551818847656250e+01) (29, -1.47564453125000000000e+03) (30, 2.29267349243164062500e+01) (31, 1.50000000000000000000e+03) (32, 1.50000000000000000000e+03) (33, -1.50000000000000000000e+03) (34, -8.62126037597656250000e+02) (35, 1.49809948730468750000e+03) (36, 1.76128616333007812500e+01) (37, 1.49858850097656250000e+03) (38, 1.51465110778808593750e+01) (39, 1.39211364746093750000e+03) (40, 1.50000000000000000000e+03) (41, -1.50000000000000000000e+03) (42, -1.49753869628906250000e+03) (43, 1.50000000000000000000e+03) (44, 3.72750616073608398438e+00) (45, 1.50000000000000000000e+03) (46, -8.16131652832031250000e+02) (47, 1.39927648925781250000e+03) (48, -1.50000000000000000000e+03) (49, -1.50000000000000000000e+03) (50, -1.49761132812500000000e+03) (51, 1.49991564941406250000e+03) (52, 3.92927217483520507812e+00) (53, 6.79045593261718750000e+02) (54, -4.98822357177734375000e+02) (55, 1.49938391113281250000e+03) (56, -1.50000000000000000000e+03) (57, -1.50000000000000000000e+03) (58, -1.48901721191406250000e+03) (59, 1.49642297363281250000e+03) (60, 4.15858802795410156250e+01) (61, 1.50000000000000000000e+03) (62, -1.49752893066406250000e+03) (63, 1.49960876464843750000e+03) (64, 1.50000000000000000000e+03) (65, -1.50000000000000000000e+03) (66, -1.49946557617187500000e+03) (67, 1.49840661621093750000e+03) (68, 4.02724325656890869141e-01) (69, 1.49816894531250000000e+03) (70, -1.49292382812500000000e+03) (71, 1.49990197753906250000e+03) (72, 7.27513671875000000000e+02) (0, -1.50000000000000000000e+03) (1, 1.50000000000000000000e+03) (2, 1.38152941894531250000e+03) (3, -1.44650500488281250000e+03) (4, 2.09858951568603515625e+01) (5, -1.50000000000000000000e+03) (6, 2.65413141250610351562e+00) (7, -1.24757128906250000000e+03) (8, -1.50000000000000000000e+03) (9, 1.50000000000000000000e+03) (10, 1.35052197265625000000e+03) (11, 1.05775366210937500000e+03) (12, 1.75086665153503417969e+00) (13, 1.50000000000000000000e+03) (14, -1.33392353057861328125e+01) (15, 1.50000000000000000000e+03) (16, -1.50000000000000000000e+03) (17, 1.50000000000000000000e+03) (18, 1.43763928222656250000e+03) (19, 1.50000000000000000000e+03) (20, 8.71339082717895507812e-01) (21, 1.21175146102905273438e+01) (22, -1.25485286712646484375e+01) (23, 1.50000000000000000000e+03) (24, 1.50000000000000000000e+03) (25, -1.50000000000000000000e+03) (26, 1.43763439941406250000e+03) (27, 1.50000000000000000000e+03) (28, 1.62114584445953369141e+00) (29, 1.50000000000000000000e+03) (30, -1.15497531890869140625e+01) (31, 1.50000000000000000000e+03) (32, 1.50000000000000000000e+03) (33, -1.50000000000000000000e+03) (34, 1.49307165527343750000e+03) (35, 1.50000000000000000000e+03) (36, -1.07888259887695312500e+01) (37, 1.41077966308593750000e+03) (38, -1.19246845245361328125e+01) (39, -1.44630834960937500000e+03) (40, -1.50000000000000000000e+03) (41, -1.50000000000000000000e+03) (42, 1.49482897949218750000e+03) (43, 1.50000000000000000000e+03) (44, -3.53924751281738281250e+00) (45, 1.49998168945312500000e+03) (46, 1.48914880371093750000e+03) (47, 1.50000000000000000000e+03) (48, -1.50000000000000000000e+03) (49, 1.50000000000000000000e+03) (50, 1.44527758789062500000e+03) (51, 1.50000000000000000000e+03) (52, -2.44419503211975097656e+00) (53, 1.50000000000000000000e+03) (54, 1.24835906982421875000e+02) (55, 1.50000000000000000000e+03) (56, -1.50000000000000000000e+03) (57, 1.50000000000000000000e+03) (58, 1.44528088378906250000e+03) (59, 1.50000000000000000000e+03) (60, -8.63395023345947265625e+00) (61, 1.50000000000000000000e+03) (62, 1.49307495117187500000e+03) (63, 1.50000000000000000000e+03) (64, 1.50000000000000000000e+03) (65, 1.50000000000000000000e+03) (66, 1.42708483886718750000e+03) (67, 1.50000000000000000000e+03) (68, 1.53803749084472656250e+01) (69, 1.50000000000000000000e+03) (70, 1.30188378906250000000e+03) (71, 1.50000000000000000000e+03) (72, -1.59971714019775390625e+00) (0, -2.76783514022827148438e+00) (1, -3.14278335571289062500e+01) (2, -8.26963186264038085938e-02) (3, 1.98094439506530761719e+00) (4, 1.04464648757129907608e-03) (5, -1.10138677060604095459e-01) (6, -1.54817283153533935547e-01) (7, 4.76093441247940063477e-02) (8, -7.94402837753295898438e-01) (9, -1.09902167320251464844e+00) (10, 6.83854939416050910950e-03) (11, 5.67002713680267333984e-01) (12, -4.41788621246814727783e-02) (13, 1.33668640628457069397e-02) (14, 3.26534956693649291992e-02) (15, -5.49169361591339111328e-01) (16, -6.16469562053680419922e-01) (17, -3.72999340295791625977e-01) (18, -2.63386145234107971191e-02) (19, 1.20463579893112182617e-01) (20, -2.22266558557748794556e-02) (21, -1.21322730556130409241e-02) (22, 4.06995713710784912109e-02) (23, -6.31922423839569091797e-01) (24, 5.23225545883178710938e+00) (25, -6.10881376266479492188e+00) (26, 3.15590426325798034668e-02) (27, -1.73136200755834579468e-02) (28, -4.32069972157478332520e-02) (29, 3.53140197694301605225e-03) (30, 2.24133860319852828979e-02) (31, -1.52469843626022338867e-01) (32, 3.65089893341064453125e+00) (33, -2.06366109848022460938e+00) (34, -1.56955160200595855713e-02) (35, 1.77036210894584655762e-01) (36, 6.15756437182426452637e-02) (37, -1.04669071733951568604e-01) (38, -3.78783568739891052246e-02) (39, 1.78531095385551452637e-01) (40, -2.06631112098693847656e+00) (41, -4.16137278079986572266e-01) (42, -3.24425622820854187012e-02) (43, -1.27509962767362594604e-02) (44, -1.32092935964465141296e-02) (45, -6.64507448673248291016e-02) (46, 4.35005910694599151611e-02) (47, 2.11993232369422912598e-01) (48, -4.30464315414428710938e+00) (49, 3.81173372268676757812e-01) (50, -4.60069905966520309448e-03) (51, -9.93507727980613708496e-02) (52, 1.96094438433647155762e-02) (53, 2.18574535101652145386e-02) (54, -2.45275497436523437500e-02) (55, -6.75830766558647155762e-02) (56, -8.14291477203369140625e-01) (57, 3.72141569852828979492e-01) (58, 1.10529027879238128662e-01) (59, -3.04982308298349380493e-02) (60, 7.92475938796997070312e-02) (61, 7.71963456645607948303e-03) (62, 9.36419442296028137207e-02) (63, -1.22518621385097503662e-01) (64, -1.20029735565185546875e+00) (65, 6.45965218544006347656e-01) (66, 3.47189828753471374512e-02) (67, -1.76381871104240417480e-01) (68, 2.72039398550987243652e-02) (69, -5.75338825583457946777e-02) (70, -4.67332787811756134033e-02) (71, -9.72414091229438781738e-02) (72, -1.89403817057609558105e-02) (73, 1.66359804570674896240e-02) (74, 1.50036945939064025879e-01) (75, 2.23498065024614334106e-02) (76, 1.94887983798980712891e+00) (77, 1.25889211893081665039e-01) (78, 7.65339565277099609375e+00) (79, 6.85496181249618530273e-02) (80, 3.73225845396518707275e-02) (81, 2.63844467699527740479e-02) (82, 6.01403379440307617188e+00) (83, -2.80574318021535873413e-02) (73, 2.92971916496753692627e-03) (74, 2.32705846428871154785e-02) (75, -4.33389795944094657898e-03) (76, -1.00924685597419738770e-01) (77, -2.27535087615251541138e-02) (78, 3.57555329799652099609e-01) (79, -6.00819801911711692810e-03) (80, 4.33417130261659622192e-03) (81, 6.52579031884670257568e-03) (82, -9.77227017283439636230e-02) (83, 4.74757142364978790283e-02) 
