FANN_FLO_2.1
num_layers=3
learning_rate=0.700000
connection_rate=1.000000
network_type=0
learning_momentum=0.000000
training_algorithm=2
train_error_function=1
train_stop_function=0
cascade_output_change_fraction=0.010000
quickprop_decay=-0.000100
quickprop_mu=1.750000
rprop_increase_factor=1.200000
rprop_decrease_factor=0.500000
rprop_delta_min=0.000000
rprop_delta_max=50.000000
rprop_delta_zero=0.100000
cascade_output_stagnation_epochs=12
cascade_candidate_change_fraction=0.010000
cascade_candidate_stagnation_epochs=12
cascade_max_out_epochs=150
cascade_max_cand_epochs=150
cascade_num_candidate_groups=2
bit_fail_limit=3.49999994039535522461e-01
cascade_candidate_limit=1.00000000000000000000e+03
cascade_weight_multiplier=4.00000005960464477539e-01
cascade_activation_functions_count=10
cascade_activation_functions=3 5 7 8 10 11 14 15 16 17 
cascade_activation_steepnesses_count=4
cascade_activation_steepnesses=2.50000000000000000000e-01 5.00000000000000000000e-01 7.50000000000000000000e-01 1.00000000000000000000e+00 
layer_sizes=81 11 3 
scale_included=0
neurons (num_inputs, activation_function, activation_steepness)=(0, 0, 0.00000000000000000000e+00) (0, 0, 0.00000000000000000000e+00) (0, 0, 0.00000000000000000000e+00) (0, 0, 0.00000000000000000000e+00) (0, 0, 0.00000000000000000000e+00) (0, 0, 0.00000000000000000000e+00) (0, 0, 0.00000000000000000000e+00) (0, 0, 0.00000000000000000000e+00) (0, 0, 0.00000000000000000000e+00) (0, 0, 0.00000000000000000000e+00) (0, 0, 0.00000000000000000000e+00) (0, 0, 0.00000000000000000000e+00) (0, 0, 0.00000000000000000000e+00) (0, 0, 0.00000000000000000000e+00) (0, 0, 0.00000000000000000000e+00) (0, 0, 0.00000000000000000000e+00) (0, 0, 0.00000000000000000000e+00) (0, 0, 0.00000000000000000000e+00) (0, 0, 0.00000000000000000000e+00) (0, 0, 0.00000000000000000000e+00) (0, 0, 0.00000000000000000000e+00) (0, 0, 0.00000000000000000000e+00) (0, 0, 0.00000000000000000000e+00) (0, 0, 0.00000000000000000000e+00) (0, 0, 0.00000000000000000000e+00) (0, 0, 0.00000000000000000000e+00) (0, 0, 0.00000000000000000000e+00) (0, 0, 0.00000000000000000000e+00) (0, 0, 0.00000000000000000000e+00) (0, 0, 0.00000000000000000000e+00) (0, 0, 0.00000000000000000000e+00) (0, 0, 0.00000000000000000000e+00) (0, 0, 0.00000000000000000000e+00) (0, 0, 0.00000000000000000000e+00) (0, 0, 0.00000000000000000000e+00) (0, 0, 0.00000000000000000000e+00) (0, 0, 0.00000000000000000000e+00) (0, 0, 0.00000000000000000000e+00) (0, 0, 0.00000000000000000000e+00) (0, 0, 0.00000000000000000000e+00) (0, 0, 0.00000000000000000000e+00) (0, 0, 0.00000000000000000000e+00) (0, 0, 0.00000000000000000000e+00) (0, 0, 0.00000000000000000000e+00) (0, 0, 0.00000000000000000000e+00) (0, 0, 0.00000000000000000000e+00) (0, 0, 0.00000000000000000000e+00) (0, 0, 0.00000000000000000000e+00) (0, 0, 0.00000000000000000000e+00) (0, 0, 0.00000000000000000000e+00) (0, 0, 0.00000000000000000000e+00) (0, 0, 0.00000000000000000000e+00) (0, 0, 0.00000000000000000000e+00) (0, 0, 0.00000000000000000000e+00) (0, 0, 0.00000000000000000000e+00) (0, 0, 0.00000000000000000000e+00) (0, 0, 0.00000000000000000000e+00) (0, 0, 0.00000000000000000000e+00) (0, 0, 0.00000000000000000000e+00) (0, 0, 0.00000000000000000000e+00) (0, 0, 0.00000000000000000000e+00) (0, 0, 0.00000000000000000000e+00) (0, 0, 0.00000000000000000000e+00) (0, 0, 0.00000000000000000000e+00) (0, 0, 0.00000000000000000000e+00) (0, 0, 0.00000000000000000000e+00) (0, 0, 0.00000000000000000000e+00) (0, 0, 0.00000000000000000000e+00) (0, 0, 0.00000000000000000000e+00) (0, 0, 0.00000000000000000000e+00) (0, 0, 0.00000000000000000000e+00) (0, 0, 0.00000000000000000000e+00) (0, 0, 0.00000000000000000000e+00) (0, 0, 0.00000000000000000000e+00) (0, 0, 0.00000000000000000000e+00) (0, 0, 0.00000000000000000000e+00) (0, 0, 0.00000000000000000000e+00) (0, 0, 0.00000000000000000000e+00) (0, 0, 0.00000000000000000000e+00) (0, 0, 0.00000000000000000000e+00) (0, 0, 0.00000000000000000000e+00) (81, 5, 5.00000000000000000000e-01) (81, 5, 5.00000000000000000000e-01) (81, 5, 5.00000000000000000000e-01) (81, 5, 5.00000000000000000000e-01) (81, 5, 5.00000000000000000000e-01) (81, 5, 5.00000000000000000000e-01) (81, 5, 5.00000000000000000000e-01) (81, 5, 5.00000000000000000000e-01) (81, 5, 5.00000000000000000000e-01) (81, 5, 5.00000000000000000000e-01) (0, 5, 0.00000000000000000000e+00) (11, 11, 5.00000000000000000000e-01) (11, 11, 5.00000000000000000000e-01) (0, 11, 0.00000000000000000000e+00) 
connections (connected_to_neuron, weight)=(0, -2.85962045192718505859e-01) (1, 1.02903388977050781250e+02) (2, -2.84124493598937988281e-01) (3, -2.63535633087158203125e+01) (4, -3.65882992744445800781e-01) (5, 1.21711425781250000000e+02) (6, -2.32163801789283752441e-01) (7, 9.08093833923339843750e+00) (8, -2.34253957867622375488e-01) (9, -6.26224994659423828125e+00) (10, -3.56302618980407714844e-01) (11, -9.60340976715087890625e+00) (12, -2.40232214331626892090e-01) (13, 2.95460796356201171875e+01) (14, -2.93639779090881347656e-01) (15, 1.33663711547851562500e+01) (16, -3.52926492691040039062e-01) (17, 1.64005527496337890625e+01) (18, -3.23966503143310546875e-01) (19, 4.10247611999511718750e+01) (20, -2.26240530610084533691e-01) (21, -2.88515472412109375000e+01) (22, -1.77491545677185058594e-01) (23, 3.91334609985351562500e+01) (24, -2.08477258682250976562e-01) (25, 7.72261381149291992188e+00) (26, -3.19472104310989379883e-01) (27, -1.17497596740722656250e+01) (28, -2.29253545403480529785e-01) (29, -4.69364089965820312500e+01) (30, -3.66421967744827270508e-01) (31, 1.77132320404052734375e+01) (32, -1.83607459068298339844e-01) (33, -3.21520576477050781250e+01) (34, -3.51299434900283813477e-01) (35, 5.85294303894042968750e+01) (36, -2.47880801558494567871e-01) (37, -9.16618633270263671875e+00) (38, -2.26969674229621887207e-01) (39, 5.34841060638427734375e+00) (40, -2.01324328780174255371e-01) (41, -4.89372539520263671875e+00) (42, -3.43320965766906738281e-01) (43, 1.50377445220947265625e+01) (44, -2.58396178483963012695e-01) (45, -1.03949975967407226562e+01) (46, -3.35531622171401977539e-01) (47, 2.73475112915039062500e+01) (48, -1.93070426583290100098e-01) (49, -5.89513003826141357422e-01) (50, -2.62368500232696533203e-01) (51, 1.60569419860839843750e+01) (52, -1.76821574568748474121e-01) (53, -3.57025480270385742188e+00) (54, -1.88379943370819091797e-01) (55, 1.35772457122802734375e+01) (56, -2.67072021961212158203e-01) (57, 1.41750898361206054688e+01) (58, -2.86219924688339233398e-01) (59, 1.47440195083618164062e+01) (60, -3.34212094545364379883e-01) (61, 8.28644657135009765625e+00) (62, -3.06243777275085449219e-01) (63, -8.56921768188476562500e+00) (64, -3.63938033580780029297e-01) (65, 9.84194087982177734375e+00) (66, -3.62233072519302368164e-01) (67, 7.18480873107910156250e+00) (68, -3.29233676195144653320e-01) (69, 2.75283885002136230469e+00) (70, -1.84402212500572204590e-01) (71, -1.17688560485839843750e+01) (72, -2.30896890163421630859e-01) (73, 9.38860130310058593750e+00) (74, -2.75537103414535522461e-01) (75, 2.17320108413696289062e+00) (76, -2.55121707916259765625e-01) (77, -4.15906867980957031250e+01) (78, -1.91949516534805297852e-01) (79, -3.60485687255859375000e+01) (80, -3.55669915676116943359e-01) (0, 2.57694303989410400391e-01) (1, 1.70649089813232421875e+01) (2, 1.93019405007362365723e-01) (3, 9.57462406158447265625e+00) (4, 3.71539622545242309570e-01) (5, 9.04349288940429687500e+01) (6, 2.69852131605148315430e-01) (7, 7.69433736801147460938e+00) (8, 2.24461987614631652832e-01) (9, -4.38095331192016601562e-01) (10, 2.63654738664627075195e-01) (11, -9.32328605651855468750e+00) (12, 3.76222580671310424805e-01) (13, 2.09208774566650390625e+01) (14, 3.15942794084548950195e-01) (15, -1.52605037689208984375e+01) (16, 2.81822055578231811523e-01) (17, 2.36126937866210937500e+01) (18, 2.99589544534683227539e-01) (19, 9.41031455993652343750e+00) (20, 2.30344653129577636719e-01) (21, 1.57299671173095703125e+01) (22, 3.76508653163909912109e-01) (23, 4.39940786361694335938e+00) (24, 1.93680509924888610840e-01) (25, 9.73268795013427734375e+00) (26, 3.55321675539016723633e-01) (27, 1.30611276626586914062e+01) (28, 2.15504854917526245117e-01) (29, -1.49212417602539062500e+01) (30, 3.37009221315383911133e-01) (31, 2.71690082550048828125e+00) (32, 2.49531343579292297363e-01) (33, 7.30178785324096679688e+00) (34, 2.87077188491821289062e-01) (35, 1.50443382263183593750e+01) (36, 2.99567162990570068359e-01) (37, 3.40073037147521972656e+00) (38, 2.73921966552734375000e-01) (39, 2.59917430877685546875e+01) (40, 3.04729193449020385742e-01) (41, 5.19720458984375000000e+00) (42, 2.66461759805679321289e-01) (43, 3.12574535608291625977e-01) (44, 2.38264679908752441406e-01) (45, -9.95863342285156250000e+00) (46, 3.69877815246582031250e-01) (47, 1.20558433532714843750e+01) (48, 2.59414970874786376953e-01) (49, -3.10782575607299804688e+00) (50, 1.83947294950485229492e-01) (51, 5.05539178848266601562e+00) (52, 2.00918152928352355957e-01) (53, -1.27611274719238281250e+01) (54, 3.61821800470352172852e-01) (55, 1.31688518524169921875e+01) (56, 2.32923373579978942871e-01) (57, 2.24021220207214355469e+00) (58, 3.48638683557510375977e-01) (59, 1.47661876678466796875e+01) (60, 1.91486462950706481934e-01) (61, -3.47456474304199218750e+01) (62, 3.80872219800949096680e-01) (63, 5.42474508285522460938e+00) (64, 2.59529829025268554688e-01) (65, -7.86485671997070312500e+00) (66, 3.02732974290847778320e-01) (67, 7.55449581146240234375e+00) (68, 2.76834934949874877930e-01) (69, -4.58920707702636718750e+01) (70, 3.29189449548721313477e-01) (71, 6.08030891418457031250e+00) (72, 3.54885756969451904297e-01) (73, -1.46558737754821777344e+00) (74, 3.01800340414047241211e-01) (75, 3.76881927251815795898e-01) (76, 2.27209523320198059082e-01) (77, -1.77168560028076171875e+01) (78, 3.61056715250015258789e-01) (79, 2.34277400970458984375e+01) (80, 1.89381733536720275879e-01) (0, -3.68142223358154296875e+00) (1, 1.48779443359375000000e+03) (2, -3.84444069862365722656e+00) (3, -2.94318328857421875000e+02) (4, -3.85268831253051757812e+00) (5, -1.50000000000000000000e+03) (6, -3.84021162986755371094e+00) (7, -5.77473735809326171875e+00) (8, -3.86007261276245117188e+00) (9, 5.87984313964843750000e+01) (10, -3.69811820983886718750e+00) (11, -3.60636566162109375000e+02) (12, -3.76906681060791015625e+00) (13, -7.68032165527343750000e+02) (14, -3.86063456535339355469e+00) (15, 3.56572270393371582031e-01) (16, -3.71509623527526855469e+00) (17, -1.26842590332031250000e+02) (18, -3.77702045440673828125e+00) (19, 1.12634754180908203125e+01) (20, -3.73000097274780273438e+00) (21, -2.22757225036621093750e+01) (22, -3.72810125350952148438e+00) (23, -3.62393875122070312500e+01) (24, -3.84579277038574218750e+00) (25, -9.98559875488281250000e+01) (26, -3.86201071739196777344e+00) (27, -8.64544982910156250000e+01) (28, -3.73027944564819335938e+00) (29, 4.39686393737792968750e+00) (30, -3.73492002487182617188e+00) (31, -6.04002838134765625000e+01) (32, -3.71077275276184082031e+00) (33, -5.49326843261718750000e+02) (34, -3.77799701690673828125e+00) (35, -5.52056198120117187500e+01) (36, -3.66953134536743164062e+00) (37, -5.16031265258789062500e+00) (38, -3.73711252212524414062e+00) (39, -5.91999092102050781250e+01) (40, -3.85615181922912597656e+00) (41, -3.58410987854003906250e+01) (42, -3.73801279067993164062e+00) (43, -1.21773239135742187500e+02) (44, -3.73476791381835937500e+00) (45, -2.55073046684265136719e+00) (46, -3.76429891586303710938e+00) (47, -1.46846099853515625000e+02) (48, -3.74006342887878417969e+00) (49, -7.95450925827026367188e-01) (50, -3.82167482376098632812e+00) (51, -3.61433458328247070312e+00) (52, -3.77894592285156250000e+00) (53, 3.89859344482421875000e+02) (54, -3.84390234947204589844e+00) (55, -3.60877571105957031250e+01) (56, -3.73097157478332519531e+00) (57, -4.33472824096679687500e+00) (58, -3.84728860855102539062e+00) (59, 8.84149780273437500000e+01) (60, -3.72326517105102539062e+00) (61, -5.48611946105957031250e+01) (62, -3.67949724197387695312e+00) (63, -1.24456634521484375000e+01) (64, -3.76988697052001953125e+00) (65, 1.04043685913085937500e+02) (66, -3.81304121017456054688e+00) (67, 5.95599517822265625000e+01) (68, -3.68479633331298828125e+00) (69, 1.12640548706054687500e+02) (70, -3.76356363296508789062e+00) (71, -9.58098983764648437500e+01) (72, -3.78826498985290527344e+00) (73, 1.61898899078369140625e+01) (74, -3.77616572380065917969e+00) (75, -4.12594718933105468750e+01) (76, -3.69590091705322265625e+00) (77, 6.26174020767211914062e+00) (78, -3.77554178237915039062e+00) (79, -6.46531820297241210938e+00) (80, -3.69228887557983398438e+00) (0, 3.48872542381286621094e-02) (1, 8.84960842132568359375e+00) (2, -4.80494201183319091797e-02) (3, 2.43202060461044311523e-01) (4, 6.32715970277786254883e-02) (5, -1.24181966781616210938e+01) (6, -4.23055291175842285156e-02) (7, 8.00352859497070312500e+00) (8, 6.90300166606903076172e-02) (9, 6.66539907455444335938e+00) (10, 1.49229895323514938354e-02) (11, -5.88800609111785888672e-01) (12, 1.30311017856001853943e-02) (13, -4.13416719436645507812e+00) (14, -6.49999901652336120605e-02) (15, 1.06955981254577636719e+00) (16, -3.90630848705768585205e-02) (17, -1.40987169742584228516e+00) (18, 6.05148449540138244629e-02) (19, -9.21684265136718750000e-01) (20, -7.16133937239646911621e-02) (21, -6.46666097640991210938e+00) (22, 3.57883684337139129639e-02) (23, -4.70952367782592773438e+00) (24, -7.00457915663719177246e-02) (25, -3.19561100006103515625e+00) (26, -7.56416544318199157715e-02) (27, -1.53936290740966796875e+00) (28, -7.33733624219894409180e-02) (29, -1.70137178897857666016e+00) (30, 9.21489372849464416504e-02) (31, -1.74948596954345703125e+01) (32, -3.35056036710739135742e-02) (33, -8.50918865203857421875e+00) (34, -1.89075227826833724976e-02) (35, -1.47254407405853271484e+00) (36, -9.54450741410255432129e-02) (37, 1.71520245075225830078e+00) (38, -7.72862061858177185059e-02) (39, -1.12105236053466796875e+01) (40, -3.55881787836551666260e-02) (41, 1.34113705158233642578e+00) (42, 1.93993337452411651611e-02) (43, -2.79325222969055175781e+00) (44, 6.99928626418113708496e-02) (45, 3.97623658180236816406e+00) (46, 7.99360647797584533691e-02) (47, -1.69393968582153320312e+00) (48, -1.80415753275156021118e-02) (49, 1.19189214706420898438e+00) (50, -2.19286838546395301819e-03) (51, -3.53971958160400390625e+00) (52, -9.23389010131359100342e-03) (53, 4.60025453567504882812e+00) (54, 9.03160423040390014648e-02) (55, 4.29398632049560546875e+00) (56, 7.89310857653617858887e-02) (57, 2.17987751960754394531e+00) (58, 3.50925028324127197266e-02) (59, -7.30888080596923828125e+00) (60, 4.04164269566535949707e-02) (61, 7.58316576480865478516e-01) (62, 8.83567780256271362305e-02) (63, 1.24784982204437255859e+00) (64, 8.19937363266944885254e-02) (65, 4.26564931869506835938e+00) (66, -6.81646019220352172852e-02) (67, -3.57754588127136230469e-01) (68, -7.70518109202384948730e-02) (69, -4.34073805809020996094e-01) (70, 9.29988548159599304199e-02) (71, 2.90510869026184082031e+00) (72, -8.31033214926719665527e-02) (73, 2.17893862724304199219e+00) (74, -1.87266967259347438812e-03) (75, -3.30961555242538452148e-01) (76, -1.42835201695561408997e-02) (77, 5.32306289672851562500e+00) (78, -5.04024252295494079590e-02) (79, 4.66793680191040039062e+00) (80, -7.20458775758743286133e-02) (0, -1.18649911880493164062e+00) (1, 2.71229248046875000000e+02) (2, -1.22967624664306640625e+00) (3, -1.35897521972656250000e+02) (4, -1.24815356731414794922e+00) (5, -4.03858581542968750000e+02) (6, -1.33985531330108642578e+00) (7, -9.26412200927734375000e+01) (8, -1.34706687927246093750e+00) (9, -2.94132828712463378906e+00) (10, -1.28256142139434814453e+00) (11, -5.98808631896972656250e+01) (12, -1.32540082931518554688e+00) (13, -1.29848571777343750000e+02) (14, -1.19295203685760498047e+00) (15, 1.84749336242675781250e+01) (16, -1.21476984024047851562e+00) (17, 8.49235839843750000000e+01) (18, -1.22205996513366699219e+00) (19, 7.75424814224243164062e+00) (20, -1.19958400726318359375e+00) (21, -8.11951279640197753906e-01) (22, -1.31556057929992675781e+00) (23, -2.27950916290283203125e+01) (24, -1.21098697185516357422e+00) (25, -3.47111930847167968750e+01) (26, -1.18893659114837646484e+00) (27, -1.40091714859008789062e+01) (28, -1.26273453235626220703e+00) (29, 6.44124671816825866699e-02) (30, -1.29164719581604003906e+00) (31, 4.86878547668457031250e+01) (32, -1.28710103034973144531e+00) (33, 6.66433105468750000000e+01) (34, -1.27731263637542724609e+00) (35, 4.45085449218750000000e+01) (36, -1.31047022342681884766e+00) (37, -1.73140106201171875000e+01) (38, -1.25024235248565673828e+00) (39, -3.41247100830078125000e+01) (40, -1.22311544418334960938e+00) (41, -9.37879791259765625000e+01) (42, -1.34691333770751953125e+00) (43, -4.91477622985839843750e+01) (44, -1.29179358482360839844e+00) (45, -3.96221995353698730469e-01) (46, -1.28535866737365722656e+00) (47, -7.36879653930664062500e+01) (48, -1.23168957233428955078e+00) (49, -2.53019762039184570312e+00) (50, -1.34736597537994384766e+00) (51, 1.21823854446411132812e+01) (52, -1.31291520595550537109e+00) (53, 3.44084320068359375000e+01) (54, -1.19716262817382812500e+00) (55, -2.62168903350830078125e+01) (56, -1.26825869083404541016e+00) (57, -4.42396697998046875000e+01) (58, -1.34195435047149658203e+00) (59, 2.36636028289794921875e+01) (60, -1.27752244472503662109e+00) (61, 1.30565551757812500000e+02) (62, -1.31513667106628417969e+00) (63, 7.01097488403320312500e+01) (64, -1.28855085372924804688e+00) (65, -6.37330436706542968750e+01) (66, -1.23806214332580566406e+00) (67, 5.22388114929199218750e+01) (68, -1.34236085414886474609e+00) (69, 3.15074710845947265625e+01) (70, -1.18913638591766357422e+00) (71, 1.19785852432250976562e+01) (72, -1.35401988029479980469e+00) (73, 4.75017433166503906250e+01) (74, -1.24855315685272216797e+00) (75, -6.88481369018554687500e+01) (76, -1.21530294418334960938e+00) (77, -4.80980110168457031250e+00) (78, -1.29274237155914306641e+00) (79, 1.94676094055175781250e+01) (80, -1.17721772193908691406e+00) (0, 5.97965419292449951172e-01) (1, 3.93223762512207031250e+01) (2, 5.43962180614471435547e-01) (3, -2.67695293426513671875e+01) (4, 6.23801529407501220703e-01) (5, -7.88481674194335937500e+01) (6, 5.33215284347534179688e-01) (7, -1.93585540771484375000e+02) (8, 5.45007705688476562500e-01) (9, -4.97953462600708007812e+00) (10, 6.24549448490142822266e-01) (11, -3.70380592346191406250e+01) (12, 5.52735507488250732422e-01) (13, -8.36979446411132812500e+01) (14, 6.94120407104492187500e-01) (15, -1.46175727844238281250e+01) (16, 6.87400460243225097656e-01) (17, 3.34955096244812011719e+00) (18, 6.83978438377380371094e-01) (19, -1.63631477355957031250e+01) (20, 5.71241557598114013672e-01) (21, -8.93289327621459960938e-01) (22, 7.14273810386657714844e-01) (23, -3.86995172500610351562e+00) (24, 5.35372257232666015625e-01) (25, 3.27352857589721679688e+00) (26, 6.85897767543792724609e-01) (27, 1.45755805969238281250e+01) (28, 6.39033734798431396484e-01) (29, 1.86253326416015625000e+02) (30, 6.90734088420867919922e-01) (31, 9.87677288055419921875e+00) (32, 6.90970122814178466797e-01) (33, -2.80402603149414062500e+01) (34, 6.30294084548950195312e-01) (35, 2.71978378295898437500e+01) (36, 7.16553449630737304688e-01) (37, -3.95444564819335937500e+01) (38, 6.14863932132720947266e-01) (39, 2.01877822875976562500e+01) (40, 6.27713203430175781250e-01) (41, -5.53723297119140625000e+01) (42, 6.38724148273468017578e-01) (43, -3.49705100059509277344e+00) (44, 5.61306774616241455078e-01) (45, 1.79012470245361328125e+01) (46, 6.04548156261444091797e-01) (47, 7.70832014083862304688e+00) (48, 6.89502418041229248047e-01) (49, 2.96535472869873046875e+01) (50, 7.13253855705261230469e-01) (51, -3.12841606140136718750e+01) (52, 6.67600393295288085938e-01) (53, 3.00575847625732421875e+01) (54, 5.60576617717742919922e-01) (55, -8.40983486175537109375e+00) (56, 5.55300533771514892578e-01) (57, -5.38344812393188476562e+00) (58, 6.65161252021789550781e-01) (59, 1.82931652069091796875e+01) (60, 5.47056853771209716797e-01) (61, 9.00981216430664062500e+01) (62, 6.59096777439117431641e-01) (63, 1.27878551483154296875e+01) (64, 6.17180645465850830078e-01) (65, 1.17992525100708007812e+01) (66, 5.78879356384277343750e-01) (67, -9.95151710510253906250e+00) (68, 6.79967105388641357422e-01) (69, -2.59999809265136718750e+01) (70, 6.24948024749755859375e-01) (71, -1.50069749355316162109e+00) (72, 6.61219477653503417969e-01) (73, 2.92849731445312500000e+00) (74, 7.15455532073974609375e-01) (75, -4.40721931457519531250e+01) (76, 6.23540699481964111328e-01) (77, -1.00948730468750000000e+02) (78, 6.99068069458007812500e-01) (79, 1.30857448577880859375e+01) (80, 6.34362578392028808594e-01) (0, 5.49802742898464202881e-02) (1, -4.11805200576782226562e+00) (2, -5.81185854971408843994e-02) (3, -4.11235302686691284180e-01) (4, 4.78820782154798507690e-03) (5, 6.88105916976928710938e+00) (6, 6.60308003425598144531e-02) (7, -4.53414297103881835938e+00) (8, 3.88002619147300720215e-02) (9, -3.64041023254394531250e+01) (10, 2.26475279778242111206e-02) (11, -8.69631648063659667969e-01) (12, -5.48252314329147338867e-02) (13, 2.80102252960205078125e+00) (14, 4.10278365015983581543e-02) (15, 4.06387401744723320007e-03) (16, 6.58161863684654235840e-02) (17, 1.27833938598632812500e+00) (18, -6.00354112684726715088e-02) (19, -1.97807386517524719238e-01) (20, 2.46589928865432739258e-02) (21, 5.37450790405273437500e+00) (22, -4.75725755095481872559e-02) (23, 9.75920855998992919922e-02) (24, -8.46264977008104324341e-03) (25, 6.87255954742431640625e+00) (26, -6.33706972002983093262e-02) (27, -7.70268976688385009766e-01) (28, -1.00978650152683258057e-01) (29, 6.06191682815551757812e+00) (30, -2.61943005025386810303e-02) (31, 4.36625719070434570312e-01) (32, 8.10399949550628662109e-02) (33, 1.53517417907714843750e+01) (34, 4.25492413341999053955e-03) (35, -6.17265403270721435547e-01) (36, 3.35256718099117279053e-02) (37, 1.62417423725128173828e+00) (38, -9.11548584699630737305e-02) (39, 6.03569173812866210938e+00) (40, -9.92806330323219299316e-02) (41, 7.23117411136627197266e-01) (42, 3.59617769718170166016e-02) (43, -8.93297851085662841797e-01) (44, -3.49428020417690277100e-02) (45, -2.98894858360290527344e+00) (46, 5.17532974481582641602e-02) (47, 2.29431986808776855469e+00) (48, 2.15011034160852432251e-02) (49, 4.79904592037200927734e-01) (50, 6.44365325570106506348e-02) (51, 1.56704151630401611328e+00) (52, 1.06155220419168472290e-02) (53, -2.42280626296997070312e+00) (54, -9.42119210958480834961e-02) (55, -2.28040122985839843750e+00) (56, -4.02755662798881530762e-02) (57, -2.64042079448699951172e-01) (58, 7.83989578485488891602e-02) (59, 4.62753963470458984375e+00) (60, 6.49746432900428771973e-02) (61, -3.00002884864807128906e+00) (62, -5.91585300862789154053e-02) (63, 1.14981651306152343750e+00) (64, -1.01576477289199829102e-01) (65, -2.18274950981140136719e+00) (66, -4.38005961477756500244e-02) (67, -3.09171938896179199219e+00) (68, -5.60149811208248138428e-02) (69, 8.33522021770477294922e-01) (70, -6.61024600267410278320e-02) (71, -5.19129467010498046875e+00) (72, -7.40663036704063415527e-02) (73, -5.61964035034179687500e+00) (74, 1.63288172334432601929e-02) (75, 1.28465151786804199219e+00) (76, -2.36556828022003173828e-02) (77, -1.76870632171630859375e+00) (78, 5.22091463208198547363e-02) (79, -5.72313070297241210938e+00) (80, -1.46532068029046058655e-02) (0, 5.97573399543762207031e-01) (1, -3.26427192687988281250e+01) (2, 4.74223196506500244141e-01) (3, 3.42899203300476074219e+00) (4, 5.54448664188385009766e-01) (5, -2.49912612915039062500e+02) (6, 5.03923296928405761719e-01) (7, -1.84368743896484375000e+01) (8, 4.81850653886795043945e-01) (9, -5.30342445373535156250e+01) (10, 5.87440729141235351562e-01) (11, -2.17511997222900390625e+01) (12, 6.28018796443939208984e-01) (13, -9.01606559753417968750e+00) (14, 5.68915188312530517578e-01) (15, 1.35361537337303161621e-01) (16, 6.16285383701324462891e-01) (17, -8.62584018707275390625e+00) (18, 6.42241597175598144531e-01) (19, -2.81645660400390625000e+01) (20, 5.59809446334838867188e-01) (21, -3.51206550598144531250e+01) (22, 5.38233816623687744141e-01) (23, 1.07340526580810546875e+01) (24, 6.30272984504699707031e-01) (25, -1.67341365814208984375e+01) (26, 6.31030559539794921875e-01) (27, -4.12466697692871093750e+01) (28, 6.04554772377014160156e-01) (29, 1.05161514282226562500e+02) (30, 6.12202882766723632812e-01) (31, 5.03950786590576171875e+00) (32, 5.27085244655609130859e-01) (33, 3.78224792480468750000e+01) (34, 5.12108623981475830078e-01) (35, -5.85114955902099609375e+00) (36, 6.55651271343231201172e-01) (37, 3.61664428710937500000e+01) (38, 5.74654638767242431641e-01) (39, 2.42681956291198730469e+00) (40, 4.71752554178237915039e-01) (41, 2.12786369323730468750e+01) (42, 5.75659453868865966797e-01) (43, -8.91194438934326171875e+00) (44, 5.89518189430236816406e-01) (45, -9.81618881225585937500e+00) (46, 5.70448935031890869141e-01) (47, -5.91997871398925781250e+01) (48, 5.39324939250946044922e-01) (49, 1.96680011749267578125e+01) (50, 5.82753002643585205078e-01) (51, 5.53116703033447265625e+00) (52, 5.93329131603240966797e-01) (53, 4.37199497222900390625e+00) (54, 5.25943815708160400391e-01) (55, -1.83122005462646484375e+01) (56, 6.43339455127716064453e-01) (57, -8.28737640380859375000e+00) (58, 6.11405849456787109375e-01) (59, -3.08660221099853515625e+01) (60, 4.81655061244964599609e-01) (61, 1.86764221191406250000e+01) (62, 4.68549340963363647461e-01) (63, 9.06545104980468750000e+01) (64, 5.27843832969665527344e-01) (65, -7.87577342987060546875e+00) (66, 5.00240266323089599609e-01) (67, -8.34022617340087890625e+00) (68, 6.11996114253997802734e-01) (69, 5.24987487792968750000e+01) (70, 5.39877712726593017578e-01) (71, 2.50576648712158203125e+01) (72, 6.52657687664031982422e-01) (73, -2.23071098327636718750e+01) (74, 5.97615897655487060547e-01) (75, 2.08809185028076171875e+00) (76, 4.77479755878448486328e-01) (77, -7.79782791137695312500e+01) (78, 4.62312698364257812500e-01) (79, -8.60025119781494140625e+00) (80, 5.92007637023925781250e-01) (0, 1.00952339172363281250e+00) (1, -8.97370910644531250000e+01) (2, 9.47598397731781005859e-01) (3, 6.37524185180664062500e+01) (4, 1.01726937294006347656e+00) (5, 1.88515701293945312500e+02) (6, 9.91208195686340332031e-01) (7, 2.84337463378906250000e+01) (8, 9.51669752597808837891e-01) (9, -8.70218944549560546875e+00) (10, 1.06851017475128173828e+00) (11, 3.47357869148254394531e-01) (12, 9.22272741794586181641e-01) (13, 1.62734664916992187500e+02) (14, 9.67070579528808593750e-01) (15, 1.21622629165649414062e+01) (16, 9.93647634983062744141e-01) (17, -2.73575115203857421875e+00) (18, 9.25029695034027099609e-01) (19, -3.63556365966796875000e+01) (20, 9.05254840850830078125e-01) (21, 8.68851661682128906250e+00) (22, 9.33465301990509033203e-01) (23, 6.15874519348144531250e+01) (24, 1.02063596248626708984e+00) (25, -1.06776456832885742188e+01) (26, 9.11149919033050537109e-01) (27, 1.53339700698852539062e+01) (28, 1.05086350440979003906e+00) (29, -1.08645734786987304688e+01) (30, 9.93817985057830810547e-01) (31, 5.68982601165771484375e+00) (32, 1.06984877586364746094e+00) (33, -5.10140724182128906250e+01) (34, 8.99483621120452880859e-01) (35, -4.19493064880371093750e+01) (36, 1.01459586620330810547e+00) (37, 2.52936434745788574219e+00) (38, 9.62851405143737792969e-01) (39, 3.41077899932861328125e+00) (40, 1.03544521331787109375e+00) (41, -3.49445762634277343750e+01) (42, 9.46532249450683593750e-01) (43, 4.70885038375854492188e+00) (44, 1.00968623161315917969e+00) (45, 1.31184065341949462891e+00) (46, 9.61282014846801757812e-01) (47, 5.79842233657836914062e+00) (48, 9.68724370002746582031e-01) (49, -5.25059776306152343750e+01) (50, 9.75249171257019042969e-01) (51, 2.24662914276123046875e+01) (52, 9.98738527297973632812e-01) (53, -1.29916059970855712891e+00) (54, 9.98666524887084960938e-01) (55, 2.65162849426269531250e+00) (56, 9.88623023033142089844e-01) (57, -3.68444061279296875000e+00) (58, 9.13346767425537109375e-01) (59, 1.98836708068847656250e+01) (60, 9.38367366790771484375e-01) (61, -1.70257532596588134766e+00) (62, 1.04138708114624023438e+00) (63, -3.78701949119567871094e+00) (64, 9.89206910133361816406e-01) (65, 2.61786231994628906250e+01) (66, 1.03846704959869384766e+00) (67, 5.66861953735351562500e+01) (68, 9.71751749515533447266e-01) (69, 2.67903518676757812500e+00) (70, 9.58984434604644775391e-01) (71, 3.41391639709472656250e+01) (72, 9.72602903842926025391e-01) (73, -3.69535217285156250000e+01) (74, 9.06017363071441650391e-01) (75, 3.89563789367675781250e+01) (76, 9.59089815616607666016e-01) (77, -8.81432414054870605469e-01) (78, 9.26545083522796630859e-01) (79, -7.94022941589355468750e+00) (80, 8.96415948867797851562e-01) (0, 3.26665602624416351318e-02) (1, -7.39370193481445312500e+01) (2, 2.74092946201562881470e-02) (3, -8.42545449733734130859e-01) (4, 7.63446912169456481934e-02) (5, 1.13176765441894531250e+01) (6, 7.11030066013336181641e-02) (7, 2.30366363525390625000e+01) (8, 9.99289974570274353027e-02) (9, 1.86961097717285156250e+01) (10, 6.65902122855186462402e-02) (11, 5.07653772830963134766e-01) (12, 9.29796025156974792480e-02) (13, 4.93579149246215820312e+00) (14, -6.47921189665794372559e-02) (15, 2.32203459739685058594e+00) (16, 5.12042082846164703369e-02) (17, 4.03436517715454101562e+00) (18, -5.26677444577217102051e-02) (19, 2.65864223241806030273e-01) (20, 3.89675237238407135010e-02) (21, 8.56993865966796875000e+00) (22, -3.30018550157546997070e-02) (23, 1.09508991241455078125e+00) (24, -1.84141509234905242920e-02) (25, 3.90403008460998535156e+00) (26, 4.50637191534042358398e-02) (27, 5.96173346042633056641e-01) (28, 1.77796818315982818604e-02) (29, -1.72797632217407226562e+00) (30, -9.40564274787902832031e-02) (31, 1.53525466918945312500e+01) (32, 5.90231716632843017578e-02) (33, 5.70302581787109375000e+00) (34, 9.61517449468374252319e-03) (35, 5.79588949680328369141e-01) (36, -1.30467361304908990860e-03) (37, -4.04643726348876953125e+00) (38, -6.04537352919578552246e-02) (39, 1.87762928009033203125e+00) (40, -1.15040354430675506592e-02) (41, 1.81048500537872314453e+00) (42, -7.93768018484115600586e-02) (43, 2.86663937568664550781e+00) (44, 9.85169187188148498535e-02) (45, -2.77523422241210937500e+00) (46, -4.82834130525588989258e-02) (47, 3.73289179801940917969e+00) (48, -7.83712789416313171387e-03) (49, -3.96150976419448852539e-01) (50, 1.97074990719556808472e-02) (51, 1.30659294128417968750e+00) (52, 7.03979879617691040039e-02) (53, -8.58595943450927734375e+00) (54, 1.17970295250415802002e-02) (55, 1.45364001393318176270e-01) (56, -6.56780153512954711914e-02) (57, -2.66843914985656738281e+00) (58, -6.47849515080451965332e-02) (59, 5.95940876007080078125e+00) (60, 4.79632802307605743408e-02) (61, -8.37192475795745849609e-01) (62, -9.24193859100341796875e-02) (63, 5.44361993670463562012e-02) (64, 6.13763071596622467041e-02) (65, -7.14672899246215820312e+00) (66, -9.23399403691291809082e-02) (67, 4.46657943725585937500e+00) (68, 8.29834118485450744629e-02) (69, -3.09075498580932617188e+00) (70, 6.24184571206569671631e-02) (71, 1.43946337699890136719e+00) (72, -6.11616522073745727539e-02) (73, 4.91607517004013061523e-01) (74, 7.50999674201011657715e-02) (75, -1.17373967170715332031e+00) (76, -7.55978301167488098145e-02) (77, -9.46055126190185546875e+00) (78, 9.14556458592414855957e-02) (79, 1.50204157829284667969e+00) (80, 1.02489776909351348877e-02) (81, -9.00119628906250000000e+01) (82, 1.06248893737792968750e+02) (83, 4.25811201333999633789e-01) (84, -6.49987745285034179688e+00) (85, 9.85117971897125244141e-01) (86, 7.50665807723999023438e+00) (87, -3.22133755683898925781e+00) (88, 2.07144966125488281250e+01) (89, 4.92947864532470703125e+00) (90, -9.40262615680694580078e-01) (91, 6.82581043243408203125e+00) (81, -6.76739066839218139648e-02) (82, -2.44432061910629272461e-01) (83, 1.05860367417335510254e-01) (84, 6.55446946620941162109e-01) (85, 3.27427268028259277344e-01) (86, 4.40172135829925537109e-01) (87, 4.82433617115020751953e-01) (88, 2.83230692148208618164e-01) (89, -3.64183545112609863281e-01) (90, 3.47583234310150146484e-01) (91, 3.07423144578933715820e-01) 
